tree
version=v3
num_class=1
num_tree_per_iteration=1
label_index=0
max_feature_idx=0
objective=regression
feature_names=Column_0
feature_infos=[5:56]
tree_sizes=669 662 663 660 662 663 662 665 665 664 664 665 667 666 666 669 668 671 667 670

Tree=0
num_leaves=6
num_cat=0
split_feature=0 0 0 0 0
split_gain=102.977 44.4121 22.1057 13.2357 0.769558
threshold=14.000000000000002 40.500000000000007 9.0000000000000018 22.000000000000004 31.000000000000004
decision_type=2 2 2 2 2
left_child=2 3 -1 -2 -5
right_child=1 -3 -4 4 -6
leaf_value=0.013985644394129118 0.008758560194543321 -0.0022908607329166306 -0.0045107761097108838 0.022620479632042605 0.019279932397072694
leaf_weight=168 312 404 4198 390 309
leaf_count=168 312 404 4198 390 309
internal_value=-1.05199e-10 0.011722 -0.00379905 0.0173216 0.0211438
internal_weight=0 1415 4366 1011 699
internal_count=5781 1415 4366 1011 699
is_linear=0
shrinkage=1


Tree=1
num_leaves=6
num_cat=0
split_feature=0 0 0 0 0
split_gain=92.9367 40.0819 19.9504 11.9452 0.694526
threshold=14.000000000000002 40.500000000000007 9.0000000000000018 22.000000000000004 31.000000000000004
decision_type=2 2 2 2 2
left_child=2 3 -1 -2 -5
right_child=1 -3 -4 4 -6
leaf_value=0.013286362652018267 0.0083206325664949149 -0.0021763177067594657 -0.0042852373229011224 0.021489456283430068 0.018315935102977087
leaf_weight=168 312 404 4198 390 309
leaf_count=168 312 404 4198 390 309
internal_value=0 0.0111359 -0.0036091 0.0164555 0.0200866
internal_weight=0 1415 4366 1011 699
internal_count=5781 1415 4366 1011 699
is_linear=0
shrinkage=0.05


Tree=2
num_leaves=6
num_cat=0
split_feature=0 0 0 0 0
split_gain=83.8754 36.1739 18.0052 10.7806 0.626809
threshold=14.000000000000002 40.500000000000007 9.0000000000000018 22.000000000000004 31.000000000000004
decision_type=2 2 2 2 2
left_child=2 3 -1 -2 -5
right_child=1 -3 -4 4 -6
leaf_value=0.012622044551452355 0.0079046002479373836 -0.0020675023294418203 -0.0040709757198213112 0.020414983286068611 0.017400139544014506
leaf_weight=168 312 404 4198 390 309
leaf_count=168 312 404 4198 390 309
internal_value=0 0.0105791 -0.00342864 0.0156328 0.0190822
internal_weight=0 1415 4366 1011 699
internal_count=5781 1415 4366 1011 699
is_linear=0
shrinkage=0.05


Tree=3
num_leaves=6
num_cat=0
split_feature=0 0 0 0 0
split_gain=75.6975 32.647 16.2497 9.72944 0.565696
threshold=14.000000000000002 40.500000000000007 9.0000000000000018 22.000000000000004 31.000000000000004
decision_type=2 2 2 2 2
left_child=2 3 -1 -2 -5
right_child=1 -3 -4 4 -6
leaf_value=0.011990941262670926 0.0075093713676324114 -0.0019641262558657713 -0.00386742678507071 0.019394233820912168 0.016530132095983498
leaf_weight=168 312 404 4198 390 309
leaf_count=168 312 404 4198 390 309
internal_value=0 0.0100502 -0.00325721 0.0148511 0.0181281
internal_weight=0 1415 4366 1011 699
internal_count=5781 1415 4366 1011 699
is_linear=0
shrinkage=0.05


Tree=4
num_leaves=6
num_cat=0
split_feature=0 0 0 0 0
split_gain=68.317 29.4639 14.6653 8.78082 0.51054
threshold=14.000000000000002 40.500000000000007 9.0000000000000018 22.000000000000004 31.000000000000004
decision_type=2 2 2 2 2
left_child=2 3 -1 -2 -5
right_child=1 -3 -4 4 -6
leaf_value=0.011391394908319594 0.0071339025914382475 -0.0018659205196107195 -0.0036740559059915789 0.018424522080443775 0.015703625626361729
leaf_weight=168 312 404 4198 390 309
leaf_count=168 312 404 4198 390 309
internal_value=0 0.00954765 -0.00309435 0.0141086 0.0172217
internal_weight=0 1415 4366 1011 699
internal_count=5781 1415 4366 1011 699
is_linear=0
shrinkage=0.05


Tree=5
num_leaves=6
num_cat=0
split_feature=0 0 0 0 0
split_gain=61.6561 26.5911 13.2355 7.92469 0.460763
threshold=14.000000000000002 40.500000000000007 9.0000000000000018 22.000000000000004 31.000000000000004
decision_type=2 2 2 2 2
left_child=2 3 -1 -2 -5
right_child=1 -3 -4 4 -6
leaf_value=0.010821824894464087 0.0067772067596729938 -0.0017726233545509236 -0.0034903522638931057 0.01750329638568637 0.014918444689376803
leaf_weight=168 312 404 4198 390 309
leaf_count=168 312 404 4198 390 309
internal_value=0 0.00907027 -0.00293963 0.0134031 0.0163606
internal_weight=0 1415 4366 1011 699
internal_count=5781 1415 4366 1011 699
is_linear=0
shrinkage=0.05


Tree=6
num_leaves=6
num_cat=0
split_feature=0 0 0 0 0
split_gain=55.6446 23.9985 11.945 7.15204 0.415838
threshold=14.000000000000002 40.500000000000007 9.0000000000000018 22.000000000000004 31.000000000000004
decision_type=2 2 2 2 2
left_child=2 3 -1 -2 -5
right_child=1 -3 -4 4 -6
leaf_value=0.010280733903138233 0.0064383467038472489 -0.0016839940079224486 -0.0033158345567040311 0.016628130872566729 0.014172522195623916
leaf_weight=168 312 404 4198 390 309
leaf_count=168 312 404 4198 390 309
internal_value=0 0.00861676 -0.00279265 0.012733 0.0155426
internal_weight=0 1415 4366 1011 699
internal_count=5781 1415 4366 1011 699
is_linear=0
shrinkage=0.05


Tree=7
num_leaves=6
num_cat=0
split_feature=0 0 0 0 0
split_gain=50.2193 21.6587 10.7804 6.45471 0.375294
threshold=14.000000000000002 40.500000000000007 9.0000000000000018 22.000000000000004 31.000000000000004
decision_type=2 2 2 2 2
left_child=2 3 -1 -2 -5
right_child=1 -3 -4 4 -6
leaf_value=0.0097666969744577298 0.0061164291915841978 -0.0015997929612663346 -0.0031500433693820076 0.015796724819482712 0.013463895535548626
leaf_weight=168 312 404 4198 390 309
leaf_count=168 312 404 4198 390 309
internal_value=0 0.00818592 -0.00265302 0.0120963 0.0147655
internal_weight=0 1415 4366 1011 699
internal_count=5781 1415 4366 1011 699
is_linear=0
shrinkage=0.05


Tree=8
num_leaves=6
num_cat=0
split_feature=0 0 0 0 0
split_gain=45.3229 19.5469 9.72929 5.82538 0.338703
threshold=14.000000000000002 40.500000000000007 9.0000000000000018 22.000000000000004 31.000000000000004
decision_type=2 2 2 2 2
left_child=2 3 -1 -2 -5
right_child=1 -3 -4 4 -6
leaf_value=0.0092783623330649889 0.0058106082781122469 -0.0015198032459587615 -0.0029925405628523972 0.015006888335487113 0.012790701829777085
leaf_weight=168 312 404 4198 390 309
leaf_count=168 312 404 4198 390 309
internal_value=0 0.00777662 -0.00252037 0.0114915 0.0140272
internal_weight=0 1415 4366 1011 699
internal_count=5781 1415 4366 1011 699
is_linear=0
shrinkage=0.05


Tree=9
num_leaves=6
num_cat=0
split_feature=0 0 0 0 0
split_gain=40.9039 17.6411 8.78068 5.2574 0.305679
threshold=14.000000000000002 40.500000000000007 9.0000000000000018 22.000000000000004 31.000000000000004
decision_type=2 2 2 2 2
left_child=2 3 -1 -2 -5
right_child=1 -3 -4 4 -6
leaf_value=0.0088144446623378576 0.0055200774965879435 -0.0014438133759396427 -0.0028429136057674938 0.014256543327146806 0.012151165344243008
leaf_weight=168 312 404 4198 390 309
leaf_count=168 312 404 4198 390 309
internal_value=0 0.00738779 -0.00239435 0.0109169 0.0133258
internal_weight=0 1415 4366 1011 699
internal_count=5781 1415 4366 1011 699
is_linear=0
shrinkage=0.05


Tree=10
num_leaves=6
num_cat=0
split_feature=0 0 0 0 0
split_gain=36.9158 15.9211 7.92457 4.74481 0.275876
threshold=14.000000000000002 40.500000000000007 9.0000000000000018 22.000000000000004 31.000000000000004
decision_type=2 2 2 2 2
left_child=2 3 -1 -2 -5
right_child=1 -3 -4 4 -6
leaf_value=0.0083737225571115098 0.0052440734832392387 -0.0013716238176886405 -0.002700768013384057 0.013543717154325584 0.011543607620242079
leaf_weight=168 312 404 4198 390 309
leaf_count=168 312 404 4198 390 309
internal_value=0 0.0070184 -0.00227463 0.0103711 0.0126595
internal_weight=0 1415 4366 1011 699
internal_count=5781 1415 4366 1011 699
is_linear=0
shrinkage=0.05


Tree=11
num_leaves=6
num_cat=0
split_feature=0 0 0 0 0
split_gain=33.3165 14.3688 7.15192 4.28219 0.248978
threshold=14.000000000000002 40.500000000000007 9.0000000000000018 22.000000000000004 31.000000000000004
decision_type=2 2 2 2 2
left_child=2 3 -1 -2 -5
right_child=1 -3 -4 4 -6
leaf_value=0.007955036483638522 0.0049818689890134228 -0.0013030410587636636 -0.0025657296444170918 0.012866530706867194 0.010966427259834356
leaf_weight=168 312 404 4198 390 309
leaf_count=168 312 404 4198 390 309
internal_value=0 0.00666748 -0.0021609 0.00985254 0.0120266
internal_weight=0 1415 4366 1011 699
internal_count=5781 1415 4366 1011 699
is_linear=0
shrinkage=0.05


Tree=12
num_leaves=6
num_cat=0
split_feature=0 0 0 0 0
split_gain=30.0681 12.9678 6.45461 3.86467 0.224703
threshold=14.000000000000002 40.500000000000007 9.0000000000000018 22.000000000000004 31.000000000000004
decision_type=2 2 2 2 2
left_child=2 3 -1 -2 -5
right_child=1 -3 -4 4 -6
leaf_value=0.0075572838901453434 0.0047327771321691295 -0.0012378901310350361 -0.0024374425792971226 0.012223204515713196 0.010418105377585094
leaf_weight=168 312 404 4198 390 309
leaf_count=168 312 404 4198 390 309
internal_value=0 0.00633411 -0.00205285 0.00935991 0.0114252
internal_weight=0 1415 4366 1011 699
internal_count=5781 1415 4366 1011 699
is_linear=0
shrinkage=0.05


Tree=13
num_leaves=6
num_cat=0
split_feature=0 0 0 0 0
split_gain=27.1365 11.7035 5.82528 3.48787 0.202794
threshold=14.000000000000002 40.500000000000007 9.0000000000000018 22.000000000000004 31.000000000000004
decision_type=2 2 2 2 2
left_child=2 3 -1 -2 -5
right_child=1 -3 -4 4 -6
leaf_value=0.0071794194607285866 0.0044961373790451597 -0.0011759953388637669 -0.0023155711124861447 0.011612043674223317 0.0098972009555180485
leaf_weight=168 312 404 4198 390 309
leaf_count=168 312 404 4198 390 309
internal_value=0 0.0060174 -0.00195021 0.00889192 0.010854
internal_weight=0 1415 4366 1011 699
internal_count=5781 1415 4366 1011 699
is_linear=0
shrinkage=0.05


Tree=14
num_leaves=6
num_cat=0
split_feature=0 0 0 0 0
split_gain=24.4907 10.5624 5.25732 3.1478 0.183021
threshold=14.000000000000002 40.500000000000007 9.0000000000000018 22.000000000000004 31.000000000000004
decision_type=2 2 2 2 2
left_child=2 3 -1 -2 -5
right_child=1 -3 -4 4 -6
leaf_value=0.0068204493791286271 0.0042713311767259331 -0.0011171959228767545 -0.0021997925068440137 0.011031441834325402 0.0094023407470061188
leaf_weight=168 312 404 4198 390 309
leaf_count=168 312 404 4198 390 309
internal_value=0 0.00571653 -0.0018527 0.00844732 0.0103113
internal_weight=0 1415 4366 1011 699
internal_count=5781 1415 4366 1011 699
is_linear=0
shrinkage=0.05


Tree=15
num_leaves=6
num_cat=0
split_feature=0 0 0 0 0
split_gain=22.1028 9.53255 4.74473 2.84089 0.165177
threshold=14.000000000000002 40.500000000000007 9.0000000000000018 22.000000000000004 31.000000000000004
decision_type=2 2 2 2 2
left_child=2 3 -1 -2 -5
right_child=1 -3 -4 4 -6
leaf_value=0.0064794270237187104 0.0040577640340556031 -0.0010613358961095536 -0.0020898027643328977 0.010479870256370842 0.0089322244742445194
leaf_weight=168 312 404 4198 390 309
leaf_count=168 312 404 4198 390 309
internal_value=0 0.00543071 -0.00176007 0.00802495 0.00979572
internal_weight=0 1415 4366 1011 699
internal_count=5781 1415 4366 1011 699
is_linear=0
shrinkage=0.05


Tree=16
num_leaves=6
num_cat=0
split_feature=0 0 0 0 0
split_gain=19.9478 8.60313 4.28212 2.5639 0.149072
threshold=14.000000000000002 40.500000000000007 9.0000000000000018 22.000000000000004 31.000000000000004
decision_type=2 2 2 2 2
left_child=2 3 -1 -2 -5
right_child=1 -3 -4 4 -6
leaf_value=0.0061554545852621758 0.003854875787137411 -0.0010082692033519028 -0.0019853131984470997 0.0099558761871109402 0.0084856130544421742
leaf_weight=168 312 404 4198 390 309
leaf_count=168 312 404 4198 390 309
internal_value=0 0.00515917 -0.00167206 0.00762371 0.00930593
internal_weight=0 1415 4366 1011 699
internal_count=5781 1415 4366 1011 699
is_linear=0
shrinkage=0.05


Tree=17
num_leaves=6
num_cat=0
split_feature=0 0 0 0 0
split_gain=18.0029 7.76432 3.86461 2.31392 0.134538
threshold=14.000000000000002 40.500000000000007 9.0000000000000018 22.000000000000004 31.000000000000004
decision_type=2 2 2 2 2
left_child=2 3 -1 -2 -5
right_child=1 -3 -4 4 -6
leaf_value=0.0058476829704540295 0.0036621314667475723 -0.00095785568470577946 -0.0018860476173172302 0.0094580822030249506 0.0080613318963344057
leaf_weight=168 312 404 4198 390 309
leaf_count=168 312 404 4198 390 309
internal_value=0 0.00490121 -0.00158846 0.00724252 0.00884063
internal_weight=0 1415 4366 1011 699
internal_count=5781 1415 4366 1011 699
is_linear=0
shrinkage=0.05


Tree=18
num_leaves=6
num_cat=0
split_feature=0 0 0 0 0
split_gain=16.2476 7.0073 3.48781 2.08832 0.12142
threshold=14.000000000000002 40.500000000000007 9.0000000000000018 22.000000000000004 31.000000000000004
decision_type=2 2 2 2 2
left_child=2 3 -1 -2 -5
right_child=1 -3 -4 4 -6
leaf_value=0.0055552985136663284 0.0034790255227842588 -0.00090996260538070211 -0.0017917448277183661 0.0089851784382540822 0.0076582657330003375
leaf_weight=168 312 404 4198 390 309
leaf_count=168 312 404 4198 390 309
internal_value=0 0.00465615 -0.00150904 0.0068804 0.0083986
internal_weight=0 1415 4366 1011 699
internal_count=5781 1415 4366 1011 699
is_linear=0
shrinkage=0.05


Tree=19
num_leaves=6
num_cat=0
split_feature=0 0 0 0 0
split_gain=14.6635 6.32409 3.14775 1.88471 0.109582
threshold=14.000000000000002 40.500000000000007 9.0000000000000018 22.000000000000004 31.000000000000004
decision_type=2 2 2 2 2
left_child=2 3 -1 -2 -5
right_child=1 -3 -4 4 -6
leaf_value=0.005277532972728035 0.0033050744364467952 -0.00086446385657746759 -0.0017021575076980298 0.0085359193127936672 0.0072753526131746071
leaf_weight=168 312 404 4198 390 309
leaf_count=168 312 404 4198 390 309
internal_value=0 0.00442334 -0.00143358 0.00653638 0.00797867
internal_weight=0 1415 4366 1011 699
internal_count=5781 1415 4366 1011 699
is_linear=0
shrinkage=0.05


end of trees

feature_importances:
Column_0=100

parameters:
[boosting: gbdt]
[objective: regression]
[metric: custom]
[tree_learner: serial]
[device_type: cpu]
[data: ]
[valid: ]
[num_iterations: 10000]
[learning_rate: 0.05]
[num_leaves: 63]
[num_threads: 0]
[deterministic: 0]
[force_col_wise: 0]
[force_row_wise: 0]
[histogram_pool_size: -1]
[max_depth: -1]
[min_data_in_leaf: 30]
[min_sum_hessian_in_leaf: 0.001]
[bagging_fraction: 0.8]
[pos_bagging_fraction: 1]
[neg_bagging_fraction: 1]
[bagging_freq: 0]
[bagging_seed: 9915]
[feature_fraction: 0.9]
[feature_fraction_bynode: 1]
[feature_fraction_seed: 13361]
[extra_trees: 0]
[extra_seed: 2437]
[early_stopping_round: 0]
[first_metric_only: 0]
[max_delta_step: 0]
[lambda_l1: 0]
[lambda_l2: 0]
[linear_lambda: 0]
[min_gain_to_split: 0]
[drop_rate: 0.1]
[max_drop: 50]
[skip_drop: 0.5]
[xgboost_dart_mode: 0]
[uniform_drop: 0]
[drop_seed: 6739]
[top_rate: 0.2]
[other_rate: 0.1]
[min_data_per_group: 100]
[max_cat_threshold: 32]
[cat_l2: 10]
[cat_smooth: 10]
[max_cat_to_onehot: 4]
[top_k: 20]
[monotone_constraints: ]
[monotone_constraints_method: basic]
[monotone_penalty: 0]
[feature_contri: ]
[forcedsplits_filename: ]
[refit_decay_rate: 0.9]
[cegb_tradeoff: 1]
[cegb_penalty_split: 0]
[cegb_penalty_feature_lazy: ]
[cegb_penalty_feature_coupled: ]
[path_smooth: 0]
[interaction_constraints: ]
[verbosity: -1]
[saved_feature_importance_type: 0]
[linear_tree: 0]
[max_bin: 255]
[max_bin_by_feature: ]
[min_data_in_bin: 3]
[bin_construct_sample_cnt: 200000]
[data_random_seed: 4091]
[is_enable_sparse: 1]
[enable_bundle: 1]
[use_missing: 1]
[zero_as_missing: 0]
[feature_pre_filter: 1]
[pre_partition: 0]
[two_round: 0]
[header: 0]
[label_column: ]
[weight_column: ]
[group_column: ]
[ignore_column: ]
[categorical_feature: ]
[forcedbins_filename: ]
[precise_float_parser: 0]
[objective_seed: 29722]
[num_class: 1]
[is_unbalance: 0]
[scale_pos_weight: 1]
[sigmoid: 1]
[boost_from_average: 1]
[reg_sqrt: 0]
[alpha: 0.9]
[fair_c: 1]
[poisson_max_delta_step: 0.7]
[tweedie_variance_power: 1.5]
[lambdarank_truncation_level: 30]
[lambdarank_norm: 1]
[label_gain: ]
[eval_at: ]
[multi_error_top_k: 1]
[auc_mu_weights: ]
[num_machines: 1]
[local_listen_port: 12400]
[time_out: 120]
[machine_list_filename: ]
[machines: ]
[gpu_platform_id: -1]
[gpu_device_id: -1]
[gpu_use_dp: 0]
[num_gpu: 1]

end of parameters

pandas_categorical:null
