tree
version=v3
num_class=1
num_tree_per_iteration=1
label_index=0
max_feature_idx=72
objective=regression
feature_names=Column_0 Column_1 Column_2 Column_3 Column_4 Column_5 Column_6 Column_7 Column_8 Column_9 Column_10 Column_11 Column_12 Column_13 Column_14 Column_15 Column_16 Column_17 Column_18 Column_19 Column_20 Column_21 Column_22 Column_23 Column_24 Column_25 Column_26 Column_27 Column_28 Column_29 Column_30 Column_31 Column_32 Column_33 Column_34 Column_35 Column_36 Column_37 Column_38 Column_39 Column_40 Column_41 Column_42 Column_43 Column_44 Column_45 Column_46 Column_47 Column_48 Column_49 Column_50 Column_51 Column_52 Column_53 Column_54 Column_55 Column_56 Column_57 Column_58 Column_59 Column_60 Column_61 Column_62 Column_63 Column_64 Column_65 Column_66 Column_67 Column_68 Column_69 Column_70 Column_71 Column_72
feature_infos=[5:56] [3862.1968252761731:34830.782809281292] [3600:36097.546012269937] [3600:36097.546012269937] [3600:36097.546012269937] [3600:36097.546012269937] [3600:36097.546012269937] [3600:36097.546012269937] [3600:36097.546012269937] [3600:36097.546012269937] [3600:36097.546012269937] [3600:36097.546012269937] [3600.0000510003374:10800.000170809659] [3600.000051000331:10800.000170271722] [3600.1379879094484:10800.000142357654] [3599.9985041427444:10802.378597712463] [3599.9985041427444:10802.378597712463] [3599.9985041427444:10802.378597712463] [3599.9970784284369:10824.369168355082] [3599.9970784284369:10824.369168355082] [3599.9970784284369:10824.369168355082] [5833.48486328125:11705.0947265625] [5833.48486328125:11705.0947265625] [5833.48486328125:11705.0947265625] [3599.9985721739713:10800.01370759139] [5486.63330078125:11693.0390625] [5486.63330078125:11693.0390625] [5486.63330078125:11693.0390625] [5826.51171875:11765.7724609375] [5826.51171875:11765.7724609375] [5826.51171875:11765.7724609375] [5410.93115234375:11710.005859375] [4322.343875974072:12169.21654132908] [4322.343875974072:12169.21654132908] [4322.343875974072:12169.21654132908] [3600.0000000000005:11973.646284864382] [3600.0000000000005:11973.646284864382] [3600.0000000000005:11973.646284864382] [4658.2077587370877:11708.156873723416] [4658.2077587370877:11708.156873723416] [4658.2077587370877:11708.156873723416] [4870.3792011057931:12406.854860656607] [3600.0000000000005:11702.084126378597] [3600.0000000000005:11702.084126378597] [3600.0000000000005:11702.084126378597] [3600.0000000000005:11702.084126378597] [3600.0000000000005:11702.084126378597] [3600.0000000000005:11702.084126378597] [3600.0000000000005:11702.084126378597] [3600.0000000000005:11702.084126378597] [3600.0000000000005:11702.084126378597] [3600.0000000000005:11702.084126378597] [5375.5914935020501:12390.272091594814] [5569.0077228318178:12695.950666046418] [4671.2788396669785:11498.697981856129] [5850.5549356312858:11453.941784757943] [5850.5549356312858:11453.941784757943] [5850.5549356312858:11453.941784757943] [5850.5549356312858:11453.941784757943] [5850.5549356312858:11453.941784757943] [5850.5549356312858:11453.941784757943] [5850.5549356312858:11453.941784757943] [5850.5549356312858:11453.941784757943] [5850.5549356312858:11453.941784757943] [5850.554932927068:11453.941371529456] [4314.7566924276534:11643.484449980011] [5037.5442936491818:13540.430952399904] [5078.4213707715162:13834.320049432148] [3906.6588086640872:15473.864126395112] [4673.0625441292268:12008.482444389463] [5408.5440807293216:12989.646985052672] [3824.0249138868999:12367.273851514268] [5774.1865476673202:9381.0379377608806]
tree_sizes=2810 2806 2828 2834 2850

Tree=0
num_leaves=31
num_cat=0
split_feature=18 53 1 21 1 12 41 25 18 24 25 18 54 1 1 13 67 21 1 1 30 12 1 12 12 14 35 0 1 1
split_gain=172.182 18.3539 6.1619 4.31848 3.23266 2.64836 2.56115 1.5662 1.47833 1.30692 1.15813 1.10412 0.832284 0.678439 0.638799 0.562374 0.550634 0.521739 0.487684 0.395686 0.25439 0.239818 0.218599 0.147129 0.136117 0.0600455 0.0477849 0.0421797 0.0415436 0.0383924
threshold=7209.5754468927125 9603.9094351186741 30337.751851630881 5879.1337890625009 21041.298537650295 7200.0000077277282 9963.2944525437815 10762.632812500002 10799.986512343059 8950.4681127639997 6648.2382812500009 10251.880320164079 7627.3724155664613 12873.960748261956 34776.478302512391 8511.1651278319496 5768.592913622263 11347.579589843752 18050.052091728041 31626.923620263977 6442.9167480468759 9000.0000330330458 12847.317416026865 10800.000142357609 9000.0000249046589 10192.382744901535 6431.4309856615864 31.000000000000004 29949.911016356426 31162.97330630256
decision_type=2 2 2 2 2 2 2 2 2 2 2 2 2 2 2 2 2 2 2 2 2 2 2 2 2 2 2 2 2 2
left_child=3 5 8 13 10 -2 9 23 17 15 12 18 16 22 19 -7 -5 27 -8 29 -18 24 -1 -4 -11 -21 -22 -3 -19 -9
right_child=1 2 7 4 -6 6 11 14 -10 21 -12 -13 -14 -15 -16 -17 20 28 -20 25 26 -23 -24 -25 -26 -27 -28 -29 -30 -31
leaf_value=-0.0255032333667932 0.12273429602170985 0.12036068946464372 0.1072559813441904 -0.010889842403843985 -0.071232259506289766 0.033433265048092575 0.1095168755771965 0.077472582572312043 0.086050267983161746 0.045190709767340832 0.018637206339063597 0.043753559813788083 0.013607880067697911 -0.032497299104832802 0.039608014672143373 0.016223052624188845 -0.015811840300793058 0.14319198594299684 0.070139398721466087 0.072830915179112651 -0.031384053489270432 0.026915509735892226 -0.020232167902744094 0.091172205977728363 0.058825960640160171 0.063320767108187376 -0.022836859035556684 0.11139980845135818 0.1336331400722538 0.085689110459900575
leaf_weight=925 15.999999999999998 47 35 1384 38 156 14.999999999999998 46 45 157 47 74 46 469 29 148 975 44 78 33 38 25 477 65 36 136 84 38 31 45
leaf_count=925 16 47 35 1384 38 156 15 46 45 157 47 74 46 469 29 148 975 44 78 33 38 25 477 65 36 136 84 38 31 45
internal_value=6.31164e-10 0.0641158 0.0900153 -0.0185783 -0.0133246 0.042294 0.0404261 0.0752277 0.118076 0.0335291 -0.0124697 0.0619844 -0.0130483 -0.0259126 0.0677627 0.0250546 -0.0135425 0.127083 0.0764906 0.0709031 -0.0168892 0.0453466 -0.0237099 0.0968015 0.0477341 0.0651778 -0.0254991 0.116355 0.139241 0.0815357
internal_weight=0 1299 594 4483 2612 705 689 389 205 522 2574 167 2527 1871 289 304 2481 160 93 260 1097 218 1402 100 193 169 122 85 75 91
internal_count=5782 1299 594 4483 2612 705 689 389 205 522 2574 167 2527 1871 289 304 2481 160 93 260 1097 218 1402 100 193 169 122 85 75 91
is_linear=0
shrinkage=1


Tree=1
num_leaves=31
num_cat=0
split_feature=19 53 1 21 1 70 1 25 19 25 14 54 13 12 1 1 67 41 21 1 12 28 12 1 12 1 14 35 0 1
split_gain=110.197 11.7465 3.94361 2.76382 2.0689 1.70591 1.73255 1.00236 0.946132 0.7412 0.647518 0.532662 0.513208 0.479384 0.434201 0.408832 0.352406 0.337491 0.333913 0.253239 0.246457 0.162809 0.144286 0.139904 0.0941624 0.0413704 0.0384292 0.0305822 0.026995 0.0265879
threshold=7209.5754468927125 9603.9094351186741 30337.751851630881 5879.1337890625009 21041.298537650295 8514.9235356073168 18083.883199938875 10762.632812500002 10799.986512343059 6648.2382812500009 8815.6888482513787 7627.3724155664613 8511.1651278319496 9950.6847222535016 12873.960748261956 34776.478302512391 5768.592913622263 7562.0788802767265 11347.579589843752 31626.923620263977 7200.7763138830733 6442.9167480468759 9000.0000249046589 12847.317416026865 10800.000142357609 19510.122719657418 10192.382744901535 6431.4309856615864 31.000000000000004 29949.911016356426
decision_type=2 2 2 2 2 2 2 2 2 2 2 2 2 2 2 2 2 2 2 2 2 2 2 2 2 2 2 2 2 2
left_child=3 5 8 14 9 10 -7 24 18 11 12 16 20 -8 23 19 -5 -12 28 -9 -2 -18 -19 -1 -4 -22 -21 -23 -3 -20
right_child=1 2 7 4 -6 6 13 15 -10 -11 17 -13 -14 -15 -16 -17 21 22 29 26 25 27 -24 -25 -26 -27 -28 -29 -30 -31
leaf_value=-0.020402584931334934 0.052512921976449439 0.096288550518294602 0.085804787863578119 -0.0087118737076576046 -0.056985806242415782 0.093071014986884207 0.034836480340787339 0.065228560525964915 0.068840213749143814 0.01490976751851354 0.020589426381790895 0.010886304566393728 0.011836636243831545 0.058877957014002558 -0.025997840978804906 0.031686412568750058 -0.012649474114513932 0.036012500949436803 0.11455358842557127 0.058264732184452994 0.023866571798439949 -0.025107237971142723 0.048505639321117018 -0.016185734176957508 0.072937762313164206 0.031146858925832077 0.050656612672130855 -0.018269491559338002 0.089119847393349605 0.10690651110583736
leaf_weight=925 15.999999999999998 47 35 1384 38 31 119 91 45 47 47 46 126 46 469 29 975 128 44 33 93 38 52 477 65 47 136 84 38 31
leaf_count=925 16 47 35 1384 38 31 119 91 45 47 47 46 126 46 469 29 975 128 44 33 93 38 52 477 65 47 136 84 38 31
internal_value=0 0.0512926 0.0720122 -0.0148626 -0.0106597 0.0338352 0.0496894 0.0601822 0.0944604 -0.00997578 0.0277303 -0.0104386 0.0213302 0.041539 -0.0207301 0.0542102 -0.010834 0.035681 0.101666 0.0567224 0.0289981 -0.0135113 0.0396216 -0.0189679 0.0774412 0.0263107 0.0521422 -0.0203993 0.0930837 0.111393
internal_weight=0 1299 594 4483 2612 705 196 389 205 2574 509 2527 282 165 1871 289 2481 227 160 260 156 1097 180 1402 100 140 169 122 85 75
internal_count=5782 1299 594 4483 2612 705 196 389 205 2574 509 2527 282 165 1871 289 2481 227 160 260 156 1097 180 1402 100 140 169 122 85 75
is_linear=0
shrinkage=0.2


Tree=2
num_leaves=31
num_cat=0
split_feature=18 53 1 21 1 12 41 25 18 15 25 18 54 1 1 25 72 21 1 1 28 1 13 1 12 12 12 1 1 13
split_gain=70.5258 7.51777 2.52391 1.76885 1.3241 1.12832 1.04947 0.641514 0.605524 0.527047 0.474368 0.448051 0.340904 0.277889 0.266636 0.235961 0.225539 0.213704 0.18081 0.113663 0.107986 0.0895384 0.0712097 0.0643216 0.0602639 0.0431693 0.04196 0.0332145 0.0245712 0.0186277
threshold=7209.5754468927125 9603.9094351186741 30337.751851630881 5879.1337890625009 21041.298537650295 7200.0000077277282 9963.2944525437815 10762.632812500002 10799.986512343059 8978.7960723177257 6648.2382812500009 10251.880320164079 7627.3724155664613 12873.960748261956 34220.928496444132 8060.1623535156259 6281.7375743152706 11347.579589843752 18050.052091728041 31626.923620263977 6447.9389648437509 12847.317416026865 8511.1651278319496 34776.478302512391 10800.000142357609 9000.0000249046589 9000.0000205000706 18038.50850146919 31162.97330630256 7199.9950853070814
decision_type=2 2 2 2 2 2 2 2 2 2 2 2 2 2 2 2 2 2 2 2 2 2 2 2 2 2 2 2 2 2
left_child=3 5 8 13 10 -2 9 24 17 15 12 18 16 21 19 27 -5 -3 -8 28 29 -1 -17 -16 -4 -11 -24 -7 -9 -18
right_child=1 2 7 4 -6 6 11 14 -10 25 -12 -13 -14 -15 23 22 20 -19 -20 -21 -22 -23 26 -25 -26 -27 -28 -29 -30 -31
leaf_value=-0.01632206894255973 0.079573235195130113 0.074466973069836115 0.068643825565065653 -0.0069695011255024491 -0.045588647456545582 0.019876788889868532 0.068999299208323164 0.048932352467723518 0.055072167482641016 0.02943975766722718 0.011927814908484196 0.028035548563442522 0.0087090446249298431 -0.020798270460734489 0.03772010318934918 0.019633222605017098 -0.010433864249070446 0.089114236772060401 0.045022587669201392 0.042952122892318083 -0.017790373650992789 -0.012948584614762846 0.0094693100759907379 0.025349127620876096 0.05835021429122067 0.037359641057749589 0.016471545271416931 0.026191399820234586 0.05550557613372803 -0.0063567184387369365
leaf_weight=925 15.999999999999998 85 35 1384 38 54 14.999999999999998 46 45 117 47 74 46 469 40 55 968 75 78 129 82 477 126 29 65 36 47 87 45 47
leaf_count=925 16 85 35 1384 38 54 15 46 45 117 47 74 46 469 40 55 968 75 78 129 82 477 126 29 65 36 47 87 45 47
internal_value=0 0.0410341 0.0576098 -0.0118901 -0.00852775 0.0270682 0.0258489 0.0481457 0.0755683 0.0214339 -0.00798062 0.039649 -0.0083509 -0.0165841 0.0433681 0.0173418 -0.00866721 0.0813329 0.0488898 0.0467703 -0.0108091 -0.0151743 0.0133646 0.0325207 0.061953 0.0313033 0.0113717 0.023773 0.0521828 -0.0102451
internal_weight=0 1299 594 4483 2612 705 689 389 205 522 2574 167 2527 1871 289 369 2481 160 93 220 1097 1402 228 69 100 153 173 141 91 1015
internal_count=5782 1299 594 4483 2612 705 689 389 205 522 2574 167 2527 1871 289 369 2481 160 93 220 1097 1402 228 69 100 153 173 141 91 1015
is_linear=0
shrinkage=0.2


Tree=3
num_leaves=31
num_cat=0
split_feature=18 53 1 21 1 70 1 25 1 25 14 54 12 12 1 1 67 41 12 25 0 29 1 1 12 1 12 12 70 25
split_gain=45.1365 4.81137 1.6153 1.13206 0.847423 0.722777 0.700832 0.410569 0.402564 0.303595 0.272388 0.218178 0.203872 0.195081 0.177849 0.170647 0.144346 0.138283 0.0907853 0.0791914 0.0784914 0.0725024 0.0630824 0.0573045 0.0553232 0.0411658 0.0385689 0.0235186 0.0184967 0.0165776
threshold=7209.5754468927125 9603.9094351186741 30337.751851630881 5879.1337890625009 21041.298537650295 8514.9235356073168 18083.883199938875 10762.632812500002 29791.786570560307 6648.2382812500009 8815.6888482513787 7627.3724155664613 9950.6847222535016 8293.1229807832115 12873.960748261956 34220.928496444132 5768.592913622263 7562.0788802767265 7200.7763138830733 11625.506347656252 31.000000000000004 6442.9167480468759 29913.315220094144 12847.317416026865 9000.0000249046589 34776.478302512391 10800.000142357609 10277.290883593651 9264.038219130558 5939.6037597656259
decision_type=2 2 2 2 2 2 2 2 2 2 2 2 2 2 2 2 2 2 2 2 2 2 2 2 2 2 2 2 2 2
left_child=3 5 8 14 9 10 -7 26 20 11 13 16 28 18 23 19 -5 -12 -2 27 -3 29 -10 -1 -19 -17 -4 -9 -8 -18
right_child=1 2 7 4 -6 6 12 15 22 -11 17 -13 -14 -15 -16 25 21 24 -20 -21 -22 -23 -24 -25 -26 -27 -28 -29 -30 -31
leaf_value=-0.013057657746799492 0.033005821891129015 0.044057739890284012 0.054915061848504199 -0.0055755963902974319 -0.036470917553493853 0.059565450671699743 0.019540370883894903 0.044404458204905191 0.073820025346834559 0.0095422494522434606 0.013177232602809339 0.0069672329918197967 0.038097849164320075 0.008306591648897025 -0.016638618481478521 0.030176086463034154 -0.0089010411562378874 0.023125074568088169 0.016998051958639297 0.033103692826504515 0.056402479131755084 -0.013243740418406784 0.064349142075158086 -0.010358872872814381 0.030861017394524355 0.020279302602184232 0.046680168217191335 0.038676144899446756 0.024578985177418768 -0.007251645420887032
leaf_weight=925 15.999999999999998 45 35 1384 38 31 51 45 44 47 47 46 46 142 469 40 485 128 124 96 38 122 78 477 52 29 65 79 68 490
leaf_count=925 16 45 35 1384 38 31 51 45 44 47 47 46 46 142 469 40 485 128 124 96 38 122 78 477 52 29 65 79 68 490
internal_value=0 0.0328273 0.0460878 -0.00951207 -0.0068222 0.0216546 0.0319743 0.0385166 0.0604547 -0.0063845 0.0176807 -0.00668072 0.0267905 0.0135297 -0.0132673 0.0346945 -0.00693377 0.0228375 0.0188275 0.0374162 0.0497095 -0.00864726 0.0677649 -0.0121395 0.0253599 0.0260166 0.0495624 0.040755 0.0224196 -0.00807211
internal_weight=0 1299 594 4483 2612 705 196 389 205 2574 509 2527 165 282 1871 289 2481 227 140 220 83 1097 122 1402 180 69 100 124 119 975
internal_count=5782 1299 594 4483 2612 705 196 389 205 2574 509 2527 165 282 1871 289 2481 227 140 220 83 1097 122 1402 180 69 100 124 119 975
is_linear=0
shrinkage=0.2


Tree=4
num_leaves=31
num_cat=0
split_feature=18 53 1 21 1 12 15 25 1 25 41 72 54 25 1 1 12 67 25 0 28 15 1 28 1 12 1 0 12 12
split_gain=28.8874 3.07928 1.03379 0.72452 0.54235 0.484952 0.431861 0.262764 0.257641 0.194301 0.167255 0.162189 0.139634 0.127416 0.113823 0.109214 0.106441 0.0923809 0.0506825 0.0502345 0.0482321 0.0467243 0.0366749 0.0314843 0.0263462 0.0246841 0.0192333 0.0187829 0.0183267 0.0150519
threshold=7209.5754468927125 9603.9094351186741 30337.751851630881 5879.1337890625009 21041.298537650295 7200.0000077277282 8984.7550033870339 10762.632812500002 29791.786570560307 6648.2382812500009 10054.347448868792 5841.4768038184184 7627.3724155664613 8060.1623535156259 12873.960748261956 34220.928496444132 9950.6847222535016 5768.592913622263 11625.506347656252 31.000000000000004 6447.9389648437509 10798.081972403003 12847.317416026865 9156.5400390625018 34776.478302512391 10800.000142357609 18038.50850146919 31.000000000000004 9000.0000205000706 10277.290883593651
decision_type=2 2 2 2 2 2 2 2 2 2 2 2 2 2 2 2 2 2 2 2 2 2 2 2 2 2 2 2 2 2
left_child=3 5 8 14 9 -2 10 25 19 12 13 -8 17 26 22 18 27 -5 29 -3 -19 -10 -1 28 -17 -4 -7 -13 -15 -9
right_child=1 2 7 4 -6 6 11 15 21 -11 -12 16 -14 23 -16 24 -18 20 -20 -21 -22 -23 -24 -25 -26 -27 -28 -29 -30 -31
leaf_value=-0.010446124542101816 0.051745496899820866 0.035246190180381137 0.043932051318032406 -0.0044604798521162845 -0.029176734549630629 0.012501824247064414 0.043286345501740778 0.035523569327261716 0.057310313542373481 0.0076338015496730804 0.026641703268978745 0.020700969061820219 0.0055737903584604682 0.0059141285865316317 -0.013310895637789769 0.024140871027484537 0.030478277932042663 -0.0065408715380016226 0.026482953600740683 0.045121986732671142 -0.011583551287469341 0.049267614315798944 -0.0082870955252922311 0.01266473619098013 0.016223442233328163 0.037344135355490908 0.017029692758086738 0.015574340799025128 0.010541788908712407 0.030940913762661476
leaf_weight=925 15.999999999999998 45 35 1384 38 54 14.999999999999998 45 75 47 32 156 46 126 469 40 46 1015 96 38 82 47 477 55 29 65 123 35 47 79
leaf_count=925 16 45 35 1384 38 54 15 45 75 47 32 156 46 126 469 40 46 1015 96 38 82 47 477 55 29 65 123 35 47 79
internal_value=0 0.0262618 0.0368702 -0.00760966 -0.00545776 0.0173236 0.0165243 0.0308133 0.0483637 -0.0051076 0.0127219 0.0231181 -0.00534458 0.0116221 -0.0106138 0.0277556 0.0218416 -0.00554701 0.029933 0.0397676 -0.00691781 0.0542119 -0.00971156 0.00849651 0.0208133 0.0396499 0.0156483 0.0197615 0.00717135 0.032604
internal_weight=0 1299 594 4483 2612 705 689 389 205 2574 437 252 2527 405 1871 289 237 2481 220 83 1097 122 1402 228 69 100 177 191 173 124
internal_count=5782 1299 594 4483 2612 705 689 389 205 2574 437 252 2527 405 1871 289 237 2481 220 83 1097 122 1402 228 69 100 177 191 173 124
is_linear=0
shrinkage=0.2


end of trees

feature_importances:
Column_1=45
Column_12=23
Column_25=15
Column_18=8
Column_21=8
Column_0=5
Column_41=5
Column_53=5
Column_54=5
Column_13=4
Column_14=4
Column_28=4
Column_67=4
Column_15=3
Column_70=3
Column_19=2
Column_35=2
Column_72=2
Column_24=1
Column_29=1
Column_30=1

parameters:
[boosting: gbdt]
[objective: regression]
[metric: custom]
[tree_learner: serial]
[device_type: cpu]
[data: ]
[valid: ]
[num_iterations: 10000]
[learning_rate: 0.2]
[num_leaves: 31]
[num_threads: 0]
[deterministic: 0]
[force_col_wise: 0]
[force_row_wise: 0]
[histogram_pool_size: -1]
[max_depth: -1]
[min_data_in_leaf: 5]
[min_sum_hessian_in_leaf: 0.001]
[bagging_fraction: 0.8]
[pos_bagging_fraction: 1]
[neg_bagging_fraction: 1]
[bagging_freq: 0]
[bagging_seed: 20664]
[feature_fraction: 0.8]
[feature_fraction_bynode: 1]
[feature_fraction_seed: 4656]
[extra_trees: 0]
[extra_seed: 6363]
[early_stopping_round: 0]
[first_metric_only: 0]
[max_delta_step: 0]
[lambda_l1: 0]
[lambda_l2: 0]
[linear_lambda: 0]
[min_gain_to_split: 0]
[drop_rate: 0.1]
[max_drop: 50]
[skip_drop: 0.5]
[xgboost_dart_mode: 0]
[uniform_drop: 0]
[drop_seed: 24603]
[top_rate: 0.2]
[other_rate: 0.1]
[min_data_per_group: 100]
[max_cat_threshold: 32]
[cat_l2: 10]
[cat_smooth: 10]
[max_cat_to_onehot: 4]
[top_k: 20]
[monotone_constraints: ]
[monotone_constraints_method: basic]
[monotone_penalty: 0]
[feature_contri: ]
[forcedsplits_filename: ]
[refit_decay_rate: 0.9]
[cegb_tradeoff: 1]
[cegb_penalty_split: 0]
[cegb_penalty_feature_lazy: ]
[cegb_penalty_feature_coupled: ]
[path_smooth: 0]
[interaction_constraints: ]
[verbosity: -1]
[saved_feature_importance_type: 0]
[linear_tree: 0]
[max_bin: 255]
[max_bin_by_feature: ]
[min_data_in_bin: 3]
[bin_construct_sample_cnt: 200000]
[data_random_seed: 4094]
[is_enable_sparse: 1]
[enable_bundle: 1]
[use_missing: 1]
[zero_as_missing: 0]
[feature_pre_filter: 1]
[pre_partition: 0]
[two_round: 0]
[header: 0]
[label_column: ]
[weight_column: ]
[group_column: ]
[ignore_column: ]
[categorical_feature: ]
[forcedbins_filename: ]
[precise_float_parser: 0]
[objective_seed: 7268]
[num_class: 1]
[is_unbalance: 0]
[scale_pos_weight: 1]
[sigmoid: 1]
[boost_from_average: 1]
[reg_sqrt: 0]
[alpha: 0.9]
[fair_c: 1]
[poisson_max_delta_step: 0.7]
[tweedie_variance_power: 1.5]
[lambdarank_truncation_level: 30]
[lambdarank_norm: 1]
[label_gain: ]
[eval_at: ]
[multi_error_top_k: 1]
[auc_mu_weights: ]
[num_machines: 1]
[local_listen_port: 12400]
[time_out: 120]
[machine_list_filename: ]
[machines: ]
[gpu_platform_id: -1]
[gpu_device_id: -1]
[gpu_use_dp: 0]
[num_gpu: 1]

end of parameters

pandas_categorical:null
