tree
version=v3
num_class=1
num_tree_per_iteration=1
label_index=0
max_feature_idx=72
objective=regression
feature_names=Column_0 Column_1 Column_2 Column_3 Column_4 Column_5 Column_6 Column_7 Column_8 Column_9 Column_10 Column_11 Column_12 Column_13 Column_14 Column_15 Column_16 Column_17 Column_18 Column_19 Column_20 Column_21 Column_22 Column_23 Column_24 Column_25 Column_26 Column_27 Column_28 Column_29 Column_30 Column_31 Column_32 Column_33 Column_34 Column_35 Column_36 Column_37 Column_38 Column_39 Column_40 Column_41 Column_42 Column_43 Column_44 Column_45 Column_46 Column_47 Column_48 Column_49 Column_50 Column_51 Column_52 Column_53 Column_54 Column_55 Column_56 Column_57 Column_58 Column_59 Column_60 Column_61 Column_62 Column_63 Column_64 Column_65 Column_66 Column_67 Column_68 Column_69 Column_70 Column_71 Column_72
feature_infos=[5:56] [3862.1968252761731:34830.782809281292] [3600:36097.546012269937] [3600:36097.546012269937] [3600:36097.546012269937] [3600:36097.546012269937] [3600:36097.546012269937] [3600:36097.546012269937] [3600:36097.546012269937] [3600:36097.546012269937] [3600:36097.546012269937] [3600:36097.546012269937] [3600.0000510003374:10800.000170809659] [3600.000051000331:10800.000170271722] [3600.1379879094484:10799.997616611263] [3599.9985041427444:10802.378597712463] [3599.9985041427444:10802.378597712463] [3599.9985041427444:10802.378597712463] [3599.9970784284369:10824.369168355082] [3599.9970784284369:10824.369168355082] [3599.9970784284369:10824.369168355082] [5833.48486328125:11705.0947265625] [5833.48486328125:11705.0947265625] [5833.48486328125:11705.0947265625] [3599.9985721739713:10800.01370759139] [5486.63330078125:11693.0390625] [5486.63330078125:11693.0390625] [5486.63330078125:11693.0390625] [5826.51171875:11765.7724609375] [5826.51171875:11765.7724609375] [5826.51171875:11765.7724609375] [5410.93115234375:11710.005859375] [4322.343875974072:12169.21654132908] [4322.343875974072:12169.21654132908] [4322.343875974072:12169.21654132908] [3600.0000000000005:11973.646284864382] [3600.0000000000005:11973.646284864382] [3600.0000000000005:11973.646284864382] [4658.2077587370877:11708.156873723416] [4658.2077587370877:11708.156873723416] [4658.2077587370877:11708.156873723416] [4870.3792011057931:12406.854860656607] [3600.0000000000005:11702.084126378597] [3600.0000000000005:11702.084126378597] [3600.0000000000005:11702.084126378597] [3600.0000000000005:11702.084126378597] [3600.0000000000005:11702.084126378597] [3600.0000000000005:11702.084126378597] [3600.0000000000005:11702.084126378597] [3600.0000000000005:11702.084126378597] [3600.0000000000005:11702.084126378597] [3600.0000000000005:11702.084126378597] [5375.5914935020501:12390.272091594814] [5569.0077228318178:12695.950666046418] [4671.2788396669785:11865.888611784518] [5865.6099158928155:11453.941784757943] [5865.6099158928155:11453.941784757943] [5865.6099158928155:11453.941784757943] [5865.6099158928155:11453.941784757943] [5865.6099158928155:11453.941784757943] [5865.6099158928155:11453.941784757943] [5865.6099158928155:11453.941784757943] [5865.6099158928155:11453.941784757943] [5865.6099158928155:11453.941784757943] [5865.6099155816237:11453.941371529456] [4314.7566924276534:11643.484449980011] [5037.5442936491818:13540.430952399904] [5352.0509430306929:13834.320049432148] [3906.6588086640872:15473.864126395112] [4673.0625441292268:12008.482444389463] [5266.7974509333126:12989.646985052672] [3824.0249138868999:12367.273851514268] [5774.1865476673202:9381.0379377608806]
tree_sizes=2814 2823 2842 2841 2854 2867 2885 2910 2891

Tree=0
num_leaves=31
num_cat=0
split_feature=18 41 1 71 12 53 1 25 38 12 25 1 54 21 52 13 14 0 67 25 13 0 1 12 1 21 21 1 1 1
split_gain=162.7 15.7295 5.85977 4.41941 3.13227 2.41222 2.1042 1.94898 1.44351 1.27053 1.09556 1.07558 0.587489 0.518086 0.478828 0.398178 0.343442 0.291689 0.274354 0.247876 0.196379 0.153707 0.135713 0.132286 0.128897 0.113217 0.11165 0.0869267 0.0776365 0.0530715
threshold=7212.2764436691023 9570.4455873143215 30333.177921197381 5757.2510345752617 7199.6676750720071 10042.227675647331 21041.298537650295 10596.898437500002 8057.572134302286 6580.3677805113703 6648.2382812500009 34662.432439441851 11315.391744189646 11347.579589843752 5879.8215834493794 8511.1651278319496 8991.9496434651865 40.500000000000007 6203.5098607661084 11625.506347656252 7199.9950853070814 22.000000000000004 31308.46222261569 9000.0000095032683 12870.209739330887 6484.2233886718759 11496.896484375002 33775.347716139389 18143.849433858635 18805.335867272679
decision_type=2 2 2 2 2 2 2 2 2 2 2 2 2 2 2 2 2 2 2 2 2 2 2 2 2 2 2 2 2 2
left_child=3 4 5 10 -2 16 9 27 17 24 18 12 19 -7 -11 29 -3 23 -1 26 -16 -18 -14 -6 -5 -20 -9 -4 -17 -10
right_child=1 2 7 6 8 13 -8 11 15 14 -12 -13 22 -15 20 28 21 -19 25 -21 -22 -23 -24 -25 -26 -27 -28 -29 -30 -31
leaf_value=-0.010232835207831159 0.12288480852004134 0.066527585631422637 0.10746516345007605 -0.014895102359903246 0.045495610513910593 0.11652934092137518 -0.070346527296569469 0.074695879905746956 0.041058924310756487 -0.031551807633590126 0.019182291939684147 0.040727112341858385 0.046837296056198137 0.14326495344193477 -0.024626569064900614 0.027429216655157445 0.10971748693740609 0.034845492026724302 -0.014666213726514211 0.064860879052150933 -0.011387581097172203 0.086339828191925191 0.061350058948121122 0.059218713044064675 -0.019539748786049773 -0.02504096198136236 0.085980040648310482 0.093467663319553709 0.015413239700470491 0.02997237393885176
leaf_weight=1384 15.999999999999998 32 35 479 128 85 38 159 31 505 47 64 39 44 965 25 14.999999999999998 101 493 96 47 45 76 36 477 46 45 36 154 39
leaf_count=1384 16 32 35 479 128 85 38 159 31 505 47 64 39 44 965 25 15 101 493 96 47 45 76 36 477 46 45 36 154 39
internal_value=-4.61731e-09 0.0622635 0.0804966 -0.0180774 0.0357396 0.108003 -0.0236407 0.0694442 0.0330269 -0.0229231 -0.0109863 0.0648605 0.0685823 0.125648 -0.0265218 0.0220928 0.0832602 0.0433008 -0.0117236 0.0732413 -0.0240117 0.0921842 0.0564283 0.048508 -0.0172126 -0.0155516 0.077185 0.100368 0.0170914 0.0348821
internal_weight=0 1301 771 4481 530 221 2511 550 514 2473 1970 479 415 129 1517 249 92 265 1923 300 1012 60 115 164 956 539 204 71 179 70
internal_count=5782 1301 771 4481 530 221 2511 550 514 2473 1970 479 415 129 1517 249 92 265 1923 300 1012 60 115 164 956 539 204 71 179 70
is_linear=0
shrinkage=1


Tree=1
num_leaves=31
num_cat=0
split_feature=19 41 1 71 12 53 1 25 38 12 25 1 54 21 52 13 14 0 67 1 13 0 1 12 1 21 0 1 1 0
split_gain=104.128 10.0669 3.75025 2.82842 2.00466 1.54382 1.34669 1.24735 0.923844 0.813137 0.701156 0.688374 0.375993 0.331575 0.30645 0.254834 0.219803 0.186681 0.175587 0.169011 0.125682 0.0983727 0.0868561 0.0846629 0.0824938 0.0724587 0.0566361 0.0556331 0.0496874 0.0418606
threshold=7212.2764436691023 9570.4455873143215 30333.177921197381 5757.2510345752617 7199.6676750720071 10042.227675647331 21041.298537650295 10596.898437500002 8057.572134302286 6580.3677805113703 6648.2382812500009 34662.432439441851 11315.391744189646 11347.579589843752 5879.8215834493794 8511.1651278319496 8991.9496434651865 40.500000000000007 6203.5098607661084 31259.577029377466 7199.9950853070814 22.000000000000004 31308.46222261569 9000.0000095032683 12870.209739330887 6484.2233886718759 31.000000000000004 33775.347716139389 18143.849433858635 31.000000000000004
decision_type=2 2 2 2 2 2 2 2 2 2 2 2 2 2 2 2 2 2 2 2 2 2 2 2 2 2 2 2 2 2
left_child=3 4 5 10 -2 16 9 27 17 24 18 12 19 29 -11 -10 -3 23 -1 -9 -16 -18 -14 -6 -5 -20 -21 -4 -17 -7
right_child=1 2 7 6 8 13 -8 11 15 14 -12 -13 22 -15 20 28 21 -19 25 26 -22 -23 -24 -25 -26 -27 -28 -29 -30 -31
leaf_value=-0.0081862661422289536 0.098307855613529685 0.05322207083227113 0.085972134428364891 -0.011916078768655004 0.03639649114920758 0.097214333697202365 -0.056277217519910716 0.065787189348138986 0.027905712180903982 -0.025241440794681949 0.01534583813045174 0.032581691036466513 0.03746984089032198 0.11461196409707719 -0.019701248469130364 0.021943376660346986 0.087773997088273381 0.02787639994801271 -0.01173296830372254 0.051888711044254403 -0.0091100593513630812 0.06907186955213547 0.049080048560311923 0.047374974118752612 -0.015631794961524708 -0.020032763189595681 0.058495262439982904 0.074774131986002121 0.012330593488046103 0.088287420041467016
leaf_weight=1384 15.999999999999998 32 35 479 128 47 38 91 70 505 47 64 39 44 965 25 14.999999999999998 101 493 96 47 45 76 36 477 46 113 36 154 38
leaf_count=1384 16 32 35 479 128 47 38 91 70 505 47 64 39 44 965 25 15 101 493 96 47 45 76 36 477 46 113 36 154 38
internal_value=0 0.0498108 0.0643973 -0.0144619 0.0285917 0.0864021 -0.0189126 0.0555554 0.0264215 -0.0183384 -0.00878903 0.0518884 0.0548658 0.100519 -0.0212174 0.0176743 0.0666082 0.0346406 -0.00937891 0.0585931 -0.0192094 0.0737474 0.0451427 0.0388064 -0.0137701 -0.0124413 0.0554607 0.0802943 0.0136732 0.0932235
internal_weight=0 1301 771 4481 530 221 2511 550 514 2473 1970 479 415 129 1517 249 92 265 1923 300 1012 60 115 164 956 539 209 71 179 85
internal_count=5782 1301 771 4481 530 221 2511 550 514 2473 1970 479 415 129 1517 249 92 265 1923 300 1012 60 115 164 956 539 209 71 179 85
is_linear=0
shrinkage=0.2


Tree=2
num_leaves=31
num_cat=0
split_feature=18 41 1 71 12 53 1 25 38 12 25 1 54 21 36 13 14 12 72 1 1 12 0 1 1 21 0 1 12 1
split_gain=66.642 6.44281 2.40016 1.81019 1.28298 0.988045 0.861881 0.798302 0.59126 0.520408 0.44874 0.440559 0.240635 0.212208 0.199188 0.163094 0.140674 0.120295 0.112376 0.108167 0.0854926 0.0700021 0.0629586 0.055588 0.0527959 0.0463736 0.0362471 0.0356051 0.0344871 0.0317999
threshold=7212.2764436691023 9570.4455873143215 30333.177921197381 5757.2510345752617 7199.6676750720071 10042.227675647331 21041.298537650295 10596.898437500002 8057.572134302286 6580.3677805113703 6648.2382812500009 34662.432439441851 11315.391744189646 11347.579589843752 5851.6949903573668 8511.1651278319496 8991.9496434651865 7242.1256700775602 6281.7898236789561 31259.577029377466 20653.463679586977 9000.0000095032683 22.000000000000004 31308.46222261569 12870.209739330887 6484.2233886718759 31.000000000000004 33775.347716139389 7694.41600895182 18143.849433858635
decision_type=2 2 2 2 2 2 2 2 2 2 2 2 2 2 2 2 2 2 2 2 2 2 2 2 2 2 2 2 2 2
left_child=3 4 5 10 -2 16 9 27 17 24 18 12 19 -7 -11 28 -3 -6 -1 -9 -16 -19 -18 -14 -5 -20 -21 -4 -10 -17
right_child=1 2 7 6 8 13 -8 11 15 14 -12 -13 23 -15 20 29 22 21 25 26 -22 -23 -24 -25 -26 -27 -28 -29 -30 -31
leaf_value=-0.0065490096993206046 0.078646280150860559 0.042577658558730039 0.068777705069099151 -0.0095328650559786728 0.019289336261270499 0.074578778550905347 -0.045021773815939303 0.052629748531259027 0.030825076935191948 -0.020399736663870724 0.012276670847959976 0.02606535574377631 0.029975870117927211 0.091689577427777391 -0.01598432642116011 0.01755470508337021 0.070219196081161492 0.02821594230990325 -0.0093863746804954077 0.041510964332458877 -0.0094371561774577225 0.037899980590575276 0.055257490244176657 0.039264041533399574 -0.01250543592368844 -0.016026209651128106 0.046796207387099227 0.05981931332498789 0.020006246881728824 0.0098644794968815591
leaf_weight=1384 15.999999999999998 32 35 479 54 85 38 91 14.999999999999998 469 47 64 39 44 961 25 14.999999999999998 175 493 96 87 36 45 76 477 46 113 36 55 154
leaf_count=1384 16 32 35 479 54 85 38 91 15 469 47 64 39 44 961 25 15 175 493 96 87 36 45 76 477 46 113 36 55 154
internal_value=0 0.0398487 0.0515178 -0.0115695 0.0228733 0.0691217 -0.0151301 0.0444443 0.0211372 -0.0146708 -0.00703123 0.0415107 0.0438927 0.080415 -0.0169739 0.0141394 0.0532865 0.0277125 -0.00750313 0.0468744 -0.0154408 0.0298682 0.0589979 0.0361141 -0.011016 -0.00995304 0.0443685 0.0642354 0.0223246 0.0109385
internal_weight=0 1301 771 4481 530 221 2511 550 514 2473 1970 479 415 129 1517 249 92 265 1923 300 1048 211 60 115 956 539 209 71 70 179
internal_count=5782 1301 771 4481 530 221 2511 550 514 2473 1970 479 415 129 1517 249 92 265 1923 300 1048 211 60 115 956 539 209 71 70 179
is_linear=0
shrinkage=0.2


Tree=3
num_leaves=31
num_cat=0
split_feature=18 41 1 42 12 53 21 1 25 38 1 52 54 21 12 1 14 12 25 33 0 1 1 25 15 0 1 21 15 1
split_gain=42.6509 4.1234 1.5361 1.11501 0.821107 0.632349 0.598754 0.512443 0.510913 0.378407 0.281958 0.215146 0.154007 0.135813 0.105292 0.093055 0.0900312 0.0853388 0.0788571 0.0764692 0.0402934 0.0355762 0.0343974 0.033483 0.0305744 0.0267908 0.0227873 0.0224958 0.0152464 0.0142605
threshold=7212.2764436691023 9570.4455873143215 30333.177921197381 5855.7952392308707 7199.6676750720071 10042.227675647331 6597.3710937500009 21041.298537650295 10596.898437500002 8057.572134302286 34662.432439441851 5879.8215834493794 11315.391744189646 11347.579589843752 8169.0025521209609 12870.209739330887 8991.9496434651865 8967.7792560447069 6037.2236328125009 11557.776996575489 22.000000000000004 31308.46222261569 18038.50850146919 11625.506347656252 8788.5428798621888 31.000000000000004 33775.347716139389 6530.2358398437509 8123.6295117536056 17880.972474721901
decision_type=2 2 2 2 2 2 2 2 2 2 2 2 2 2 2 2 2 2 2 2 2 2 2 2 2 2 2 2 2 2
left_child=3 4 5 18 -2 16 7 11 26 17 12 -5 19 25 -11 -13 -3 22 -1 23 -18 -14 -6 -10 28 -7 -4 -17 -16 -19
right_child=1 2 8 6 9 13 -8 -9 10 14 -12 15 21 -15 24 27 20 29 -20 -21 -22 -23 -24 -25 -26 -27 -28 -29 -30 -31
leaf_value=-0.0076251727103525818 0.062917024106718608 0.034062130004167558 0.055022169521876746 -0.016176157192981776 0.015431468940719409 0.062855710802560166 0.0098213354403034175 -0.036017419299797009 0.037938952825541772 0.022217767144883833 0.020852285641012713 -0.012728400869848762 0.023980698371544863 0.073351660701022905 0.014378185549867341 -0.0099413329933552043 0.056175354719161991 0.02514171126083686 -0.005239206975907346 0.045100650257534458 0.044205994606018068 0.031411229365652327 0.021486691143212281 0.033208769497772059 0.014218084322055803 0.05571417630110917 0.047855447067154777 -0.0054006180864699348 0.0078915833265750437 0.030319985674901143
leaf_weight=924 15.999999999999998 32 35 505 54 47 47 38 159 31 64 925 39 44 15.999999999999998 611 14.999999999999998 52 1384 45 45 76 123 96 48 38 36 47 154 36
leaf_count=924 16 32 35 505 54 47 47 38 159 31 64 925 39 44 16 611 15 52 1384 45 45 76 123 96 48 38 36 47 154 36
internal_value=0 0.0318789 0.0412143 -0.00925563 0.0182987 0.0552974 -0.012507 -0.0130006 0.0355554 0.0169098 0.0332086 -0.0125818 0.0351141 0.064332 0.0113115 -0.0114351 0.0426292 0.02217 -0.00619442 0.0374995 0.0471983 0.0288913 0.0196393 0.0361582 0.00976066 0.059663 0.0513883 -0.009617 0.00850209 0.0272601
internal_weight=0 1301 771 4481 530 221 2173 2126 550 514 479 2088 415 129 249 1583 92 265 2308 300 60 115 177 255 218 85 71 658 170 88
internal_count=5782 1301 771 4481 530 221 2173 2126 550 514 479 2088 415 129 249 1583 92 265 2308 300 60 115 177 255 218 85 71 658 170 88
is_linear=0
shrinkage=0.2


Tree=4
num_leaves=31
num_cat=0
split_feature=18 41 1 71 12 53 1 25 38 67 25 1 54 21 53 12 0 14 32 67 35 0 21 1 1 25 12 15 0 1
split_gain=27.2966 2.63898 0.983106 0.743318 0.525509 0.404703 0.352921 0.326984 0.24218 0.220506 0.183696 0.180453 0.0985642 0.0869205 0.0751378 0.0673867 0.0580935 0.05762 0.0489402 0.0454671 0.0413466 0.0257878 0.0254178 0.0227688 0.0218285 0.0214291 0.0203037 0.0195676 0.0171461 0.0145839
threshold=7212.2764436691023 9570.4455873143215 30333.177921197381 5757.2510345752617 7199.6676750720071 10042.227675647331 21041.298537650295 10596.898437500002 8057.572134302286 5786.5163543376866 6648.2382812500009 34662.432439441851 11315.391744189646 11347.579589843752 6324.38437859026 8169.0025521209609 40.500000000000007 8991.9496434651865 11557.776996575489 6203.5098607661084 5880.446666327206 22.000000000000004 6484.2233886718759 31308.46222261569 12870.209739330887 11625.506347656252 9000.0000095032683 8788.5428798621888 31.000000000000004 33775.347716139389
decision_type=2 2 2 2 2 2 2 2 2 2 2 2 2 2 2 2 2 2 2 2 2 2 2 2 2 2 2 2 2 2
left_child=3 4 5 10 -2 17 9 29 16 20 19 12 18 28 24 -10 26 -3 25 -1 -5 -19 -21 -14 -11 -9 -6 -17 -7 -4
right_child=1 2 7 6 8 13 -8 11 15 14 -12 -13 23 -15 -16 27 -18 21 -20 22 -22 -23 -24 -25 -26 -27 -28 -29 -30 -31
leaf_value=-0.0041913686160703406 0.050333618000149731 0.02724970211274922 0.044017735719680789 -0.013084557078190959 0.018879697269585452 0.050284567776512593 -0.028813935708450644 0.030351164515874107 0.017774215244477795 -0.0099220904097010263 0.0078570734313193804 0.016681825561681764 0.01918455958366394 0.058681326562708074 -0.0059421353120031016 0.0068016657057930448 0.013962608053911441 0.044940287669499722 0.036080517574316927 -0.0059370812270450306 -0.010479096985739865 0.035364797121534751 -0.010852846389879352 0.025128988301577539 -0.0080215437089163292 0.026567018953695273 0.024255988131173786 0.011374466796405615 0.044571344358356378 0.03828435494667954
leaf_weight=1384 15.999999999999998 32 35 469 128 47 38 159 31 454 47 64 39 44 526 170 101 14.999999999999998 45 493 507 45 46 76 517 96 36 48 38 36
leaf_count=1384 16 32 35 469 128 47 38 159 31 454 47 64 39 44 526 170 101 15 45 493 507 45 46 76 517 96 36 48 38 36
internal_value=0 0.0255032 0.0329714 -0.00740451 0.0146389 0.0442379 -0.00968611 0.0284443 0.0135278 -0.00939219 -0.00449634 0.0265669 0.0280913 0.0514656 -0.00786729 0.00904923 0.017736 0.0341034 0.0299996 -0.00479827 -0.0117311 0.0377587 -0.00635661 0.0231131 -0.00891016 0.0289265 0.0200599 0.00780852 0.0477304 0.0411107
internal_weight=0 1301 771 4481 530 221 2511 550 514 2473 1970 479 415 129 1497 249 265 92 300 1923 976 60 539 115 971 255 164 218 85 71
internal_count=5782 1301 771 4481 530 221 2511 550 514 2473 1970 479 415 129 1497 249 265 92 300 1923 976 60 539 115 971 255 164 218 85 71
is_linear=0
shrinkage=0.2


Tree=5
num_leaves=31
num_cat=0
split_feature=18 41 1 71 12 53 1 25 38 67 25 1 33 21 53 28 12 1 14 67 37 1 0 21 18 1 12 0 33 1
split_gain=17.4698 1.68894 0.629188 0.475723 0.336325 0.25901 0.225869 0.20927 0.154995 0.141124 0.117565 0.11549 0.064309 0.0556291 0.0480881 0.0477331 0.0381536 0.037364 0.0368768 0.029099 0.026462 0.0168379 0.0165042 0.0162673 0.0156904 0.0139702 0.011904 0.0109735 0.0100323 0.00933367
threshold=7212.2764436691023 9570.4455873143215 30333.177921197381 5757.2510345752617 7199.6676750720071 10042.227675647331 21041.298537650295 10596.898437500002 8057.572134302286 5786.5163543376866 6648.2382812500009 34662.432439441851 11427.489194287557 11347.579589843752 6324.38437859026 9156.5400390625018 8967.7792560447069 31259.577029377466 8991.9496434651865 6203.5098607661084 5880.446666327206 18038.50850146919 22.000000000000004 6484.2233886718759 10306.606805158308 12870.209739330887 7694.41600895182 31.000000000000004 8197.4441588127793 33775.347716139389
decision_type=2 2 2 2 2 2 2 2 2 2 2 2 2 2 2 2 2 2 2 2 2 2 2 2 2 2 2 2 2 2
left_child=3 4 5 10 -2 18 9 29 16 20 19 12 17 27 25 28 21 -9 -3 -1 -5 -6 -20 -21 -19 -11 -17 -7 -10 -4
right_child=1 2 7 6 8 13 -8 11 15 14 -12 -13 -14 -15 -16 26 -18 24 22 23 -22 -23 -24 -25 -26 -27 -28 -29 -30 -31
leaf_value=-0.0033530943360814899 0.040266895690001553 0.021799761570400734 0.035214184394904549 -0.010467647582884314 0.0095526538927246038 0.040227655979230052 -0.023051146310018866 0.015347644533866493 0.0077267562770949941 -0.0079376689671222852 0.0062856578604972117 0.013345459895572277 0.027170837122005423 0.046945060874250807 -0.0047537080915255239 0.016661663055419922 0.017592255991290918 0.02377894346651712 0.035952226817607881 -0.00474966734526849 -0.0083832713990257338 0.013789190771436789 0.028291834990183513 -0.0086822720993634164 0.020745287644460278 -0.0064172333931438704 0.010305441719564525 0.035657072155491305 0.0044974350741481392 0.030627486420174439
leaf_weight=1384 15.999999999999998 32 35 469 54 47 38 39 56 454 47 64 91 44 526 14.999999999999998 88 113 14.999999999999998 493 507 123 45 46 172 517 55 38 123 36
leaf_count=1384 16 32 35 469 54 47 38 39 56 454 47 64 91 44 526 15 88 113 15 493 507 123 45 46 172 517 55 38 123 36
internal_value=0 0.0204025 0.0263771 -0.00592361 0.0117112 0.0353903 -0.00774889 0.0227555 0.0108223 -0.00751375 -0.00359707 0.0212535 0.022473 0.0411725 -0.00629383 0.00723939 0.0141888 0.0211536 0.0272827 -0.00383861 -0.00938488 0.0124967 0.0302069 -0.00508529 0.0219481 -0.00712813 0.0116675 0.0381843 0.00550773 0.0328885
internal_weight=0 1301 771 4481 530 221 2511 550 514 2473 1970 479 415 129 1497 249 265 324 92 1923 976 177 60 539 285 971 70 85 179 71
internal_count=5782 1301 771 4481 530 221 2511 550 514 2473 1970 479 415 129 1497 249 265 324 92 1923 976 177 60 539 285 971 70 85 179 71
is_linear=0
shrinkage=0.2


Tree=6
num_leaves=31
num_cat=0
split_feature=18 41 2 71 12 53 2 25 38 12 25 2 32 21 36 13 0 2 14 15 72 0 21 12 18 2 12 0 2 2
split_gain=11.1807 1.08092 0.40268 0.304463 0.215248 0.165766 0.144556 0.133933 0.0991971 0.0838506 0.0752416 0.0739136 0.0411578 0.0356026 0.0351259 0.0305492 0.0252108 0.0239129 0.0236012 0.0207838 0.0186234 0.0105627 0.0104111 0.0104087 0.0100418 0.0081267 0.00761858 0.00702301 0.00642412 0.00638332
threshold=7212.2764436691023 9570.4455873143215 31444.728650909743 5757.2510345752617 7199.6676750720071 10042.227675647331 21865.370585190871 10596.898437500002 8057.572134302286 6580.3677805113703 6648.2382812500009 36043.117559523816 11427.489194287557 11347.579589843752 5851.6949903573668 8511.1651278319496 40.500000000000007 32409.518129770997 8991.9496434651865 7203.4098102107027 6281.7898236789561 22.000000000000004 6484.2233886718759 9000.0000095032683 10306.606805158308 13239.588220626758 7694.41600895182 31.000000000000004 18776.401053864171 32311.625000000004
decision_type=2 2 2 2 2 2 2 2 2 2 2 2 2 2 2 2 2 2 2 2 2 2 2 2 2 2 2 2 2 2
left_child=3 4 5 10 -2 18 9 -4 16 25 20 12 17 27 -11 26 23 -9 -3 -16 -1 -20 -22 -6 -19 -5 -10 -7 -17 -14
right_child=1 2 7 6 8 13 -8 11 15 14 -12 -13 29 -15 19 28 -18 24 21 -21 22 -23 -24 -25 -26 -27 -28 -29 -30 -31
leaf_value=-0.002682473403913093 0.032213515508919953 0.017439806330366993 0.026310827341717736 -0.0051283261545424196 0.012036922422703357 0.032182120500092809 -0.018440916899003481 0.012278118500342737 0.01332933247089386 -0.0083741172918303224 0.0050285249155886634 0.010676368052372709 0.020079909714505725 0.03755604979497465 -0.0064846875092068636 0.007379903376102448 0.008865266370743809 0.019023151125396251 0.028761783118049306 -0.0021813276283284451 -0.0037997305978837654 0.022633470149917734 -0.0069458178608961729 0.015886338168962132 0.016596231736286087 -0.0039620828622318263 0.0082443536276167097 0.028525663441733313 0.0039234308090496375 0.023430247969097564
leaf_weight=1384 15.999999999999998 32 71 477 128 47 38 39 14.999999999999998 469 47 64 46 44 1001 25 101 113 14.999999999999998 47 493 45 46 36 172 479 55 38 154 45
leaf_count=1384 16 32 71 477 128 47 38 39 15 469 47 64 46 44 1001 25 101 113 15 47 493 45 46 36 172 479 55 38 154 45
internal_value=0 0.016322 0.0211017 -0.00473888 0.00936892 0.0283123 -0.00619911 0.0182044 0.0086578 -0.006011 -0.00287765 0.0170028 0.0179784 0.032938 -0.0069355 0.00579151 0.011351 0.0169229 0.0218262 -0.00629169 -0.00307089 0.0241655 -0.00406823 0.0128819 0.0175585 -0.00454398 0.00933399 0.0305475 0.00440618 0.0217367
internal_weight=0 1301 771 4481 530 221 2511 550 514 2473 1970 479 415 129 1517 249 265 324 92 1048 1923 60 539 164 285 956 70 85 179 91
internal_count=5782 1301 771 4481 530 221 2511 550 514 2473 1970 479 415 129 1517 249 265 324 92 1048 1923 60 539 164 285 956 70 85 179 91
is_linear=0
shrinkage=0.2


Tree=7
num_leaves=31
num_cat=0
split_feature=18 35 55 71 15 27 27 71 1 12 27 0 21 1 35 55 12 15 72 1 1 1 12 21 1 1 1 1 0 35
split_gain=7.15563 0.665433 0.249193 0.194856 0.106786 0.0999312 0.0986313 0.119759 0.0925162 0.0536642 0.0481546 0.0435433 0.0365299 0.0352479 0.0224804 0.0215219 0.0162627 0.0133017 0.011919 0.0110147 0.0107245 0.0105006 0.00965975 0.00666309 0.00634745 0.00520108 0.00346512 0.00280715 0.00277407 0.00251226
threshold=7212.2764436691023 8744.5484122613179 10957.521756204558 5757.2510345752617 8992.03851496061 11312.738769531252 10718.039550781252 8602.2504703122595 21041.298537650295 6580.3677805113703 6648.2382812500009 14.000000000000002 8103.4284667968759 34662.432439441851 5851.6949903573668 9105.7000799068574 9950.6847222535016 7203.4098102107027 6281.7898236789561 33775.347716139389 18038.50850146919 29913.315220094144 8293.1229807832115 6484.2233886718759 31308.46222261569 12870.209739330887 18805.335867272679 17880.972474721901 31.000000000000004 11227.038736494531
decision_type=2 2 2 2 2 2 2 2 2 2 2 2 2 2 2 2 2 2 2 2 2 2 2 2 2 2 2 2 2 2
left_child=3 4 6 10 12 21 7 15 9 25 18 -6 20 16 -11 26 -8 -16 -1 28 -2 -4 -14 -20 -18 -5 -3 -13 -9 -26
right_child=1 2 5 8 11 -7 13 19 -10 14 -12 27 22 -15 17 -17 24 -19 23 -21 -22 -23 -24 -25 29 -27 -28 -29 -30 -31
leaf_value=-0.0021459810139686729 0.0058800979623500303 0.01066346357266108 0.030044838959689846 -0.0031696698494208878 0.023009423365195594 0.018425486363056635 0.0098224959312341164 0.025770815834403039 -0.014752736844514548 -0.0066992904774463378 0.004022818629411941 0.010411592458303158 0.0066624456109144747 0.0085410923784365878 -0.0051877502696244387 0.014868174990018211 0.01554662208174072 -0.0017450624323905783 -0.0030397872846671826 0.019239824575682483 0.0088663564767779372 0.02574569995098926 0.0031387462861255395 -0.0055566524641345386 0.012634884370000741 -0.0041026633357789284 0.0064322555437684066 0.01270907111465931 0.022863031602273251 0.014084450308551162
leaf_weight=1384 79 15.000000000000002 44 479 14.999999999999998 90 39 15.999999999999998 38 469 47 52 39 64 1001 66 92 47 493 36 123 47 154 46 76 477 15.999999999999998 36 73 129
leaf_count=1384 79 15 44 479 15 90 39 16 38 469 47 52 39 64 1001 66 92 47 493 36 123 47 154 46 76 477 16 36 73 129
internal_value=0 0.0130576 0.0166197 -0.00379111 0.00731398 0.0231509 0.0147191 0.0180997 -0.00495929 -0.0048088 -0.00230213 0.0130492 0.00581846 0.0128429 -0.0055484 0.0128265 0.0136622 -0.00503335 -0.00245671 0.0221917 0.00769846 0.0278244 0.00385079 -0.00325458 0.0141664 -0.00363519 0.00847961 0.0113515 0.0233858 0.0135471
internal_weight=0 1301 803 4481 498 181 622 222 2511 2473 1970 103 395 400 1517 97 336 1048 1923 125 202 91 193 539 297 956 31 88 89 205
internal_count=5782 1301 803 4481 498 181 622 222 2511 2473 1970 103 395 400 1517 97 336 1048 1923 125 202 91 193 539 297 956 31 88 89 205
is_linear=0
shrinkage=0.2


Tree=8
num_leaves=31
num_cat=0
split_feature=18 41 1 71 12 53 1 15 25 67 1 25 31 52 21 65 3 15 67 1 1 21 12 15 0 21 12 1 1 0
split_gain=4.5796 0.445862 0.150772 0.124708 0.0849067 0.0696742 0.0592103 0.0521319 0.0519395 0.0402696 0.0327293 0.030819 0.0187279 0.0165206 0.0146076 0.0124648 0.0121599 0.010285 0.00762814 0.00682588 0.00614354 0.00599883 0.00565522 0.00490801 0.00446825 0.00426442 0.00405363 0.00384716 0.00312887 0.00289757
threshold=7212.2764436691023 9788.140004626528 30333.177921197381 5757.2510345752617 7199.6676750720071 10042.227675647331 21041.298537650295 8968.8184943038268 10596.898437500002 5786.5163543376866 34662.432439441851 6648.2382812500009 11598.778320312502 5976.6143695748096 11347.579589843752 9579.7295733993578 13239.588220626758 8999.9885985510373 6203.5098607661084 31308.46222261569 12873.960748261956 11496.896484375002 8477.521710750194 8715.1063373269226 22.000000000000004 6484.2233886718759 9000.0000095032683 33775.347716139389 12870.209739330887 31.000000000000004
decision_type=2 2 2 2 2 2 2 2 2 2 2 2 2 2 2 2 2 2 2 2 2 2 2 2 2 2 2 2 2 2
left_child=3 4 5 11 -2 17 9 13 27 20 12 18 21 -6 29 22 28 -3 -1 -14 -5 -10 -15 -24 -19 -20 -9 -4 -11 -7
right_child=1 2 8 6 7 14 -8 26 10 16 -12 -13 19 15 -16 -17 -18 24 25 -21 -22 -23 23 -25 -26 -27 -28 -29 -30 -31
leaf_value=-0.0017167828261120126 0.020616648695431651 0.010978209343738854 0.018336577394178936 -0.0043269861946297677 0.0070095276716968108 0.02059655916342076 -0.011802188424687637 0.0079061610285531391 0.012443488333725704 -0.0040156455287947796 0.0068328791916428605 0.0032182585368765167 0.0078579948498652529 0.0044460094075710064 0.024035873450338842 0.0076825145031175317 -0.0024643244547604883 0.018407542506853738 -0.0024318276152664581 0.010869531214914539 -0.0053311584074750987 0.015059101101424961 0.0016639590072868903 0.0040097894147038465 0.014421676480107837 -0.0044453284662702812 0.0099001641630342141 0.015391858335998324 -0.0032821267983823457 0.01824792416178082
leaf_weight=1384 15.999999999999998 32 35 471 87 47 38 88 159 454 64 47 39 124 44 31 566 14.999999999999998 493 132 505 45 88 60 45 46 76 36 477 38
leaf_count=1384 16 32 35 471 87 47 38 88 159 454 64 47 39 124 44 31 566 15 493 132 505 45 88 60 45 46 76 36 477 38
internal_value=0 0.0104461 0.0137155 -0.00303289 0.00625321 0.0180789 -0.00396743 0.00583838 0.0118247 -0.00384704 0.011013 -0.0018417 0.0117264 0.00458028 0.0210778 0.00388277 -0.00319538 0.0138738 -0.00196537 0.0101827 -0.00484656 0.0130205 0.00344971 0.00261497 0.0154181 -0.00260367 0.00883021 0.0168435 -0.00363983 0.0195466
internal_weight=0 1301 731 4481 570 221 2511 554 510 2473 439 1970 375 390 129 303 1497 92 1923 171 976 204 272 148 60 539 164 71 931 85
internal_count=5782 1301 731 4481 570 221 2511 554 510 2473 439 1970 375 390 129 303 1497 92 1923 171 976 204 272 148 60 539 164 71 931 85
is_linear=0
shrinkage=0.2


end of trees

feature_importances:
Column_1=62
Column_12=30
Column_0=22
Column_21=21
Column_25=19
Column_18=10
Column_53=10
Column_15=9
Column_71=9
Column_41=8
Column_67=8
Column_2=7
Column_14=7
Column_38=7
Column_13=6
Column_54=5
Column_35=4
Column_52=4
Column_27=3
Column_33=3
Column_72=3
Column_32=2
Column_36=2
Column_55=2
Column_3=1
Column_19=1
Column_28=1
Column_31=1
Column_37=1
Column_42=1
Column_65=1

parameters:
[boosting: gbdt]
[objective: regression]
[metric: custom]
[tree_learner: serial]
[device_type: cpu]
[data: ]
[valid: ]
[num_iterations: 10000]
[learning_rate: 0.2]
[num_leaves: 31]
[num_threads: 0]
[deterministic: 0]
[force_col_wise: 0]
[force_row_wise: 0]
[histogram_pool_size: -1]
[max_depth: -1]
[min_data_in_leaf: 5]
[min_sum_hessian_in_leaf: 0.001]
[bagging_fraction: 0.8]
[pos_bagging_fraction: 1]
[neg_bagging_fraction: 1]
[bagging_freq: 0]
[bagging_seed: 20664]
[feature_fraction: 0.8]
[feature_fraction_bynode: 1]
[feature_fraction_seed: 4656]
[extra_trees: 0]
[extra_seed: 6363]
[early_stopping_round: 0]
[first_metric_only: 0]
[max_delta_step: 0]
[lambda_l1: 0]
[lambda_l2: 0]
[linear_lambda: 0]
[min_gain_to_split: 0]
[drop_rate: 0.1]
[max_drop: 50]
[skip_drop: 0.5]
[xgboost_dart_mode: 0]
[uniform_drop: 0]
[drop_seed: 24603]
[top_rate: 0.2]
[other_rate: 0.1]
[min_data_per_group: 100]
[max_cat_threshold: 32]
[cat_l2: 10]
[cat_smooth: 10]
[max_cat_to_onehot: 4]
[top_k: 20]
[monotone_constraints: ]
[monotone_constraints_method: basic]
[monotone_penalty: 0]
[feature_contri: ]
[forcedsplits_filename: ]
[refit_decay_rate: 0.9]
[cegb_tradeoff: 1]
[cegb_penalty_split: 0]
[cegb_penalty_feature_lazy: ]
[cegb_penalty_feature_coupled: ]
[path_smooth: 0]
[interaction_constraints: ]
[verbosity: -1]
[saved_feature_importance_type: 0]
[linear_tree: 0]
[max_bin: 255]
[max_bin_by_feature: ]
[min_data_in_bin: 3]
[bin_construct_sample_cnt: 200000]
[data_random_seed: 4094]
[is_enable_sparse: 1]
[enable_bundle: 1]
[use_missing: 1]
[zero_as_missing: 0]
[feature_pre_filter: 1]
[pre_partition: 0]
[two_round: 0]
[header: 0]
[label_column: ]
[weight_column: ]
[group_column: ]
[ignore_column: ]
[categorical_feature: ]
[forcedbins_filename: ]
[precise_float_parser: 0]
[objective_seed: 7268]
[num_class: 1]
[is_unbalance: 0]
[scale_pos_weight: 1]
[sigmoid: 1]
[boost_from_average: 1]
[reg_sqrt: 0]
[alpha: 0.9]
[fair_c: 1]
[poisson_max_delta_step: 0.7]
[tweedie_variance_power: 1.5]
[lambdarank_truncation_level: 30]
[lambdarank_norm: 1]
[label_gain: ]
[eval_at: ]
[multi_error_top_k: 1]
[auc_mu_weights: ]
[num_machines: 1]
[local_listen_port: 12400]
[time_out: 120]
[machine_list_filename: ]
[machines: ]
[gpu_platform_id: -1]
[gpu_device_id: -1]
[gpu_use_dp: 0]
[num_gpu: 1]

end of parameters

pandas_categorical:null
