tree
version=v3
num_class=1
num_tree_per_iteration=1
label_index=0
max_feature_idx=72
objective=regression
feature_names=Column_0 Column_1 Column_2 Column_3 Column_4 Column_5 Column_6 Column_7 Column_8 Column_9 Column_10 Column_11 Column_12 Column_13 Column_14 Column_15 Column_16 Column_17 Column_18 Column_19 Column_20 Column_21 Column_22 Column_23 Column_24 Column_25 Column_26 Column_27 Column_28 Column_29 Column_30 Column_31 Column_32 Column_33 Column_34 Column_35 Column_36 Column_37 Column_38 Column_39 Column_40 Column_41 Column_42 Column_43 Column_44 Column_45 Column_46 Column_47 Column_48 Column_49 Column_50 Column_51 Column_52 Column_53 Column_54 Column_55 Column_56 Column_57 Column_58 Column_59 Column_60 Column_61 Column_62 Column_63 Column_64 Column_65 Column_66 Column_67 Column_68 Column_69 Column_70 Column_71 Column_72
feature_infos=[5:56] [5444.964772202371:34830.782809281292] [5400:36097.546012269937] [5400:36097.546012269937] [5400:36097.546012269937] [5400:36097.546012269937] [5400:36097.546012269937] [5400:36097.546012269937] [5400:36097.546012269937] [5400:36097.546012269937] [5400:36097.546012269937] [5400:36097.546012269937] [5400.0000060742723:10800.000170809659] [5400.0000060742723:10800.000170271722] [5400.6377561037261:10800.000142357654] [5427.0114336387342:10802.378597712463] [5427.0114336387342:10802.378597712463] [5427.0114336387342:10802.378597712463] [5411.4833430101071:10824.369168355082] [5411.4833430101071:10824.369168355082] [5411.4833430101071:10824.369168355082] [5833.48486328125:11705.0947265625] [5833.48486328125:11705.0947265625] [5833.48486328125:11705.0947265625] [5429.9079003158149:10799.98731365178] [5606.13330078125:11693.0390625] [5606.13330078125:11693.0390625] [5606.13330078125:11693.0390625] [5826.51171875:11765.7724609375] [5826.51171875:11765.7724609375] [5826.51171875:11765.7724609375] [5410.93115234375:11710.005859375] [5697.2599803435423:12169.21654132908] [5697.2599803435423:12169.21654132908] [5697.2599803435423:12169.21654132908] [5739.6144770192222:11973.646284864382] [5739.6144770192222:11973.646284864382] [5739.6144770192222:11973.646284864382] [5766.6227376700017:11708.156873723416] [5766.6227376700017:11708.156873723416] [5766.6227376700017:11708.156873723416] [5400:12406.854860656607] [5400:11702.084126378597] [5400:11702.084126378597] [5400:11702.084126378597] [5400:11702.084126378597] [5400:11702.084126378597] [5400:11702.084126378597] [5400:11702.084126378597] [5400:11702.084126378597] [5400:11702.084126378597] [5400:11702.084126378597] [5448.9973516312593:12390.272091594814] [5569.0077228318178:12695.950666046418] [5517.1344013257558:11865.888611784518] [5850.5549356312858:11453.941784757943] [5850.5549356312858:11453.941784757943] [5850.5549356312858:11453.941784757943] [5850.5549356312858:11453.941784757943] [5850.5549356312858:11453.941784757943] [5850.5549356312858:11453.941784757943] [5850.5549356312858:11453.941784757943] [5850.5549356312858:11453.941784757943] [5850.5549356312858:11453.941784757943] [5850.554932927068:11453.941371529456] [4971.0528430156328:11643.484449980011] [5222.7211023445479:13540.430952399904] [5078.4213707715162:13834.320049432148] [5901.1693940423966:15473.864126395112] [4673.0625441292268:12008.482444389463] [5266.7974509333126:12412.170401000874] [3824.0249138868999:12367.273851514268] [5774.1865476673202:9349.5351825744892]
tree_sizes=2824 2827 2828 2857 2847 2857 2866 2886

Tree=0
num_leaves=31
num_cat=0
split_feature=55 53 12 1 42 12 1 54 21 18 12 52 35 1 0 21 25 1 1 13 41 12 17 12 0 17 1 0 1 1
split_gain=168.167 12.4333 10.3048 6.20277 3.67859 2.43048 2.0685 1.72628 1.63708 1.49791 1.09067 0.823492 0.637061 0.620588 0.537243 0.52865 0.355388 0.332315 0.328765 0.227553 0.161665 0.189046 0.168022 0.149078 0.102919 0.0888723 0.0541844 0.0427385 0.0420939 0.026867
threshold=7923.3927285645323 9603.9094351186741 7200.7763138830733 31162.97330630256 5858.0824392601326 7199.6676750720071 21041.298537650295 7627.3724155664613 10722.692871093752 10799.986512343059 9950.6847222535016 5879.8215834493794 7981.4430322336248 34776.478302512391 40.500000000000007 11347.579589843752 6037.2236328125009 12870.209739330887 31308.46222261569 7466.0301030055061 7562.0788802767265 8587.6088493344814 8924.1292100928968 10800.000142357609 31.000000000000004 7203.4098102107027 18805.335867272679 31.000000000000004 29949.911016356426 19510.122719657418
decision_type=2 2 2 2 2 2 2 2 2 2 2 2 2 2 2 2 2 2 2 2 2 2 2 2 2 2 2 2 2 2
left_child=2 5 4 9 16 -2 7 11 23 15 12 -6 -7 18 -4 27 -1 -13 -10 -14 -21 26 -23 -5 -20 -19 -22 -3 -17 -16
right_child=1 3 14 8 6 10 -8 -9 13 -11 -12 17 19 -15 29 28 -18 25 24 20 21 22 -24 -25 -26 -27 -28 -29 -30 -31
leaf_value=-0.014603662839261808 0.12495799479501619 0.1225687193419826 0.016620670699295594 0.10937750322771957 -0.031089601928784062 0.019579843042284172 -0.070289000955210276 0.015111197606353226 0.087668262973763969 0.088031802133061901 0.074800599522540978 -0.024258103278954439 0.068393549467048786 0.041282969153868761 0.03295711024608277 0.14555073593831325 -0.0095607233572335189 -0.019344823403703686 0.065498526769753596 0.028506674735418701 0.042278556642635662 0.067632231725922975 0.046439091629057273 0.093187553334521389 0.0751230441180777 -0.012788524249255875 0.031076360062355615 0.11354868267109326 0.13592878524490659 0.039496754671930673
leaf_weight=1408 15.999999999999998 47 132 35 505 44 38 46 45 45 46 925 15.999999999999998 29 54 44 927 561 132 25 31 15.999999999999998 231 65 67 97 39 38 31 47
leaf_count=1408 16 47 132 35 505 44 38 46 45 45 46 925 16 29 54 44 927 561 132 25 31 16 231 65 67 97 39 38 31 47
internal_value=-3.48819e-09 0.0727472 -0.0159921 0.0923214 -0.0181124 0.0483638 -0.0240367 -0.0232131 0.0769617 0.120268 0.0456283 -0.0240574 0.0422901 0.0689426 0.0250213 0.129335 -0.0126016 -0.0218141 0.07223 0.0450813 0.0439907 0.0452119 0.0478119 0.098854 0.0687389 -0.0183783 0.0360373 0.118536 0.141574 0.0360003
internal_weight=0 1042 4740 578 4507 464 2172 2134 373 205 448 2088 402 273 233 160 2335 1583 244 358 342 317 247 100 199 658 70 85 75 101
internal_count=5782 1042 4740 578 4507 464 2172 2134 373 205 448 2088 402 273 233 160 2335 1583 244 358 342 317 247 100 199 658 70 85 75 101
is_linear=0
shrinkage=1


Tree=1
num_leaves=31
num_cat=0
split_feature=55 53 12 1 12 12 1 54 21 19 12 35 1 25 52 0 21 1 15 13 12 41 12 15 0 0 25 12 0 1
split_gain=107.627 7.95731 6.59505 3.96977 2.36923 1.55551 1.24792 1.18587 1.04773 0.958664 0.698027 0.407719 0.397176 0.37221 0.354925 0.343836 0.338336 0.21041 0.180555 0.145634 0.116843 0.106994 0.0954097 0.0873907 0.0661918 0.0658678 0.0582747 0.0497833 0.0273526 0.0269401
threshold=7923.3927285645323 9603.9094351186741 7200.7763138830733 31162.97330630256 6599.9999993006159 7199.6676750720071 21041.298537650295 7627.3724155664613 10722.692871093752 10799.986512343059 9950.6847222535016 7981.4430322336248 34776.478302512391 6037.2236328125009 5879.8215834493794 40.500000000000007 11347.579589843752 31308.46222261569 7203.4098102107027 7466.0301030055061 6299.9999975303899 10577.451054875974 10800.000142357609 8978.7960723177257 22.000000000000004 31.000000000000004 8060.1623535156259 8169.0025521209609 31.000000000000004 29949.911016356426
decision_type=2 2 2 2 2 2 2 2 2 2 2 2 2 2 2 2 2 2 2 2 2 2 2 2 2 2 2 2 2 2
left_child=2 5 4 9 13 -2 7 14 22 16 11 -7 17 20 -6 -4 28 -10 -16 -13 -1 23 -5 26 -23 -19 -21 -28 -3 -18
right_child=1 3 15 8 6 10 -8 -9 12 -11 -12 19 -14 -15 18 -17 29 25 -20 21 -22 24 -24 -25 -26 -27 27 -29 -30 -31
leaf_value=-0.01524491496072404 0.099966396205127248 0.098054979551345747 0.013296541470018301 0.087502009357724883 -0.024871681663069398 0.015663875402374704 -0.056231195754126495 0.01208895963171254 0.070134613596730774 0.070425445768568254 0.059840485615574791 0.054714841849636292 0.03302637765119816 -0.0076485761912477319 -0.01926484184175346 0.028800252592652155 0.11644059324806387 0.052398826977746053 -0.010230814287266167 0.036344549562782047 -0.011625598092294048 0.054105790657922627 0.074550044376116537 0.03693300607173066 0.038829388221104939 0.0600984351125671 0.03382285218085012 0.024058065866120162 0.090838949774440972 0.10874303052982977
leaf_weight=478 15.999999999999998 47 132 35 505 44 38 46 45 45 46 15.999999999999998 29 927 1009 101 44 132 97 40 1407 15.999999999999998 65 152 39 67 31 64 38 31
leaf_count=478 16 47 132 35 505 44 38 46 45 45 46 16 29 927 1009 101 44 132 97 40 1407 16 65 152 39 67 31 64 38 31
internal_value=0 0.0581977 -0.0127937 0.0738571 -0.0144899 0.038691 -0.0203962 -0.0195744 0.0615694 0.0962148 0.0365026 0.0338321 0.0551541 -0.0109298 -0.0204785 0.020017 0.103468 0.057784 -0.0184725 0.0360651 -0.0125434 0.0351926 0.0790832 0.033644 0.0432734 0.0549912 0.0299408 0.0272445 0.094829 0.113259
internal_weight=0 1042 4740 578 4507 464 1695 1657 373 205 448 402 273 2812 1611 233 160 244 1106 358 1885 342 100 287 55 199 135 95 85 75
internal_count=5782 1042 4740 578 4507 464 1695 1657 373 205 448 402 273 2812 1611 233 160 244 1106 358 1885 342 100 287 55 199 135 95 85 75
is_linear=0
shrinkage=0.2


Tree=2
num_leaves=31
num_cat=0
split_feature=55 53 12 1 12 12 1 54 21 18 12 36 1 25 36 0 21 1 15 69 15 41 12 12 12 0 0 0 1 1
split_gain=68.8811 5.09268 4.22083 2.54065 1.51631 0.995524 0.798668 0.758958 0.670546 0.613545 0.446737 0.26094 0.254193 0.238214 0.229297 0.220055 0.216535 0.134662 0.117865 0.097437 0.116735 0.0775617 0.0747796 0.0610621 0.042315 0.0421554 0.0247809 0.0175057 0.0172417 0.0171949
threshold=7923.3927285645323 9603.9094351186741 7200.7763138830733 31162.97330630256 6599.9999993006159 7199.6676750720071 21041.298537650295 7627.3724155664613 10722.692871093752 10799.986512343059 9950.6847222535016 7981.4430322336248 34776.478302512391 6037.2236328125009 5851.6949903573668 40.500000000000007 11347.579589843752 31308.46222261569 7203.4098102107027 9484.6463442247768 8924.1292100928968 7562.0788802767265 6299.9999975303899 10800.000142357609 7200.0000077277282 31.000000000000004 14.000000000000002 31.000000000000004 29949.911016356426 19510.122719657418
decision_type=2 2 2 2 2 2 2 2 2 2 2 2 2 2 2 2 2 2 2 2 2 2 2 2 2 2 2 2 2 2
left_child=2 5 4 9 13 -2 7 14 23 16 11 26 17 22 -6 -4 27 -10 -16 20 24 -22 -1 -5 -13 -19 -7 -3 -18 -17
right_child=1 3 15 8 6 10 -8 -9 12 -11 -12 19 -14 -15 18 29 28 25 -20 -21 21 -23 -24 -25 -26 -27 -28 -29 -30 -31
leaf_value=-0.012195927357577786 0.079973120149225002 0.078443982785052449 0.010637228326363997 0.070001601747104111 -0.020106078861062845 0.0077847226776859976 -0.044984958928666621 0.0096711749939814868 0.056107695048881905 0.056340355740653152 0.047872385026320172 0.03065448260555665 0.026421103151193982 -0.006118861049968255 -0.015472715372959392 0.020605641618991893 0.09315247217362578 0.04191905952086955 -0.0081846559506639389 0.021107618243179541 0.017993729233741759 0.029721019404146062 -0.009300476766185466 0.059640038380256069 0.043528251757379621 0.04807875196991572 0.017277481068264357 0.072671157435366993 0.086994425796212693 0.02583735675174505
leaf_weight=478 15.999999999999998 47 132 35 469 22 38 46 45 45 46 14.999999999999998 29 927 1045 54 44 132 97 55 25 231 1407 65 32 67 22 38 31 47
leaf_count=478 16 47 132 35 469 22 38 46 45 45 46 15 29 927 1045 54 44 132 97 55 25 231 1407 65 32 67 22 38 31 47
internal_value=0 0.0465582 -0.0102349 0.0590857 -0.0115919 0.0309528 -0.0163169 -0.0156595 0.0492555 0.0769718 0.0292021 0.0270657 0.0441233 -0.00874382 -0.0163828 0.0160136 0.0827744 0.0462272 -0.0148537 0.0288521 0.0302578 0.0285758 -0.0100347 0.0632666 0.0394196 0.0439929 0.0125311 0.0758632 0.0906071 0.0230402
internal_weight=0 1042 4740 578 4507 464 1695 1657 373 205 448 402 273 2812 1611 233 160 244 1142 358 303 256 1885 100 47 199 44 85 75 101
internal_count=5782 1042 4740 578 4507 464 1695 1657 373 205 448 402 273 2812 1611 233 160 244 1142 358 303 256 1885 100 47 199 44 85 75 101
is_linear=0
shrinkage=0.2


Tree=3
num_leaves=31
num_cat=0
split_feature=55 53 12 1 12 12 1 54 21 18 12 35 1 25 52 0 21 1 14 69 15 41 12 12 12 0 0 0 12 1
split_gain=44.0839 3.25932 2.70133 1.62602 0.970437 0.637136 0.511147 0.485733 0.429149 0.392669 0.285912 0.167002 0.162683 0.152457 0.147902 0.140835 0.138583 0.0861838 0.076369 0.0623597 0.0747103 0.0496395 0.047859 0.0390798 0.0270816 0.0269794 0.0158598 0.0157259 0.015221 0.0127581
threshold=7923.3927285645323 9603.9094351186741 7200.7763138830733 31162.97330630256 6599.9999993006159 7199.6676750720071 21041.298537650295 7627.3724155664613 10722.692871093752 10799.986512343059 9950.6847222535016 7981.4430322336248 34776.478302512391 6037.2236328125009 5879.8215834493794 40.500000000000007 11347.579589843752 31308.46222261569 7200.011360124935 9484.6463442247768 8924.1292100928968 7562.0788802767265 6299.9999975303899 10800.000142357609 7200.0000077277282 31.000000000000004 14.000000000000002 31.000000000000004 7200.0006533089518 12907.644475638774
decision_type=2 2 2 2 2 2 2 2 2 2 2 2 2 2 2 2 2 2 2 2 2 2 2 2 2 2 2 2 2 2
left_child=2 5 4 9 13 -2 7 14 23 16 11 26 17 22 -6 -4 -3 -10 -16 20 24 -22 -1 -5 -13 -19 -7 -23 -20 -24
right_child=1 3 15 8 6 10 -8 -9 12 -11 -12 19 -14 -15 18 -17 -18 25 28 -21 21 27 29 -25 -26 -27 -28 -29 -30 -31
leaf_value=-0.0097567446826018062 0.063978495611809197 0.060690550865495907 0.0085097872623891551 0.05600128135510854 -0.015942185768617854 0.0062277790158987052 -0.035987964468566995 0.0077369337820488481 0.044886151883337236 0.045072288066148762 0.038297909222867181 0.024523587177197142 0.021136882541508514 -0.0048950860741977234 -0.012436216996172473 0.018432163069080007 0.072485718136032426 0.033535248780566636 -0.0044742349931534307 0.016886096181855961 0.014394986271858215 0.024474144854335762 -0.0070035825164305801 0.047712028273023094 0.034822603373322637 0.038462997984085513 0.013821983608332547 0.019871780233723779 -0.0089148352667689328 -0.0082707494401286549
leaf_weight=478 15.999999999999998 85 132 35 505 22 38 46 45 45 46 14.999999999999998 29 927 969 101 75 132 47 55 25 196 922 65 32 67 22 35 90 485
leaf_count=478 16 85 132 35 505 22 38 46 45 45 46 15 29 927 969 101 75 132 47 55 25 196 922 65 32 67 22 35 90 485
internal_value=0 0.0372466 -0.00818796 0.0472686 -0.00927354 0.0247623 -0.0130535 -0.0125276 0.0394044 0.0615775 0.0233617 0.0216526 0.0352986 -0.00699505 -0.0131062 0.0128109 0.0662195 0.0369818 -0.0118113 0.0230817 0.0242063 0.0228606 -0.00802777 0.0506133 0.0315357 0.0351943 0.0100249 0.0237768 -0.00739142 -0.00744038
internal_weight=0 1042 4740 578 4507 464 1695 1657 373 205 448 402 273 2812 1611 233 160 244 1106 358 303 256 1885 100 47 199 44 231 137 1407
internal_count=5782 1042 4740 578 4507 464 1695 1657 373 205 448 402 273 2812 1611 233 160 244 1106 358 303 256 1885 100 47 199 44 231 137 1407
is_linear=0
shrinkage=0.2


Tree=4
num_leaves=31
num_cat=0
split_feature=55 53 12 1 12 12 65 1 21 1 12 35 1 25 0 35 1 1 0 1 69 15 41 12 12 12 0 14 1 0
split_gain=28.2137 2.08596 1.72885 1.04065 0.621079 0.407767 0.336481 0.303776 0.274656 0.261054 0.182984 0.106881 0.104117 0.0975728 0.0901345 0.081345 0.0554635 0.0551577 0.0508999 0.0409075 0.0399102 0.0478146 0.0317693 0.0306298 0.0250111 0.0173322 0.0172669 0.0167852 0.0110047 0.0101503
threshold=7923.3927285645323 9603.9094351186741 7200.7763138830733 31162.97330630256 6599.9999993006159 7199.6676750720071 7306.8112699976245 21041.298537650295 10722.692871093752 29791.786570560307 9950.6847222535016 7981.4430322336248 34776.478302512391 6037.2236328125009 40.500000000000007 5851.6949903573668 20653.463679586977 31308.46222261569 31.000000000000004 29913.315220094144 9484.6463442247768 8924.1292100928968 7562.0788802767265 6299.9999975303899 10800.000142357609 7200.0000077277282 31.000000000000004 7200.0272153277901 19510.122719657418 14.000000000000002
decision_type=2 2 2 2 2 2 2 2 2 2 2 2 2 2 2 2 2 2 2 2 2 2 2 2 2 2 2 2 2 2
left_child=2 5 4 9 13 -2 7 15 24 18 11 29 17 23 -4 -6 -8 -10 -3 -11 21 25 -23 -1 -5 -13 -19 -17 -16 -7
right_child=1 3 14 8 6 10 16 -9 12 19 -12 20 -14 -15 28 27 -18 26 -20 -21 -22 22 -24 -25 -26 -27 -28 -29 -30 -31
leaf_value=-0.0078053981813925579 0.051182799134403469 0.036057829151137005 0.0068078257623269706 0.044801026242119929 -0.012896426471629377 0.0049822237681258815 0.006189548062241596 -0.028790374683510318 0.035908923008375698 0.06002483779395168 0.030638327315935621 0.019618870715300246 0.016909505658108611 -0.0039160674027224531 0.012798080069047433 -0.0099828587202772292 -0.0035793849445403892 0.026828197821636091 0.045998818221452992 0.052398114913226802 0.013508877696638758 0.01151598945260048 0.01902145314800404 -0.0059523059907763166 0.038169624536083302 0.027858081308659167 0.030770401056133101 -0.0071318676343394647 0.016983458463181843 0.011057589812712237
leaf_weight=478 15.999999999999998 45 132 35 469 22 46 38 45 44 46 14.999999999999998 29 927 54 1005 47 132 38 78 55 25 231 1407 65 32 67 90 47 22
leaf_count=478 16 45 132 35 469 22 46 38 45 44 46 15 29 927 54 1005 47 132 38 78 55 25 231 1407 65 32 67 90 47 22
internal_value=0 0.0297972 -0.00655036 0.0378148 -0.00741883 0.0198098 -0.0104428 -0.0111218 0.0315235 0.049262 0.0186893 0.017322 0.0282389 -0.00559604 0.0102487 -0.0106925 0.00125256 0.0295854 0.0406091 0.0551487 0.0184653 0.019365 0.0182885 -0.00642221 0.0404906 0.0252285 0.0281555 -0.00974853 0.0147457 0.00801991
internal_weight=0 1042 4740 578 4507 464 1695 1602 373 205 448 402 273 2812 233 1564 93 244 83 122 358 303 256 1885 100 47 199 1095 101 44
internal_count=5782 1042 4740 578 4507 464 1695 1602 373 205 448 402 273 2812 233 1564 93 244 83 122 358 303 256 1885 100 47 199 1095 101 44
is_linear=0
shrinkage=0.2


Tree=5
num_leaves=31
num_cat=0
split_feature=55 53 12 1 12 12 1 54 25 1 41 1 66 37 37 0 15 14 0 15 15 15 38 12 12 1 1 12 0 0
split_gain=18.0568 1.33502 1.10647 0.666017 0.397491 0.260971 0.209366 0.198956 0.176383 0.167074 0.119093 0.0736436 0.0672654 0.0615572 0.0578446 0.0576861 0.0471968 0.0332513 0.032576 0.0321443 0.0302996 0.0294711 0.0202871 0.0213334 0.0189202 0.0117913 0.007043 0.00665202 0.00649617 0.00532574
threshold=7923.3927285645323 9603.9094351186741 7200.7763138830733 31162.97330630256 6599.9999993006159 7199.6676750720071 21041.298537650295 7627.3724155664613 10506.991699218752 29791.786570560307 10577.451054875974 34776.478302512391 5972.1852558195669 5851.6949903573668 7981.4430322336248 40.500000000000007 10764.269499135056 10009.538565731507 31.000000000000004 7203.4098102107027 10798.081972403003 7847.7287618782411 9173.1042730231475 9000.0000286281702 6317.5576622224144 31637.465284800932 19510.122719657418 8967.7792560447069 14.000000000000002 31.000000000000004
decision_type=2 2 2 2 2 2 2 2 2 2 2 2 2 2 2 2 2 2 2 2 2 2 2 2 2 2 2 2 2 2
left_child=2 5 4 9 12 -2 7 13 -5 18 14 16 -1 -6 28 -4 25 -12 -3 -15 -11 -16 23 27 -14 -10 -17 -23 -7 -27
right_child=1 3 15 8 6 10 -8 -9 11 20 17 -13 24 19 21 26 -18 -19 -20 -21 -22 22 -24 -25 -26 29 -28 -29 -30 -31
leaf_value=-0.005832252708899084 0.040946237510070205 0.02884625958071815 0.0054462601741154994 0.034188531653981814 -0.01031714158871376 0.0039857778867537323 -0.02303229783122477 0.0049516401051179224 0.019248497941427762 0.04661408210794131 0.023873802152792774 0.013527609256963278 -0.0044124036049571318 -0.0079189861978462162 0.022530089484644123 0.010238466301450025 0.028440335065730522 0.016420187858434823 0.036799055258253298 -0.0041129680561650664 0.040137453171166973 0.014396427035610252 0.010857691590649051 0.0092127922177314761 -0.0031328589934755237 0.022292828187346458 0.013586761493315089 0.016798859289674849 0.0088460713921284136 0.024616317784608301
leaf_weight=963 15.999999999999998 45 132 71 469 22 38 46 36 75 62 29 922 1045 15.999999999999998 54 74 39 38 97 47 107 74 25 927 96 47 81 22 67
leaf_count=963 16 45 132 71 469 22 38 46 36 75 62 29 922 1045 16 54 74 39 38 97 47 107 74 25 927 96 47 81 22 67
internal_value=0 0.0238378 -0.00524029 0.0302519 -0.00593507 0.0158478 -0.00835427 -0.00801766 0.0252188 0.0394096 0.0149515 0.0231101 -0.00447683 -0.00838798 0.0131922 0.00819898 0.024128 0.0209957 0.0324873 -0.00759571 0.044119 0.0141762 0.0137105 0.0147016 -0.0037709 0.0225244 0.0117966 0.0154315 0.00641592 0.0232479
internal_weight=0 1042 4740 578 4507 464 1695 1657 373 205 448 302 2812 1611 347 233 273 101 83 1142 122 303 287 213 1849 199 101 188 44 163
internal_count=5782 1042 4740 578 4507 464 1695 1657 373 205 448 302 2812 1611 347 233 273 101 83 1142 122 303 287 213 1849 199 101 188 44 163
is_linear=0
shrinkage=0.2


Tree=6
num_leaves=31
num_cat=0
split_feature=56 53 12 2 12 12 65 2 25 2 12 2 36 66 0 52 52 2 0 2 69 15 41 12 12 12 2 0 2 2
split_gain=11.5563 0.85441 0.708138 0.426251 0.254394 0.167021 0.142513 0.124265 0.112885 0.106928 0.0774676 0.047132 0.0435644 0.0430499 0.036919 0.0332831 0.0303936 0.0209381 0.0208486 0.0199109 0.0184697 0.0189467 0.0132007 0.0121089 0.00684963 0.00595697 0.0055528 0.00539239 0.00474019 0.00471128
threshold=7923.3927285645323 9603.9094351186741 7200.7763138830733 32311.625000000004 6599.9999993006159 7199.6676750720071 7306.8112699976245 21865.370585190871 10506.991699218752 30845.229707792212 9950.6847222535016 36092.366756134979 7981.4430322336248 5972.1852558195669 40.500000000000007 5879.8215834493794 11330.28533924827 21433.372845217018 31.000000000000004 30972.865506221529 9484.6463442247768 8924.1292100928968 7562.0788802767265 6317.5576622224144 7200.0006533089518 7200.0000077277282 32832.374792044306 31.000000000000004 31034.012996921785 35114.29934383458
decision_type=2 2 2 2 2 2 2 2 2 2 2 2 2 2 2 2 2 2 2 2 2 2 2 2 2 2 2 2 2 2
left_child=2 5 4 9 13 -2 7 15 29 18 12 16 -7 -1 -4 -6 -10 -8 -3 -11 21 25 -23 -15 -17 -14 -18 -24 -21 -5
right_child=1 3 14 8 6 10 17 -9 11 19 -12 -13 20 23 -16 24 26 -19 -20 28 -22 22 27 -25 -26 -27 -28 -29 -30 -31
leaf_value=-0.004665803593058267 0.032756989495828746 0.023077008600036305 0.0043570124713534662 0.029003118404320311 -0.0081867647598645107 0.0051327410831370143 0.0039613147792608846 -0.01842583772775374 0.021910751210870567 0.038697049423882912 0.019735904240413854 0.010822084192828887 0.012815809547901152 -0.0035299226090134226 0.0094372653614471468 -0.0063686008554555557 0.015398799296882419 -0.0020409139229896219 0.029439242027307813 0.032109962863490937 0.0084296713092110367 0.0073702300190925593 0.012616635362940784 -0.0025062878349918511 -0.0045445862909158077 0.017646074254298583 0.018207994244934977 0.0099215989985636313 0.035295959730302133 0.025744426824773355
leaf_weight=963 15.999999999999998 45 132 35 505 44 46 38 108 44 46 29 14.999999999999998 922 101 969 36 47 38 47 55 25 196 927 90 32 129 35 31 36
leaf_count=963 16 45 132 35 505 44 46 38 108 44 46 29 15 922 101 969 36 47 38 47 55 25 196 927 90 32 129 35 31 36
internal_value=0 0.0190702 -0.00419223 0.0242015 -0.00474805 0.0126783 -0.00668341 -0.00712527 0.0201751 0.0315277 0.0119612 0.018488 0.0110715 -0.00358147 0.00655918 -0.00685071 0.0193024 0.00092793 0.0259898 0.0352952 0.0118014 0.0124135 0.0117358 -0.00301672 -0.00621359 0.0161045 0.0175951 0.0122083 0.0333762 0.0273508
internal_weight=0 1042 4740 578 4507 464 1695 1602 373 205 448 302 402 2812 233 1564 273 93 83 122 358 303 256 1849 1059 47 165 231 78 71
internal_count=5782 1042 4740 578 4507 464 1695 1602 373 205 448 302 402 2812 233 1564 273 93 83 122 358 303 256 1849 1059 47 165 231 78 71
is_linear=0
shrinkage=0.2


Tree=7
num_leaves=31
num_cat=0
split_feature=55 55 12 69 42 21 27 12 1 65 12 35 35 0 1 27 12 1 1 69 15 66 69 1 1 0 72 12 1 21
split_gain=7.39605 0.523714 0.453208 0.213297 0.163454 0.133481 0.121249 0.106894 0.0908537 0.0766975 0.0495792 0.0336054 0.0278813 0.0236282 0.0205257 0.0153403 0.0136165 0.0134004 0.012743 0.0118206 0.0121259 0.0109934 0.00844843 0.0045457 0.0045075 0.00415754 0.00411794 0.00381246 0.00371496 0.0034964
threshold=7923.3927285645323 10957.521756204558 7200.7763138830733 9978.7654003214393 5858.0824392601326 10722.692871093752 11335.930175781252 7199.6676750720071 21041.298537650295 7306.8112699976245 9950.6847222535016 5842.7551055826125 7981.4430322336248 40.500000000000007 34776.478302512391 6037.2236328125009 10800.000142357609 20653.463679586977 29913.315220094144 9484.6463442247768 8924.1292100928968 5942.2719139999772 6450.943634799426 31637.465284800932 19510.122719657418 14.000000000000002 6424.7595947936652 7200.0000077277282 18392.092239574526 5982.8142089843759
decision_type=2 2 2 2 2 2 2 2 2 2 2 2 2 2 2 2 2 2 2 2 2 2 2 2 2 2 2 2 2 2
left_child=2 3 4 7 15 16 18 -2 9 11 12 -6 25 28 23 29 -5 -11 -3 20 27 -13 -22 -7 -15 -9 -24 -14 -4 -1
right_child=1 6 13 5 8 14 -8 10 -10 17 -12 21 19 24 -16 -17 -18 -19 -20 -21 22 -23 26 -25 -26 -27 -28 -29 -30 -31
leaf_value=-0.0028239387826925373 0.026205591857433319 0.030957640974189751 0.002424594867184307 0.023384112880042156 -0.0066163607072760302 0.01231903922226694 0.018559262166834539 0.0021620746701955795 -0.014740670452776709 0.0031690513472194259 0.015788717503133026 -0.0039425418473624648 0.010252645810445151 0.006303319621279284 0.0086576634183012213 -0.0020050269645008841 0.01940410594527538 -0.0016327360208998336 0.026700953527902943 0.0067437375811013308 0.0058961833715438852 -0.0050629044889191691 0.010915762287231139 0.014802239430736911 0.0089819509853073902 0.0060503056103532972 0.009146109433068584 0.014116859593195842 0.0045466170251143708 -0.0034868545818751979
leaf_weight=922 15.999999999999998 44 66 73 469 36 90 22 38 46 46 527 14.999999999999998 54 29 927 65 47 78 55 25 1045 81 163 47 22 150 32 66 486
leaf_count=922 16 44 66 73 469 36 90 22 38 46 46 527 15 54 29 927 65 47 78 55 25 1045 81 163 47 22 150 32 66 486
internal_value=0 0.0152562 -0.00335379 0.0129901 -0.00379844 0.0166001 0.024128 0.0101426 -0.00504725 -0.00487464 0.00956894 -0.00513059 0.00885723 0.00524734 0.0136286 -0.00263681 0.0215095 0.000742342 0.0282362 0.00944115 0.00993078 -0.00468731 0.00938866 0.014353 0.00754981 0.00410619 0.00976664 0.0128836 0.00348561 -0.00305276
internal_weight=0 1042 4740 830 4507 366 212 464 2172 2134 448 2041 402 233 228 2335 138 93 122 358 303 1572 256 199 101 44 231 47 132 1408
internal_count=5782 1042 4740 830 4507 366 212 464 2172 2134 448 2041 402 233 228 2335 138 93 122 358 303 1572 256 199 101 44 231 47 132 1408
is_linear=0
shrinkage=0.2


end of trees

feature_importances:
Column_12=52
Column_1=45
Column_0=28
Column_15=12
Column_21=11
Column_2=9
Column_25=8
Column_55=8
Column_35=7
Column_41=7
Column_53=7
Column_69=7
Column_52=5
Column_54=5
Column_14=3
Column_18=3
Column_36=3
Column_65=3
Column_66=3
Column_13=2
Column_17=2
Column_27=2
Column_37=2
Column_42=2
Column_19=1
Column_38=1
Column_56=1
Column_72=1

parameters:
[boosting: gbdt]
[objective: regression]
[metric: custom]
[tree_learner: serial]
[device_type: cpu]
[data: ]
[valid: ]
[num_iterations: 10000]
[learning_rate: 0.2]
[num_leaves: 31]
[num_threads: 0]
[deterministic: 0]
[force_col_wise: 0]
[force_row_wise: 0]
[histogram_pool_size: -1]
[max_depth: -1]
[min_data_in_leaf: 5]
[min_sum_hessian_in_leaf: 0.001]
[bagging_fraction: 0.8]
[pos_bagging_fraction: 1]
[neg_bagging_fraction: 1]
[bagging_freq: 0]
[bagging_seed: 20664]
[feature_fraction: 0.8]
[feature_fraction_bynode: 1]
[feature_fraction_seed: 4656]
[extra_trees: 0]
[extra_seed: 6363]
[early_stopping_round: 0]
[first_metric_only: 0]
[max_delta_step: 0]
[lambda_l1: 0]
[lambda_l2: 0]
[linear_lambda: 0]
[min_gain_to_split: 0]
[drop_rate: 0.1]
[max_drop: 50]
[skip_drop: 0.5]
[xgboost_dart_mode: 0]
[uniform_drop: 0]
[drop_seed: 24603]
[top_rate: 0.2]
[other_rate: 0.1]
[min_data_per_group: 100]
[max_cat_threshold: 32]
[cat_l2: 10]
[cat_smooth: 10]
[max_cat_to_onehot: 4]
[top_k: 20]
[monotone_constraints: ]
[monotone_constraints_method: basic]
[monotone_penalty: 0]
[feature_contri: ]
[forcedsplits_filename: ]
[refit_decay_rate: 0.9]
[cegb_tradeoff: 1]
[cegb_penalty_split: 0]
[cegb_penalty_feature_lazy: ]
[cegb_penalty_feature_coupled: ]
[path_smooth: 0]
[interaction_constraints: ]
[verbosity: -1]
[saved_feature_importance_type: 0]
[linear_tree: 0]
[max_bin: 255]
[max_bin_by_feature: ]
[min_data_in_bin: 3]
[bin_construct_sample_cnt: 200000]
[data_random_seed: 4094]
[is_enable_sparse: 1]
[enable_bundle: 1]
[use_missing: 1]
[zero_as_missing: 0]
[feature_pre_filter: 1]
[pre_partition: 0]
[two_round: 0]
[header: 0]
[label_column: ]
[weight_column: ]
[group_column: ]
[ignore_column: ]
[categorical_feature: ]
[forcedbins_filename: ]
[precise_float_parser: 0]
[objective_seed: 7268]
[num_class: 1]
[is_unbalance: 0]
[scale_pos_weight: 1]
[sigmoid: 1]
[boost_from_average: 1]
[reg_sqrt: 0]
[alpha: 0.9]
[fair_c: 1]
[poisson_max_delta_step: 0.7]
[tweedie_variance_power: 1.5]
[lambdarank_truncation_level: 30]
[lambdarank_norm: 1]
[label_gain: ]
[eval_at: ]
[multi_error_top_k: 1]
[auc_mu_weights: ]
[num_machines: 1]
[local_listen_port: 12400]
[time_out: 120]
[machine_list_filename: ]
[machines: ]
[gpu_platform_id: -1]
[gpu_device_id: -1]
[gpu_use_dp: 0]
[num_gpu: 1]

end of parameters

pandas_categorical:null
