tree
version=v3
num_class=1
num_tree_per_iteration=1
label_index=0
max_feature_idx=0
objective=regression
feature_names=Column_0
feature_infos=[5:56]
tree_sizes=670 663 661 659 662 664 663 663 660 665 666 664 668 668 669 669 671 670 671 670 671 671 668 668 672 672 672 668 674 675 675 672 673 675 676 676 675 675 675 678 676

Tree=0
num_leaves=6
num_cat=0
split_feature=0 0 0 0 0
split_gain=105.628 40.9635 18.6015 16.4137 0.465373
threshold=14.000000000000002 40.500000000000007 9.0000000000000018 22.000000000000004 31.000000000000004
decision_type=2 2 2 2 2
left_child=2 3 -1 -2 -5
right_child=1 -3 -4 4 -6
leaf_value=0.012430337349848717 0.0076769090453467342 -0.0015565441255861537 -0.004487955394316746 0.022720385076340398 0.020125945994818803
leaf_weight=169 307 403 4205 383 315
leaf_count=169 307 403 4205 383 315
internal_value=-3.48819e-09 0.0119113 -0.00383428 0.0173118 0.0215495
internal_weight=0 1408 4374 1005 698
internal_count=5782 1408 4374 1005 698
is_linear=0
shrinkage=1


Tree=1
num_leaves=6
num_cat=0
split_feature=0 0 0 0 0
split_gain=95.3295 36.9696 16.7878 14.8133 0.419999
threshold=14.000000000000002 40.500000000000007 9.0000000000000018 22.000000000000004 31.000000000000004
decision_type=2 2 2 2 2
left_child=2 3 -1 -2 -5
right_child=1 -3 -4 4 -6
leaf_value=0.011808824170237551 0.0072930665146741505 -0.0014787140960987686 -0.0042635537625382363 0.021584369895089779 0.019119652072706869
leaf_weight=169 307 403 4205 383 315
leaf_count=169 307 403 4205 383 315
internal_value=0 0.0113157 -0.00364256 0.0164462 0.0204721
internal_weight=0 1408 4374 1005 698
internal_count=5782 1408 4374 1005 698
is_linear=0
shrinkage=0.05


Tree=2
num_leaves=6
num_cat=0
split_feature=0 0 0 0 0
split_gain=86.0349 33.3651 15.151 13.369 0.379049
threshold=14.000000000000002 40.500000000000007 9.0000000000000018 22.000000000000004 31.000000000000004
decision_type=2 2 2 2 2
left_child=2 3 -1 -2 -5
right_child=1 -3 -4 4 -6
leaf_value=0.011218382714084797 0.0069284138491177011 -0.0014047768743473011 -0.0040503764891660337 0.020505150982395165 0.018163669349123088
leaf_weight=169 307 403 4205 383 315
leaf_count=169 307 403 4205 383 315
internal_value=0 0.0107499 -0.00346043 0.0156239 0.0194485
internal_weight=0 1408 4374 1005 698
internal_count=5782 1408 4374 1005 698
is_linear=0
shrinkage=0.05


Tree=3
num_leaves=6
num_cat=0
split_feature=0 0 0 0 0
split_gain=77.6465 30.112 13.6738 12.0656 0.342092
threshold=14.000000000000002 40.500000000000007 9.0000000000000018 22.000000000000004 31.000000000000004
decision_type=2 2 2 2 2
left_child=2 3 -1 -2 -5
right_child=1 -3 -4 4 -6
leaf_value=0.010657464053217301 0.006581993012746693 -0.001334538345084186 -0.0038478576175546121 0.019479893415427083 0.017255485590606454
leaf_weight=169 307 403 4205 383 315
leaf_count=169 307 403 4205 383 315
internal_value=0 0.0102125 -0.00328741 0.0148427 0.018476
internal_weight=0 1408 4374 1005 698
internal_count=5782 1408 4374 1005 698
is_linear=0
shrinkage=0.05


Tree=4
num_leaves=6
num_cat=0
split_feature=0 0 0 0 0
split_gain=70.076 27.176 12.3406 10.8892 0.308738
threshold=14.000000000000002 40.500000000000007 9.0000000000000018 22.000000000000004 31.000000000000004
decision_type=2 2 2 2 2
left_child=2 3 -1 -2 -5
right_child=1 -3 -4 4 -6
leaf_value=0.010124590448152065 0.0062528927279605941 -0.0012678112572396438 -0.0036554652120083055 0.018505898849839861 0.016392711981066635
leaf_weight=169 307 403 4205 383 315
leaf_count=169 307 403 4205 383 315
internal_value=0 0.00970183 -0.00312304 0.0141006 0.0175522
internal_weight=0 1408 4374 1005 698
internal_count=5782 1408 4374 1005 698
is_linear=0
shrinkage=0.05


Tree=5
num_leaves=6
num_cat=0
split_feature=0 0 0 0 0
split_gain=63.2436 24.5264 11.1374 9.82747 0.278636
threshold=14.000000000000002 40.500000000000007 9.0000000000000018 22.000000000000004 31.000000000000004
decision_type=2 2 2 2 2
left_child=2 3 -1 -2 -5
right_child=1 -3 -4 4 -6
leaf_value=0.0096183607688162635 0.0059402482857145011 -0.0012044207471429784 -0.003472692163015509 0.017580603574726041 0.015573076435941316
leaf_weight=169 307 403 4205 383 315
leaf_count=169 307 403 4205 383 315
internal_value=0 0.00921674 -0.00296689 0.0133956 0.0166746
internal_weight=0 1408 4374 1005 698
internal_count=5782 1408 4374 1005 698
is_linear=0
shrinkage=0.05


Tree=6
num_leaves=6
num_cat=0
split_feature=0 0 0 0 0
split_gain=57.0773 22.1351 10.0515 8.86929 0.251469
threshold=14.000000000000002 40.500000000000007 9.0000000000000018 22.000000000000004 31.000000000000004
decision_type=2 2 2 2 2
left_child=2 3 -1 -2 -5
right_child=1 -3 -4 4 -6
leaf_value=0.0091374425360789668 0.0056432371322029194 -0.001144200909614711 -0.0032990576093462733 0.016701572909999844 0.014794421820413498
leaf_weight=169 307 403 4205 383 315
leaf_count=169 307 403 4205 383 315
internal_value=0 0.0087559 -0.00281854 0.0127258 0.0158409
internal_weight=0 1408 4374 1005 698
internal_count=5782 1408 4374 1005 698
is_linear=0
shrinkage=0.05


Tree=7
num_leaves=6
num_cat=0
split_feature=0 0 0 0 0
split_gain=51.5123 19.9769 9.07147 8.00453 0.22695
threshold=14.000000000000002 40.500000000000007 9.0000000000000018 22.000000000000004 31.000000000000004
decision_type=2 2 2 2 2
left_child=2 3 -1 -2 -5
right_child=1 -3 -4 4 -6
leaf_value=0.0086805704264686662 0.0053610747370638374 -0.0010869912715356048 -0.0031341039566600707 0.015866494532942033 0.014054702201651205
leaf_weight=169 307 403 4205 383 315
leaf_count=169 307 403 4205 383 315
internal_value=0 0.0083181 -0.00267762 0.0120895 0.0150489
internal_weight=0 1408 4374 1005 698
internal_count=5782 1408 4374 1005 698
is_linear=0
shrinkage=0.05


Tree=8
num_leaves=6
num_cat=0
split_feature=0 0 0 0 0
split_gain=46.4898 18.0291 8.187 7.22409 0.204823
threshold=14.000000000000002 40.500000000000007 9.0000000000000018 22.000000000000004 31.000000000000004
decision_type=2 2 2 2 2
left_child=2 3 -1 -2 -5
right_child=1 -3 -4 4 -6
leaf_value=0.0082465424002616632 0.0050930209573152013 -0.0010326401110988101 -0.002977398175947749 0.015073170685075594 0.013351965637374966
leaf_weight=169 307 403 4205 383 315
leaf_count=169 307 403 4205 383 315
internal_value=0 0.0079022 -0.00254373 0.011485 0.0142964
internal_weight=0 1408 4374 1005 698
internal_count=5782 1408 4374 1005 698
is_linear=0
shrinkage=0.05


Tree=9
num_leaves=6
num_cat=0
split_feature=0 0 0 0 0
split_gain=41.9571 16.2713 7.38877 6.51974 0.184852
threshold=14.000000000000002 40.500000000000007 9.0000000000000018 22.000000000000004 31.000000000000004
decision_type=2 2 2 2 2
left_child=2 3 -1 -2 -5
right_child=1 -3 -4 4 -6
leaf_value=0.0078342149444695936 0.0048383706355473507 -0.00098100954160630421 -0.002828528964925252 0.014319511342005847 0.012684368609731635
leaf_weight=169 307 403 4205 383 315
leaf_count=169 307 403 4205 383 315
internal_value=0 0.00750709 -0.00241655 0.0109108 0.0135816
internal_weight=0 1408 4374 1005 698
internal_count=5782 1408 4374 1005 698
is_linear=0
shrinkage=0.05


Tree=10
num_leaves=6
num_cat=0
split_feature=0 0 0 0 0
split_gain=37.8663 14.6849 6.66836 5.88407 0.166829
threshold=14.000000000000002 40.500000000000007 9.0000000000000018 22.000000000000004 31.000000000000004
decision_type=2 2 2 2 2
left_child=2 3 -1 -2 -5
right_child=1 -3 -4 4 -6
leaf_value=0.0074425046023576568 0.0045964506081630045 -0.00093195709554714254 -0.0026871029803444669 0.013603536069256987 0.01205015029048636
leaf_weight=169 307 403 4205 383 315
leaf_count=169 307 403 4205 383 315
internal_value=0 0.00713174 -0.00229572 0.0103652 0.0129025
internal_weight=0 1408 4374 1005 698
internal_count=5782 1408 4374 1005 698
is_linear=0
shrinkage=0.05


Tree=11
num_leaves=6
num_cat=0
split_feature=0 0 0 0 0
split_gain=34.1743 13.2531 6.0182 5.31037 0.150563
threshold=14.000000000000002 40.500000000000007 9.0000000000000018 22.000000000000004 31.000000000000004
decision_type=2 2 2 2 2
left_child=2 3 -1 -2 -5
right_child=1 -3 -4 4 -6
leaf_value=0.0070703796937664938 0.004366629544330051 -0.00088536109383594681 -0.00255274773611356 0.012923359087006951 0.011447642768510537
leaf_weight=169 307 403 4205 383 315
leaf_count=169 307 403 4205 383 315
internal_value=0 0.00677515 -0.00218094 0.00984697 0.0122574
internal_weight=0 1408 4374 1005 698
internal_count=5782 1408 4374 1005 698
is_linear=0
shrinkage=0.05


Tree=12
num_leaves=6
num_cat=0
split_feature=0 0 0 0 0
split_gain=30.8423 11.9609 5.43142 4.79261 0.135883
threshold=14.000000000000002 40.500000000000007 9.0000000000000018 22.000000000000004 31.000000000000004
decision_type=2 2 2 2 2
left_child=2 3 -1 -2 -5
right_child=1 -3 -4 4 -6
leaf_value=0.0067168605949222693 0.0041482977963474372 -0.00084109303972478174 -0.0024251103384573098 0.012277190627131427 0.010875260446013677
leaf_weight=169 307 403 4205 383 315
leaf_count=169 307 403 4205 383 315
internal_value=0 0.00643639 -0.00207189 0.00935463 0.0116445
internal_weight=0 1408 4374 1005 698
internal_count=5782 1408 4374 1005 698
is_linear=0
shrinkage=0.05


Tree=13
num_leaves=6
num_cat=0
split_feature=0 0 0 0 0
split_gain=27.8352 10.7947 4.90186 4.32533 0.122635
threshold=14.000000000000002 40.500000000000007 9.0000000000000018 22.000000000000004 31.000000000000004
decision_type=2 2 2 2 2
left_child=2 3 -1 -2 -5
right_child=1 -3 -4 4 -6
leaf_value=0.0063810173912557978 0.0039408820339991235 -0.00079903725526589094 -0.0023038537509176842 0.011663332136041503 0.010331498031755763
leaf_weight=169 307 403 4205 383 315
leaf_count=169 307 403 4205 383 315
internal_value=0 0.00611457 -0.00196829 0.00888689 0.0110623
internal_weight=0 1408 4374 1005 698
internal_count=5782 1408 4374 1005 698
is_linear=0
shrinkage=0.05


Tree=14
num_leaves=6
num_cat=0
split_feature=0 0 0 0 0
split_gain=25.1212 9.74223 4.42393 3.90361 0.110678
threshold=14.000000000000002 40.500000000000007 9.0000000000000018 22.000000000000004 31.000000000000004
decision_type=2 2 2 2 2
left_child=2 3 -1 -2 -5
right_child=1 -3 -4 4 -6
leaf_value=0.0060619662278855345 0.0037438386777819341 -0.00075908548674701027 -0.0021886613308900568 0.011080165439973496 0.0098149221783710855
leaf_weight=169 307 403 4205 383 315
leaf_count=169 307 403 4205 383 315
internal_value=0 0.00580884 -0.00186988 0.00844255 0.0105092
internal_weight=0 1408 4374 1005 698
internal_count=5782 1408 4374 1005 698
is_linear=0
shrinkage=0.05


Tree=15
num_leaves=6
num_cat=0
split_feature=0 0 0 0 0
split_gain=22.6719 8.79237 3.99259 3.52301 0.099887
threshold=14.000000000000002 40.500000000000007 9.0000000000000018 22.000000000000004 31.000000000000004
decision_type=2 2 2 2 2
left_child=2 3 -1 -2 -5
right_child=1 -3 -4 4 -6
leaf_value=0.0057588682917756803 0.0035566463036590078 -0.00072113232324292741 -0.0020792285889369411 0.010526156659400961 0.0093241761182804427
leaf_weight=169 307 403 4205 383 315
leaf_count=169 307 403 4205 383 315
internal_value=0 0.0055184 -0.00177638 0.00802042 0.00998372
internal_weight=0 1408 4374 1005 698
internal_count=5782 1408 4374 1005 698
is_linear=0
shrinkage=0.05


Tree=16
num_leaves=6
num_cat=0
split_feature=0 0 0 0 0
split_gain=20.4614 7.93511 3.60332 3.17951 0.0901483
threshold=14.000000000000002 40.500000000000007 9.0000000000000018 22.000000000000004 31.000000000000004
decision_type=2 2 2 2 2
left_child=2 3 -1 -2 -5
right_child=1 -3 -4 4 -6
leaf_value=0.0054709248929477395 0.0033788140949638449 -0.00068507423062829612 -0.0019752667599228098 0.0099998496052159814 0.0088579662473842729
leaf_weight=169 307 403 4205 383 315
leaf_count=169 307 403 4205 383 315
internal_value=0 0.00524248 -0.00168757 0.0076194 0.00948453
internal_weight=0 1408 4374 1005 698
internal_count=5782 1408 4374 1005 698
is_linear=0
shrinkage=0.05


Tree=17
num_leaves=6
num_cat=0
split_feature=0 0 0 0 0
split_gain=18.4664 7.16144 3.25199 2.86951 0.0813587
threshold=14.000000000000002 40.500000000000007 9.0000000000000018 22.000000000000004 31.000000000000004
decision_type=2 2 2 2 2
left_child=2 3 -1 -2 -5
right_child=1 -3 -4 4 -6
leaf_value=0.0051973775732840725 0.003209872907846681 -0.00065082255800002749 -0.0018765039928977274 0.0094998565845631627 0.0084150679350372352
leaf_weight=169 307 403 4205 383 315
leaf_count=169 307 403 4205 383 315
internal_value=0 0.00498036 -0.00160319 0.00723843 0.0090103
internal_weight=0 1408 4374 1005 698
internal_count=5782 1408 4374 1005 698
is_linear=0
shrinkage=0.05


Tree=18
num_leaves=6
num_cat=0
split_feature=0 0 0 0 0
split_gain=16.6659 6.4632 2.93492 2.58973 0.0734259
threshold=14.000000000000002 40.500000000000007 9.0000000000000018 22.000000000000004 31.000000000000004
decision_type=2 2 2 2 2
left_child=2 3 -1 -2 -5
right_child=1 -3 -4 4 -6
leaf_value=0.0049375087799801987 0.0030493800049034899 -0.00061828011572337893 -0.0017826780747659905 0.0090248632117104054 0.0079943164095046034
leaf_weight=169 307 403 4205 383 315
leaf_count=169 307 403 4205 383 315
internal_value=0 0.00473134 -0.00152303 0.00687651 0.00855979
internal_weight=0 1408 4374 1005 698
internal_count=5782 1408 4374 1005 698
is_linear=0
shrinkage=0.05


Tree=19
num_leaves=6
num_cat=0
split_feature=0 0 0 0 0
split_gain=15.041 5.83303 2.64877 2.33724 0.0662671
threshold=14.000000000000002 40.500000000000007 9.0000000000000018 22.000000000000004 31.000000000000004
decision_type=2 2 2 2 2
left_child=2 3 -1 -2 -5
right_child=1 -3 -4 4 -6
leaf_value=0.0046906341352229994 0.0028969105320955334 -0.00058736504228810483 -0.0016935446595232691 0.0085736201587315493 0.0075945987780800181
leaf_weight=169 307 403 4205 383 315
leaf_count=169 307 403 4205 383 315
internal_value=0 0.00449477 -0.00144688 0.00653268 0.0081318
internal_weight=0 1408 4374 1005 698
internal_count=5782 1408 4374 1005 698
is_linear=0
shrinkage=0.05


Tree=20
num_leaves=6
num_cat=0
split_feature=0 0 0 0 0
split_gain=13.5745 5.26431 2.39051 2.10935 0.0598061
threshold=14.000000000000002 40.500000000000007 9.0000000000000018 22.000000000000004 31.000000000000004
decision_type=2 2 2 2 2
left_child=2 3 -1 -2 -5
right_child=1 -3 -4 4 -6
leaf_value=0.004456102587392873 0.0027520654140592397 -0.00055799712706173089 -0.0016088680963709677 0.0081449392268691922 0.0072148688105193697
leaf_weight=169 307 403 4205 383 315
leaf_count=169 307 403 4205 383 315
internal_value=0 0.00427003 -0.00137453 0.00620605 0.00772521
internal_weight=0 1408 4374 1005 698
internal_count=5782 1408 4374 1005 698
is_linear=0
shrinkage=0.05


Tree=21
num_leaves=6
num_cat=0
split_feature=0 0 0 0 0
split_gain=12.251 4.75105 2.15744 1.90369 0.0539748
threshold=14.000000000000002 40.500000000000007 9.0000000000000018 22.000000000000004 31.000000000000004
decision_type=2 2 2 2 2
left_child=2 3 -1 -2 -5
right_child=1 -3 -4 4 -6
leaf_value=0.0042332969335894264 0.0026144620613574206 -0.00053009934017519066 -0.0015284246198400274 0.0077376922968210894 0.0068541272210755526
leaf_weight=169 307 403 4205 383 315
leaf_count=169 307 403 4205 383 315
internal_value=0 0.00405653 -0.00130581 0.00589575 0.00733895
internal_weight=0 1408 4374 1005 698
internal_count=5782 1408 4374 1005 698
is_linear=0
shrinkage=0.05


Tree=22
num_leaves=6
num_cat=0
split_feature=0 0 0 0 0
split_gain=11.0565 4.28782 1.94709 1.71808 0.0487125
threshold=14.000000000000002 40.500000000000007 9.0000000000000018 22.000000000000004 31.000000000000004
decision_type=2 2 2 2 2
left_child=2 3 -1 -2 -5
right_child=1 -3 -4 4 -6
leaf_value=0.0040216324812341374 0.0024837388738941295 -0.0005035934109522709 -0.0014520027934834937 0.0073508078059152399 0.0065114192558186406
leaf_weight=169 307 403 4205 383 315
leaf_count=169 307 403 4205 383 315
internal_value=0 0.0038537 -0.00124052 0.00560096 0.006972
internal_weight=0 1408 4374 1005 698
internal_count=5782 1408 4374 1005 698
is_linear=0
shrinkage=0.05


Tree=23
num_leaves=6
num_cat=0
split_feature=0 0 0 0 0
split_gain=9.97852 3.86975 1.75725 1.55057 0.0439629
threshold=14.000000000000002 40.500000000000007 9.0000000000000018 22.000000000000004 31.000000000000004
decision_type=2 2 2 2 2
left_child=2 3 -1 -2 -5
right_child=1 -3 -4 4 -6
leaf_value=0.003820550542038221 0.0023595519667242559 -0.00047841291846048833 -0.0013794027702460968 0.0069832675148642984 0.00618584874958273
leaf_weight=169 307 403 4205 383 315
leaf_count=169 307 403 4205 383 315
internal_value=0 0.00366102 -0.00117849 0.00532091 0.0066234
internal_weight=0 1408 4374 1005 698
internal_count=5782 1408 4374 1005 698
is_linear=0
shrinkage=0.05


Tree=24
num_leaves=6
num_cat=0
split_feature=0 0 0 0 0
split_gain=9.00561 3.49245 1.58592 1.39939 0.0396765
threshold=14.000000000000002 40.500000000000007 9.0000000000000018 22.000000000000004 31.000000000000004
decision_type=2 2 2 2 2
left_child=2 3 -1 -2 -5
right_child=1 -3 -4 4 -6
leaf_value=0.0036295236099357082 0.0022415750256530235 -0.00045449277308073921 -0.0013104325710678437 0.0066341042235328303 0.0058765569252390709
leaf_weight=169 307 403 4205 383 315
leaf_count=169 307 403 4205 383 315
internal_value=0 0.00347797 -0.00111957 0.00505487 0.00629223
internal_weight=0 1408 4374 1005 698
internal_count=5782 1408 4374 1005 698
is_linear=0
shrinkage=0.05


Tree=25
num_leaves=6
num_cat=0
split_feature=0 0 0 0 0
split_gain=8.12757 3.15194 1.43129 1.26295 0.0358081
threshold=14.000000000000002 40.500000000000007 9.0000000000000018 22.000000000000004 31.000000000000004
decision_type=2 2 2 2 2
left_child=2 3 -1 -2 -5
right_child=1 -3 -4 4 -6
leaf_value=0.0034480468353488038 0.0021294957767043518 -0.00043176688839133753 -0.0012449109000923482 0.0063023983391473568 0.0055827276781201364
leaf_weight=169 307 403 4205 383 315
leaf_count=169 307 403 4205 383 315
internal_value=0 0.00330407 -0.00106359 0.00480212 0.00597762
internal_weight=0 1408 4374 1005 698
internal_count=5782 1408 4374 1005 698
is_linear=0
shrinkage=0.05


Tree=26
num_leaves=6
num_cat=0
split_feature=0 0 0 0 0
split_gain=7.33513 2.84463 1.29174 1.13981 0.0323168
threshold=14.000000000000002 40.500000000000007 9.0000000000000018 22.000000000000004 31.000000000000004
decision_type=2 2 2 2 2
left_child=2 3 -1 -2 -5
right_child=1 -3 -4 4 -6
leaf_value=0.0032756446877263003 0.0020230201518933624 -0.00041018054504571457 -0.0011826655477510742 0.0059872790145220883 0.0053035924029314801
leaf_weight=169 307 403 4205 383 315
leaf_count=169 307 403 4205 383 315
internal_value=0 0.00313887 -0.00101041 0.00456202 0.00567874
internal_weight=0 1408 4374 1005 698
internal_count=5782 1408 4374 1005 698
is_linear=0
shrinkage=0.05


Tree=27
num_leaves=6
num_cat=0
split_feature=0 0 0 0 0
split_gain=6.61995 2.56727 1.16579 1.02868 0.029166
threshold=14.000000000000002 40.500000000000007 9.0000000000000018 22.000000000000004 31.000000000000004
decision_type=2 2 2 2 2
left_child=2 3 -1 -2 -5
right_child=1 -3 -4 4 -6
leaf_value=0.0031118622363804009 0.0019218697048820775 -0.0003896713050292625 -0.0011235320196863801 0.005687915437852395 0.005038412399885674
leaf_weight=169 307 403 4205 383 315
leaf_count=169 307 403 4205 383 315
internal_value=0 0.00298192 -0.000959887 0.00433392 0.0053948
internal_weight=0 1408 4374 1005 698
internal_count=5782 1408 4374 1005 698
is_linear=0
shrinkage=0.05


Tree=28
num_leaves=6
num_cat=0
split_feature=0 0 0 0 0
split_gain=5.97451 2.31696 1.05213 0.928384 0.0263222
threshold=14.000000000000002 40.500000000000007 9.0000000000000018 22.000000000000004 31.000000000000004
decision_type=2 2 2 2 2
left_child=2 3 -1 -2 -5
right_child=1 -3 -4 4 -6
leaf_value=0.0029562697624622367 0.0018257754848790674 -0.00037018735699526615 -0.0010673552750336841 0.0054035190822357224 0.0047864917996856904
leaf_weight=169 307 403 4205 383 315
leaf_count=169 307 403 4205 383 315
internal_value=0 0.00283283 -0.000911893 0.00411722 0.00512506
internal_weight=0 1408 4374 1005 698
internal_count=5782 1408 4374 1005 698
is_linear=0
shrinkage=0.05


Tree=29
num_leaves=6
num_cat=0
split_feature=0 0 0 0 0
split_gain=5.39199 2.09106 0.949547 0.837867 0.0237558
threshold=14.000000000000002 40.500000000000007 9.0000000000000018 22.000000000000004 31.000000000000004
decision_type=2 2 2 2 2
left_child=2 3 -1 -2 -5
right_child=1 -3 -4 4 -6
leaf_value=0.0028084564576553702 0.0017344862723219475 -0.00035167880802329808 -0.0010139883948045957 0.0051333431476075454 0.0045471672297617985
leaf_weight=169 307 403 4205 383 315
leaf_count=169 307 403 4205 383 315
internal_value=0 0.00269119 -0.000866299 0.00391136 0.00486881
internal_weight=0 1408 4374 1005 698
internal_count=5782 1408 4374 1005 698
is_linear=0
shrinkage=0.05


Tree=30
num_leaves=6
num_cat=0
split_feature=0 0 0 0 0
split_gain=4.86628 1.88718 0.856966 0.756174 0.0214396
threshold=14.000000000000002 40.500000000000007 9.0000000000000018 22.000000000000004 31.000000000000004
decision_type=2 2 2 2 2
left_child=2 3 -1 -2 -5
right_child=1 -3 -4 4 -6
leaf_value=0.0026680335617409305 0.0016477636992931366 -0.00033409294652667076 -0.00096328880366571392 0.0048766763821463397 0.004319809518517956
leaf_weight=169 307 403 4205 383 315
leaf_count=169 307 403 4205 383 315
internal_value=0 0.00255663 -0.000822984 0.00371579 0.00462537
internal_weight=0 1408 4374 1005 698
internal_count=5782 1408 4374 1005 698
is_linear=0
shrinkage=0.05


Tree=31
num_leaves=6
num_cat=0
split_feature=0 0 0 0 0
split_gain=4.39181 1.70318 0.773411 0.682447 0.0193493
threshold=14.000000000000002 40.500000000000007 9.0000000000000018 22.000000000000004 31.000000000000004
decision_type=2 2 2 2 2
left_child=2 3 -1 -2 -5
right_child=1 -3 -4 4 -6
leaf_value=0.0025346308238473696 0.0015653744267135957 -0.00031738949907254935 -0.00091512405423460781 0.0046328423734433351 0.0041038173862865991
leaf_weight=169 307 403 4205 383 315
leaf_count=169 307 403 4205 383 315
internal_value=0 0.00242879 -0.000781834 0.00353 0.0043941
internal_weight=0 1408 4374 1005 698
internal_count=5782 1408 4374 1005 698
is_linear=0
shrinkage=0.05


Tree=32
num_leaves=6
num_cat=0
split_feature=0 0 0 0 0
split_gain=3.96361 1.53712 0.698003 0.615908 0.0174627
threshold=14.000000000000002 40.500000000000007 9.0000000000000018 22.000000000000004 31.000000000000004
decision_type=2 2 2 2 2
left_child=2 3 -1 -2 -5
right_child=1 -3 -4 4 -6
leaf_value=0.0024078993622031748 0.0014871065337999636 -0.00030151873367096743 -0.0008693675115825244 0.004401199963532252 0.0038986277142687453
leaf_weight=169 307 403 4205 383 315
leaf_count=169 307 403 4205 383 315
internal_value=0 0.00230736 -0.000742742 0.0033535 0.00417439
internal_weight=0 1408 4374 1005 698
internal_count=5782 1408 4374 1005 698
is_linear=0
shrinkage=0.05


Tree=33
num_leaves=6
num_cat=0
split_feature=0 0 0 0 0
split_gain=3.57716 1.38725 0.629948 0.555858 0.0157601
threshold=14.000000000000002 40.500000000000007 9.0000000000000018 22.000000000000004 31.000000000000004
decision_type=2 2 2 2 2
left_child=2 3 -1 -2 -5
right_child=1 -3 -4 4 -6
leaf_value=0.0022875038795166281 0.0014127506898770697 -0.00028644349511537155 -0.00082589997862206549 0.0041811400877345868 0.003703696493591581
leaf_weight=169 307 403 4205 383 315
leaf_count=169 307 403 4205 383 315
internal_value=0 0.00219199 -0.000705606 0.00318583 0.00396567
internal_weight=0 1408 4374 1005 698
internal_count=5782 1408 4374 1005 698
is_linear=0
shrinkage=0.05


Tree=34
num_leaves=6
num_cat=0
split_feature=0 0 0 0 0
split_gain=3.22838 1.25199 0.568529 0.501661 0.0142235
threshold=14.000000000000002 40.500000000000007 9.0000000000000018 22.000000000000004 31.000000000000004
decision_type=2 2 2 2 2
left_child=2 3 -1 -2 -5
right_child=1 -3 -4 4 -6
leaf_value=0.0021731304877558892 0.0013421133673273584 -0.00027212071909613116 -0.00078460423075458357 0.0039720828282615228 0.0035185107163020544
leaf_weight=169 307 403 4205 383 315
leaf_count=169 307 403 4205 383 315
internal_value=0 0.00208239 -0.000670325 0.00302653 0.00376739
internal_weight=0 1408 4374 1005 698
internal_count=5782 1408 4374 1005 698
is_linear=0
shrinkage=0.05


Tree=35
num_leaves=6
num_cat=0
split_feature=0 0 0 0 0
split_gain=2.91362 1.12993 0.513097 0.452749 0.0128367
threshold=14.000000000000002 40.500000000000007 9.0000000000000018 22.000000000000004 31.000000000000004
decision_type=2 2 2 2 2
left_child=2 3 -1 -2 -5
right_child=1 -3 -4 4 -6
leaf_value=0.0020644729582251177 0.0012750081860548317 -0.00025851674393517321 -0.00074537458495873969 0.0037734789846771383 0.0033425857765333996
leaf_weight=169 307 403 4205 383 315
leaf_count=169 307 403 4205 383 315
internal_value=0 0.00197827 -0.000636809 0.00287521 0.00357902
internal_weight=0 1408 4374 1005 698
internal_count=5782 1408 4374 1005 698
is_linear=0
shrinkage=0.05


Tree=36
num_leaves=6
num_cat=0
split_feature=0 0 0 0 0
split_gain=2.62954 1.01976 0.46307 0.408606 0.0115851
threshold=14.000000000000002 40.500000000000007 9.0000000000000018 22.000000000000004 31.000000000000004
decision_type=2 2 2 2 2
left_child=2 3 -1 -2 -5
right_child=1 -3 -4 4 -6
leaf_value=0.0019612494693551012 0.0012112573297324224 -0.00024558982009382423 -0.00070810532201508972 0.0035848053488345432 0.0031754565487305329
leaf_weight=169 307 403 4205 383 315
leaf_count=169 307 403 4205 383 315
internal_value=0 0.00187936 -0.000604968 0.00273145 0.00340007
internal_weight=0 1408 4374 1005 698
internal_count=5782 1408 4374 1005 698
is_linear=0
shrinkage=0.05


Tree=37
num_leaves=6
num_cat=0
split_feature=0 0 0 0 0
split_gain=2.37316 0.920332 0.417921 0.368767 0.0104555
threshold=14.000000000000002 40.500000000000007 9.0000000000000018 22.000000000000004 31.000000000000004
decision_type=2 2 2 2 2
left_child=2 3 -1 -2 -5
right_child=1 -3 -4 4 -6
leaf_value=0.0018631875258732654 0.0011506941328765612 -0.0002333108084703849 -0.00067270015515320618 0.0034055645828069657 0.0030166847411070077
leaf_weight=169 307 403 4205 383 315
leaf_count=169 307 403 4205 383 315
internal_value=0 0.00178539 -0.00057472 0.00259488 0.00323007
internal_weight=0 1408 4374 1005 698
internal_count=5782 1408 4374 1005 698
is_linear=0
shrinkage=0.05


Tree=38
num_leaves=6
num_cat=0
split_feature=0 0 0 0 0
split_gain=2.14178 0.8306 0.377173 0.332812 0.00943611
threshold=14.000000000000002 40.500000000000007 9.0000000000000018 22.000000000000004 31.000000000000004
decision_type=2 2 2 2 2
left_child=2 3 -1 -2 -5
right_child=1 -3 -4 4 -6
leaf_value=0.0017700270526441774 0.0010931604479648878 -0.00022164568878137148 -0.0006390653552424371 0.0032352860677773349 0.0028658497308395687
leaf_weight=169 307 403 4205 383 315
leaf_count=169 307 403 4205 383 315
internal_value=0 0.00169612 -0.000545984 0.00246513 0.00306856
internal_weight=0 1408 4374 1005 698
internal_count=5782 1408 4374 1005 698
is_linear=0
shrinkage=0.05


Tree=39
num_leaves=6
num_cat=0
split_feature=0 0 0 0 0
split_gain=1.93295 0.749615 0.340399 0.300363 0.00851614
threshold=14.000000000000002 40.500000000000007 9.0000000000000018 22.000000000000004 31.000000000000004
decision_type=2 2 2 2 2
left_child=2 3 -1 -2 -5
right_child=1 -3 -4 4 -6
leaf_value=0.0016815259022164273 0.0010385008616803717 -0.00021056167604563476 -0.00060711167101592145 0.0030735222636126274 0.0027225566927402741
leaf_weight=169 307 403 4205 383 315
leaf_count=169 307 403 4205 383 315
internal_value=0 0.00161131 -0.000518685 0.00234187 0.00291514
internal_weight=0 1408 4374 1005 698
internal_count=5782 1408 4374 1005 698
is_linear=0
shrinkage=0.05


Tree=40
num_leaves=6
num_cat=0
split_feature=0 0 0 0 0
split_gain=1.74449 0.676528 0.30721 0.271078 0.0076858
threshold=14.000000000000002 40.500000000000007 9.0000000000000018 22.000000000000004 31.000000000000004
decision_type=2 2 2 2 2
left_child=2 3 -1 -2 -5
right_child=1 -3 -4 4 -6
leaf_value=0.0015974489971995354 0.00098657695688792661 -0.0002000342983759422 -0.00057675627267041315 0.0029198461409181593 0.0025864292233295384
leaf_weight=169 307 403 4205 383 315
leaf_count=169 307 403 4205 383 315
internal_value=0 0.00153075 -0.000492751 0.00222478 0.00276938
internal_weight=0 1408 4374 1005 698
internal_count=5782 1408 4374 1005 698
is_linear=0
shrinkage=0.05


end of trees

feature_importances:
Column_0=205

parameters:
[boosting: gbdt]
[objective: regression]
[metric: custom]
[tree_learner: serial]
[device_type: cpu]
[data: ]
[valid: ]
[num_iterations: 10000]
[learning_rate: 0.05]
[num_leaves: 31]
[num_threads: 0]
[deterministic: 0]
[force_col_wise: 0]
[force_row_wise: 0]
[histogram_pool_size: -1]
[max_depth: -1]
[min_data_in_leaf: 5]
[min_sum_hessian_in_leaf: 0.001]
[bagging_fraction: 0.8]
[pos_bagging_fraction: 1]
[neg_bagging_fraction: 1]
[bagging_freq: 0]
[bagging_seed: 20664]
[feature_fraction: 0.8]
[feature_fraction_bynode: 1]
[feature_fraction_seed: 4656]
[extra_trees: 0]
[extra_seed: 6363]
[early_stopping_round: 0]
[first_metric_only: 0]
[max_delta_step: 0]
[lambda_l1: 0]
[lambda_l2: 0]
[linear_lambda: 0]
[min_gain_to_split: 0]
[drop_rate: 0.1]
[max_drop: 50]
[skip_drop: 0.5]
[xgboost_dart_mode: 0]
[uniform_drop: 0]
[drop_seed: 24603]
[top_rate: 0.2]
[other_rate: 0.1]
[min_data_per_group: 100]
[max_cat_threshold: 32]
[cat_l2: 10]
[cat_smooth: 10]
[max_cat_to_onehot: 4]
[top_k: 20]
[monotone_constraints: ]
[monotone_constraints_method: basic]
[monotone_penalty: 0]
[feature_contri: ]
[forcedsplits_filename: ]
[refit_decay_rate: 0.9]
[cegb_tradeoff: 1]
[cegb_penalty_split: 0]
[cegb_penalty_feature_lazy: ]
[cegb_penalty_feature_coupled: ]
[path_smooth: 0]
[interaction_constraints: ]
[verbosity: -1]
[saved_feature_importance_type: 0]
[linear_tree: 0]
[max_bin: 255]
[max_bin_by_feature: ]
[min_data_in_bin: 3]
[bin_construct_sample_cnt: 200000]
[data_random_seed: 4094]
[is_enable_sparse: 1]
[enable_bundle: 1]
[use_missing: 1]
[zero_as_missing: 0]
[feature_pre_filter: 1]
[pre_partition: 0]
[two_round: 0]
[header: 0]
[label_column: ]
[weight_column: ]
[group_column: ]
[ignore_column: ]
[categorical_feature: ]
[forcedbins_filename: ]
[precise_float_parser: 0]
[objective_seed: 7268]
[num_class: 1]
[is_unbalance: 0]
[scale_pos_weight: 1]
[sigmoid: 1]
[boost_from_average: 1]
[reg_sqrt: 0]
[alpha: 0.9]
[fair_c: 1]
[poisson_max_delta_step: 0.7]
[tweedie_variance_power: 1.5]
[lambdarank_truncation_level: 30]
[lambdarank_norm: 1]
[label_gain: ]
[eval_at: ]
[multi_error_top_k: 1]
[auc_mu_weights: ]
[num_machines: 1]
[local_listen_port: 12400]
[time_out: 120]
[machine_list_filename: ]
[machines: ]
[gpu_platform_id: -1]
[gpu_device_id: -1]
[gpu_use_dp: 0]
[num_gpu: 1]

end of parameters

pandas_categorical:null
