tree
version=v3
num_class=1
num_tree_per_iteration=1
label_index=0
max_feature_idx=1
objective=regression
feature_names=Column_0 Column_1
feature_infos=[5:56] [0:99]
tree_sizes=1440 1447 1436 1455 1438 1467 1451 1424 1445 1447 1436 1441 1449 1474 1432 1419 1436 1439 1430 1428 1444 1464 1455 1461 1435 1445 1473 1449 1466 1454 1454 1471 1490 1469 1453 1475 1452 1470 1477 1472 1472 1450 1482 1497 1487 1498 1469 1502 1494 1472 1470 1491 1483 1473

Tree=0
num_leaves=15
num_cat=0
split_feature=0 0 1 1 1 0 1 1 1 1 1 1 1 1
split_gain=91.9188 35.7186 19.1804 26.8819 23.9976 16.6493 26.0488 14.3166 13.7559 44.2344 12.78 11.2482 8.87442 12.8532
threshold=14.000000000000002 40.500000000000007 27.500000000000004 26.500000000000004 30.500000000000004 9.0000000000000018 93.500000000000014 93.500000000000014 66.500000000000014 67.500000000000014 13.500000000000002 94.500000000000014 49.500000000000007 71.500000000000014
decision_type=2 2 2 2 2 2 2 2 2 2 2 2 2 2
left_child=5 2 3 10 -4 6 -1 12 -7 -10 -2 -11 -3 -14
right_child=1 7 4 -5 -6 8 -8 -9 9 11 -12 -13 13 -15
leaf_value=0.011220546068180497 0.015447642262818733 0.0092540949066260789 -0.045463396043914625 0.15760366361116654 0.030931198837888148 -0.0044724062146632272 0.15034024482245528 0.055351242766950422 -0.09229416997779448 -0.016728962807472578 0.0680273209924738 0.0099692793561063781 -0.047219679429049116 0.0057270322758338973
leaf_weight=131 76 143 44 25 628 2434 14.999999999999998 38 74 1041 118 186 104 82
leaf_count=131 76 143 44 25 628 2434 15 38 74 1041 118 186 104 82
internal_value=3.20648e-09 0.0234906 0.034305 0.0600061 0.0259292 -0.00761432 0.0255137 -0.00276443 -0.00890928 -0.0172101 0.0474291 -0.0126818 -0.00947688 -0.0238776
internal_weight=0 1258 891 219 672 3881 146 367 3735 1301 194 1227 329 186
internal_count=5139 1258 891 219 672 3881 146 367 3735 1301 194 1227 329 186
is_linear=0
shrinkage=1


Tree=1
num_leaves=15
num_cat=0
split_feature=0 0 1 1 1 0 1 1 1 1 1 1 0 1
split_gain=74.4542 28.9321 15.5361 21.7744 19.4381 13.4859 21.0995 11.729 11.1423 35.9891 10.3518 8.44538 7.66564 7.59671
threshold=14.000000000000002 40.500000000000007 27.500000000000004 26.500000000000004 30.500000000000004 9.0000000000000018 93.500000000000014 97.500000000000014 66.500000000000014 69.500000000000014 13.500000000000002 94.500000000000014 22.000000000000004 35.500000000000007
decision_type=2 2 2 2 2 2 2 2 2 2 2 2 2 2
left_child=5 2 3 10 -4 6 -1 -3 -7 -10 12 -11 -2 -6
right_child=1 7 4 -5 13 8 -8 -9 9 11 -12 -13 -14 -15
leaf_value=0.010098487357715616 -0.059441506272802751 -0.0077244547092405391 -0.040917059508236972 0.14184329510480165 0.06167815527878702 -0.0040251688019662555 0.13530621786912284 0.058543856287824693 -0.072211786281787663 -0.014211804382760714 0.061224585281037802 0.0089723489292326472 0.027654947695555168 0.024263418941679871
leaf_weight=131 11.999999999999998 338 44 25 60 2434 14.999999999999998 29 103 1012 118 186 64 568
leaf_count=131 12 338 44 25 60 2434 15 29 103 1012 118 186 64 568
internal_value=0 0.0211415 0.0308745 0.0540055 0.0233363 -0.00685289 0.0229623 -0.00248799 -0.00801836 -0.0154891 0.0426862 -0.0106123 0.0139029 0.0278381
internal_weight=0 1258 891 219 672 3881 146 367 3735 1301 194 1198 76 628
internal_count=5139 1258 891 219 672 3881 146 367 3735 1301 194 1198 76 628
is_linear=0
shrinkage=0.1


Tree=2
num_leaves=15
num_cat=0
split_feature=0 0 0 1 1 0 1 1 1 1 1 1 1 1
split_gain=60.3079 23.435 12.9132 14.1573 11.5073 10.9236 17.0906 9.92793 9.67325 9.02524 30.0672 7.32741 7.18828 10.4111
threshold=14.000000000000002 40.500000000000007 22.000000000000004 35.500000000000007 44.500000000000007 9.0000000000000018 93.500000000000014 18.500000000000004 93.500000000000014 66.500000000000014 67.500000000000014 94.500000000000014 49.500000000000007 71.500000000000014
decision_type=2 2 2 2 2 2 2 2 2 2 2 2 2 2
left_child=5 2 4 7 -2 6 -1 -4 12 -7 -11 -12 -3 -14
right_child=1 8 3 -5 -6 9 -8 -9 -10 10 11 -13 13 -15
leaf_value=0.0090886393263367293 -0.030025607257567605 0.0091011256773278811 0.02948781575761595 0.022720725669377696 0.020319231553226 -0.0036226511705244359 0.12177559703588486 0.068997252634111439 0.045531242351831973 -0.075843577375132087 -0.013473313705106404 0.0080751123795566229 -0.041725268003602441 0.005926772738557037
leaf_weight=131 58 143 106 359 209 2434 14.999999999999998 159 38 74 1041 186 104 82
leaf_count=131 58 143 106 359 209 2434 15 159 38 74 1041 186 104 82
internal_value=0 0.0190274 0.027787 0.0356619 0.0093829 -0.0061676 0.0206661 0.0531935 -0.00223919 -0.00721652 -0.0139402 -0.0102068 -0.00775675 -0.0207174
internal_weight=0 1258 891 624 267 3881 146 265 367 3735 1301 1227 329 186
internal_count=5139 1258 891 624 267 3881 146 265 367 3735 1301 1227 329 186
is_linear=0
shrinkage=0.1


Tree=3
num_leaves=15
num_cat=0
split_feature=0 0 1 1 1 0 1 1 1 1 1 1 1 1
split_gain=48.8494 18.9823 11.5226 16.3981 14.6152 8.84812 13.8434 7.91986 7.56284 7.31044 24.3545 6.92501 6.13343 5.9352
threshold=14.000000000000002 40.500000000000007 27.500000000000004 26.500000000000004 30.500000000000004 9.0000000000000018 93.500000000000014 97.500000000000014 13.500000000000002 66.500000000000014 67.500000000000014 6.5000000000000009 1.5000000000000002 94.500000000000014
decision_type=2 2 2 2 2 2 2 2 2 2 2 2 2 2
left_child=5 2 3 8 -4 6 -1 -3 12 11 -11 -7 -2 -12
right_child=1 7 4 -5 -6 9 -8 -9 -10 10 13 -13 -14 -15
leaf_value=0.0081797760378085945 0.073041443087948632 -0.0063182243694325348 -0.037198571488261223 0.12115533137321473 0.022419985834283718 -0.018886869909667123 0.10959803521633149 0.048136346727802322 0.050951353807033875 -0.06825921937848467 -0.012125982908580335 -0.0014396853970978923 -0.0024011646901878222 0.0072676012322546975
leaf_weight=131 12.999999999999998 338 44 25 628 254 14.999999999999998 29 118 74 1041 2180 63 186
leaf_count=131 13 338 44 25 628 254 15 29 118 74 1041 2180 63 186
internal_value=0 0.0171247 0.0250083 0.0449288 0.0185164 -0.00555084 0.0185995 -0.00201527 0.0351058 -0.00649487 -0.0125462 -0.00326039 0.0105035 -0.00918612
internal_weight=0 1258 891 219 672 3881 146 367 194 3735 1301 2434 76 1227
internal_count=5139 1258 891 219 672 3881 146 367 194 3735 1301 2434 76 1227
is_linear=0
shrinkage=0.1


Tree=4
num_leaves=15
num_cat=0
split_feature=0 0 0 1 1 1 0 1 1 1 1 1 1 1
split_gain=39.568 15.3757 9.46176 10.3062 8.30628 7.40025 7.16698 11.2131 6.53627 5.92146 20.3232 5.82251 8.433 6.50272
threshold=14.000000000000002 40.500000000000007 22.000000000000004 35.500000000000007 44.500000000000007 18.500000000000004 9.0000000000000018 93.500000000000014 93.500000000000014 66.500000000000014 69.500000000000014 49.500000000000007 71.500000000000014 85.500000000000014
decision_type=2 2 2 2 2 2 2 2 2 2 2 2 2 2
left_child=6 2 4 5 -2 -4 7 -1 11 -8 -11 -3 -13 -14
right_child=1 8 3 -5 -6 -7 9 -9 -10 10 -12 12 13 -15
leaf_value=0.0073617981891645453 -0.026727882001934378 0.0088228390565129027 0.023739944653089141 0.018206655097123974 0.01604530874408033 0.057850969229010667 -0.0029343474281365595 0.098638231530785561 0.037454197342556554 -0.053916834745453272 -0.0076267676424850803 -0.036920918954106478 0.023548327727338017 -0.039136792589788853
leaf_weight=131 58 143 106 359 209 159 2434 14.999999999999998 38 103 1198 104 59 23
leaf_count=131 58 143 106 359 209 159 2434 15 38 103 1198 104 59 23
internal_value=0 0.0154122 0.0225075 0.0292483 0.00675375 0.0442066 -0.00499576 0.0167395 -0.00181375 -0.00584538 -0.0112915 -0.00634925 -0.0180138 0.00596592
internal_weight=0 1258 891 624 267 265 3881 146 367 3735 1301 329 186 82
internal_count=5139 1258 891 624 267 265 3881 146 367 3735 1301 329 186 82
is_linear=0
shrinkage=0.1


Tree=5
num_leaves=15
num_cat=0
split_feature=0 0 1 1 1 0 1 1 1 1 1 1 1 1
split_gain=32.0501 12.4543 8.55551 12.3572 11.0076 5.80525 9.08264 5.52004 6.05039 5.34744 4.8284 4.79638 16.5157 5.60926
threshold=14.000000000000002 40.500000000000007 27.500000000000004 26.500000000000004 30.500000000000004 9.0000000000000018 93.500000000000014 13.500000000000002 20.500000000000004 97.500000000000014 1.5000000000000002 66.500000000000014 67.500000000000014 6.5000000000000009
decision_type=2 2 2 2 2 2 2 2 2 2 2 2 2 2
left_child=5 2 3 7 -4 6 -1 10 -9 -3 -2 13 -13 -7
right_child=1 9 4 -5 -6 11 -8 8 -10 -11 -12 12 -14 -15
leaf_value=0.0066256193828036769 0.063363301793399912 -0.0051681136414849548 -0.033689295957711612 0.10359301519393922 0.018050485433992829 -0.016704750823876343 0.088774411492049704 0.048938741968568726 -0.036370912194252016 0.039577293049158725 -0.0035737508346164039 -0.056041613249800393 -0.0073954292368857283 -0.0010022825864036868
leaf_weight=131 12.999999999999998 338 44 25 628 254 14.999999999999998 109 8.9999999999999982 29 63 74 1227 2180
leaf_count=131 13 338 44 25 628 254 15 109 9 29 63 74 1227 2180
internal_value=0 0.013871 0.0202567 0.0374219 0.0146628 -0.00449618 0.0150656 0.0288946 0.0424321 -0.00163237 0.00787601 -0.00526084 -0.0101624 -0.00264091
internal_weight=0 1258 891 219 672 3881 146 194 118 367 76 3735 1301 2434
internal_count=5139 1258 891 219 672 3881 146 194 118 367 76 3735 1301 2434
is_linear=0
shrinkage=0.1


Tree=6
num_leaves=15
num_cat=0
split_feature=0 0 1 1 1 1 1 0 1 1 1 1 1 1
split_gain=26.0882 15.0069 8.64723 7.52247 7.20278 12.3214 7.2335 6.72404 6.12899 7.11246 7.1432 6.2817 5.70619 5.35185
threshold=22.000000000000004 40.500000000000007 93.500000000000014 35.500000000000007 66.500000000000014 68.500000000000014 73.500000000000014 9.0000000000000018 6.5000000000000009 20.500000000000004 21.500000000000004 1.5000000000000002 18.500000000000004 19.500000000000004
decision_type=2 2 2 2 2 2 2 2 2 2 2 2 2 2
left_child=2 3 4 12 8 -6 -7 -4 11 13 -11 -1 -2 -10
right_child=1 -3 7 -5 5 6 -8 -9 9 10 -12 -13 -14 -15
leaf_value=0.0069712612505366161 0.018821715329826443 -0.0014691354335115701 0.079896968801816307 0.014580940640295408 -0.044290641854399619 0.0097207639846911137 -0.011964790058546825 0.01070918222621707 0.0042261543224605038 -0.04650134879507517 -0.002683176331720512 -0.026171250556590697 0.048775018179941482 0.027233382141808184
leaf_weight=82 106 367 14.999999999999998 359 103 188 846 221 568 38 1775 189 159 123
leaf_count=82 106 367 15 359 103 188 846 221 568 38 1775 189 159 123
internal_value=0 0.0145769 -0.00348257 0.0240142 -0.00460401 -0.0113075 -0.00802196 0.0151067 -0.00185739 -0.000311313 -0.00360159 -0.0161429 0.0367937 0.00832151
internal_weight=0 991 4148 624 3912 1137 1034 236 2775 2504 1813 271 265 691
internal_count=5139 991 4148 624 3912 1137 1034 236 2775 2504 1813 271 265 691
is_linear=0
shrinkage=0.1


Tree=7
num_leaves=15
num_cat=0
split_feature=0 1 1 1 0 1 1 1 1 0 1 1 1 1
split_gain=21.4908 9.00219 10.0854 9.32329 7.28089 7.00989 6.19415 5.55679 5.49397 4.12212 5.84016 4.07378 10.6461 9.17088
threshold=14.000000000000002 27.500000000000004 26.500000000000004 30.500000000000004 40.500000000000007 71.500000000000014 49.500000000000007 12.500000000000002 20.500000000000004 9.0000000000000018 93.500000000000014 81.500000000000014 76.500000000000014 94.500000000000014
decision_type=2 2 2 2 2 2 2 2 2 2 2 2 2 2
left_child=9 2 7 -3 11 6 -6 -2 -9 10 -1 12 -5 -13
right_child=1 3 -4 4 5 -7 -8 8 -10 -11 -12 13 -14 -15
leaf_value=0.0060342560372962303 0.003340613378778748 -0.035396784640848639 0.076970910802483569 0.014300835008951341 0.0082215125945493059 0.013925862414762378 -0.03256510462289533 0.040259388530830623 -0.016098393241409211 -0.0043261073244339129 0.071907273530960089 0.067085705836200049 -0.056779850943183358 0.0077801547584033784
leaf_weight=131 115 50 35 499 58 120 104 128 20 3735 14.999999999999998 45 22 62
leaf_count=131 115 50 35 499 58 120 104 128 20 3735 15 45 22 62
internal_value=0 0.0113584 0.0265416 0.00664534 0.00895535 -0.00439298 -0.0179625 0.0198304 0.0326435 -0.00368176 0.012802 0.0149493 0.0112993 0.0327217
internal_weight=0 1258 298 960 910 282 162 263 148 3881 146 628 521 107
internal_count=5139 1258 298 960 910 282 162 263 148 3881 146 628 521 107
is_linear=0
shrinkage=0.1


Tree=8
num_leaves=15
num_cat=0
split_feature=0 0 1 1 1 1 1 1 1 1 0 1 1 1
split_gain=17.5847 10.2787 6.48118 6.249 6.98966 6.43989 12.5669 5.62317 4.56662 4.38469 4.24547 4.04138 3.85342 7.91092
threshold=22.000000000000004 40.500000000000007 93.500000000000014 88.500000000000014 89.500000000000014 84.500000000000014 82.500000000000014 35.500000000000007 60.500000000000007 18.500000000000004 9.0000000000000018 93.500000000000014 6.5000000000000009 20.500000000000004
decision_type=2 2 2 2 2 2 2 2 2 2 2 2 2 2
left_child=2 7 3 5 -5 6 12 9 -9 -2 -4 -3 -1 -14
right_child=1 11 10 4 -6 -7 -8 8 -10 -11 -12 -13 13 -15
leaf_value=-0.014151041037179669 0.015073004906188767 -0.004878452183016347 0.06471654574076334 -0.04535382690310881 -0.0071137718994308402 0.020105576229486929 -0.040960049859925435 -0.0074522137661935176 0.01829097983189373 0.041329751796317551 0.0097400482086574328 0.029565133977877467 0.0077490397971581712 -0.0043212475149479656
leaf_weight=271 106 329 14.999999999999998 74 135 118 88 93 266 159 221 38 691 2535
leaf_count=271 106 329 15 74 135 118 88 93 266 159 221 38 691 2535
internal_value=0 0.0119677 -0.0028592 -0.00383008 -0.0206533 -0.00288057 -0.00363715 0.0197781 0.0116221 0.0308271 0.0132343 -0.00131209 -0.00269794 -0.00173583
internal_weight=0 991 4148 3912 209 3703 3585 624 359 265 236 367 3497 3226
internal_count=5139 991 4148 3912 209 3703 3585 624 359 265 236 367 3497 3226
is_linear=0
shrinkage=0.1


Tree=9
num_leaves=15
num_cat=0
split_feature=0 1 1 1 0 1 1 1 1 1 1 1 1 1
split_gain=14.4924 6.58965 7.7736 7.64996 5.23395 5.25463 5.01726 3.97591 4.34451 3.52945 3.32779 3.30546 5.2873 4.84879
threshold=14.000000000000002 27.500000000000004 26.500000000000004 30.500000000000004 40.500000000000007 71.500000000000014 49.500000000000007 12.500000000000002 20.500000000000004 44.500000000000007 40.500000000000007 43.500000000000007 36.500000000000007 92.500000000000014
decision_type=2 2 2 2 2 2 2 2 2 2 2 2 2 2
left_child=11 2 7 -3 -5 6 9 -2 -9 10 -6 12 -1 -13
right_child=1 3 -4 4 5 -7 -8 8 -10 -11 -12 13 -14 -15
leaf_value=-0.002336052546587981 0.0024774229170187664 -0.03278782602027059 0.066591509947819372 0.01246955137429937 0.012975372487886085 0.011930407912780841 -0.028820745543075295 0.034036511303565935 -0.016080078873783349 0.065446639847424298 -0.04605194605313815 -0.0074445948459507492 0.012095748168706406 0.0082315106526421739
leaf_weight=1514 115 50 35 628 36 120 104 128 20 8.9999999999999982 12.999999999999998 1841 305 221
leaf_count=1514 115 50 35 628 36 120 104 128 20 9 13 1841 305 221
internal_value=0 0.00932744 0.0223177 0.00529504 0.0073875 -0.00392997 -0.0156784 0.0164258 0.027264 0.0078872 -0.00268494 -0.00302343 8.37931e-05 -0.00576447
internal_weight=0 1258 298 960 910 282 162 263 148 58 49 3881 1819 2062
internal_count=5139 1258 298 960 910 282 162 263 148 58 49 3881 1819 2062
is_linear=0
shrinkage=0.1


Tree=10
num_leaves=15
num_cat=0
split_feature=0 0 1 1 1 1 1 1 1 1 1 1 1 1
split_gain=11.8362 7.00441 4.4784 4.84333 5.60066 5.45542 9.88778 4.20525 3.89458 3.79495 3.57715 10.3107 3.95768 5.12386
threshold=22.000000000000004 40.500000000000007 93.500000000000014 88.500000000000014 89.500000000000014 84.500000000000014 82.500000000000014 35.500000000000007 81.500000000000014 44.500000000000007 66.500000000000014 67.500000000000014 6.5000000000000009 1.5000000000000002
decision_type=2 2 2 2 2 2 2 2 2 2 2 2 2 2
left_child=2 7 3 5 -5 6 8 -2 10 -9 12 -12 13 -1
right_child=1 -3 -4 4 -6 -7 -8 9 -10 -11 11 -13 -14 -15
leaf_value=0.0083554562998981018 0.025820989471877803 -0.0011438894048155532 0.011032066375837993 -0.0400739859990977 -0.0058437270602142372 0.018839478202290455 -0.03611958516042002 -0.027582255063148649 0.02329460066601129 0.012085862722597086 -0.04439919388639061 -0.0047962642793428212 0.00020174533115720718 -0.021577210472058999
leaf_weight=82 265 367 236 74 135 118 88 26 59 333 74 589 2504 189
leaf_count=82 265 367 236 74 135 118 88 26 59 333 74 589 2504 189
internal_value=0 0.00981858 -0.00234576 -0.00315281 -0.0179635 -0.00231688 -0.00301324 0.0162661 -0.00218014 0.00921296 -0.00261731 -0.0092165 -0.00104064 -0.0125201
internal_weight=0 991 4148 3912 209 3703 3585 624 3497 359 3438 663 2775 271
internal_count=5139 991 4148 3912 209 3703 3585 624 3497 359 3438 663 2775 271
is_linear=0
shrinkage=0.1


Tree=11
num_leaves=15
num_cat=0
split_feature=0 1 1 1 1 0 1 1 0 1 1 1 1 1
split_gain=9.65075 4.66476 6.27841 6.23557 4.50313 3.8931 3.98509 5.5284 3.62372 4.74802 3.5539 3.25596 4.96141 4.06398
threshold=14.000000000000002 27.500000000000004 30.500000000000004 26.500000000000004 88.500000000000014 40.500000000000007 76.500000000000014 81.500000000000014 31.000000000000004 90.500000000000014 66.500000000000014 85.500000000000014 71.500000000000014 49.500000000000007
decision_type=2 2 2 2 2 2 2 2 2 2 2 2 2 2
left_child=-1 3 -3 -2 5 6 10 -8 -6 -10 -4 12 13 -7
right_child=1 2 4 -5 8 11 7 -9 9 -11 -12 -13 -14 -15
leaf_value=-0.0024672302204363974 0.013264093773807807 -0.030281646199524406 0.0066619939754753964 0.058193882682493758 0.041959500549720571 0.0072128722155145528 -0.055386506249091 0.026866278460679145 0.08838176216397968 0.0024521119232419173 0.030963040302906721 -0.058438806111613908 0.01987382816308636 -0.02582428486964021
leaf_weight=3881 263 50 429 35 57 58 22 12.999999999999998 6.9999999999999991 79 70 11.999999999999998 59 104
leaf_count=3881 263 50 429 35 57 58 22 13 7 79 70 12 59 104
internal_value=0 0.00761154 0.00421883 0.0185411 0.00611446 0.00307702 0.00778308 -0.0248355 0.0224062 0.00944639 0.010071 -0.00770854 -0.00495395 -0.0139962
internal_weight=0 1258 960 298 910 767 534 35 143 86 499 233 221 162
internal_count=5139 1258 960 298 910 767 534 35 143 86 499 233 221 162
is_linear=0
shrinkage=0.1


Tree=12
num_leaves=15
num_cat=0
split_feature=0 0 1 1 1 1 1 0 1 1 1 1 1 0
split_gain=8.05665 4.77932 3.32628 4.48814 4.47544 5.61845 4.01809 3.57832 3.30842 3.36546 3.16926 3.16692 3.03543 3.02175
threshold=22.000000000000004 40.500000000000007 92.500000000000014 88.500000000000014 85.500000000000014 82.500000000000014 89.500000000000014 9.0000000000000018 35.500000000000007 18.500000000000004 60.500000000000007 81.500000000000014 97.500000000000014 31.000000000000004
decision_type=2 2 2 2 2 2 2 2 2 2 2 2 2 2
left_child=2 8 3 4 5 11 -5 -4 9 -2 -10 -1 -3 -12
right_child=1 12 7 6 -6 -7 -8 -9 10 -11 13 -13 -14 -15
leaf_value=-0.0021543055137847197 0.0080994529895625032 -0.0036185947709755431 0.05656525532404582 -0.035819862337430584 0.019204681493075831 -0.024918078972647587 -0.0061442857279497033 0.0062012682201238629 -0.0087197293237011916 0.031102924683254287 0.020932460685600781 0.021211863259421822 0.030093513750310604 -0.0011167993800211323
leaf_weight=3438 106 338 14.999999999999998 74 98 108 119 237 93 159 167 59 29 99
leaf_count=3438 106 338 15 74 98 108 119 237 93 159 167 59 29 99
internal_value=0 0.00810066 -0.00193533 -0.00265553 -0.00188066 -0.00245386 -0.0175225 0.00919912 0.0134265 0.0219015 0.00717054 -0.00176008 -0.000954695 0.0127262
internal_weight=0 991 4148 3896 3703 3605 193 252 624 265 359 3497 367 266
internal_count=5139 991 4148 3896 3703 3605 193 252 624 265 359 3497 367 266
is_linear=0
shrinkage=0.1


Tree=13
num_leaves=15
num_cat=0
split_feature=0 1 1 0 1 1 1 1 1 1 1 0 1 1
split_gain=6.52589 4.35843 5.34133 3.06784 5.2185 3.48964 2.70322 3.26818 8.61585 5.16144 3.60199 2.86027 2.7937 5.71945
threshold=22.000000000000004 28.500000000000004 18.500000000000004 31.000000000000004 64.500000000000014 30.500000000000004 93.500000000000014 66.500000000000014 68.500000000000014 73.500000000000014 64.500000000000014 9.0000000000000018 6.5000000000000009 20.500000000000004
decision_type=2 2 2 2 2 2 2 2 2 2 2 2 2 2
left_child=6 2 -2 4 -3 -5 7 10 -9 -10 12 -8 -1 -14
right_child=1 3 -4 5 -6 -7 11 8 9 -11 -12 -13 13 -15
leaf_value=-0.010863980538180834 0.0058313047811035306 0.0024208217690505039 0.03381647249994179 -0.056911306218667468 0.03552271643254374 5.0497066598832915e-05 0.050908727745215099 -0.034465342453111288 0.010850704480160742 -0.0074674443401788184 0.017471708280739386 0.0057836553305218932 0.0075231295497481497 -0.0032609384323276226
leaf_weight=271 158 149 120 10.999999999999998 70 483 14.999999999999998 103 188 846 107 221 691 1706
leaf_count=271 158 149 120 11 70 483 15 103 188 846 107 221 691 1706
internal_value=0 0.0072906 0.0179112 0.00314959 0.0130013 -0.00121788 -0.0017418 -0.00236881 -0.00688431 -0.00413687 -0.000518683 0.00865177 -0.00124019 -0.00015214
internal_weight=0 991 278 713 219 494 4148 3912 1137 1034 2775 236 2668 2397
internal_count=5139 991 278 713 219 494 4148 3912 1137 1034 2775 236 2668 2397
is_linear=0
shrinkage=0.1


Tree=14
num_leaves=15
num_cat=0
split_feature=0 1 1 1 1 1 1 0 0 1 1 1 1 1
split_gain=5.38882 2.73878 4.83585 4.32219 3.13514 3.34627 5.87007 4.56172 2.5906 3.07015 4.45613 2.63733 4.01874 3.29183
threshold=14.000000000000002 27.500000000000004 30.500000000000004 26.500000000000004 88.500000000000014 94.500000000000014 96.500000000000014 40.500000000000007 40.500000000000007 76.500000000000014 81.500000000000014 85.500000000000014 71.500000000000014 49.500000000000007
decision_type=2 2 2 2 2 2 2 2 2 2 2 2 2 2
left_child=-1 3 -3 -2 8 7 -7 -6 9 -4 -11 12 13 -10
right_child=1 2 4 -5 5 6 -8 -9 11 10 -12 -13 -14 -15
leaf_value=-0.00184364019724996 0.0096689747435752538 -0.027190551489591597 0.0080644125521989306 0.047075554270829476 0.061771913268785283 -0.037906775081699547 0.021114406276804706 -0.0023288036532261793 0.0068483975418875444 -0.050002687119624835 0.023843807899034942 -0.05223811691006025 0.018243252984800583 -0.022885046465895498
leaf_weight=3881 263 50 499 35 32 22 72 17 58 22 12.999999999999998 11.999999999999998 59 104
leaf_count=3881 263 50 499 35 32 22 72 17 58 22 13 12 59 104
internal_value=0 0.00568773 0.00308811 0.0140624 0.00475177 0.0183455 0.00730094 0.0395329 0.00221735 0.00605628 -0.022574 -0.00658087 -0.00410175 -0.0122397
internal_weight=0 1258 960 298 910 143 94 49 767 534 35 233 221 162
internal_count=5139 1258 960 298 910 143 94 49 767 534 35 233 221 162
is_linear=0
shrinkage=0.1


Tree=15
num_leaves=15
num_cat=0
split_feature=0 1 1 1 1 1 1 1 1 1 0 1 1 0
split_gain=4.4606 3.07231 4.51428 2.74587 2.9204 2.1777 2.38483 3.07373 3.07559 2.68921 2.17508 2.10129 2.19874 2.01723
threshold=22.000000000000004 35.500000000000007 60.500000000000007 49.500000000000007 44.500000000000007 18.500000000000004 20.500000000000004 25.500000000000004 28.500000000000004 31.500000000000004 9.0000000000000018 93.500000000000014 63.500000000000007 31.000000000000004
decision_type=2 2 2 2 2 2 2 2 2 2 2 2 2 2
left_child=10 5 3 4 -3 -2 -7 -8 -9 -10 11 12 -1 -4
right_child=1 2 13 -5 -6 6 7 8 9 -11 -12 -13 -14 -15
leaf_value=0.012625077286752585 0.0042812777297052589 -0.016389587693489516 0.015933184333502531 -0.024264990015961659 0.017816117207985371 0.037279495637733161 -0.024306623814137361 0.040432661852206703 -0.027586780400837171 0.016306933524230353 -0.0018774188016740273 0.046002219816048941 -0.020865715232988202 0.0018902938661278423
leaf_weight=107 158 52 167 87 48 57 19 44 17 78 4002 14.999999999999998 24 264
leaf_count=107 158 52 167 87 48 57 19 44 17 78 4002 15 24 264
internal_value=0 0.00602754 0.00170185 -0.0112735 2.91507e-05 0.0131945 0.0197447 0.0134188 0.0185756 0.00845227 -0.00144004 0.0105489 0.00648936 0.00733151
internal_weight=0 991 618 187 100 373 215 158 139 95 4148 146 131 431
internal_count=5139 991 618 187 100 373 215 158 139 95 4148 146 131 431
is_linear=0
shrinkage=0.1


Tree=16
num_leaves=15
num_cat=0
split_feature=0 1 1 1 1 1 1 1 1 1 1 1 1 1
split_gain=3.65465 2.2936 5.65598 4.30723 9.51034 3.73326 3.84507 2.28518 4.53073 2.41549 2.2001 4.09481 2.94239 3.3024
threshold=14.000000000000002 42.500000000000007 36.500000000000007 24.500000000000004 25.500000000000004 6.5000000000000009 1.5000000000000002 32.500000000000007 33.500000000000007 30.500000000000004 51.500000000000007 54.500000000000007 48.500000000000007 49.500000000000007
decision_type=2 2 2 2 2 2 2 2 2 2 2 2 2 2
left_child=1 2 3 5 -5 6 -1 9 -9 -6 12 -12 -3 -14
right_child=-2 10 -4 4 7 -7 -8 8 -10 -11 11 -13 13 -15
leaf_value=0.0094405664358197198 0.004683980565790764 -0.0053406876348208437 0.015046474071538663 -0.055157802147524693 -0.0061799662387655944 0.0051584935475344337 -0.016707451860082215 -0.043086902942599321 -0.00024045112152253431 0.015265672864686504 0.016525647747847771 -0.0035636732493402761 -0.057383258625864991 -0.014879026873420707
leaf_weight=82 1258 239 251 42 170 862 179 41 62 76 108 1676 25 68
leaf_count=82 1258 239 251 42 170 862 179 41 62 76 108 1676 25 68
internal_value=0 -0.00151828 0.0011435 -0.00116142 -0.0102008 0.00198585 -0.00849237 -0.00479047 -0.0172958 0.000445516 -0.00373853 -0.0023475 -0.0112132 -0.0263049
internal_weight=0 3881 1765 1514 391 1123 261 349 103 246 2116 1784 332 93
internal_count=5139 3881 1765 1514 391 1123 261 349 103 246 2116 1784 332 93
is_linear=0
shrinkage=0.1


Tree=17
num_leaves=15
num_cat=0
split_feature=0 1 1 1 1 1 1 1 1 1 1 1 1 1
split_gain=3.01609 2.48857 3.65657 2.22416 2.36552 2.01367 3.1985 4.24375 6.3781 3.25465 2.80029 2.13211 6.91917 3.20671
threshold=22.000000000000004 35.500000000000007 60.500000000000007 49.500000000000007 44.500000000000007 92.500000000000014 88.500000000000014 84.500000000000014 82.500000000000014 89.500000000000014 81.500000000000014 66.500000000000014 67.500000000000014 73.500000000000014
decision_type=2 2 2 2 2 2 2 2 2 2 2 2 2 2
left_child=5 -2 3 4 -3 6 7 8 10 -8 11 -1 -13 -14
right_child=1 2 -4 -5 -6 -7 9 -9 -10 -11 -12 12 13 -15
leaf_value=-0.00018889100586173236 0.011406655708841616 -0.015219026546065623 0.0061299579811721107 -0.022306889612441774 0.015566109326512865 0.007479171360295917 -0.030762658006436117 0.017569213663622487 -0.028293878898363226 -0.0040546382613041825 0.020565894916574706 -0.035322113174038966 0.0067808962517207673 -0.0085154030747431261
leaf_weight=2775 373 52 431 87 48 252 74 118 88 119 59 74 217 372
leaf_count=2775 373 52 431 87 48 252 74 118 88 119 59 74 217 372
internal_value=0 0.00495639 0.00106326 -0.0106145 -0.000442161 -0.00118413 -0.00174449 -0.00109036 -0.00170453 -0.014295 -0.00103543 -0.00140613 -0.00650092 -0.00287992
internal_weight=0 991 618 187 100 4148 3896 3703 3585 193 3497 3438 663 589
internal_count=5139 991 618 187 100 4148 3896 3703 3585 193 3497 3438 663 589
is_linear=0
shrinkage=0.1


Tree=18
num_leaves=15
num_cat=0
split_feature=0 0 1 1 1 1 1 1 1 1 1 1 1 1
split_gain=2.44303 2.26075 2.33654 2.09503 1.74532 4.94755 3.49503 5.56647 5.01848 8.38306 5.89696 2.92168 1.904 2.29463
threshold=22.000000000000004 31.000000000000004 64.500000000000014 63.500000000000007 5.5000000000000009 1.5000000000000002 20.500000000000004 21.500000000000004 19.500000000000004 17.500000000000004 15.500000000000002 13.500000000000002 92.500000000000014 88.500000000000014
decision_type=2 2 2 2 2 2 2 2 2 2 2 2 2 2
left_child=4 2 3 -2 5 -1 8 -8 9 10 11 -6 13 -9
right_child=1 -3 -4 -5 6 -7 7 12 -10 -11 -12 -13 -14 -15
leaf_value=0.0085154008392880603 0.0094283242261240848 0.0010244456251760857 0.027368001959153582 -0.023472294104950771 0.0054869787601151566 -0.02363394792009469 -0.040109655599256881 -0.0015791461557353862 0.023966167809638551 -0.036982591523259299 0.041859135451931054 -0.015517976855883351 0.0067312531341384681 -0.012865517863646689
leaf_weight=82 247 653 70 21 473 115 38 2703 123 51 41 77 252 193
leaf_count=82 247 653 70 21 473 115 38 2703 123 51 41 77 252 193
internal_value=0 0.00446075 0.0110995 0.00685029 -0.00106572 -0.010252 -0.000607684 -0.00206509 0.00546197 0.00191677 0.00527357 0.00254628 -0.00160585 -0.00233131
internal_weight=0 991 338 268 4148 197 3951 3186 765 642 591 550 3148 2896
internal_count=5139 991 338 268 4148 197 3951 3186 765 642 591 550 3148 2896
is_linear=0
shrinkage=0.1


Tree=19
num_leaves=15
num_cat=0
split_feature=0 1 1 1 0 1 1 1 1 1 1 1 0 1
split_gain=2.01262 1.90162 2.64725 4.59509 3.49585 2.40214 1.93545 3.49886 3.42003 2.93222 1.94852 4.03825 1.88015 2.01542
threshold=14.000000000000002 88.500000000000014 94.500000000000014 96.500000000000014 40.500000000000007 85.500000000000014 27.500000000000004 30.500000000000004 12.500000000000002 9.5000000000000018 80.500000000000014 76.500000000000014 40.500000000000007 71.500000000000014
decision_type=2 2 2 2 2 2 2 2 2 2 2 2 2 2
left_child=-1 5 4 -4 -3 6 8 -8 9 -2 11 12 -9 -14
right_child=1 2 3 -5 -6 -7 7 10 -10 -11 -12 -13 13 -15
leaf_value=-0.0011267036914379576 0.00042359520089333856 0.052645707398187372 -0.035488964312455872 0.016730629146978673 -0.0034687897738288434 -0.033168937501154454 -0.025484347533434634 0.0057043002259064626 0.018063786613139135 -0.062340392358601095 0.027720151948077337 -0.03280758069389883 -0.01013069050760227 0.020374659679830074
leaf_weight=3881 107 32 22 72 17 19 50 499 183 7.9999999999999991 28 34 162 25
leaf_count=3881 107 32 22 72 17 19 50 499 183 8 28 34 162 25
internal_value=0 0.00347594 0.0143325 0.00450902 0.0331774 0.00208358 0.00269471 0.000126729 0.00957139 -0.0039426 0.0018387 0.000832198 0.00249948 -0.00605244
internal_weight=0 1258 143 94 49 1115 1096 798 298 115 748 720 686 187
internal_count=5139 1258 143 94 49 1115 1096 798 298 115 748 720 686 187
is_linear=0
shrinkage=0.1


Tree=20
num_leaves=15
num_cat=0
split_feature=1 1 1 1 1 1 1 1 1 1 1 1 0 1
split_gain=1.90187 4.16622 2.61701 3.34249 5.377 2.60395 6.21931 2.03328 8.00877 7.03639 5.79255 2.50677 3.03241 2.01724
threshold=46.500000000000007 51.500000000000007 53.500000000000007 60.500000000000007 58.500000000000007 33.500000000000007 32.500000000000007 20.500000000000004 18.500000000000004 17.500000000000004 21.500000000000004 15.500000000000002 22.000000000000004 92.500000000000014
decision_type=2 2 2 2 2 2 2 2 2 2 2 2 2 2
left_child=5 -2 -3 4 -4 6 7 8 9 11 -9 -1 -13 -5
right_child=1 2 3 13 -6 -7 -8 10 -10 -11 -12 12 -14 -15
leaf_value=-0.00018683822679930001 -0.015528858723955284 0.01512372763082385 -0.0049192715108140632 -0.0015505183867991176 -0.042677979780516281 0.0072982954770504016 -0.038488737643673658 -0.039610375552659949 0.02207656168313063 -0.040852515072357369 -0.0011314934406644827 0.037411445215707877 0.0001984943100746642 0.0067351880494212315
leaf_weight=857 206 100 176 1753 48 672 41 42 191 41 571 41 47 353
leaf_count=857 206 100 176 1753 48 672 41 42 191 41 571 41 47 353
internal_value=0 -0.0018746 -0.000717078 -0.00139694 -0.0130104 0.00197421 2.02029e-05 0.000902251 0.00333454 -0.000296019 -0.00376789 0.00146357 0.0175363 -0.000161699
internal_weight=0 2636 2430 2330 224 2503 1831 1790 1177 986 613 945 88 2106
internal_count=5139 2636 2430 2330 224 2503 1831 1790 1177 986 613 945 88 2106
is_linear=0
shrinkage=0.1


Tree=21
num_leaves=15
num_cat=0
split_feature=0 1 1 1 0 1 1 1 1 1 1 1 1 1
split_gain=1.57339 1.7177 2.58285 1.72896 1.64483 1.55778 1.52532 1.79764 1.34743 1.23665 2.91152 2.14481 3.49997 3.41948
threshold=22.000000000000004 35.500000000000007 60.500000000000007 59.500000000000007 9.0000000000000018 18.500000000000004 93.500000000000014 63.500000000000007 19.500000000000004 6.5000000000000009 1.5000000000000002 20.500000000000004 21.500000000000004 19.500000000000004
decision_type=2 2 2 2 2 2 2 2 2 2 2 2 2 2
left_child=4 5 3 -3 6 -2 7 -1 -7 10 -6 13 -13 -11
right_child=1 2 -4 -5 9 8 -8 -9 -10 11 -12 12 -14 -15
leaf_value=0.011659604519340167 0.0014001615696197635 -0.0074364305506382337 0.0046037053393325365 -0.054952584765851499 0.0077952133264483471 0.031037283618934455 0.039776474634806318 -0.018622710007669716 0.01069389903944518 0.00094382992124694253 -0.014899204285037552 -0.032024984425669048 -0.0014880425141389057 0.019474564737269308
leaf_weight=107 158 179 431 7.9999999999999991 82 40 14.999999999999998 24 175 523 182 38 3054 123
leaf_count=107 158 179 431 8 82 40 15 24 175 523 182 38 3054 123
internal_value=0 0.00357982 0.000345397 -0.00946921 -0.000855257 0.00893874 0.00957041 0.0061117 0.0144787 -0.0012356 -0.00785018 -0.000768442 -0.00186333 0.00447213
internal_weight=0 991 618 187 4148 373 146 131 215 4002 264 3738 3092 646
internal_count=5139 991 618 187 4148 373 146 131 215 4002 264 3738 3092 646
is_linear=0
shrinkage=0.1


Tree=22
num_leaves=15
num_cat=0
split_feature=1 1 1 1 1 1 0 0 1 1 1 0 1 1
split_gain=1.4357 3.29376 2.29458 3.17989 2.49474 3.15636 3.02978 2.24104 4.36309 7.04736 2.79667 2.51937 2.37948 2.1505
threshold=46.500000000000007 51.500000000000007 44.500000000000007 43.500000000000007 36.500000000000007 37.500000000000007 40.500000000000007 22.000000000000004 24.500000000000004 25.500000000000004 6.5000000000000009 14.000000000000002 1.5000000000000002 53.500000000000007
decision_type=2 2 2 2 2 2 2 2 2 2 2 2 2 2
left_child=2 -2 3 4 7 -6 -7 8 10 -10 12 -11 -1 -3
right_child=1 13 -4 -5 5 6 -8 -9 9 11 -12 -13 -14 -15
leaf_value=0.007015691606736766 -0.013769416723940612 0.013760157607495785 0.013419315224264268 -0.022191621184927124 0.028582435004089191 0.0061856528999758706 -0.065706237529714911 0.0069899126484994946 -0.04909059070050717 -0.0035273907465972324 0.0044077961246710567 -0.033726375661790368 -0.013382322547178735 -0.001215822187626071
leaf_weight=82 206 100 157 58 69 255 5.9999999999999991 386 42 349 880 30 189 2330
leaf_count=82 206 100 157 58 69 255 6 386 42 349 880 30 189 2330
internal_value=0 -0.00162874 0.00171528 0.000932019 0.0015182 0.00956149 0.00453297 0.000162584 -0.00151385 -0.0102248 0.00167236 -0.00591781 -0.00721023 -0.000599527
internal_weight=0 2636 2503 2346 2288 330 261 1958 1572 421 1151 379 271 2430
internal_count=5139 2636 2503 2346 2288 330 261 1958 1572 421 1151 379 271 2430
is_linear=0
shrinkage=0.1


Tree=23
num_leaves=15
num_cat=0
split_feature=1 1 1 1 1 0 0 1 1 1 1 0 1 1
split_gain=1.35654 2.07953 2.06751 2.16354 2.06861 2.02367 2.3361 1.95554 4.21179 2.16073 4.20453 3.14143 2.53305 3.08883
threshold=92.500000000000014 94.500000000000014 46.500000000000007 51.500000000000007 53.500000000000007 9.0000000000000018 14.000000000000002 60.500000000000007 58.500000000000007 66.500000000000014 67.500000000000014 22.000000000000004 73.500000000000014 74.500000000000014
decision_type=2 2 2 2 2 2 2 2 2 2 2 2 2 2
left_child=2 5 -1 -4 -5 -2 -7 8 -6 -9 11 -11 -12 -14
right_child=1 -3 3 4 7 6 -8 9 -10 10 12 -13 13 -15
leaf_value=0.0015437530907312532 0.058795402695735299 0.0021651621134589714 -0.012392475493071438 0.012384143074974418 -0.0039950769024223766 -0.013982457113452258 0.028240933318279295 0.0049437021679967367 -0.037413064530119299 -0.031093878077494131 0.006366071484573313 0.044140662252902987 -0.026256424613917868 -0.0028180690088738551
leaf_weight=2503 11.999999999999998 283 206 100 176 20 38 428 48 74 291 5.9999999999999991 60 894
leaf_count=2503 12 283 206 100 176 20 38 428 48 74 291 6 60 894
internal_value=0 0.00598241 -0.000441244 -0.00261752 -0.00164803 0.021415 0.0136811 -0.0023578 -0.0111561 -0.00123355 -0.00322892 -0.0254513 -0.00180097 -0.00429218
internal_weight=0 353 4786 2283 2077 70 58 1977 224 1753 1325 80 1245 954
internal_count=5139 353 4786 2283 2077 70 58 1977 224 1753 1325 80 1245 954
is_linear=0
shrinkage=0.1


Tree=24
num_leaves=15
num_cat=0
split_feature=1 1 1 1 1 1 1 1 1 1 1 1 0 1
split_gain=1.1058 1.97392 1.42647 1.88469 4.85378 1.8636 1.64209 1.18831 4.9967 5.84446 4.16956 1.8395 2.48171 1.47324
threshold=91.500000000000014 90.500000000000014 46.500000000000007 33.500000000000007 32.500000000000007 51.500000000000007 52.500000000000007 20.500000000000004 18.500000000000004 17.500000000000004 21.500000000000004 15.500000000000002 22.000000000000004 13.500000000000002
decision_type=2 2 2 2 2 2 2 2 2 2 2 2 2 2
left_child=1 2 3 4 7 -4 -7 8 9 11 -9 13 -13 -1
right_child=-2 -3 5 -5 -6 6 -8 10 -10 -11 -12 12 -14 -15
leaf_value=0.001009028818382604 0.0051330562905389241 -0.024427738018772183 -0.011153227811932419 0.0059188680612437782 -0.03429269494443405 0.017721437971211142 -0.0015988766007552135 -0.033473432507543338 0.01716951580172044 -0.037464212680735236 -0.00082724025783303566 0.032850082185301825 -0.000814737395403233 -0.013323517030552973
leaf_weight=778 388 34 206 672 41 45 1963 42 191 41 571 41 47 79
leaf_count=778 388 34 206 672 41 45 1963 42 191 41 571 41 47 79
internal_value=0 -0.000419201 -0.000246148 0.00138938 -0.000273002 -0.00209516 -0.0011659 0.00050622 0.00236565 -0.000502034 -0.00306401 0.00110162 0.01487 -0.000312174
internal_weight=0 4751 4717 2503 1831 2214 2008 1790 1177 986 613 945 88 857
internal_count=5139 4751 4717 2503 1831 2214 2008 1790 1177 986 613 945 88 857
is_linear=0
shrinkage=0.1


Tree=25
num_leaves=15
num_cat=0
split_feature=0 0 0 1 1 1 1 1 1 1 1 1 1 1
split_gain=0.946651 1.08969 1.24075 1.75066 1.56294 1.07293 2.97484 1.13462 7.76518 1.28376 2.54354 2.2124 1.62219 3.3603
threshold=9.0000000000000018 22.000000000000004 31.000000000000004 64.500000000000014 63.500000000000007 5.5000000000000009 1.5000000000000002 24.500000000000004 25.500000000000004 30.500000000000004 27.500000000000004 42.500000000000007 36.500000000000007 32.500000000000007
decision_type=2 2 2 2 2 2 2 2 2 2 2 2 2 2
left_child=-1 5 3 4 -3 6 -2 -7 -9 10 -10 12 13 -11
right_child=1 2 -4 -5 -6 7 -8 8 9 11 -12 -13 -14 -15
leaf_value=0.0079370644900386474 0.006058845087522414 0.0062034355723468767 0.00019096324958725852 0.021736708698528156 -0.022213714560937316 0.0024814374557398139 -0.019204445487681639 -0.04425318426718669 0.0062539567388054263 0.014997847199440004 -0.017954013657429789 -0.0016387422339245801 0.011376835820283667 -0.012828079940190593
leaf_weight=146 82 247 653 70 21 909 108 42 69 75 117 2246 251 103
leaf_count=146 82 247 653 70 21 909 108 42 69 75 117 2246 251 103
internal_value=0 -0.000232087 0.00273666 0.00765482 0.00397672 -0.000967227 -0.00830134 -0.000601675 -0.00156707 -0.000940433 -0.00897364 -0.000381863 0.00619844 -0.00110367
internal_weight=0 4993 991 338 268 4002 190 3812 2903 2861 186 2675 429 178
internal_count=5139 4993 991 338 268 4002 190 3812 2903 2861 186 2675 429 178
is_linear=0
shrinkage=0.1


Tree=26
num_leaves=15
num_cat=0
split_feature=1 1 1 0 1 1 1 1 1 1 1 1 0 1
split_gain=0.872557 1.61016 3.22107 1.6596 2.27248 1.57788 2.57462 3.35221 2.45209 2.39845 1.82985 2.87709 2.76183 5.52915
threshold=91.500000000000014 88.500000000000014 87.500000000000014 22.000000000000004 89.500000000000014 75.500000000000014 74.500000000000014 73.500000000000014 71.500000000000014 77.500000000000014 66.500000000000014 64.500000000000014 14.000000000000002 69.500000000000014
decision_type=2 2 2 2 2 2 2 2 2 2 2 2 2 2
left_child=1 2 5 4 -3 6 7 8 10 -7 11 -1 -12 -14
right_child=-2 3 -4 -5 -6 9 -8 -9 -10 -11 12 -13 13 -15
leaf_value=-7.4052370887104139e-06 0.0045596785269696842 -0.025256164170600271 0.024972221445219191 0.029556386023759842 -0.0012886238667894814 -0.01963334522636918 0.01955546433430003 -0.023385622955393048 0.013572758974602623 -0.0023001628388544617 -0.016440192145573629 0.016079246764597686 0.016960051172223968 -0.059380156208168382
leaf_weight=3346 388 74 51 9.9999999999999982 85 96 69 60 137 474 154 115 69 10.999999999999998
leaf_count=3346 388 74 51 10 85 96 69 60 137 474 154 115 69 11
internal_value=0 -0.000372375 -1.88192e-05 -0.00995814 -0.0124433 -0.000300113 0.000407792 6.83295e-05 0.000435563 -0.00521944 -5.1527e-05 0.000527112 -0.00860995 0.00646327
internal_weight=0 4751 4582 169 159 4531 3961 3892 3832 570 3695 3461 234 80
internal_count=5139 4751 4582 169 159 4531 3961 3892 3832 570 3695 3461 234 80
is_linear=0
shrinkage=0.1


Tree=27
num_leaves=15
num_cat=0
split_feature=1 1 0 0 1 1 1 1 1 0 1 1 0 1
split_gain=0.812503 4.03211 1.0221 1.9996 0.981131 3.75762 3.52968 4.98677 1.23798 2.02872 1.42406 2.22501 1.40092 0.951023
threshold=1.5000000000000002 2.5000000000000004 31.000000000000004 40.500000000000007 20.500000000000004 21.500000000000004 18.500000000000004 17.500000000000004 15.500000000000002 22.000000000000004 13.500000000000002 11.500000000000002 14.000000000000002 1.0000000180025095e-35
decision_type=2 2 2 2 2 2 2 2 2 2 2 2 2 2
left_child=13 2 -2 -4 6 -6 7 8 10 12 11 -3 -10 -1
right_child=1 4 3 -5 5 -7 -8 -9 9 -11 -12 -13 -14 -15
leaf_value=-0.013009326491090987 -0.020197218275732468 -0.00034707616318830812 -0.093122914433479323 -0.0074964984878897649 -0.030351677004780087 -0.00028081269049965032 0.015133026892902008 -0.033959607307503865 0.020149865955340143 -0.0011865633599301602 -0.012232769984469007 0.017466322925907593 0.066793889366090306 0.01194075509758279
leaf_weight=18 45 522 5.9999999999999982 5 42 3920 191 41 33 47 79 81 7.9999999999999991 101
leaf_count=18 45 522 6 5 42 3920 191 41 33 47 79 81 8 101
internal_value=0 -0.000193595 -0.0268767 -0.0542018 0.000107423 -0.000599585 0.002903 2.26805e-05 0.00183213 0.0129946 0.000391803 0.00204577 0.0292511 0.00816679
internal_weight=0 5020 56 11 4964 3962 1002 811 770 88 682 603 41 119
internal_count=5139 5020 56 11 4964 3962 1002 811 770 88 682 603 41 119
is_linear=0
shrinkage=0.1


Tree=28
num_leaves=15
num_cat=0
split_feature=1 1 0 0 0 1 1 1 1 1 1 1 1 1
split_gain=0.720937 1.60278 1.6032 1.81558 1.83788 1.18839 1.74516 2.64024 1.4993 3.6022 1.41215 1.46711 1.65567 3.42065
threshold=92.500000000000014 94.500000000000014 9.0000000000000018 14.000000000000002 40.500000000000007 46.500000000000007 44.500000000000007 43.500000000000007 33.500000000000007 32.500000000000007 51.500000000000007 53.500000000000007 60.500000000000007 58.500000000000007
decision_type=2 2 2 2 2 2 2 2 2 2 2 2 2 2
left_child=5 2 -2 -4 -5 6 7 8 9 -1 -7 -12 13 -13
right_child=1 -3 3 4 -6 10 -8 -9 -10 -11 11 12 -14 -15
leaf_value=0.00042670186350184531 0.051180961728096011 0.0010099801243950905 -0.013361530341207982 0.039720476448535921 -0.00663580413048084 -0.0098688103831644433 0.011390346663582858 -0.020570192254019966 0.0061582144809870509 -0.029551795888237836 0.010628898655355443 -0.0034282414856451476 -0.00075163025405928412 -0.033544523464903858
leaf_weight=1790 11.999999999999998 283 20 25 12.999999999999998 206 157 58 457 41 100 176 1753 48
leaf_count=1790 12 283 20 25 13 206 157 58 457 41 100 176 1753 48
internal_value=0 0.00436122 0.0179098 0.0110261 0.0238617 -0.00032167 0.00118326 0.000500173 0.0010343 -0.000244581 -0.00197162 -0.00118836 -0.0017861 -0.00988173
internal_weight=0 353 70 58 38 4786 2503 2346 2288 1831 2283 2077 1977 224
internal_count=5139 353 70 58 38 4786 2503 2346 2288 1831 2283 2077 1977 224
is_linear=0
shrinkage=0.1


Tree=29
num_leaves=15
num_cat=0
split_feature=1 1 0 0 1 1 1 1 1 1 0 1 1 0
split_gain=0.650508 3.2779 0.827899 1.61968 0.770328 0.767055 3.05627 2.85904 4.03928 1.00276 1.64327 1.15349 1.80226 1.13474
threshold=1.5000000000000002 2.5000000000000004 31.000000000000004 40.500000000000007 1.0000000180025095e-35 20.500000000000004 21.500000000000004 18.500000000000004 17.500000000000004 15.500000000000002 22.000000000000004 13.500000000000002 11.500000000000002 14.000000000000002
decision_type=2 2 2 2 2 2 2 2 2 2 2 2 2 2
left_child=4 2 -2 -4 -1 7 -7 8 9 11 13 12 -3 -11
right_child=1 5 3 -5 -6 6 -8 -9 -10 10 -12 -13 -14 -15
leaf_value=-0.011751065651575725 -0.018220166282521356 -0.00035503893864066325 -0.083853293955326091 -0.0067895200196653599 0.010704008703774746 -0.027359179096917315 -0.00023946215560314085 0.013577054498512396 -0.030606314853378915 0.018092210098367298 -0.0011105777576882788 -0.011052164127696542 0.015677020932191317 0.060071832663379614
leaf_weight=18 45 522 5.9999999999999982 5 101 42 3920 191 41 33 47 79 81 7.9999999999999991
leaf_count=18 45 522 6 5 101 42 3920 191 41 33 47 79 81 8
internal_value=0 -0.000173224 -0.0242317 -0.0488243 0.00730744 9.81848e-05 -0.00052695 0.00257003 -2.22578e-05 0.00160624 0.0116525 0.000309952 0.00179852 0.0262834
internal_weight=0 5020 56 11 119 4964 3962 1002 811 770 88 682 603 41
internal_count=5139 5020 56 11 119 4964 3962 1002 811 770 88 682 603 41
is_linear=0
shrinkage=0.1


Tree=30
num_leaves=15
num_cat=0
split_feature=0 1 1 1 1 1 0 1 1 1 1 1 1 1
split_gain=0.626681 1.01513 3.1795 1.47567 1.42672 1.35929 1.25863 0.949133 1.8581 1.15898 6.36305 1.13312 1.92713 1.53592
threshold=22.000000000000004 28.500000000000004 26.500000000000004 20.500000000000004 18.500000000000004 30.500000000000004 40.500000000000007 5.5000000000000009 1.5000000000000002 24.500000000000004 25.500000000000004 30.500000000000004 27.500000000000004 42.500000000000007
decision_type=2 2 2 2 2 2 2 2 2 2 2 2 2 2
left_child=7 2 3 4 -2 -3 -5 8 -1 -9 -11 12 -12 -13
right_child=1 5 -4 6 -6 -7 -8 9 -10 10 11 13 -14 -15
leaf_value=0.0041871547062949438 0.00033429396409494216 -0.033110979944467545 0.032385828354677487 -0.050905131507250991 0.018789689948684293 0.00083204587217694027 -0.0004800153218887068 0.0028336799162707489 -0.015514930883503478 -0.039817766162256407 0.0056386585144892988 0.0053990055093281839 -0.015010882723625066 -0.0011067766275917811
leaf_weight=82 158 11.999999999999998 43 9 57 701 11 954 115 42 69 430 131 2325
leaf_count=82 158 12 43 9 57 701 11 954 115 42 69 430 131 2325
internal_value=0 0.00225926 0.00738487 0.00281023 0.00522712 0.000260775 -0.0231713 -0.000539761 -0.00731406 -0.000201989 -0.0011683 -0.000618965 -0.00788679 -9.13551e-05
internal_weight=0 991 278 235 215 713 20 4148 197 3951 2997 2955 200 2755
internal_count=5139 991 278 235 215 713 20 4148 197 3951 2997 2955 200 2755
is_linear=0
shrinkage=0.1


Tree=31
num_leaves=15
num_cat=0
split_feature=1 1 1 0 0 0 0 0 1 1 1 1 1 1
split_gain=0.614171 1.56032 0.837007 1.63576 1.62604 1.21517 0.993068 3.80445 0.672147 1.47258 2.09343 1.30808 1.09604 3.01929
threshold=91.500000000000014 90.500000000000014 94.500000000000014 9.0000000000000018 14.000000000000002 40.500000000000007 40.500000000000007 31.000000000000004 46.500000000000007 44.500000000000007 43.500000000000007 47.500000000000007 33.500000000000007 32.500000000000007
decision_type=2 2 2 2 2 2 2 2 2 2 2 2 2 2
left_child=1 8 3 -2 -5 -6 7 -4 9 10 12 -10 13 -1
right_child=2 -3 6 4 5 -7 -8 -9 11 -11 -12 -13 -14 -15
leaf_value=0.00033338935825942534 0.046197490394115449 -0.021657969452002469 0.0027914755650910372 -0.0042701493362309762 0.035735701672732829 -0.0010617037170699663 0.017586783299339003 -0.039881348982453352 -0.018699047931058463 0.010340243251697655 -0.018425347808555797 -0.001085701742467313 0.0051932512658201891 -0.027112571268183429
leaf_weight=1790 11.999999999999998 34 228 54 25 13.999999999999998 32 23 43 157 58 2171 457 41
leaf_count=1790 12 34 228 54 25 14 32 23 43 157 58 2171 457 41
internal_value=0 -0.000312413 0.00382545 0.0114506 0.0069671 0.0225264 0.000996334 -0.00111878 -0.000158555 0.000964129 0.000336657 -0.00142779 0.000812267 -0.000281184
internal_weight=0 4751 388 105 93 39 283 251 4717 2503 2346 2214 2288 1831
internal_count=5139 4751 388 105 93 39 283 251 4717 2503 2346 2214 2288 1831
is_linear=0
shrinkage=0.1


Tree=32
num_leaves=15
num_cat=0
split_feature=0 0 0 1 1 1 1 1 0 1 1 1 1 1
split_gain=0.507274 0.577322 0.879858 1.80396 2.39273 1.57087 2.76354 4.88465 2.45458 1.9845 1.32802 1.26405 1.84128 2.08213
threshold=9.0000000000000018 22.000000000000004 40.500000000000007 1.5000000000000002 2.5000000000000004 94.500000000000014 81.500000000000014 76.500000000000014 31.000000000000004 74.500000000000014 72.500000000000014 93.500000000000014 85.500000000000014 71.500000000000014
decision_type=2 2 2 2 2 2 2 2 2 2 2 2 2 2
left_child=-1 -2 3 -3 -5 6 7 9 -7 10 -6 12 13 -4
right_child=1 2 11 4 5 8 -8 -9 -10 -11 -12 -13 -14 -15
leaf_value=0.005810138700555449 -0.0007049834960849077 0.041137346854576699 -0.0058694281413593161 -0.054637581855058674 0.0055881492550771258 0.017214958396341122 0.031156000131979968 -0.042557007345286287 -0.035893213570765824 0.06274534066518149 -0.033175512692994541 0.015374145548986763 -0.031176083632137464 0.015039881009419085
leaf_weight=146 4002 12.999999999999998 247 6.9999999999999991 491 13.999999999999998 39 22 23 5.9999999999999991 8.9999999999999982 38 23 59
leaf_count=146 4002 13 247 7 491 14 39 22 23 6 9 38 23 59
internal_value=0 -0.000169894 0.00199098 0.00427611 0.00349183 0.00416551 0.00546826 0.00357087 -0.0157982 0.00557643 0.0048904 -0.00189435 -0.00388889 -0.00183789
internal_weight=0 4993 991 624 611 604 567 528 37 506 500 367 329 306
internal_count=5139 4993 991 624 611 604 567 528 37 506 500 367 329 306
is_linear=0
shrinkage=0.1


Tree=33
num_leaves=15
num_cat=0
split_feature=1 1 1 0 0 0 0 0 1 1 1 1 1 1
split_gain=0.479885 1.23186 0.605199 1.31306 1.19193 0.788644 0.639642 2.52552 0.575636 2.36614 2.06753 2.62642 2.1597 1.36299
threshold=91.500000000000014 90.500000000000014 94.500000000000014 9.0000000000000018 14.000000000000002 40.500000000000007 40.500000000000007 31.000000000000004 75.500000000000014 77.500000000000014 74.500000000000014 73.500000000000014 71.500000000000014 66.500000000000014
decision_type=2 2 2 2 2 2 2 2 2 2 2 2 2 2
left_child=1 8 3 -2 -5 -6 7 -4 10 -10 11 12 13 -1
right_child=2 -3 6 4 5 -7 -8 -9 9 -11 -12 -13 -14 -15
leaf_value=0.00040629157571290099 0.040996728340784716 -0.019242432713508607 0.0024642200458370022 -0.0037726364840098003 0.02981119512021542 0.00016706724252019611 0.014290689487825149 -0.032303892918255021 -0.017336900423591338 -0.00053441204123594094 0.017501896457827609 -0.020721307579272739 0.012693107151426375 -0.007479479026574737
leaf_weight=3461 11.999999999999998 34 228 54 25 13.999999999999998 32 23 96 660 69 60 137 234
leaf_count=3461 12 34 228 54 25 14 32 23 96 660 69 60 137 234
internal_value=0 -0.000276155 0.00338147 0.00986531 0.00584835 0.0191697 0.000975812 -0.000721703 -0.000139447 -0.00266806 0.000343167 3.89656e-05 0.000364022 -9.3105e-05
internal_weight=0 4751 388 105 93 39 283 251 4717 756 3961 3892 3832 3695
internal_count=5139 4751 388 105 93 39 283 251 4717 756 3961 3892 3832 3695
is_linear=0
shrinkage=0.1


Tree=34
num_leaves=15
num_cat=0
split_feature=1 1 1 0 0 0 0 1 1 1 1 1 0 1
split_gain=0.427135 2.20664 0.607119 0.599226 1.13393 0.489739 0.912851 0.45578 2.49514 2.0424 3.2987 0.768804 1.3424 0.962087
threshold=1.5000000000000002 2.5000000000000004 1.0000000180025095e-35 31.000000000000004 40.500000000000007 40.500000000000007 31.000000000000004 20.500000000000004 21.500000000000004 18.500000000000004 17.500000000000004 15.500000000000002 22.000000000000004 13.500000000000002
decision_type=2 2 2 2 2 2 2 2 2 2 2 2 2 2
left_child=2 3 -1 -2 -5 6 -4 9 -9 10 11 13 -13 -3
right_child=1 7 5 4 -6 -7 -8 8 -10 -11 -12 12 -14 -15
leaf_value=-0.010998144870003064 -0.014765494565169016 0.0014927991155834614 0.0079170971177518375 -0.070111603320886715 -0.0056310224533081049 -0.003536002958814303 0.036982983923875369 -0.024643794766494208 -0.00013980139718889443 0.011290879549546391 -0.027841776736625815 0.023288727890154938 -0.001470710574946505 -0.010243388951484916
leaf_weight=18 45 603 64 5.9999999999999982 5 24 12.999999999999998 42 3920 191 41 41 47 79
leaf_count=18 45 603 64 6 5 24 13 42 3920 191 41 41 47 79
internal_value=0 -0.000140367 0.00592136 -0.0198799 -0.0408022 0.00893672 0.0128243 8.23185e-05 -0.000399561 0.00198771 -0.00020329 0.00126837 0.0100649 0.000133329
internal_weight=0 5020 119 56 11 101 77 4964 3962 1002 811 770 88 682
internal_count=5139 5020 119 56 11 101 77 4964 3962 1002 811 770 88 682
is_linear=0
shrinkage=0.1


Tree=35
num_leaves=15
num_cat=0
split_feature=1 1 1 0 0 0 0 0 1 1 1 1 1 1
split_gain=0.392286 0.996042 0.490211 1.06358 0.965464 0.638801 0.51811 2.04567 0.494992 0.468504 1.1865 1.67847 1.13376 1.15317
threshold=91.500000000000014 90.500000000000014 94.500000000000014 9.0000000000000018 14.000000000000002 40.500000000000007 40.500000000000007 31.000000000000004 98.500000000000014 46.500000000000007 44.500000000000007 43.500000000000007 51.500000000000007 52.500000000000007
decision_type=2 2 2 2 2 2 2 2 2 2 2 2 2 2
left_child=1 9 3 -2 -5 -6 7 8 -4 10 11 -1 -11 -14
right_child=2 -3 6 4 5 -7 -8 -9 -10 12 -12 -13 13 -15
leaf_value=0.00067319074030349401 0.036911033093929291 -0.017304209225318012 0.0039034184704691468 -0.0033813926839718119 0.026844055771827698 0.00016433974461896078 0.01287560117780231 -0.029059523344039918 -0.010755581215310556 -0.0082515313986290997 0.0092268011479335992 -0.016552584644021661 0.015366142247286108 -0.00082443725290792217
leaf_weight=2288 11.999999999999998 34 202 54 25 13.999999999999998 32 23 26 206 157 58 45 1963
leaf_count=2288 12 34 202 54 25 14 32 23 26 206 157 58 45 1963
internal_value=0 -0.000249681 0.00305731 0.00889276 0.00527749 0.0172667 0.000892211 -0.000635552 0.00223178 -0.000126752 0.000810555 0.000247319 -0.00118641 -0.000461601
internal_weight=0 4751 388 105 93 39 283 251 228 4717 2503 2346 2214 2008
internal_count=5139 4751 388 105 93 39 283 251 228 4717 2503 2346 2214 2008
is_linear=0
shrinkage=0.1


Tree=36
num_leaves=15
num_cat=0
split_feature=0 1 1 1 1 1 1 1 1 1 1 1 1 1
split_gain=0.38254 0.778599 1.37076 0.80609 5.20952 0.984922 1.57269 1.20199 2.42642 1.52366 0.956678 1.01344 0.999672 3.18991
threshold=22.000000000000004 5.5000000000000009 1.5000000000000002 24.500000000000004 25.500000000000004 30.500000000000004 27.500000000000004 32.500000000000007 33.500000000000007 42.500000000000007 22.500000000000004 20.500000000000004 19.500000000000004 17.500000000000004
decision_type=2 2 2 2 2 2 2 2 2 2 2 2 2 2
left_child=1 2 -1 10 -5 6 -6 -7 -9 -10 11 12 13 -3
right_child=-2 3 -4 4 5 7 -8 8 9 -11 -12 -13 -14 -15
leaf_value=0.0033211532435039196 0.0017651493245487663 0.0028003504123166835 -0.013601107571436011 -0.035892799762742865 0.0050179853441490651 0.012468643464442146 -0.013636230398680419 -0.024424783508406905 0.0066407347082185712 -0.00079112794873635128 0.010927297515545747 -0.010019908288863731 0.010570676062952698 -0.023265859758590954
leaf_weight=82 991 591 115 42 69 76 131 41 313 2325 116 73 123 51
leaf_count=82 991 591 115 42 69 76 131 41 313 2325 116 73 123 51
internal_value=0 -0.000421712 -0.00655732 -0.000115786 -0.000921663 -0.000424611 -0.00720053 6.72879e-05 -0.000284524 9.06662e-05 0.00241589 0.00123769 0.00231195 0.00072967
internal_weight=0 4148 197 3951 2997 2955 200 2755 2679 2638 954 838 765 642
internal_count=5139 4148 197 3951 2997 2955 200 2755 2679 2638 954 838 765 642
is_linear=0
shrinkage=0.1


Tree=37
num_leaves=15
num_cat=0
split_feature=1 1 1 1 1 0 1 1 1 1 0 0 1 1
split_gain=0.335687 2.48885 3.61918 1.98935 1.90174 4.6713 1.60748 1.70664 2.097 1.80563 1.21135 1.17536 1.06263 2.5591
threshold=86.500000000000014 82.500000000000014 81.500000000000014 88.500000000000014 89.500000000000014 31.000000000000004 75.500000000000014 74.500000000000014 73.500000000000014 71.500000000000014 40.500000000000007 31.000000000000004 66.500000000000014 64.500000000000014
decision_type=2 2 2 2 2 2 2 2 2 2 2 2 2 2
left_child=1 2 6 -2 5 -5 7 8 9 12 -10 -8 13 -1
right_child=3 -3 -4 4 -6 -7 11 -9 10 -11 -12 -13 -14 -15
leaf_value=-0.00017370233362767729 0.014656632523632274 -0.013581601872251634 0.023346285343568803 -0.021644652153054875 0.0021381633232690788 0.063772677098001759 -0.0047744847040252277 0.015882787864277329 -0.024887689866125585 0.011580674712593756 0.013238729182630776 -0.022941608363535346 -0.0066324647862273144 0.014997931067710338
leaf_weight=3346 106 137 66 75 475 6.9999999999999991 271 69 50 137 9.9999999999999982 41 234 115
leaf_count=3346 106 137 66 75 475 7 271 69 50 137 10 41 234 115
internal_value=0 -0.000311057 0.000107948 0.00209999 -0.00028961 -0.0143529 -0.000250987 0.000293367 1.69868e-05 0.00030744 -0.0185333 -0.00716183 -0.000110539 0.000330411
internal_weight=0 4476 4339 663 557 82 4273 3961 3892 3832 60 312 3695 3461
internal_count=5139 4476 4339 663 557 82 4273 3961 3892 3832 60 312 3695 3461
is_linear=0
shrinkage=0.1


Tree=38
num_leaves=15
num_cat=0
split_feature=0 1 1 1 1 0 1 1 1 1 0 1 0 0
split_gain=0.340206 0.53173 0.950442 0.654513 0.839978 0.388933 0.732545 1.67955 1.03574 1.75559 1.63959 0.992194 0.862385 1.16748
threshold=9.0000000000000018 60.500000000000007 84.500000000000014 63.500000000000007 61.500000000000007 22.000000000000004 35.500000000000007 60.500000000000007 62.500000000000007 64.500000000000014 31.000000000000004 59.500000000000007 31.000000000000004 40.500000000000007
decision_type=2 2 2 2 2 2 2 2 2 2 2 2 2 2
left_child=1 -1 3 4 -3 -2 -7 11 12 -10 -11 -8 -9 -14
right_child=5 2 -4 -5 -6 6 7 8 9 10 -12 -13 13 -15
leaf_value=0.0099428448072146815 -0.00057832452738580795 -0.011632149154320356 0.016359869929912844 -0.023726952634751799 0.029900429264775347 0.0051340940950223655 -0.0068522788147187099 0.0072514513495231152 -0.026973601193590598 0.015736116566695275 -0.0016334074361579411 -0.042847719881683594 0.063514990465981608 0.012860386761335225
leaf_weight=84 4002 16.000000000000004 19 20 6.9999999999999991 373 179 76 22 70 243 7.9999999999999991 7.0000000000000009 13
leaf_count=84 4002 16 19 20 7 373 179 76 22 70 243 8 7 13
internal_value=0 0.00475812 -0.00226634 -0.0104965 0.0010082 -0.000139132 0.00163448 -0.000477748 0.00295613 0.000331913 0.00225115 -0.00839219 0.0121135 0.0305895
internal_weight=0 146 62 43 23 4993 991 618 431 335 313 187 96 20
internal_count=5139 146 62 43 23 4993 991 618 431 335 313 187 96 20
is_linear=0
shrinkage=0.1


Tree=39
num_leaves=15
num_cat=0
split_feature=1 1 1 0 1 1 0 0 0 1 1 1 1 0
split_gain=0.303549 1.05785 0.777284 0.945894 0.699473 0.881723 0.713911 0.574509 0.918484 0.547566 1.8793 1.15842 2.35856 0.660255
threshold=6.5000000000000009 1.5000000000000002 2.5000000000000004 22.000000000000004 8.5000000000000018 9.5000000000000018 22.000000000000004 31.000000000000004 40.500000000000007 20.500000000000004 21.500000000000004 18.500000000000004 17.500000000000004 9.0000000000000018
decision_type=2 2 2 2 2 2 2 2 2 2 2 2 2 2
left_child=1 -1 7 -4 6 -6 -2 -3 -9 11 -11 12 13 -7
right_child=4 2 3 -5 5 9 -8 8 -10 10 -12 -13 -14 -15
leaf_value=0.0048757627074207579 0.0083684949487498085 -0.011967793785863453 -0.0070963382592488982 0.011013946014766893 -0.012960596051282034 0.014431800020904077 -0.022301141871139407 -0.063840316111842807 -0.0058077919483184807 -0.021336185329017186 -7.0089450712156561e-05 0.0093777514456561649 -0.022798112325552036 0.00099836678908425658
leaf_weight=119 148 45 145 36 52 41 7.9999999999999991 5.9999999999999982 5 42 3920 191 41 340
leaf_count=119 148 45 145 36 52 41 8 6 5 42 3920 191 41 340
internal_value=0 -0.00281709 -0.00667974 -0.00349429 0.000209677 -1.23719e-05 0.00679569 -0.0169756 -0.0374619 0.000134799 -0.000295525 0.00291611 -8.46942e-06 0.00244396
internal_weight=0 356 237 181 4783 4627 156 56 11 4575 3962 613 422 381
internal_count=5139 356 237 181 4783 4627 156 56 11 4575 3962 613 422 381
is_linear=0
shrinkage=0.1


Tree=40
num_leaves=15
num_cat=0
split_feature=1 1 1 1 1 0 1 1 1 1 1 0 1 1
split_gain=0.264862 2.00526 2.95215 1.63543 1.51747 3.79629 1.27427 1.39956 1.68521 1.50173 1.3381 2.95063 4.25709 2.09236
threshold=86.500000000000014 82.500000000000014 81.500000000000014 88.500000000000014 89.500000000000014 31.000000000000004 75.500000000000014 74.500000000000014 73.500000000000014 70.500000000000014 66.500000000000014 14.000000000000002 69.500000000000014 64.500000000000014
decision_type=2 2 2 2 2 2 2 2 2 2 2 2 2 2
left_child=1 2 6 -2 5 -5 7 8 9 10 13 -12 -13 -1
right_child=3 -3 -4 4 -6 -7 -8 -9 -10 -11 11 12 -14 -15
leaf_value=-0.00016329380894895059 0.01325037346291795 -0.012188031578803585 0.021087688145538172 -0.019437098066012067 0.0018673811264728246 0.057565759335245409 -0.0063773983786515418 0.014377698161895726 -0.016619445345519731 0.0093199229453291219 -0.018390094360400892 0.015784227049005204 -0.051201190867207272 0.013555217919790228
leaf_weight=3346 106 137 66 75 475 6.9999999999999991 312 69 60 175 116 69 10.999999999999998 115
leaf_count=3346 106 137 66 75 475 7 312 69 60 175 116 69 11 115
internal_value=0 -0.000276301 9.9801e-05 0.00186534 -0.000301285 -0.0128637 -0.000224374 0.000260287 1.00042e-05 0.000270382 -0.00016267 -0.00820078 0.00657373 0.000292537
internal_weight=0 4476 4339 663 557 82 4273 3961 3892 3832 3657 196 80 3461
internal_count=5139 4476 4339 663 557 82 4273 3961 3892 3832 3657 196 80 3461
is_linear=0
shrinkage=0.1


Tree=41
num_leaves=15
num_cat=0
split_feature=0 1 1 1 1 1 0 1 1 1 1 0 1 1
split_gain=0.248687 0.350516 0.743598 0.479347 0.680382 0.342657 0.272905 0.59861 1.30897 0.879126 1.39314 1.18705 0.823992 1.43612
threshold=9.0000000000000018 60.500000000000007 84.500000000000014 63.500000000000007 61.500000000000007 68.500000000000014 22.000000000000004 35.500000000000007 60.500000000000007 62.500000000000007 64.500000000000014 31.000000000000004 49.500000000000007 44.500000000000007
decision_type=2 2 2 2 2 2 2 2 2 2 2 2 2 2
left_child=1 -1 3 4 -3 -5 -2 -8 12 -10 -11 -12 13 -9
right_child=6 2 -4 5 -6 -7 7 8 9 10 11 -13 -14 -15
leaf_value=0.0082776303136987348 -0.00048684985906155852 -0.010445596557110547 0.014840059158833406 -0.036268294788897031 0.026933723049504418 -0.0095499878128369638 0.0045302839409160469 -0.012851759203924583 0.010925528653509294 -0.024252904071049255 0.013254851138086192 -0.0015244878146322177 -0.014646372099235739 0.011135090666357428
leaf_weight=84 4002 16.000000000000004 19 8 6.9999999999999991 12 373 52 96 22 70 243 87 48
leaf_count=84 4002 16 19 8 7 12 373 52 96 22 70 243 87 48
internal_value=0 0.0040681 -0.00163514 -0.00891488 0.000930718 -0.0202373 -0.000118955 0.00136673 -0.000542663 0.00248881 7.11199e-05 0.0017808 -0.00752963 -0.00133807
internal_weight=0 146 62 43 23 20 4993 991 618 431 335 313 187 100
internal_count=5139 146 62 43 23 20 4993 991 618 431 335 313 187 100
is_linear=0
shrinkage=0.1


Tree=42
num_leaves=15
num_cat=0
split_feature=1 1 1 0 1 1 0 0 0 1 0 0 1 1
split_gain=0.26004 0.852167 0.626887 0.723593 0.573077 0.711477 0.599481 0.485463 0.743972 0.473516 0.438836 0.688459 0.408845 1.52258
threshold=6.5000000000000009 1.5000000000000002 2.5000000000000004 22.000000000000004 8.5000000000000018 9.5000000000000018 22.000000000000004 31.000000000000004 40.500000000000007 1.0000000180025095e-35 40.500000000000007 31.000000000000004 20.500000000000004 21.500000000000004
decision_type=2 2 2 2 2 2 2 2 2 2 2 2 2 2
left_child=1 9 7 -4 6 -6 -2 -3 -9 -1 11 -11 -7 -14
right_child=4 2 3 -5 5 12 -8 8 -10 10 -12 -13 13 -15
leaf_value=-0.010645121749904422 0.0075966598258378941 -0.010717149840460884 -0.0063640017486337967 0.009475853982278043 -0.011638115838510342 0.0025285969788001982 -0.020507728308439256 -0.05789298067490261 -0.0056637122482061375 0.0063785936450585726 -0.0048465495308240257 0.031620535899240236 -0.019185332927320685 -4.3642385794462796e-05
leaf_weight=18 148 45 145 36 52 613 7.9999999999999991 5.9999999999999982 5 64 24 12.999999999999998 42 3920
leaf_count=18 148 45 145 36 52 613 8 6 5 64 24 13 42 3920
internal_value=0 -0.00260739 -0.00607425 -0.00321353 0.000194068 -6.919e-06 0.00615541 -0.0153205 -0.0341524 0.00429721 0.0069602 0.0106402 0.000125283 -0.000246558
internal_weight=0 356 237 181 4783 4627 156 56 11 119 101 77 4575 3962
internal_count=5139 356 237 181 4783 4627 156 56 11 119 101 77 4575 3962
is_linear=0
shrinkage=0.1


Tree=43
num_leaves=15
num_cat=0
split_feature=1 1 1 0 1 0 1 1 0 1 1 1 1 1
split_gain=0.213302 2.78211 0.955691 2.3723 1.2115 3.08584 0.991115 0.670246 2.57747 2.58026 1.01129 1.14687 1.35469 1.25153
threshold=84.500000000000014 83.500000000000014 88.500000000000014 40.500000000000007 89.500000000000014 31.000000000000004 85.500000000000014 81.500000000000014 31.000000000000004 82.500000000000014 75.500000000000014 74.500000000000014 73.500000000000014 71.500000000000014
decision_type=2 2 2 2 2 2 2 2 2 2 2 2 2 2
left_child=1 7 3 -2 5 -4 -5 10 9 -9 11 12 13 -1
right_child=2 -3 4 6 -6 -7 -8 8 -10 -11 -12 -13 -14 -15
leaf_value=-0.00010965880976823828 0.014181398752138136 -0.024722548863729057 -0.017458662129938601 -0.00038919024742566614 0.001630225060899791 0.051965992365564623 -0.040242982407410942 0.016361321458372019 0.056098473742604266 -0.016068303993060477 -0.0056817827524635227 0.013011024616982626 -0.014904872529829541 0.0096237826208672387
leaf_weight=3695 127 46 75 13.000000000000002 475 6.9999999999999991 11.999999999999998 59 9.9999999999999982 42 312 69 60 137
leaf_count=3695 127 46 75 13 475 7 12 59 10 42 312 69 60 137
internal_value=0 -0.000257739 0.00161041 0.00863857 -0.000307506 -0.0115322 -0.019519 -1.03673e-06 0.00767058 0.00287573 -0.000200323 0.000231441 4.87579e-06 0.000238327
internal_weight=0 4430 709 152 557 82 25 4384 111 101 4273 3961 3892 3832
internal_count=5139 4430 709 152 557 82 25 4384 111 101 4273 3961 3892 3832
is_linear=0
shrinkage=0.1


Tree=44
num_leaves=15
num_cat=0
split_feature=1 1 1 1 1 1 0 0 1 1 1 1 1 0
split_gain=0.211238 1.01948 0.990385 1.23503 0.888264 2.54579 2.17528 0.802341 0.770628 2.03287 2.082 2.40019 1.48782 1.25112
threshold=46.500000000000007 47.500000000000007 44.500000000000007 43.500000000000007 36.500000000000007 37.500000000000007 40.500000000000007 40.500000000000007 27.500000000000004 26.500000000000004 24.500000000000004 25.500000000000004 30.500000000000004 31.000000000000004
decision_type=2 2 2 2 2 2 2 2 2 2 2 2 2 2
left_child=2 -2 3 4 8 7 -7 -6 9 10 -1 -12 13 -10
right_child=1 -3 -4 -5 5 6 -8 -9 12 -11 11 -13 -14 -15
leaf_value=0.00082267784960794374 -0.015896300778745914 -0.00037149713941531191 0.0083472260997695912 -0.014267457700495062 0.018485442962741756 0.002192450914824126 -0.058723651772985858 0.052167161973193293 -0.0094624767832933582 0.017271471674173651 -0.032140962447461098 0.0038979750013712678 0.00033172270714898 -0.044478376887061383
leaf_weight=1385 43 2593 157 58 61 255 5.9999999999999991 7.9999999999999991 141 71 42 33 275 10.999999999999998
leaf_count=1385 43 2593 157 58 61 255 6 8 141 71 42 33 275 11
internal_value=0 -0.000624747 0.000657944 0.000143358 0.000508667 0.00530813 0.000792081 0.0223906 -0.000300231 0.000747483 -5.60811e-05 -0.0162838 -0.00405679 -0.0119965
internal_weight=0 2636 2503 2346 2288 330 261 69 1958 1531 1460 75 427 152
internal_count=5139 2636 2503 2346 2288 330 261 69 1958 1531 1460 75 427 152
is_linear=0
shrinkage=0.1


Tree=45
num_leaves=15
num_cat=0
split_feature=1 1 1 0 1 1 0 0 0 0 1 0 0 1
split_gain=0.223627 0.690256 0.507778 0.58611 0.451031 0.585048 0.48558 0.393225 0.602617 0.391296 0.383548 0.355457 0.557652 0.325913
threshold=6.5000000000000009 1.5000000000000002 2.5000000000000004 22.000000000000004 8.5000000000000018 9.5000000000000018 22.000000000000004 31.000000000000004 40.500000000000007 14.000000000000002 1.0000000180025095e-35 40.500000000000007 31.000000000000004 24.500000000000004
decision_type=2 2 2 2 2 2 2 2 2 2 2 2 2 2
left_child=1 10 7 9 6 -6 -2 -3 -9 -4 -1 12 -12 -7
right_child=4 2 3 -5 5 13 -8 8 -10 -11 11 -13 -14 -15
leaf_value=-0.0096519123348924856 0.0067656916460003451 -0.0097167362107170949 -0.0043850581748066126 0.0084569650236517198 -0.01054560726401038 0.0019263510333360533 -0.018528257589787246 -0.05217498516043028 -0.0051686435937881468 -0.024885812699794771 0.0056694309576414527 -0.0044331990182399751 0.028387181860251499 -0.00027316679600807335
leaf_weight=18 148 45 135 36 52 821 7.9999999999999991 5.9999999999999982 5 9.9999999999999982 64 24 12.999999999999998 3754
leaf_count=18 148 45 135 36 52 821 8 6 5 10 64 24 13 3754
internal_value=0 -0.00241795 -0.00553813 -0.00296348 0.000179969 1.66295e-06 0.00546857 -0.0138598 -0.0308085 -0.0057989 0.00379618 0.00619287 0.0095049 0.000121544
internal_weight=0 356 237 181 4783 4627 156 56 11 145 119 101 77 4575
internal_count=5139 356 237 181 4783 4627 156 56 11 145 119 101 77 4575
is_linear=0
shrinkage=0.1


Tree=46
num_leaves=15
num_cat=0
split_feature=0 1 1 1 1 1 1 1 1 1 1 1 1 0
split_gain=0.197483 0.285957 0.577875 0.388271 0.55111 0.277552 0.244981 0.261279 1.43444 0.954079 1.07175 1.19797 2.1694 2.08535
threshold=9.0000000000000018 60.500000000000007 84.500000000000014 63.500000000000007 61.500000000000007 68.500000000000014 95.500000000000014 75.500000000000014 77.500000000000014 74.500000000000014 73.500000000000014 68.500000000000014 66.500000000000014 22.000000000000004
decision_type=2 2 2 2 2 2 2 2 2 2 2 2 2 2
left_child=1 -1 3 4 -3 -5 7 9 -9 10 11 12 -2 -14
right_child=6 2 -4 5 -6 -7 -8 8 -10 -11 -12 -13 13 -15
leaf_value=0.0074273438159642479 0.00013629819391020037 -0.0093212393112480623 0.012997624628539935 -0.032561669498682021 0.024320149847439358 -0.0085151928787430119 0.0033501434537019526 -0.013319305019346453 -0.0004357998361665859 0.011774387952628668 -0.013349918474753697 0.0070325986513907609 -0.019189053139133942 0.015386703104845115
leaf_weight=84 3346 16.000000000000004 19 8 6.9999999999999991 12 197 96 866 69 60 235 103 21
leaf_count=84 3346 16 19 8 7 12 197 96 866 69 60 235 103 21
internal_value=0 0.00362519 -0.00152612 -0.00794359 0.000917444 -0.0181338 -0.000106004 -0.000247968 -0.00172147 0.000121753 -9.18014e-05 0.000122905 -0.000345043 -0.0133335
internal_weight=0 146 62 43 23 20 4993 4796 962 3834 3765 3705 3470 124
internal_count=5139 146 62 43 23 20 4993 4796 962 3834 3765 3705 3470 124
is_linear=0
shrinkage=0.1


Tree=47
num_leaves=15
num_cat=0
split_feature=1 1 1 0 1 1 0 0 0 0 1 0 0 1
split_gain=0.185823 0.561977 0.408939 0.477358 0.362927 0.475512 0.393319 0.318513 0.48812 0.315652 0.310674 0.28792 0.451698 0.245979
threshold=6.5000000000000009 1.5000000000000002 2.5000000000000004 22.000000000000004 8.5000000000000018 9.5000000000000018 22.000000000000004 31.000000000000004 40.500000000000007 14.000000000000002 1.0000000180025095e-35 40.500000000000007 31.000000000000004 24.500000000000004
decision_type=2 2 2 2 2 2 2 2 2 2 2 2 2 2
left_child=1 10 7 9 6 -6 -2 -3 -9 -4 -1 12 -12 -7
right_child=4 2 3 -5 5 13 -8 8 -10 -11 11 -13 -14 -15
leaf_value=-0.0087003516654173534 0.006075493008452091 -0.0087586927248371974 -0.0039979882648697607 0.0075976402188340829 -0.0095046749374327749 0.0016801230403527745 -0.016689061373472213 -0.046971117705106744 -0.0046654081717133512 -0.022410860955715178 0.0050888576428405946 -0.0040035091340541841 0.025534832721146258 -0.00023072191579926677
leaf_weight=18 148 45 135 36 52 821 7.9999999999999991 5.9999999999999982 5 9.9999999999999982 64 24 12.999999999999998 3754
leaf_count=18 148 45 135 36 52 821 8 6 5 10 64 24 13 3754
internal_value=0 -0.00220412 -0.00501948 -0.00270896 0.000164054 4.10803e-06 0.00490808 -0.0124874 -0.0277412 -0.00526784 0.00340293 0.00555996 0.00854078 0.000112186
internal_weight=0 356 237 181 4783 4627 156 56 11 145 119 101 77 4575
internal_count=5139 356 237 181 4783 4627 156 56 11 145 119 101 77 4575
is_linear=0
shrinkage=0.1


Tree=48
num_leaves=15
num_cat=0
split_feature=1 1 1 0 1 0 1 1 0 1 1 0 1 1
split_gain=0.170381 2.22708 0.800233 1.91621 0.948547 2.49953 0.802803 0.563674 2.08775 2.09001 0.652391 0.915401 0.836544 0.767835
threshold=84.500000000000014 83.500000000000014 88.500000000000014 40.500000000000007 89.500000000000014 31.000000000000004 85.500000000000014 81.500000000000014 31.000000000000004 82.500000000000014 75.500000000000014 31.000000000000004 77.500000000000014 74.500000000000014
decision_type=2 2 2 2 2 2 2 2 2 2 2 2 2 2
left_child=1 7 3 -2 5 -4 -5 10 9 -9 13 12 -12 -1
right_child=2 -3 4 6 -6 -7 -8 8 -10 -11 11 -13 -14 -15
leaf_value=-2.2032430742097733e-05 0.012852067649951133 -0.022119175968691708 -0.015581676681603616 -0.0002191510338049668 0.0013988819953642394 0.046900513768196109 -0.036087565124034882 0.014856307394802572 0.050619745217263701 -0.014330353392731577 -0.01098851576263522 -0.018511900878170642 0.0011484405398368837 0.01062002229652759
leaf_weight=3892 127 46 75 13.000000000000002 475 6.9999999999999991 11.999999999999998 59 9.9999999999999982 42 81 41 190 69
leaf_count=3892 127 46 75 13 475 7 12 59 10 42 81 41 190 69
internal_value=0 -0.000230352 0.00143929 0.00787048 -0.000315715 -0.0102478 -0.017436 -6.79276e-07 0.00703464 0.00271928 -0.000183436 -0.00458607 -0.00247921 0.00016335
internal_weight=0 4430 709 152 557 82 25 4384 111 101 4273 312 271 3961
internal_count=5139 4430 709 152 557 82 25 4384 111 101 4273 312 271 3961
is_linear=0
shrinkage=0.1


Tree=49
num_leaves=15
num_cat=0
split_feature=0 1 1 1 1 1 1 1 1 0 1 1 1 1
split_gain=0.15361 0.234304 0.449238 0.3145 0.446399 0.230628 0.224817 0.183576 0.258093 0.65456 0.200939 1.65526 0.644128 1.55725
threshold=9.0000000000000018 60.500000000000007 84.500000000000014 63.500000000000007 61.500000000000007 11.500000000000002 68.500000000000014 95.500000000000014 98.500000000000014 40.500000000000007 88.500000000000014 87.500000000000014 82.500000000000014 81.500000000000014
decision_type=2 2 2 2 2 2 2 2 2 2 2 2 2 2
left_child=1 5 3 4 -3 -1 -5 10 -9 -10 11 12 13 -2
right_child=7 2 -4 6 -6 -7 -8 8 9 -11 -12 -13 -14 -15
leaf_value=-0.010739621094294959 -0.0002307712759388956 -0.0083638416603207585 0.011339927449405783 -0.029280224442481989 0.021913410191025055 0.0082187782987791971 -0.0076383982474605237 0.0051793875932323596 -0.012909943970541161 0.0087681723328737107 -0.0025413202123203572 0.017875877132310588 -0.005970762632390921 0.015251565916167404
leaf_weight=6.9999999999999991 4146 16.000000000000004 19 8 6.9999999999999991 77 12 141 30 26 345 51 188 66
leaf_count=7 4146 16 19 8 7 77 12 141 30 26 345 51 188 66
internal_value=0 0.00319724 -0.00146567 -0.00712396 0.000850974 0.00663891 -0.0162951 -9.349e-05 0.00289831 -0.0028451 -0.000216381 -3.61734e-05 -0.00024379 1.18294e-05
internal_weight=0 146 62 43 23 84 20 4993 197 56 4796 4451 4400 4212
internal_count=5139 146 62 43 23 84 20 4993 197 56 4796 4451 4400 4212
is_linear=0
shrinkage=0.1


Tree=50
num_leaves=15
num_cat=0
split_feature=1 1 0 0 1 1 0 0 0 1 1 1 1 1
split_gain=0.1459 0.58798 0.32342 0.75779 0.304179 0.251646 0.233215 0.365875 0.220207 0.219675 3.71519 0.590993 0.961908 0.760256
threshold=5.5000000000000009 1.5000000000000002 22.000000000000004 31.000000000000004 4.5000000000000009 1.0000000180025095e-35 40.500000000000007 31.000000000000004 40.500000000000007 48.500000000000007 49.500000000000007 47.500000000000007 46.500000000000007 44.500000000000007
decision_type=2 2 2 2 2 2 2 2 2 2 2 2 2 2
left_child=1 5 4 -4 -3 -1 7 -7 -5 11 -11 12 13 -2
right_child=9 2 3 8 -6 6 -8 -9 -10 10 -12 -13 -14 -15
leaf_value=-0.0078050355530447429 0.00034646745904726411 -0.0068543922061062596 0.010049671369294327 -0.030667698809078766 -0.021344654787989224 0.0046052519115619365 -0.0035778761530915896 0.023006628797604487 -0.0055845538952520911 -0.038123587905787508 -0.00012702901228109993 0.010624566680441301 -0.014244631872793964 0.0075645176527701363
leaf_weight=18 2068 98 30 6.9999999999999982 17 64 24 12.999999999999998 7 26 2507 60 43 157
leaf_count=18 2068 98 30 7 17 64 24 13 7 26 2507 60 43 157
internal_value=0 -0.00222807 -0.0062067 0.00108464 -0.00899643 0.00308792 0.00502924 0.00771198 -0.0181261 0.000127423 -0.000517045 0.000828642 0.000569491 0.000855786
internal_weight=0 278 159 44 115 119 101 77 14 4861 2533 2328 2268 2225
internal_count=5139 278 159 44 115 119 101 77 14 4861 2533 2328 2268 2225
is_linear=0
shrinkage=0.1


Tree=51
num_leaves=15
num_cat=0
split_feature=1 1 1 0 1 0 1 1 0 1 1 0 1 1
split_gain=0.133475 1.6946 0.60105 1.43901 0.729332 2.05128 0.65027 0.367755 1.67184 1.43041 0.522626 0.741475 0.677601 0.625065
threshold=84.500000000000014 83.500000000000014 88.500000000000014 40.500000000000007 89.500000000000014 22.000000000000004 85.500000000000014 81.500000000000014 31.000000000000004 82.500000000000014 75.500000000000014 31.000000000000004 77.500000000000014 74.500000000000014
decision_type=2 2 2 2 2 2 2 2 2 2 2 2 2 2
left_child=1 7 3 -2 5 -4 -5 10 9 -9 13 12 -12 -1
right_child=2 -3 4 6 -6 -7 -8 8 -10 -11 11 -13 -14 -15
leaf_value=-8.0328826306297814e-06 0.011164497501972154 -0.019297478572748925 -0.014156582931409013 0.00041254277412707978 0.00125639200377229 0.039147197455167773 -0.031869029005368553 0.011858224744071902 0.044681987389922143 -0.012287541372435434 -0.0098538843110019779 -0.016624930391951308 0.001069377566638746 0.009593798965215684
leaf_weight=3892 127 46 74 13.000000000000002 475 7.9999999999999991 11.999999999999998 59 9.9999999999999982 42 81 41 190 69
leaf_count=3892 127 46 74 13 475 8 12 59 10 42 81 41 190 69
internal_value=0 -0.000203883 0.00127391 0.00684754 -0.00024708 -0.00895621 -0.0150826 -3.5398e-06 0.00567908 0.00181741 -0.000151158 -0.00409168 -0.00219551 0.00015923
internal_weight=0 4430 709 152 557 82 25 4384 111 101 4273 312 271 3961
internal_count=5139 4430 709 152 557 82 25 4384 111 101 4273 312 271 3961
is_linear=0
shrinkage=0.1


Tree=52
num_leaves=15
num_cat=0
split_feature=0 1 1 1 1 1 1 1 1 1 1 1 1 1
split_gain=0.128514 0.202293 0.349358 0.254745 0.361583 0.182102 0.173661 0.227642 0.169906 0.14913 1.70652 1.1127 1.30544 0.504692
threshold=9.0000000000000018 60.500000000000007 84.500000000000014 63.500000000000007 61.500000000000007 68.500000000000014 45.500000000000007 27.500000000000004 11.500000000000002 18.500000000000004 17.500000000000004 20.500000000000004 21.500000000000004 15.500000000000002
decision_type=2 2 2 2 2 2 2 2 2 2 2 2 2 2
left_child=1 6 3 4 -3 -5 7 8 -1 10 13 -11 -13 -2
right_child=9 2 -4 5 -6 -7 -8 -9 -10 11 -12 12 -14 -15
leaf_value=-0.0075303880231721064 -0.0010673454880865442 -0.0075139511376619327 0.0098844066850448924 -0.02633869647979736 0.019735575360911237 -0.0068610517308115952 0.0151489591006847 -0.0070208359882235538 0.0092171440969428253 0.007711154280260285 -0.021172525533815711 -0.017720941950877509 5.5918074042574783e-06 0.0071183975236153753
leaf_weight=6.9999999999999991 814 16.000000000000004 19 8 6.9999999999999991 12 17 14.999999999999998 45 187 41 42 3826 83
leaf_count=7 814 16 19 8 7 12 17 15 45 187 41 42 3826 83
internal_value=0 0.00292442 -0.00140827 -0.00639806 0.000779383 -0.0146521 0.00612236 0.00383203 0.00696267 -8.55128e-05 -0.00122182 0.000177337 -0.000186889 -0.000309913
internal_weight=0 146 62 43 23 20 84 67 52 4993 938 4055 3868 897
internal_count=5139 146 62 43 23 20 84 67 52 4993 938 4055 3868 897
is_linear=0
shrinkage=0.1


Tree=53
num_leaves=15
num_cat=0
split_feature=1 1 1 1 1 1 1 0 0 0 1 1 1 1
split_gain=0.111674 3.00793 0.590527 1.90372 0.775746 1.52526 0.792109 1.42476 0.975578 0.649896 0.589405 1.79344 1.6825 1.64763
threshold=48.500000000000007 49.500000000000007 33.500000000000007 32.500000000000007 37.500000000000007 36.500000000000007 35.500000000000007 40.500000000000007 31.000000000000004 40.500000000000007 30.500000000000004 27.500000000000004 26.500000000000004 24.500000000000004
decision_type=2 2 2 2 2 2 2 2 2 2 2 2 2 2
left_child=2 -2 3 10 5 6 7 8 -4 -7 11 12 13 -1
right_child=1 -3 4 -5 -6 9 -8 -9 -10 -11 -12 -13 -14 -15
leaf_value=0.00058996426516938754 -0.034310985184632818 -0.00012189683899898967 -0.0037251850928772586 -0.021825283906059114 0.00093262429085330136 0.016664535988916141 -0.0074735281230122949 -0.031320560094900432 0.022165410636469377 0.046978079174004962 0.0071648899879236923 -0.010849495110788237 0.015571960728143304 -0.014627811528431872
leaf_weight=1385 26 2507 22 41 579 61 54 7.9999999999999991 43 7.9999999999999991 107 152 71 75
leaf_count=1385 26 2507 22 41 579 61 54 8 43 8 107 152 71 75
internal_value=0 -0.000472831 0.000459586 -0.000519767 0.00277339 0.00821115 0.00170885 0.00850129 0.0134024 0.0201791 -3.17632e-05 -0.000489304 0.000539271 -0.000191771
internal_weight=0 2533 2606 1831 775 196 127 73 65 69 1790 1683 1531 1460
internal_count=5139 2533 2606 1831 775 196 127 73 65 69 1790 1683 1531 1460
is_linear=0
shrinkage=0.1


end of trees

feature_importances:
Column_1=581
Column_0=175

parameters:
[boosting: gbdt]
[objective: regression]
[metric: custom]
[tree_learner: serial]
[device_type: cpu]
[data: ]
[valid: ]
[num_iterations: 10000]
[learning_rate: 0.1]
[num_leaves: 15]
[num_threads: 0]
[deterministic: 0]
[force_col_wise: 0]
[force_row_wise: 0]
[histogram_pool_size: -1]
[max_depth: -1]
[min_data_in_leaf: 5]
[min_sum_hessian_in_leaf: 0.001]
[bagging_fraction: 0.5]
[pos_bagging_fraction: 1]
[neg_bagging_fraction: 1]
[bagging_freq: 0]
[bagging_seed: 21897]
[feature_fraction: 0.8]
[feature_fraction_bynode: 1]
[feature_fraction_seed: 12646]
[extra_trees: 0]
[extra_seed: 20733]
[early_stopping_round: 0]
[first_metric_only: 0]
[max_delta_step: 0]
[lambda_l1: 0]
[lambda_l2: 0]
[linear_lambda: 0]
[min_gain_to_split: 0]
[drop_rate: 0.1]
[max_drop: 50]
[skip_drop: 0.5]
[xgboost_dart_mode: 0]
[uniform_drop: 0]
[drop_seed: 20829]
[top_rate: 0.2]
[other_rate: 0.1]
[min_data_per_group: 100]
[max_cat_threshold: 32]
[cat_l2: 10]
[cat_smooth: 10]
[max_cat_to_onehot: 4]
[top_k: 20]
[monotone_constraints: ]
[monotone_constraints_method: basic]
[monotone_penalty: 0]
[feature_contri: ]
[forcedsplits_filename: ]
[refit_decay_rate: 0.9]
[cegb_tradeoff: 1]
[cegb_penalty_split: 0]
[cegb_penalty_feature_lazy: ]
[cegb_penalty_feature_coupled: ]
[path_smooth: 0]
[interaction_constraints: ]
[verbosity: -1]
[saved_feature_importance_type: 0]
[linear_tree: 0]
[max_bin: 255]
[max_bin_by_feature: ]
[min_data_in_bin: 3]
[bin_construct_sample_cnt: 200000]
[data_random_seed: 182]
[is_enable_sparse: 1]
[enable_bundle: 1]
[use_missing: 1]
[zero_as_missing: 0]
[feature_pre_filter: 1]
[pre_partition: 0]
[two_round: 0]
[header: 0]
[label_column: ]
[weight_column: ]
[group_column: ]
[ignore_column: ]
[categorical_feature: ]
[forcedbins_filename: ]
[precise_float_parser: 0]
[objective_seed: 3944]
[num_class: 1]
[is_unbalance: 0]
[scale_pos_weight: 1]
[sigmoid: 1]
[boost_from_average: 1]
[reg_sqrt: 0]
[alpha: 0.9]
[fair_c: 1]
[poisson_max_delta_step: 0.7]
[tweedie_variance_power: 1.5]
[lambdarank_truncation_level: 30]
[lambdarank_norm: 1]
[label_gain: ]
[eval_at: ]
[multi_error_top_k: 1]
[auc_mu_weights: ]
[num_machines: 1]
[local_listen_port: 12400]
[time_out: 120]
[machine_list_filename: ]
[machines: ]
[gpu_platform_id: -1]
[gpu_device_id: -1]
[gpu_use_dp: 0]
[num_gpu: 1]

end of parameters

pandas_categorical:null
