tree
version=v3
num_class=1
num_tree_per_iteration=1
label_index=0
max_feature_idx=72
objective=regression
feature_names=Column_0 Column_1 Column_2 Column_3 Column_4 Column_5 Column_6 Column_7 Column_8 Column_9 Column_10 Column_11 Column_12 Column_13 Column_14 Column_15 Column_16 Column_17 Column_18 Column_19 Column_20 Column_21 Column_22 Column_23 Column_24 Column_25 Column_26 Column_27 Column_28 Column_29 Column_30 Column_31 Column_32 Column_33 Column_34 Column_35 Column_36 Column_37 Column_38 Column_39 Column_40 Column_41 Column_42 Column_43 Column_44 Column_45 Column_46 Column_47 Column_48 Column_49 Column_50 Column_51 Column_52 Column_53 Column_54 Column_55 Column_56 Column_57 Column_58 Column_59 Column_60 Column_61 Column_62 Column_63 Column_64 Column_65 Column_66 Column_67 Column_68 Column_69 Column_70 Column_71 Column_72
feature_infos=[5:56] [3862.1968252761731:34830.782809281292] [3600:36097.546012269937] [3600:36097.546012269937] [3600:36097.546012269937] [3600:36097.546012269937] [3600:36097.546012269937] [3600:36097.546012269937] [3600:36097.546012269937] [3600:36097.546012269937] [3600:36097.546012269937] [3600:36097.546012269937] [3600.0000510003374:10800.000170809659] [3600.000051000331:10800.000170271722] [3600.1379879094484:10799.997616611263] [3599.9985041427444:10802.378597712463] [3599.9985041427444:10802.378597712463] [3599.9985041427444:10802.378597712463] [3599.9970784284369:10824.369168355082] [3599.9970784284369:10824.369168355082] [3599.9970784284369:10824.369168355082] [5833.48486328125:11705.0947265625] [5833.48486328125:11705.0947265625] [5833.48486328125:11705.0947265625] [3599.9985721739713:10800.01370759139] [5486.63330078125:11693.0390625] [5486.63330078125:11693.0390625] [5486.63330078125:11693.0390625] [5826.51171875:11765.7724609375] [5826.51171875:11765.7724609375] [5826.51171875:11765.7724609375] [5410.93115234375:11710.005859375] [4322.343875974072:12169.21654132908] [4322.343875974072:12169.21654132908] [4322.343875974072:12169.21654132908] [3600.0000000000005:11973.646284864382] [3600.0000000000005:11973.646284864382] [3600.0000000000005:11973.646284864382] [4658.2077587370877:11708.156873723416] [4658.2077587370877:11708.156873723416] [4658.2077587370877:11708.156873723416] [4870.3792011057931:12406.854860656607] [3600.0000000000005:11702.084126378597] [3600.0000000000005:11702.084126378597] [3600.0000000000005:11702.084126378597] [3600.0000000000005:11702.084126378597] [3600.0000000000005:11702.084126378597] [3600.0000000000005:11702.084126378597] [3600.0000000000005:11702.084126378597] [3600.0000000000005:11702.084126378597] [3600.0000000000005:11702.084126378597] [3600.0000000000005:11702.084126378597] [5375.5914935020501:12390.272091594814] [5569.0077228318178:12695.950666046418] [4671.2788396669785:11865.888611784518] [5865.6099158928155:11453.941784757943] [5865.6099158928155:11453.941784757943] [5865.6099158928155:11453.941784757943] [5865.6099158928155:11453.941784757943] [5865.6099158928155:11453.941784757943] [5865.6099158928155:11453.941784757943] [5865.6099158928155:11453.941784757943] [5865.6099158928155:11453.941784757943] [5865.6099158928155:11453.941784757943] [5865.6099155816237:11453.941371529456] [4314.7566924276534:11643.484449980011] [5037.5442936491818:13540.430952399904] [5352.0509430306929:13834.320049432148] [3906.6588086640872:15473.864126395112] [4673.0625441292268:12008.482444389463] [5266.7974509333126:12989.646985052672] [3824.0249138868999:12367.273851514268] [5774.1865476673202:9381.0379377608806]
tree_sizes=4855 4882 4894 4911 4921 4934 4960 4984

Tree=0
num_leaves=54
num_cat=0
split_feature=18 41 1 71 12 53 1 25 38 12 25 1 54 21 52 13 14 0 67 25 13 0 1 12 1 21 21 1 1 1 0 1 0 0 1 0 1 12 17 1 0 1 0 1 0 1 1 1 1 1 1 1 1
split_gain=162.7 15.7295 5.85977 4.41941 3.13227 2.41222 2.1042 1.94898 1.44351 1.27053 1.09556 1.07558 0.587489 0.518086 0.478828 0.398178 0.343442 0.291689 0.274354 0.247876 0.196379 0.153707 0.135713 0.132286 0.128897 0.113217 0.11165 0.0869267 0.0776365 0.0530715 0.0418606 0.0263151 0.0155381 0.0150537 0.00920338 0.00701921 0.00608944 0.00316939 0.0021031 0.00151418 0.000686328 0.000566163 0.000423947 0.000318813 0.000213067 0.000113541 0.00010229 6.00284e-05 4.13281e-06 2.67623e-06 1.17128e-06 2.03612e-07 1.379e-07
threshold=7212.2764436691023 9570.4455873143215 30333.177921197381 5757.2510345752617 7199.6676750720071 10042.227675647331 21041.298537650295 10596.898437500002 8057.572134302286 6580.3677805113703 6648.2382812500009 34662.432439441851 11315.391744189646 11347.579589843752 5879.8215834493794 8511.1651278319496 8991.9496434651865 40.500000000000007 6203.5098607661084 11625.506347656252 7199.9950853070814 22.000000000000004 31308.46222261569 9000.0000095032683 12870.209739330887 6484.2233886718759 11496.896484375002 33775.347716139389 18143.849433858635 18805.335867272679 31.000000000000004 19510.122719657418 31.000000000000004 40.500000000000007 18477.186212851495 40.500000000000007 18038.50850146919 8477.521710750194 8715.1063373269226 12296.779931659914 40.500000000000007 34776.478302512391 31.000000000000004 34138.078016283871 14.000000000000002 18729.676025929981 12796.146417148619 18224.144368759957 12742.544021445048 33558.284332441406 18306.825634724984 19093.133424985437 32170.311326199586
decision_type=2 2 2 2 2 2 2 2 2 2 2 2 2 2 2 2 2 2 2 2 2 2 2 2 2 2 2 2 2 2 2 2 2 2 2 2 2 2 2 2 2 2 2 2 2 2 2 2 2 2 2 2 2
left_child=3 4 5 10 -2 16 9 27 17 24 18 12 19 30 35 29 45 23 46 26 33 -18 -14 36 -5 40 32 -4 -17 34 -7 -19 -9 39 -10 -11 -6 -30 44 -16 -20 -13 -24 49 -39 -3 48 -46 -1 -34 -38 -31 -21
right_child=1 2 7 6 8 13 -8 11 15 14 -12 41 22 -15 20 28 21 31 25 52 -22 -23 42 -25 -26 -27 -28 -29 37 51 -32 -33 43 -35 -36 -37 50 38 -40 -41 -42 -43 -44 -45 47 -47 -48 -49 -50 -51 -52 -53 -54
leaf_value=-0.010207783533351182 0.12288480852004134 0.066150855312310089 0.10746516345007605 -0.014895102359903246 0.047163313709528913 0.12052019662884396 -0.070346527296569469 0.077794658715415521 0.03772229127790773 -0.0317583900072273 0.019182291939684147 0.041268584112955996 0.046837296056198137 0.14326495344193477 -0.025042061409475683 0.027429216655157445 0.10971748693740609 0.031833709329345927 -0.014586935216534537 0.064851514240324815 -0.011387581097172203 0.086339828191925191 0.061847976577550937 0.059218713044064675 -0.019539748786049773 -0.02504096198136236 0.085980040648310482 0.093467663319553709 0.017220535294789636 0.029955047757551014 0.11159328254634802 0.03830583810456329 0.073245222403732588 -0.020827927843481368 0.044617999545795151 -0.028860498377039266 0.04437810503151262 0.013897164137542861 0.016269081300842914 -0.024530200682878395 -0.015368621324934132 0.040073611928464724 0.060901933081634288 0.073946504147909514 0.014779589844857719 0.06690431595053517 -0.010309521630369032 0.01439365889549781 -0.010180987797491318 0.073170582803152431 0.044328378656237427 0.029984426934539239 0.06486701461851975
leaf_weight=457 15.999999999999998 15.999999999999998 35 479 52 47 38 46 15.999999999999998 469 47 35 39 44 471 25 14.999999999999998 54 443 38 47 45 36 36 477 46 45 36 31 15.999999999999998 38 47 46 40 15.000000000000002 36 40 22 35 454 50 29 40 34 38 15.999999999999998 463 28 464 33 36 23 58
leaf_count=457 16 16 35 479 52 47 38 46 16 469 47 35 39 44 471 25 15 54 443 38 47 45 36 36 477 46 45 36 31 16 38 47 46 40 15 36 40 22 35 454 50 29 40 34 38 16 463 28 464 33 36 23 58
internal_value=-4.61731e-09 0.0622635 0.0804966 -0.0180774 0.0357396 0.108003 -0.0236407 0.0694442 0.0330269 -0.0229231 -0.0109863 0.0648605 0.0685823 0.125648 -0.0265218 0.0220928 0.0832602 0.0433008 -0.0117236 0.0732413 -0.0240117 0.0921842 0.0564283 0.048508 -0.0172126 -0.0155516 0.077185 0.100368 0.0170914 0.0348821 0.116529 0.0348455 0.0746959 -0.0246266 0.0410589 -0.0315518 0.0454956 0.0154132 0.0149577 -0.0247908 -0.0146662 0.0407271 0.0613501 0.0734344 0.0144362 0.0665276 -0.0102328 0.0146159 -0.0101943 0.073214 0.0443546 0.0299724 0.0648609
internal_weight=0 1301 771 4481 530 221 2511 550 514 2473 1970 479 415 129 1517 249 92 265 1923 300 1012 60 115 164 956 539 204 71 179 70 85 101 159 965 31 505 128 154 123 925 493 64 76 113 88 32 1384 66 921 79 76 39 96
internal_count=5782 1301 771 4481 530 221 2511 550 514 2473 1970 479 415 129 1517 249 92 265 1923 300 1012 60 115 164 956 539 204 71 179 70 85 101 159 965 31 505 128 154 123 925 493 64 76 113 88 32 1384 66 921 79 76 39 96
is_linear=0
shrinkage=1


Tree=1
num_leaves=54
num_cat=0
split_feature=19 41 1 71 12 53 1 25 38 12 25 1 54 21 52 13 14 0 67 25 13 0 1 12 1 21 21 1 1 1 0 1 0 0 1 0 1 12 15 1 0 1 0 1 0 1 1 1 1 1 1 1 1
split_gain=104.128 10.0669 3.75025 2.82842 2.00466 1.54382 1.34669 1.24735 0.923844 0.813137 0.701156 0.688374 0.375993 0.331575 0.30645 0.254834 0.219803 0.186681 0.175587 0.158641 0.125682 0.0983727 0.0868562 0.0846629 0.0824938 0.0724587 0.0714559 0.0556331 0.0496873 0.0339657 0.0267908 0.0168417 0.00994437 0.00963434 0.00589017 0.00449227 0.00389724 0.00202841 0.00134598 0.000969068 0.000439251 0.000362346 0.000271325 0.000204042 0.000136363 7.26667e-05 6.54608e-05 3.84199e-05 2.6449e-06 1.71283e-06 7.49447e-07 1.30291e-07 8.82608e-08
threshold=7212.2764436691023 9570.4455873143215 30333.177921197381 5757.2510345752617 7199.6676750720071 10042.227675647331 21041.298537650295 10596.898437500002 8057.572134302286 6580.3677805113703 6648.2382812500009 34662.432439441851 11315.391744189646 11347.579589843752 5879.8215834493794 8511.1651278319496 8991.9496434651865 40.500000000000007 6203.5098607661084 11625.506347656252 7199.9950853070814 22.000000000000004 31308.46222261569 9000.0000095032683 12870.209739330887 6484.2233886718759 11496.896484375002 33775.347716139389 18143.849433858635 18805.335867272679 31.000000000000004 19510.122719657418 31.000000000000004 40.500000000000007 18477.186212851495 40.500000000000007 18038.50850146919 8477.521710750194 8715.1063373269226 12296.779931659914 40.500000000000007 34776.478302512391 31.000000000000004 34138.078016283871 14.000000000000002 18729.676025929981 12796.146417148619 18224.144368759957 12742.544021445048 33558.284332441406 18306.825634724984 19093.133424985437 32170.311326199586
decision_type=2 2 2 2 2 2 2 2 2 2 2 2 2 2 2 2 2 2 2 2 2 2 2 2 2 2 2 2 2 2 2 2 2 2 2 2 2 2 2 2 2 2 2 2 2 2 2 2 2 2 2 2 2
left_child=3 4 5 10 -2 16 9 27 17 24 18 12 19 30 35 29 45 23 46 26 33 -18 -14 36 -5 40 32 -4 -17 34 -7 -19 -9 39 -10 -11 -6 -30 44 -16 -20 -13 -24 49 -39 -3 48 -46 -1 -34 -38 -31 -21
right_child=1 2 7 6 8 13 -8 11 15 14 -12 41 22 -15 20 28 21 31 25 52 -22 -23 42 -25 -26 -27 -28 -29 37 51 -32 -33 43 -35 -36 -37 50 38 -40 -41 -42 -43 -44 -45 47 -47 -48 -49 -50 -51 -52 -53 -54
leaf_value=-0.0081662231897303532 0.098307855613529685 0.052920686779543757 0.085972134428364891 -0.011916078768655004 0.037730653068194023 0.096416162461676502 -0.056277217519910716 0.062235732158929441 0.030177831836044791 -0.025406706377790411 0.01534583813045174 0.03301487124391965 0.03746984089032198 0.11461196409707719 -0.020033645368875211 0.021943376660346986 0.087773997088273381 0.025466969443692103 -0.011669545166423592 0.051881214716520754 -0.0091100593513630812 0.06907186955213547 0.049478388732920098 0.047374974118752612 -0.015631794961524708 -0.020032763189595681 0.068784036884705232 0.074774131986002121 0.013776434429230228 0.023964042915031316 0.089274633087609953 0.030644673061497669 0.058596184114804085 -0.016662339279428125 0.03569440394639968 -0.023088398658567006 0.035502485502511262 0.011117734929377383 0.013015268359865462 -0.019624158838509462 -0.01229489465802908 0.03205889139709802 0.048721555164083843 0.059157212307293185 0.011823679310710808 0.053523458167910577 -0.0082476103529494985 0.011514927659715925 -0.0081447870149437725 0.058536471646617766 0.035462709060973589 0.023987544425155806 0.051893615346915771
leaf_weight=457 15.999999999999998 15.999999999999998 35 479 52 47 38 46 15.999999999999998 469 47 35 39 44 471 25 14.999999999999998 54 443 38 47 45 36 36 477 46 45 36 31 15.999999999999998 38 47 46 40 15.000000000000002 36 40 22 35 454 50 29 40 34 38 15.999999999999998 463 28 464 33 36 23 58
leaf_count=457 16 16 35 479 52 47 38 46 16 469 47 35 39 44 471 25 15 54 443 38 47 45 36 36 477 46 45 36 31 16 38 47 46 40 15 36 40 22 35 454 50 29 40 34 38 16 463 28 464 33 36 23 58
internal_value=0 0.0498108 0.0643973 -0.0144619 0.0285917 0.0864021 -0.0189126 0.0555554 0.0264215 -0.0183384 -0.00878903 0.0518884 0.0548658 0.100519 -0.0212174 0.0176743 0.0666082 0.0346406 -0.00937891 0.058593 -0.0192094 0.0737474 0.0451427 0.0388064 -0.0137701 -0.0124413 0.061748 0.0802943 0.0136732 0.0279057 0.0932235 0.0278764 0.0597567 -0.0197013 0.0328471 -0.0252414 0.0363965 0.0123306 0.0119662 -0.0198327 -0.011733 0.0325817 0.0490801 0.0587476 0.011549 0.0532221 -0.00818626 0.0116927 -0.00815542 0.0585712 0.0354836 0.0239779 0.0518887
internal_weight=0 1301 771 4481 530 221 2511 550 514 2473 1970 479 415 129 1517 249 92 265 1923 300 1012 60 115 164 956 539 204 71 179 70 85 101 159 965 31 505 128 154 123 925 493 64 76 113 88 32 1384 66 921 79 76 39 96
internal_count=5782 1301 771 4481 530 221 2511 550 514 2473 1970 479 415 129 1517 249 92 265 1923 300 1012 60 115 164 956 539 204 71 179 70 85 101 159 965 31 505 128 154 123 925 493 64 76 113 88 32 1384 66 921 79 76 39 96
is_linear=0
shrinkage=0.2


Tree=2
num_leaves=54
num_cat=0
split_feature=18 41 1 71 12 53 1 25 38 12 25 1 54 21 52 13 14 0 72 25 13 0 1 12 1 21 21 1 1 1 0 1 0 0 1 0 1 12 15 1 0 1 0 1 0 1 1 1 1 1 1 1 1
split_gain=66.642 6.44281 2.40016 1.81019 1.28298 0.988045 0.861881 0.798302 0.59126 0.520408 0.44874 0.440559 0.240635 0.212208 0.196128 0.163094 0.140674 0.119476 0.112376 0.10153 0.0804367 0.0629586 0.055588 0.0541842 0.0527959 0.0463736 0.0457318 0.0356051 0.0317999 0.0217381 0.0171461 0.0107786 0.00636441 0.00616598 0.00376971 0.00287507 0.00249424 0.00129818 0.000861427 0.000620223 0.000281122 0.000231901 0.000173647 0.000130586 8.7272e-05 4.65056e-05 4.18944e-05 2.4588e-05 1.69331e-06 1.09607e-06 4.79701e-07 8.33784e-08 5.64899e-08
threshold=7212.2764436691023 9570.4455873143215 30333.177921197381 5757.2510345752617 7199.6676750720071 10042.227675647331 21041.298537650295 10596.898437500002 8057.572134302286 6580.3677805113703 6648.2382812500009 34662.432439441851 11315.391744189646 11347.579589843752 5879.8215834493794 8511.1651278319496 8991.9496434651865 40.500000000000007 6281.7898236789561 11625.506347656252 7199.9950853070814 22.000000000000004 31308.46222261569 9000.0000095032683 12870.209739330887 6484.2233886718759 11496.896484375002 33775.347716139389 18143.849433858635 18805.335867272679 31.000000000000004 19510.122719657418 31.000000000000004 40.500000000000007 18477.186212851495 40.500000000000007 18038.50850146919 8477.521710750194 8715.1063373269226 12296.779931659914 40.500000000000007 34776.478302512391 31.000000000000004 34138.078016283871 14.000000000000002 18729.676025929981 12796.146417148619 18224.144368759957 12742.544021445048 33558.284332441406 18306.825634724984 19093.133424985437 32170.311326199586
decision_type=2 2 2 2 2 2 2 2 2 2 2 2 2 2 2 2 2 2 2 2 2 2 2 2 2 2 2 2 2 2 2 2 2 2 2 2 2 2 2 2 2 2 2 2 2 2 2 2 2 2 2 2 2
left_child=3 4 5 10 -2 16 9 27 17 24 18 12 19 30 35 29 45 23 46 26 33 -18 -14 36 -5 40 32 -4 -17 34 -7 -19 -9 39 -10 -11 -6 -30 44 -16 -20 -13 -24 49 -39 -3 48 -46 -1 -34 -38 -31 -21
right_child=1 2 7 6 8 13 -8 11 15 14 -12 41 22 -15 20 28 21 31 25 52 -22 -23 42 -25 -26 -27 -28 -29 37 51 -32 -33 43 -35 -36 -37 50 38 -40 -41 -42 -43 -44 -45 47 -47 -48 -49 -50 -51 -52 -53 -54
leaf_value=-0.0065329798670481542 0.078646280150860559 0.042336554941721262 0.068777705069099151 -0.0095328650559786728 0.030184527744467445 0.077132930337114547 -0.045021773815939303 0.049788585855909021 0.024142265459522607 -0.0203253648440435 0.012276670847959976 0.026411898101380629 0.029975870117927211 0.091689577427777391 -0.016026917924103972 0.01755470508337021 0.070219196081161492 0.020373578592100081 -0.0093356357210444014 0.04150497274179208 -0.0072880466884755087 0.055257490244176657 0.039582710009482172 0.037899980590575276 -0.01250543592368844 -0.016026209651128106 0.055027230125334531 0.05981931332498789 0.011021148293249069 0.019171235733665526 0.071419705176039752 0.024515739854108147 0.046876943240994999 -0.013329870626330377 0.028555522896349425 -0.018470713247855507 0.028401991198770706 0.0088941906324841776 0.010412214653832573 -0.015699323550654405 -0.0098359167277812971 0.025647115816587004 0.038977245017886165 0.047325765407260731 0.0094589433583774085 0.042818766273558143 -0.0065980876862326912 0.0092119455603616573 -0.0065158280327209626 0.046829176349847609 0.028370168225632778 0.019190036051947138 0.041514893505593828
leaf_weight=457 15.999999999999998 15.999999999999998 35 479 52 47 38 46 15.999999999999998 469 47 35 39 44 471 25 14.999999999999998 54 443 38 47 45 36 36 477 46 45 36 31 15.999999999999998 38 47 46 40 15.000000000000002 36 40 22 35 454 50 29 40 34 38 15.999999999999998 463 28 464 33 36 23 58
leaf_count=457 16 16 35 479 52 47 38 46 16 469 47 35 39 44 471 25 15 54 443 38 47 45 36 36 477 46 45 36 31 16 38 47 46 40 15 36 40 22 35 454 50 29 40 34 38 16 463 28 464 33 36 23 58
internal_value=0 0.0398487 0.0515178 -0.0115695 0.0228733 0.0691217 -0.0151301 0.0444443 0.0211372 -0.0146708 -0.00703123 0.0415107 0.0438927 0.080415 -0.0169739 0.0141394 0.0532865 0.0277125 -0.00750313 0.0468744 -0.0153675 0.0589979 0.0361141 0.0310451 -0.011016 -0.00995304 0.0493984 0.0642354 0.0109385 0.0223246 0.0745788 0.0223011 0.0478054 -0.015761 0.0262777 -0.0201932 0.0291172 0.00986448 0.00957296 -0.0158661 -0.00938637 0.0260654 0.039264 0.046998 0.00923916 0.0425777 -0.00654901 0.00935416 -0.00652434 0.046857 0.0283869 0.0191823 0.041511
internal_weight=0 1301 771 4481 530 221 2511 550 514 2473 1970 479 415 129 1517 249 92 265 1923 300 1012 60 115 164 956 539 204 71 179 70 85 101 159 965 31 505 128 154 123 925 493 64 76 113 88 32 1384 66 921 79 76 39 96
internal_count=5782 1301 771 4481 530 221 2511 550 514 2473 1970 479 415 129 1517 249 92 265 1923 300 1012 60 115 164 956 539 204 71 179 70 85 101 159 965 31 505 128 154 123 925 493 64 76 113 88 32 1384 66 921 79 76 39 96
is_linear=0
shrinkage=0.2


Tree=3
num_leaves=54
num_cat=0
split_feature=18 41 1 42 12 53 21 1 25 38 1 52 54 21 29 14 1 25 0 25 0 1 12 21 1 15 1 1 0 1 0 1 1 0 1 0 12 14 15 1 1 0 1 1 0 1 1 1 1 1 1 1 1
split_gain=42.6509 4.1234 1.5361 1.10961 0.821107 0.632349 0.598331 0.512802 0.510913 0.378407 0.281958 0.213542 0.154007 0.135813 0.10438 0.0900313 0.0885672 0.0800878 0.0764646 0.0649792 0.0402934 0.0355763 0.0346779 0.0292683 0.0227873 0.0219241 0.0203519 0.0139124 0.0109735 0.00689833 0.00407321 0.00251633 0.00241262 0.00184006 0.00159631 0.00141197 0.000830832 0.000653139 0.000551315 0.000396929 0.000148415 0.000111135 0.000100734 8.35743e-05 5.58536e-05 2.97646e-05 2.68154e-05 1.57347e-05 1.08286e-06 7.01511e-07 3.07082e-07 5.33809e-08 3.61429e-08
threshold=7212.2764436691023 9570.4455873143215 30333.177921197381 5855.7952392308707 7199.6676750720071 10042.227675647331 6597.3710937500009 21041.298537650295 10596.898437500002 8057.572134302286 34662.432439441851 5879.8215834493794 11315.391744189646 11347.579589843752 9156.5400390625018 8991.9496434651865 12870.209739330887 6037.2236328125009 40.500000000000007 11625.506347656252 22.000000000000004 31308.46222261569 9000.0000095032683 11496.896484375002 33775.347716139389 7203.4098102107027 18143.849433858635 18805.335867272679 31.000000000000004 19510.122719657418 31.000000000000004 20653.463679586977 18477.186212851495 40.500000000000007 18038.50850146919 40.500000000000007 8477.521710750194 6300.6372793926375 8715.1063373269226 12296.779931659914 34776.478302512391 31.000000000000004 20876.665735742979 34138.078016283871 14.000000000000002 18729.676025929981 12796.146417148619 18224.144368759957 12742.544021445048 33558.284332441406 18306.825634724984 19093.133424985437 32170.311326199586
decision_type=2 2 2 2 2 2 2 2 2 2 2 2 2 2 2 2 2 2 2 2 2 2 2 2 2 2 2 2 2 2 2 2 2 2 2 2 2 2 2 2 2 2 2 2 2 2 2 2 2 2 2 2 2
left_child=3 4 5 17 -2 15 7 11 24 18 12 33 19 28 26 45 39 37 22 23 -17 -14 34 30 -4 35 -11 32 -7 -20 -10 -27 -16 -5 -6 -18 -28 -1 44 -13 -12 -23 -37 49 -38 -3 48 -46 -19 -32 -36 -29 -21
right_child=1 2 8 6 9 13 -8 -9 10 14 40 16 21 -15 27 20 25 46 29 52 -22 41 -24 -25 -26 31 36 51 -30 -31 43 -33 -34 -35 50 42 38 -39 -40 -41 -42 -43 -44 -45 47 -47 -48 -49 -50 -51 -52 -53 -54
leaf_value=-0.007805093143933033 0.062917024106718608 0.033869239035993814 0.055022169521876746 -0.016260294369590689 0.024147620969093765 0.061706343546826796 0.0098213354403034175 -0.036017419299797009 0.039830870246109762 0.014043761029839516 0.02112951553293637 -0.012821531675547369 0.023980698371544863 0.073351660701022905 0.019313812395557763 0.056175354719161991 -0.010004350561375264 -0.0052263815400213076 0.016298861398051184 0.033203979150245068 0.044205994606018068 0.031666165404021743 0.030319985674901143 0.044021782428026207 0.047855447067154777 -0.0078687310982495547 0.0088169128904419577 0.015336988256603946 0.057135763460476156 0.019612590382073788 0.037501560183970828 -0.0058304418908788807 0.02284442156553268 -0.014776566914386219 0.022721594981849197 -0.011102429354055362 0.00711535161191767 -0.0074685083725332009 0.0083297715016773782 -0.012559460563839534 0.020517691687263293 0.031181791629642248 -0.010663897357881071 0.037860615770606433 0.0075671478713813583 0.034255015198141336 -0.0052784737969947815 0.0073695600032806403 -0.0052126654809148149 0.037463345965652754 0.022696133537424935 0.015352031147188467 0.033211914597657224
leaf_weight=481 15.999999999999998 15.999999999999998 35 469 52 47 47 38 46 25 35 471 39 44 15.999999999999998 14.999999999999998 477 457 54 38 45 36 36 45 36 50 31 15.999999999999998 38 47 46 47 15.000000000000002 36 40 44 22 443 35 454 29 40 40 34 38 15.999999999999998 463 28 464 33 36 23 58
leaf_count=481 16 16 35 469 52 47 47 38 46 25 35 471 39 44 16 15 477 457 54 38 45 36 36 45 36 50 31 16 38 47 46 47 15 36 40 44 22 443 35 454 29 40 40 34 38 16 463 28 464 33 36 23 58
internal_value=0 0.0318789 0.0412143 -0.00925564 0.0182987 0.0552974 -0.0124991 -0.0129926 0.0355554 0.0169098 0.0332086 -0.0125736 0.0351141 0.064332 0.0113115 0.0426292 -0.0114312 -0.00620185 0.02217 0.0374996 0.0471983 0.0288913 0.0248361 0.0395187 0.0513883 -0.00965745 0.00875082 0.0178597 0.059663 0.0178409 0.0382443 -0.00688111 0.0210222 -0.0161545 0.0232938 -0.0101375 0.00789158 -0.00764372 0.00765837 -0.0126929 0.0208523 0.0314112 -0.0108936 0.0375984 0.00739133 0.0340621 -0.00523921 0.00748332 -0.00521947 0.0374856 0.0227095 0.0153459 0.0332088
internal_weight=0 1301 771 4481 530 221 2173 2126 550 514 479 2088 415 129 249 92 1583 2308 265 300 60 115 164 204 71 658 179 70 85 101 159 97 31 505 128 561 154 924 123 925 64 76 84 113 88 32 1384 66 921 79 76 39 96
internal_count=5782 1301 771 4481 530 221 2173 2126 550 514 479 2088 415 129 249 92 1583 2308 265 300 60 115 164 204 71 658 179 70 85 101 159 97 31 505 128 561 154 924 123 925 64 76 84 113 88 32 1384 66 921 79 76 39 96
is_linear=0
shrinkage=0.2


Tree=4
num_leaves=54
num_cat=0
split_feature=18 41 1 71 12 53 1 25 38 12 25 1 54 21 52 28 14 0 67 25 15 0 1 21 1 12 21 1 1 1 0 1 0 0 1 0 1 12 15 1 0 1 0 1 0 1 1 1 1 1 1 1 1
split_gain=27.2966 2.63898 0.983106 0.737021 0.525508 0.404703 0.353278 0.326984 0.24218 0.215167 0.184063 0.180453 0.0985642 0.0869205 0.0803342 0.0668031 0.05762 0.0489373 0.0473816 0.0415867 0.0329469 0.0257878 0.0227688 0.0224695 0.022446 0.0221939 0.0187317 0.0145839 0.0130253 0.00890391 0.00702306 0.00441495 0.00260686 0.00252558 0.00154407 0.00117763 0.00102164 0.000531739 0.000352846 0.000254027 0.000115146 9.49871e-05 7.11273e-05 5.34885e-05 3.57465e-05 1.90492e-05 1.71632e-05 1.00709e-05 6.93022e-07 4.49145e-07 1.96498e-07 3.41511e-08 2.31219e-08
threshold=7212.2764436691023 9570.4455873143215 30333.177921197381 5757.2510345752617 7199.6676750720071 10042.227675647331 21041.298537650295 10596.898437500002 8057.572134302286 6580.3677805113703 6648.2382812500009 34662.432439441851 11315.391744189646 11347.579589843752 5879.8215834493794 9156.5400390625018 8991.9496434651865 40.500000000000007 6203.5098607661084 11625.506347656252 7203.4098102107027 22.000000000000004 31308.46222261569 6484.2233886718759 12870.209739330887 9000.0000095032683 11496.896484375002 33775.347716139389 18143.849433858635 18805.335867272679 31.000000000000004 19510.122719657418 31.000000000000004 40.500000000000007 18477.186212851495 40.500000000000007 18038.50850146919 8477.521710750194 8715.1063373269226 12296.779931659914 40.500000000000007 34776.478302512391 31.000000000000004 34138.078016283871 14.000000000000002 18729.676025929981 12796.146417148619 18224.144368759957 12742.544021445048 33558.284332441406 18306.825634724984 19093.133424985437 32170.311326199586
decision_type=2 2 2 2 2 2 2 2 2 2 2 2 2 2 2 2 2 2 2 2 2 2 2 2 2 2 2 2 2 2 2 2 2 2 2 2 2 2 2 2 2 2 2 2 2 2 2 2 2 2 2 2 2
left_child=3 4 5 10 -2 16 9 27 17 24 18 12 19 30 35 28 45 25 46 26 33 -18 -14 40 -5 36 32 -4 -10 34 -7 -19 -9 39 -17 -11 -6 -30 44 -16 -20 -13 -24 49 -39 -3 48 -46 -1 -34 -38 -31 -21
right_child=1 2 7 6 8 13 -8 11 15 14 -12 41 22 -15 20 29 21 31 23 52 -22 -23 42 -25 -26 -27 -28 -29 37 51 -32 -33 43 -35 -36 -37 50 38 -40 -41 -42 -43 -44 -45 47 -47 -48 -49 -50 -51 -52 -53 -54
leaf_value=-0.0041811047132326706 0.050333618000149731 0.027095391601324084 0.044017735719680789 -0.0060652682149397808 0.019318095024209472 0.049365075788599382 -0.028813935708450644 0.031864692667580172 0.011235013455152513 -0.013008236057405025 0.0078570734313193804 0.016903612613677978 0.01918455958366394 0.058681326562708074 -0.010257223294553548 0.015451049897819757 0.044940287669499722 0.0130390885113566 -0.0059748055455411536 0.026563183867715692 -0.0046643491755140589 0.035364797121534751 0.025332935154438019 -0.01062915875050037 -0.0080034793399477409 0.024255988131173786 0.035217424753225514 0.03828435494667954 0.0070535357320500956 0.012269590212963522 0.045708607284254153 0.0156900756160154 0.030001245534209454 -0.0085311179608106615 0.018275534113248185 -0.011821261048316956 0.018177273832261562 0.0056922793727029464 0.0066638203178133286 -0.01004756969945415 -0.0062949835099279892 0.016414150274519264 0.02494543328881264 0.030288490083287746 0.0060537195225295274 0.027404010761529207 -0.0042227804673117533 0.0058956433885863852 -0.0041701319475923185 0.029970668120817709 0.018156906465689342 0.012281622300329417 0.026569530907376061
leaf_weight=457 15.999999999999998 15.999999999999998 35 479 52 47 38 46 25 469 47 35 39 44 471 15.999999999999998 14.999999999999998 54 443 38 47 45 36 46 477 36 45 36 31 15.999999999999998 38 47 46 40 15.000000000000002 36 40 22 35 454 50 29 40 34 38 15.999999999999998 463 28 464 33 36 23 58
leaf_count=457 16 16 35 479 52 47 38 46 25 469 47 35 39 44 471 16 15 54 443 38 47 45 36 46 477 36 45 36 31 16 38 47 46 40 15 36 40 22 35 454 50 29 40 34 38 16 463 28 464 33 36 23 58
internal_value=0 0.0255032 0.0329714 -0.00740451 0.0146389 0.0442379 -0.00967642 0.0284443 0.0135278 -0.00938236 -0.00450868 0.0265669 0.0280913 0.0514656 -0.0108633 0.00904923 0.0341034 0.017736 -0.00481091 0.0299996 -0.0098352 0.0377587 0.0231131 -0.00640172 -0.00703235 0.0198689 0.031615 0.0411107 0.00700066 0.0142877 0.0477304 0.0142727 0.0305954 -0.010087 0.0168177 -0.0129236 0.018635 0.00631327 0.00612669 -0.0101543 -0.00600728 0.0166818 0.025129 0.0300787 0.00591306 0.0272497 -0.00419137 0.00598666 -0.00417558 0.0299885 0.0181676 0.0122767 0.026567
internal_weight=0 1301 771 4481 530 221 2511 550 514 2473 1970 479 415 129 1517 249 92 265 1923 300 1012 60 115 539 956 164 204 71 179 70 85 101 159 965 31 505 128 154 123 925 493 64 76 113 88 32 1384 66 921 79 76 39 96
internal_count=5782 1301 771 4481 530 221 2511 550 514 2473 1970 479 415 129 1517 249 92 265 1923 300 1012 60 115 539 956 164 204 71 179 70 85 101 159 965 31 505 128 154 123 925 493 64 76 113 88 32 1384 66 921 79 76 39 96
is_linear=0
shrinkage=0.2


Tree=5
num_leaves=54
num_cat=0
split_feature=18 41 1 71 12 53 1 25 38 12 25 1 54 21 52 28 14 0 67 25 15 0 1 21 1 12 21 1 1 1 0 1 0 0 1 0 1 12 15 1 0 1 0 1 0 1 1 1 1 1 1 1 1
split_gain=17.4698 1.68894 0.629188 0.471694 0.336325 0.25901 0.226098 0.20927 0.154995 0.137707 0.1178 0.11549 0.0630812 0.0556291 0.0514139 0.042754 0.0368768 0.0313199 0.0303243 0.0266155 0.021086 0.0165042 0.014572 0.0143805 0.0143654 0.0142041 0.0119883 0.00933367 0.00833614 0.00569851 0.00449474 0.00282555 0.0016684 0.00161637 0.000988195 0.000753682 0.000653853 0.000340314 0.000225819 0.000162585 7.36929e-05 6.07922e-05 4.55226e-05 3.42331e-05 2.28777e-05 1.21913e-05 1.09826e-05 6.44537e-06 4.43721e-07 2.873e-07 1.25826e-07 2.18662e-08 1.48197e-08
threshold=7212.2764436691023 9570.4455873143215 30333.177921197381 5757.2510345752617 7199.6676750720071 10042.227675647331 21041.298537650295 10596.898437500002 8057.572134302286 6580.3677805113703 6648.2382812500009 34662.432439441851 11315.391744189646 11347.579589843752 5879.8215834493794 9156.5400390625018 8991.9496434651865 40.500000000000007 6203.5098607661084 11625.506347656252 7203.4098102107027 22.000000000000004 31308.46222261569 6484.2233886718759 12870.209739330887 9000.0000095032683 11496.896484375002 33775.347716139389 18143.849433858635 18805.335867272679 31.000000000000004 19510.122719657418 31.000000000000004 40.500000000000007 18477.186212851495 40.500000000000007 18038.50850146919 8477.521710750194 8715.1063373269226 12296.779931659914 40.500000000000007 34776.478302512391 31.000000000000004 34138.078016283871 14.000000000000002 18729.676025929981 12796.146417148619 18224.144368759957 12742.544021445048 33558.284332441406 18306.825634724984 19093.133424985437 32170.311326199586
decision_type=2 2 2 2 2 2 2 2 2 2 2 2 2 2 2 2 2 2 2 2 2 2 2 2 2 2 2 2 2 2 2 2 2 2 2 2 2 2 2 2 2 2 2 2 2 2 2 2 2 2 2 2 2
left_child=3 4 5 10 -2 16 9 27 17 24 18 12 19 30 35 28 45 25 46 26 33 -18 -14 40 -5 36 32 -4 -10 34 -7 -19 -9 39 -17 -11 -6 -30 44 -16 -20 -13 -24 49 -39 -3 48 -46 -1 -34 -38 -31 -21
right_child=1 2 7 6 8 13 -8 11 15 14 -12 41 22 -15 20 29 21 31 23 52 -22 -23 42 -25 -26 -27 -28 -29 37 51 -32 -33 43 -35 -36 -37 50 38 -40 -41 -42 -43 -44 -45 47 -47 -48 -49 -50 -51 -52 -53 -54
leaf_value=-0.0033448839842400943 0.040266895690001553 0.02167631310876459 0.035214184394904549 -0.0048522167553296915 0.015454477995920641 0.039492058801524184 -0.023051146310018866 0.025491757209048324 0.008988004565238952 -0.010406588017344794 0.0062856578604972117 0.013522893530981881 0.015347644533866493 0.046945060874250807 -0.0082057797573427734 0.012360849510878326 0.035952226817607881 0.010431273826570423 -0.0047798440457399493 0.021250546101088588 -0.003731479575025275 0.028291834990183513 0.020266348371903102 -0.0085033267797173361 -0.0064027845718950599 0.019404790012372865 0.028173940148618487 0.030627486420174439 0.0056428303160975064 0.0098156714113429196 0.03656688792949641 0.012552058569928436 0.02400099343377287 -0.0068248923867940906 0.014620423614978787 -0.009457007174690564 0.014541819486767055 0.0045538246631622314 0.0053310540744236539 -0.0080380527122102113 -0.0050359851494431495 0.013131322210718846 0.019956343173980713 0.0242307934910059 0.0048429761670137706 0.021923207060171992 -0.0033782204993262274 0.0047165156209043099 -0.0033361039188658371 0.023976537991653793 0.014525521215465334 0.0098252991619317432 0.021255627454354845
leaf_weight=457 15.999999999999998 15.999999999999998 35 479 52 47 38 46 25 469 47 35 39 44 471 15.999999999999998 14.999999999999998 54 443 38 47 45 36 46 477 36 45 36 31 15.999999999999998 38 47 46 40 15.000000000000002 36 40 22 35 454 50 29 40 34 38 15.999999999999998 463 28 464 33 36 23 58
leaf_count=457 16 16 35 479 52 47 38 46 25 469 47 35 39 44 471 16 15 54 443 38 47 45 36 46 477 36 45 36 31 16 38 47 46 40 15 36 40 22 35 454 50 29 40 34 38 16 463 28 464 33 36 23 58
internal_value=0 0.0204025 0.0263771 -0.00592361 0.0117112 0.0353903 -0.00774114 0.0227555 0.0108223 -0.00750589 -0.00360694 0.0212535 0.022473 0.0411725 -0.00869065 0.00723939 0.0272827 0.0141888 -0.00384873 0.0239997 -0.00786816 0.0302069 0.0184904 -0.00512138 -0.00562588 0.0158951 0.025292 0.0328885 0.00560053 0.0114302 0.0381843 0.0114182 0.0244763 -0.00806963 0.0134542 -0.0103389 0.014908 0.00505061 0.00490135 -0.00812346 -0.00480582 0.0133455 0.0201032 0.024063 0.00473045 0.0217998 -0.00335309 0.00478933 -0.00334046 0.0239908 0.0145341 0.00982135 0.0212536
internal_weight=0 1301 771 4481 530 221 2511 550 514 2473 1970 479 415 129 1517 249 92 265 1923 300 1012 60 115 539 956 164 204 71 179 70 85 101 159 965 31 505 128 154 123 925 493 64 76 113 88 32 1384 66 921 79 76 39 96
internal_count=5782 1301 771 4481 530 221 2511 550 514 2473 1970 479 415 129 1517 249 92 265 1923 300 1012 60 115 539 956 164 204 71 179 70 85 101 159 965 31 505 128 154 123 925 493 64 76 113 88 32 1384 66 921 79 76 39 96
is_linear=0
shrinkage=0.2


Tree=6
num_leaves=54
num_cat=0
split_feature=18 41 2 71 12 53 2 25 38 12 25 2 42 21 52 13 14 0 72 2 2 13 0 21 2 12 21 2 2 2 0 2 0 0 2 0 2 2 12 15 2 0 2 2 0 2 2 2 2 2 2 2 2
split_gain=11.1807 1.08092 0.40268 0.301884 0.215248 0.165766 0.144703 0.133933 0.0991971 0.0881325 0.0753921 0.0739135 0.0358151 0.0356026 0.0329049 0.0273626 0.0236012 0.0200447 0.0194076 0.0153043 0.0152333 0.013495 0.0105627 0.00920349 0.00919379 0.00909062 0.00767252 0.00597355 0.00533515 0.00364704 0.00287663 0.00180836 0.00106777 0.00103448 0.000632451 0.000482355 0.000418459 0.000408309 0.000217798 0.000144525 0.000104054 4.71623e-05 3.89055e-05 2.19087e-05 1.46422e-05 7.80215e-06 7.03048e-06 4.12513e-06 2.83841e-07 1.83911e-07 8.04904e-08 1.39828e-08 9.47344e-09
threshold=7212.2764436691023 9570.4455873143215 31444.728650909743 5757.2510345752617 7199.6676750720071 10042.227675647331 21865.370585190871 10596.898437500002 8057.572134302286 6580.3677805113703 6648.2382812500009 36043.117559523816 11534.27101722891 11347.579589843752 5879.8215834493794 8511.1651278319496 8991.9496434651865 40.500000000000007 6281.7898236789561 32409.518129770997 35866.813529149986 7199.9950853070814 22.000000000000004 6484.2233886718759 13239.588220626758 9000.0000095032683 11496.896484375002 35114.29934383458 18776.401053864171 19360.081168831173 31.000000000000004 20057.202651339579 31.000000000000004 40.500000000000007 19070.802189541857 40.500000000000007 18686.124101009453 32832.374792044306 8477.521710750194 8715.1063373269226 12654.537653336456 40.500000000000007 36092.366756134979 35452.085957870695 14.000000000000002 19441.428571428576 13181.682081114393 18895.032006245125 13117.053843090451 34828.721855590069 18986.657360012414 19707.031285944333 33295.539945264412
decision_type=2 2 2 2 2 2 2 2 2 2 2 2 2 2 2 2 2 2 2 2 2 2 2 2 2 2 2 2 2 2 2 2 2 2 2 2 2 2 2 2 2 2 2 2 2 2 2 2 2 2 2 2 2
left_child=3 4 5 10 -2 16 9 27 17 24 18 12 20 30 35 29 45 25 46 -14 26 33 -18 41 -5 36 32 -4 -17 34 -7 -19 -9 40 -10 -11 -6 -21 -30 44 -16 -20 -13 49 -40 -3 48 -46 -1 -34 -38 -31 -39
right_child=1 2 7 6 8 13 -8 11 15 14 -12 42 19 -15 21 28 22 31 23 37 -22 -23 -24 -25 -26 -27 -28 -29 38 51 -32 -33 43 -35 -36 -37 50 52 39 -41 -42 -43 -44 -45 47 -47 -48 -49 -50 -51 -52 -53 -54
leaf_value=-0.0026759059857210266 0.032213515508919953 0.017341052205301823 0.028171347507408691 -0.0051222243090501872 0.01236357896660383 0.031593647789447864 -0.018440916899003481 0.020393403356327958 0.0098886724561452876 -0.0083252712558986725 0.0050285249155886634 0.010818311987178668 0.012278118500342737 0.03755604979497465 -0.0065646233934822107 0.0071904084086418163 0.028761783118049306 0.0083450170095872005 -0.0038238785832985797 0.016213075485494402 0.015965073741972449 -0.0029851827849733071 0.022633470149917734 -0.0068026610366676166 -0.0038817739475806227 0.015523832632849614 0.022539152718252606 0.024501988291740419 0.0045142602175474167 0.0078525392338633544 0.029253512287610459 0.010041649790203319 0.01920079634241436 -0.0054599137231707579 0.011696340541044868 -0.0075656077100170992 0.01163345666602254 0.017000434890781579 0.003643057292157954 0.0042648447411400931 -0.0064304423563609041 -0.0040287891104817388 0.010505060980032231 0.019384633431978087 0.0038743820923723676 0.017538563569542021 -0.0027025794879921572 0.0037732125126889778 -0.0026688836655451051 0.019181229941772696 0.011620421169532671 0.0078602382670278133 0.017004497580487152
leaf_weight=457 15.999999999999998 15.999999999999998 35 477 52 47 38 46 15.999999999999998 469 47 35 39 44 471 25 14.999999999999998 54 443 36 40 47 45 46 479 36 45 36 31 15.999999999999998 38 47 46 40 15.000000000000002 36 40 38 22 35 454 50 29 34 38 15.999999999999998 463 28 464 33 36 23 58
leaf_count=457 16 16 35 477 52 47 38 46 16 469 47 35 39 44 471 25 15 54 443 36 40 47 45 46 479 36 45 36 31 16 38 47 46 40 15 36 40 38 22 35 454 50 29 34 38 16 463 28 464 33 36 23 58
internal_value=0 0.016322 0.0211017 -0.00473888 0.00936892 0.0283123 -0.00619291 0.0182044 0.0086578 -0.00600471 -0.00288556 0.0170028 0.0179784 0.032938 -0.00695252 0.00579151 0.0218262 0.011351 -0.00307898 0.015759 0.0195338 -0.00629452 0.0241655 -0.00409711 -0.0045007 0.0127161 0.0202336 0.0263108 0.00448042 0.00914414 0.0305475 0.00913454 0.0195811 -0.0064557 0.0107634 -0.00827112 0.0119264 0.0167875 0.00404049 0.00392108 -0.00649877 -0.00384466 0.0106764 0.0192504 0.00378436 0.0174398 -0.00268247 0.00383146 -0.00267237 0.0191926 0.0116273 0.00785708 0.0170029
internal_weight=0 1301 771 4481 530 221 2511 550 514 2473 1970 479 415 129 1517 249 92 265 1923 171 244 1012 60 539 956 164 204 71 179 70 85 101 159 965 31 505 128 132 154 123 925 493 64 113 88 32 1384 66 921 79 76 39 96
internal_count=5782 1301 771 4481 530 221 2511 550 514 2473 1970 479 415 129 1517 249 92 265 1923 171 244 1012 60 539 956 164 204 71 179 70 85 101 159 965 31 505 128 132 154 123 925 493 64 113 88 32 1384 66 921 79 76 39 96
is_linear=0
shrinkage=0.2


Tree=7
num_leaves=54
num_cat=0
split_feature=18 35 55 71 27 27 15 1 55 12 0 1 27 70 55 65 35 1 72 1 15 1 1 21 1 12 69 15 0 0 0 0 1 0 21 1 1 12 15 1 0 0 1 0 1 0 1 1 1 1 1 1 1
split_gain=7.15563 0.655236 0.228863 0.193206 0.102355 0.0973194 0.0954225 0.0926099 0.0870869 0.0564048 0.0527499 0.0526052 0.0482509 0.0418452 0.0341252 0.0307011 0.0204691 0.0129262 0.0124208 0.0091514 0.00885142 0.00837279 0.00691115 0.00589024 0.00588405 0.00490577 0.00432778 0.00183017 0.00130803 0.00113649 0.000994758 0.000876074 0.000715096 0.000631014 0.000574874 0.000341376 0.00018798 0.000139391 9.24938e-05 6.65942e-05 6.06512e-05 3.01856e-05 2.48995e-05 1.86445e-05 1.40216e-05 9.37101e-06 4.9936e-06 4.49894e-06 3.2024e-06 2.64031e-06 1.8193e-07 1.17739e-07 6.06506e-09
threshold=7212.2764436691023 8744.5484122613179 10957.521756204558 5757.2510345752617 11312.738769531252 10803.465332031252 8968.8184943038268 21041.298537650295 9703.7465346753906 6580.3677805113703 14.000000000000002 18050.052091728041 6648.2382812500009 9919.1707077235824 8905.1918702933926 6599.613398737195 5851.6949903573668 29913.315220094144 6281.7898236789561 18143.849433858635 7203.4098102107027 31308.46222261569 33775.347716139389 6484.2233886718759 12870.209739330887 9000.0000095032683 7289.6473860304186 7958.0342528620076 31.000000000000004 14.000000000000002 31.000000000000004 40.500000000000007 20876.665735742979 40.500000000000007 11291.067382812502 32894.867556151017 18306.825634724984 8477.521710750194 8715.1063373269226 12296.779931659914 40.500000000000007 40.500000000000007 34776.478302512391 31.000000000000004 34138.078016283871 14.000000000000002 18729.676025929981 12796.146417148619 31162.97330630256 18224.144368759957 12742.544021445048 33558.284332441406 32170.311326199586
decision_type=2 2 2 2 2 2 2 2 2 2 2 2 2 2 2 2 2 2 2 2 2 2 2 2 2 2 2 2 2 2 2 2 2 2 2 2 2 2 2 2 2 2 2 2 2 2 2 2 2 2 2 2 2
left_child=3 6 5 12 17 8 15 9 11 24 -8 -3 18 30 27 26 -11 -4 47 29 32 -15 35 41 -5 36 31 -13 46 -17 -7 -2 33 39 43 -10 -12 -21 45 -18 -28 -20 -32 -23 51 -39 -16 50 -6 -47 -1 -30 -36
right_child=1 2 4 7 48 13 10 -9 22 16 25 14 -14 21 28 19 20 -19 23 37 -22 34 -24 -25 -26 -27 40 -29 44 -31 42 -33 -34 -35 52 -37 -38 38 -40 -41 -42 -43 -44 -45 -46 49 -48 -49 -50 -51 -52 -53 -54
leaf_value=-0.0021407269075904164 0.0093067625351250169 0.025770815834403039 0.030044838959689846 -0.0031054174698624832 0.018106775834328598 0.0098224959312341164 0.023009423365195594 -0.014752736844514548 0.023402811184917629 -0.0066602130577381241 0.0098908646748616155 0.0062820294871926315 0.004022818629411941 0.016314719815778991 0.01387283984804526 0.0079109410289674997 -0.0052516997240151572 0.025274918624695317 -0.0030590998727836674 0.0036114099285294932 -0.0023881491828472057 0.012970458385017184 0.019601590010441011 -0.0054421283709614179 -0.0040977796145267708 0.012419064612024362 0.0062881918057151459 0.009357072611649829 0.015360636098067398 0.0057523242235183718 0.0086546482837625907 0.0080333149338022193 -0.0043679324537515647 -0.0060524851497676642 0.013600347588132873 0.022537081965378354 0.0092963340795702409 0.0029144478115168486 0.0034118729404040747 -0.0051443550296718593 0.0066760155510295323 -0.0032230329029262067 0.008404047735806169 0.012772063077427448 0.015507704994696029 0.0030995092403731852 0.014030852518044413 -0.0021620620866798944 0.018031322856744133 0.003018570026116712 -0.0021351048578347625 0.015344980584852626 0.013603598290476308
leaf_weight=457 40 15.999999999999998 44 479 45 39 14.999999999999998 38 38 469 52 15.999999999999998 47 46 15.999999999999998 15.999999999999998 471 47 443 31 47 36 36 46 477 36 23 15.000000000000002 46 25 35 47 40 36 38 35 36 22 35 454 54 50 29 40 34 38 15.999999999999998 463 45 28 464 33 58
leaf_count=457 40 16 44 479 45 39 15 38 38 469 52 16 47 46 16 16 471 47 443 31 47 36 36 46 477 36 23 15 46 25 35 47 40 36 38 35 36 22 35 454 54 50 29 40 34 38 16 463 45 28 464 33 58
internal_value=0 0.0130576 0.0165923 -0.00379111 0.0228514 0.0147709 0.00735816 -0.00495433 0.0173543 -0.00480377 0.0118073 0.0147911 -0.00230844 0.0123484 0.013793 0.00563549 -0.00556202 0.0275813 -0.00246319 0.00393934 -0.00507055 0.013918 0.0218694 -0.00327768 -0.00360056 0.0104523 0.00765225 0.00776995 0.0150807 0.00659471 0.00902629 0.00861881 -0.0051965 -0.00523099 0.013277 0.0229877 0.00964765 0.00323239 0.00313687 -0.00519901 0.00656017 -0.00307573 0.00854109 0.012866 0.0154003 0.00302749 0.0139518 -0.00214598 0.018069 0.00306517 -0.00213789 0.0153541 0.0136023
internal_weight=0 1301 803 4481 181 622 498 2511 301 2473 139 192 1970 321 176 359 1517 91 1923 195 1048 218 109 539 956 124 164 31 145 41 103 87 1001 961 172 73 88 154 123 925 77 493 64 76 113 88 32 1384 90 66 921 79 96
internal_count=5782 1301 803 4481 181 622 498 2511 301 2473 139 192 1970 321 176 359 1517 91 1923 195 1048 218 109 539 956 124 164 31 145 41 103 87 1001 961 172 73 88 154 123 925 77 493 64 76 113 88 32 1384 90 66 921 79 96
is_linear=0
shrinkage=0.2


end of trees

feature_importances:
Column_1=154
Column_0=71
Column_12=30
Column_2=24
Column_21=23
Column_25=20
Column_15=13
Column_13=8
Column_14=8
Column_18=7
Column_38=7
Column_41=7
Column_52=7
Column_53=7
Column_71=7
Column_54=6
Column_67=4
Column_27=3
Column_55=3
Column_72=3
Column_28=2
Column_35=2
Column_42=2
Column_17=1
Column_19=1
Column_29=1
Column_65=1
Column_69=1
Column_70=1

parameters:
[boosting: gbdt]
[objective: regression]
[metric: custom]
[tree_learner: serial]
[device_type: cpu]
[data: ]
[valid: ]
[num_iterations: 10000]
[learning_rate: 0.2]
[num_leaves: 63]
[num_threads: 0]
[deterministic: 0]
[force_col_wise: 0]
[force_row_wise: 0]
[histogram_pool_size: -1]
[max_depth: -1]
[min_data_in_leaf: 5]
[min_sum_hessian_in_leaf: 0.001]
[bagging_fraction: 0.8]
[pos_bagging_fraction: 1]
[neg_bagging_fraction: 1]
[bagging_freq: 0]
[bagging_seed: 20664]
[feature_fraction: 0.8]
[feature_fraction_bynode: 1]
[feature_fraction_seed: 4656]
[extra_trees: 0]
[extra_seed: 6363]
[early_stopping_round: 0]
[first_metric_only: 0]
[max_delta_step: 0]
[lambda_l1: 0]
[lambda_l2: 0]
[linear_lambda: 0]
[min_gain_to_split: 0]
[drop_rate: 0.1]
[max_drop: 50]
[skip_drop: 0.5]
[xgboost_dart_mode: 0]
[uniform_drop: 0]
[drop_seed: 24603]
[top_rate: 0.2]
[other_rate: 0.1]
[min_data_per_group: 100]
[max_cat_threshold: 32]
[cat_l2: 10]
[cat_smooth: 10]
[max_cat_to_onehot: 4]
[top_k: 20]
[monotone_constraints: ]
[monotone_constraints_method: basic]
[monotone_penalty: 0]
[feature_contri: ]
[forcedsplits_filename: ]
[refit_decay_rate: 0.9]
[cegb_tradeoff: 1]
[cegb_penalty_split: 0]
[cegb_penalty_feature_lazy: ]
[cegb_penalty_feature_coupled: ]
[path_smooth: 0]
[interaction_constraints: ]
[verbosity: -1]
[saved_feature_importance_type: 0]
[linear_tree: 0]
[max_bin: 255]
[max_bin_by_feature: ]
[min_data_in_bin: 3]
[bin_construct_sample_cnt: 200000]
[data_random_seed: 4094]
[is_enable_sparse: 1]
[enable_bundle: 1]
[use_missing: 1]
[zero_as_missing: 0]
[feature_pre_filter: 1]
[pre_partition: 0]
[two_round: 0]
[header: 0]
[label_column: ]
[weight_column: ]
[group_column: ]
[ignore_column: ]
[categorical_feature: ]
[forcedbins_filename: ]
[precise_float_parser: 0]
[objective_seed: 7268]
[num_class: 1]
[is_unbalance: 0]
[scale_pos_weight: 1]
[sigmoid: 1]
[boost_from_average: 1]
[reg_sqrt: 0]
[alpha: 0.9]
[fair_c: 1]
[poisson_max_delta_step: 0.7]
[tweedie_variance_power: 1.5]
[lambdarank_truncation_level: 30]
[lambdarank_norm: 1]
[label_gain: ]
[eval_at: ]
[multi_error_top_k: 1]
[auc_mu_weights: ]
[num_machines: 1]
[local_listen_port: 12400]
[time_out: 120]
[machine_list_filename: ]
[machines: ]
[gpu_platform_id: -1]
[gpu_device_id: -1]
[gpu_use_dp: 0]
[num_gpu: 1]

end of parameters

pandas_categorical:null
