tree
version=v3
num_class=1
num_tree_per_iteration=1
label_index=0
max_feature_idx=72
objective=regression
feature_names=Column_0 Column_1 Column_2 Column_3 Column_4 Column_5 Column_6 Column_7 Column_8 Column_9 Column_10 Column_11 Column_12 Column_13 Column_14 Column_15 Column_16 Column_17 Column_18 Column_19 Column_20 Column_21 Column_22 Column_23 Column_24 Column_25 Column_26 Column_27 Column_28 Column_29 Column_30 Column_31 Column_32 Column_33 Column_34 Column_35 Column_36 Column_37 Column_38 Column_39 Column_40 Column_41 Column_42 Column_43 Column_44 Column_45 Column_46 Column_47 Column_48 Column_49 Column_50 Column_51 Column_52 Column_53 Column_54 Column_55 Column_56 Column_57 Column_58 Column_59 Column_60 Column_61 Column_62 Column_63 Column_64 Column_65 Column_66 Column_67 Column_68 Column_69 Column_70 Column_71 Column_72
feature_infos=[5:56] [3862.1968252761731:34830.782809281292] [3600:36097.546012269937] [3600:36097.546012269937] [3600:36097.546012269937] [3600:36097.546012269937] [3600:36097.546012269937] [3600:36097.546012269937] [3600:36097.546012269937] [3600:36097.546012269937] [3600:36097.546012269937] [3600:36097.546012269937] [3600.0000510003374:10800.000170809659] [3600.000051000331:10800.000170271722] [3600.1379879094484:10800.000142357654] [3599.9985041427444:10802.378597712463] [3599.9985041427444:10802.378597712463] [3599.9985041427444:10802.378597712463] [3599.9970784284369:10824.369168355082] [3599.9970784284369:10824.369168355082] [3599.9970784284369:10824.369168355082] [5833.48486328125:11705.0947265625] [5833.48486328125:11705.0947265625] [5833.48486328125:11705.0947265625] [3599.9985721739713:10800.01370759139] [5486.63330078125:11693.0390625] [5486.63330078125:11693.0390625] [5486.63330078125:11693.0390625] [5826.51171875:11765.7724609375] [5826.51171875:11765.7724609375] [5826.51171875:11765.7724609375] [5410.93115234375:11710.005859375] [4322.343875974072:12169.21654132908] [4322.343875974072:12169.21654132908] [4322.343875974072:12169.21654132908] [3600.0000000000005:11973.646284864382] [3600.0000000000005:11973.646284864382] [3600.0000000000005:11973.646284864382] [4658.2077587370877:11708.156873723416] [4658.2077587370877:11708.156873723416] [4658.2077587370877:11708.156873723416] [4870.3792011057931:12406.854860656607] [3600.0000000000005:11702.084126378597] [3600.0000000000005:11702.084126378597] [3600.0000000000005:11702.084126378597] [3600.0000000000005:11702.084126378597] [3600.0000000000005:11702.084126378597] [3600.0000000000005:11702.084126378597] [3600.0000000000005:11702.084126378597] [3600.0000000000005:11702.084126378597] [3600.0000000000005:11702.084126378597] [3600.0000000000005:11702.084126378597] [5375.5914935020501:12390.272091594814] [5569.0077228318178:12695.950666046418] [4671.2788396669785:11498.697981856129] [5850.5549356312858:11453.941784757943] [5850.5549356312858:11453.941784757943] [5850.5549356312858:11453.941784757943] [5850.5549356312858:11453.941784757943] [5850.5549356312858:11453.941784757943] [5850.5549356312858:11453.941784757943] [5850.5549356312858:11453.941784757943] [5850.5549356312858:11453.941784757943] [5850.5549356312858:11453.941784757943] [5850.554932927068:11453.941371529456] [4314.7566924276534:11643.484449980011] [5037.5442936491818:13540.430952399904] [5078.4213707715162:13834.320049432148] [3906.6588086640872:15473.864126395112] [4673.0625441292268:12008.482444389463] [5408.5440807293216:12989.646985052672] [3824.0249138868999:12367.273851514268] [5774.1865476673202:9381.0379377608806]
tree_sizes=4844 4861 4869 4893 4911

Tree=0
num_leaves=54
num_cat=0
split_feature=18 53 1 21 1 12 41 25 18 24 25 18 54 1 1 13 67 21 1 1 30 12 1 12 12 14 35 0 1 1 1 12 0 25 30 0 0 0 1 12 17 1 0 1 0 1 0 1 1 1 1 1 1
split_gain=172.182 18.3539 6.1619 4.31848 3.23266 2.64836 2.56115 1.5662 1.47833 1.30692 1.15813 1.10412 0.832284 0.678439 0.638799 0.562374 0.550634 0.521739 0.487684 0.395686 0.25439 0.239818 0.218599 0.147129 0.136117 0.0600455 0.0477849 0.0421797 0.0415436 0.0383924 0.0325605 0.0276269 0.0214528 0.0181872 0.0152952 0.0144095 0.0111478 0.0109564 0.00833758 0.00608543 0.00404351 0.00328425 0.00197635 0.00152573 0.000390316 0.000374887 0.000273307 0.000114404 0.00010307 4.1645e-06 1.18019e-06 2.05123e-07 1.38977e-07
threshold=7209.5754468927125 9603.9094351186741 30337.751851630881 5879.1337890625009 21041.298537650295 7200.0000077277282 9963.2944525437815 10762.632812500002 10799.986512343059 8950.4681127639997 6648.2382812500009 10251.880320164079 7627.3724155664613 12873.960748261956 34776.478302512391 8511.1651278319496 5768.592913622263 11347.579589843752 18050.052091728041 31626.923620263977 6442.9167480468759 9000.0000330330458 12847.317416026865 10800.000142357609 9000.0000249046589 10192.382744901535 6431.4309856615864 31.000000000000004 29949.911016356426 31162.97330630256 19510.122719657418 9000.0000205000706 31.000000000000004 5939.6037597656259 9698.2968750000018 31.000000000000004 31.000000000000004 40.500000000000007 33775.347716139389 8906.8639938628821 8532.6075602291585 20876.665735742979 40.500000000000007 12296.779931659914 14.000000000000002 18556.427015209552 14.000000000000002 18729.676025929981 12796.146417148619 12742.544021445048 18318.030897438923 19093.133424985437 32170.311326199586
decision_type=2 2 2 2 2 2 2 2 2 2 2 2 2 2 2 2 2 2 2 2 2 2 2 2 2 2 2 2 2 2 2 2 2 2 2 2 2 2 2 2 2 2 2 2 2 2 2 2 2 2 2 2 2
left_child=3 5 8 13 10 -2 9 23 17 15 12 18 16 22 19 30 48 27 -8 29 33 24 43 -4 39 -21 -22 -3 -19 -9 34 40 47 -18 42 -13 52 -35 -25 50 46 -28 51 -1 -41 -42 -17 -20 49 -5 -11 -7 -27
right_child=1 2 7 4 -6 6 11 14 -10 21 -12 35 -14 -15 -16 31 20 28 32 25 26 -23 -24 38 -26 36 41 -29 -30 -31 -32 -33 -34 37 -36 -37 -38 -39 -40 44 45 -43 -44 -45 -46 -47 -48 -49 -50 -51 -52 -53 -54
leaf_value=-0.025755415914181113 0.12273429602170985 0.12036068946464372 0.1072559813441904 -0.010864695683362255 -0.071232259506289766 0.029450950098882132 0.1095168755771965 0.077472582572312043 0.086050267983161746 0.043928885122487951 0.018637206339063597 0.046397429915540501 0.013607880067697911 -0.032497299104832802 0.039608014672143373 0.013331968562065659 -0.016680075344221074 0.14319198594299684 0.065784482171485831 0.072830915179112651 -0.031384053489270432 0.026915509735892226 -0.020232167902744094 0.088648461178057331 0.058825960640160171 0.064480191825860955 -0.024029231253099251 0.11139980845135818 0.1336331400722538 0.085689110459900575 0.037833516168986982 0.022762472745943261 0.072905837693342912 -0.015260509206204814 0.037247744274983813 0.040807533128978252 0.060515584645519663 -0.012048982403771879 0.093205222621907793 0.045808935281129927 0.016667985874345558 -0.021525249596259857 0.031336757425945945 -0.025241607860582389 0.046724691959111365 0.015712911521742753 0.014217753006264317 0.066540803227300452 -0.010966820619766646 -0.010837797441102514 0.043878970098512049 0.02948043811204858 0.064495752612241053
leaf_weight=471 15.999999999999998 47 35 457 38 15.999999999999998 14.999999999999998 46 45 40 47 39 46 469 29 22 485 44 15.999999999999998 33 38 25 477 29 36 38 44 38 31 45 47 22 46 443 15.999999999999998 35 40 47 36 29 31 40 54 454 52 35 38 15.999999999999998 463 464 36 23 58
leaf_count=471 16 47 35 457 38 16 15 46 45 40 47 39 46 469 29 22 485 44 16 33 38 25 477 29 36 38 44 38 31 45 47 22 46 443 16 35 40 47 36 29 31 40 54 454 52 35 38 16 463 464 36 23 58
internal_value=6.31164e-10 0.0641158 0.0900153 -0.0185783 -0.0133246 0.042294 0.0404261 0.0752277 0.118076 0.0335291 -0.0124697 0.0619844 -0.0130483 -0.0259126 0.0677627 0.0250546 -0.0135425 0.127083 0.0764906 0.0709031 -0.0168892 0.0453466 -0.0237099 0.0968015 0.0477341 0.0651778 -0.0254991 0.116355 0.139241 0.0815357 0.0334333 0.0162231 0.0701394 -0.0158118 0.0315359 0.0437536 0.0633208 -0.0149525 0.0911722 0.0451907 0.0150812 -0.0228369 0.0305532 -0.0255032 0.0463968 0.0161615 0.013893 0.0661626 -0.0108898 -0.0108511 0.0439052 0.0294683 0.0644896
internal_weight=0 1299 594 4483 2612 705 689 389 205 522 2574 167 2527 1871 289 304 2481 160 93 260 1097 218 1402 100 193 169 122 85 75 91 156 148 78 975 109 74 136 490 65 157 126 84 93 925 81 66 60 32 1384 921 76 39 96
internal_count=5782 1299 594 4483 2612 705 689 389 205 522 2574 167 2527 1871 289 304 2481 160 93 260 1097 218 1402 100 193 169 122 85 75 91 156 148 78 975 109 74 136 490 65 157 126 84 93 925 81 66 60 32 1384 921 76 39 96
is_linear=0
shrinkage=1


Tree=1
num_leaves=54
num_cat=0
split_feature=19 53 1 21 1 12 41 25 19 24 25 19 54 1 1 13 67 21 1 1 28 12 1 12 12 14 35 0 1 1 1 12 0 25 28 0 0 0 1 12 15 1 0 1 0 1 0 1 1 1 1 1 1
split_gain=110.197 11.7465 3.94361 2.76382 2.0689 1.69495 1.63913 1.00237 0.946132 0.836431 0.7412 0.706638 0.532662 0.434201 0.408831 0.359919 0.352406 0.333913 0.312118 0.253239 0.162809 0.153484 0.139904 0.0941624 0.0871146 0.0384292 0.0305823 0.026995 0.0265879 0.0245712 0.0208387 0.0176812 0.0137298 0.0116397 0.00978892 0.00922205 0.00713462 0.00701211 0.00533605 0.00389466 0.00258785 0.00210192 0.00126486 0.000976476 0.000249802 0.000239928 0.000174918 7.32183e-05 6.59695e-05 2.6647e-06 7.55239e-07 1.31249e-07 8.89331e-08
threshold=7209.5754468927125 9603.9094351186741 30337.751851630881 5879.1337890625009 21041.298537650295 7200.0000077277282 9963.2944525437815 10762.632812500002 10799.986512343059 8950.4681127639997 6648.2382812500009 10251.880320164079 7627.3724155664613 12873.960748261956 34776.478302512391 8511.1651278319496 5768.592913622263 11347.579589843752 18050.052091728041 31626.923620263977 6442.9167480468759 9000.0000330330458 12847.317416026865 10800.000142357609 9000.0000249046589 10192.382744901535 6431.4309856615864 31.000000000000004 29949.911016356426 31162.97330630256 19510.122719657418 9000.0000205000706 31.000000000000004 5939.6037597656259 9698.2968750000018 31.000000000000004 31.000000000000004 40.500000000000007 33775.347716139389 8906.8639938628821 8532.6075602291585 20876.665735742979 40.500000000000007 12296.779931659914 14.000000000000002 18556.427015209552 14.000000000000002 18729.676025929981 12796.146417148619 12742.544021445048 18318.030897438923 19093.133424985437 32170.311326199586
decision_type=2 2 2 2 2 2 2 2 2 2 2 2 2 2 2 2 2 2 2 2 2 2 2 2 2 2 2 2 2 2 2 2 2 2 2 2 2 2 2 2 2 2 2 2 2 2 2 2 2 2 2 2 2
left_child=3 5 8 13 10 -2 9 23 17 15 12 18 16 22 19 30 48 27 -8 29 33 24 43 -4 39 -21 -22 -3 -19 -9 34 40 47 -18 42 -13 52 -35 -25 50 46 -28 51 -1 -41 -42 -17 -20 49 -5 -11 -7 -27
right_child=1 2 7 4 -6 6 11 14 -10 21 -12 35 -14 -15 -16 31 20 28 32 25 26 -23 -24 38 -26 36 41 -29 -30 -31 -32 -33 -34 37 -36 -37 -38 -39 -40 44 45 -43 -44 -45 -46 -47 -48 -49 -50 -51 -52 -53 -54
leaf_value=-0.020604334923492118 0.098187434393912559 0.096288550518294602 0.085804787863578119 -0.0086917553761366693 -0.056985806242415782 0.023560761148110034 0.087613500952720649 0.061978064153505409 0.068840213749143814 0.035143109457567337 0.01490976751851354 0.037117941983235189 0.010886304566393728 -0.025997840978804906 0.031686412568750058 0.010665573044256731 -0.013344059932938558 0.11455358842557127 0.052627587341703475 0.058264732184452994 -0.025107237971142723 0.021532404303550721 -0.016185734176957508 0.070918768849866143 0.047060767271452482 0.051584151210753541 -0.01922338256104426 0.089119847393349605 0.10690651110583736 0.068551290151145736 0.030266808353840036 0.018209980089556089 0.058324673649369052 -0.012208410281410471 0.029798193182796241 0.03264602986829622 0.048412461634725339 -0.0096391892813621691 0.074564178970952841 0.036647147903668471 0.013334390569117763 -0.017220198279246687 0.025069402040982687 -0.020193286132609005 0.037379753016508546 0.012570330372878483 0.011374203331376377 0.053232642315560956 -0.0087734597097462765 -0.0086702391200152978 0.035103179597192342 0.023584348935147992 0.051596598979085688
leaf_weight=471 15.999999999999998 47 35 457 38 15.999999999999998 14.999999999999998 46 45 40 47 39 46 469 29 22 485 44 15.999999999999998 33 38 25 477 29 36 38 44 38 31 45 47 22 46 443 15.999999999999998 35 40 47 36 29 31 40 54 454 52 35 38 15.999999999999998 463 464 36 23 58
leaf_count=471 16 47 35 457 38 16 15 46 45 40 47 39 46 469 29 22 485 44 16 33 38 25 477 29 36 38 44 38 31 45 47 22 46 443 16 35 40 47 36 29 31 40 54 454 52 35 38 16 463 464 36 23 58
internal_value=0 0.0512926 0.0720122 -0.0148626 -0.0106597 0.0338352 0.0323408 0.0601822 0.0944604 0.0268232 -0.00997578 0.0495875 -0.0104386 -0.0207301 0.0542102 0.0200437 -0.010834 0.101666 0.0611925 0.0567224 -0.0135113 0.0362773 -0.0189679 0.0774412 0.0381873 0.0521422 -0.0203993 0.0930837 0.111393 0.0652286 0.0267466 0.0129784 0.0561115 -0.0126495 0.0252287 0.0350028 0.0506566 -0.011962 0.0729378 0.0361526 0.012065 -0.0182695 0.0244426 -0.0204026 0.0371175 0.0129292 0.0111144 0.0529301 -0.00871188 -0.00868092 0.0351242 0.0235747 0.0515917
internal_weight=0 1299 594 4483 2612 705 689 389 205 522 2574 167 2527 1871 289 304 2481 160 93 260 1097 218 1402 100 193 169 122 85 75 91 156 148 78 975 109 74 136 490 65 157 126 84 93 925 81 66 60 32 1384 921 76 39 96
internal_count=5782 1299 594 4483 2612 705 689 389 205 522 2574 167 2527 1871 289 304 2481 160 93 260 1097 218 1402 100 193 169 122 85 75 91 156 148 78 975 109 74 136 490 65 157 126 84 93 925 81 66 60 32 1384 921 76 39 96
is_linear=0
shrinkage=0.2


Tree=2
num_leaves=54
num_cat=0
split_feature=18 53 1 21 1 12 41 25 18 15 25 18 54 1 1 65 72 21 1 1 28 1 13 12 12 52 12 14 36 0 1 1 0 0 25 0 1 0 0 1 1 15 12 1 1 0 0 1 0 1 1 1 1
split_gain=70.5258 7.51777 2.52391 1.76885 1.3241 1.08477 1.04905 0.641513 0.605524 0.512051 0.474368 0.452249 0.340904 0.277889 0.261652 0.233179 0.22554 0.213704 0.199755 0.162073 0.104198 0.0895383 0.0671337 0.0602639 0.0491472 0.0406131 0.0342878 0.0245946 0.0195727 0.0172768 0.0170162 0.0157255 0.00878707 0.00822125 0.00744946 0.00590213 0.00497992 0.00456615 0.00448777 0.00341507 0.00206679 0.00165622 0.00161795 0.00134523 0.000624935 0.000569166 0.000159875 0.000153554 0.000111946 4.68597e-05 4.2219e-05 1.70614e-06 5.69333e-08
threshold=7209.5754468927125 9603.9094351186741 30337.751851630881 5879.1337890625009 21041.298537650295 7200.0000077277282 9963.2944525437815 10762.632812500002 10799.986512343059 8978.7960723177257 6648.2382812500009 10251.880320164079 7627.3724155664613 12873.960748261956 34776.478302512391 6599.613398737195 6281.7375743152706 11347.579589843752 18050.052091728041 31626.923620263977 6442.9167480468759 12847.317416026865 8511.1651278319496 10800.000142357609 9000.0000249046589 7528.5571948347742 9000.0000205000706 10192.382744901535 6431.4309856615864 31.000000000000004 29949.911016356426 31162.97330630256 31.000000000000004 40.500000000000007 5939.6037597656259 31.000000000000004 18805.335867272679 31.000000000000004 40.500000000000007 33775.347716139389 18235.349631473891 8532.6075602291585 8906.8639938628821 20876.665735742979 12296.779931659914 40.500000000000007 14.000000000000002 18556.427015209552 14.000000000000002 18729.676025929981 12796.146417148619 12742.544021445048 32170.311326199586
decision_type=2 2 2 2 2 2 2 2 2 2 2 2 2 2 2 2 2 2 2 2 2 2 2 2 2 2 2 2 2 2 2 2 2 2 2 2 2 2 2 2 2 2 2 2 2 2 2 2 2 2 2 2 2
left_child=3 5 8 13 10 -2 9 23 17 15 12 18 16 21 19 25 50 29 -8 31 34 44 36 -4 42 33 41 -21 -22 -3 -19 -9 49 -7 -18 -13 -17 52 -36 -25 -28 48 -11 -30 -1 -27 -44 -43 -24 -20 51 -5 -29
right_child=1 2 7 4 -6 6 11 14 -10 24 -12 35 -14 -15 -16 22 20 30 32 27 28 -23 26 39 -26 45 40 37 43 -31 -32 -33 -34 -35 38 -37 -38 -39 -40 -41 -42 47 46 -45 -46 -47 -48 -49 -50 -51 -52 -53 -54
leaf_value=-0.016483463600056439 0.07854994675144554 0.077030837662676543 0.068643825565065653 -0.0069534074918609487 -0.045588647456545582 0.028114485766272991 0.070090799132982898 0.049582452942495761 0.055072167482641016 0.028082540879646942 0.011927814908484196 0.02969435392281948 0.0087090446249298431 -0.020798270460734489 0.025349127620876096 0.023838557791896166 -0.010675248083533701 0.091642869246954278 0.042102071456611156 0.046611785891494062 -0.020085797733382177 -0.012948584614762846 0.0085324596274982799 0.056735015426087998 0.037648614164855744 0.018867477871801541 0.017225923657417298 0.041267323768452602 -0.015378711660477249 0.071295877389217679 0.085525210033501359 0.054841030827826924 0.04665973542825036 0.024213452186395833 -0.0097667261186575108 0.026116817890267287 0.018848608760163189 0.038729973584413532 -0.0077113447037148982 0.059651340627008012 0.014567980847575449 0.010667512061134463 0.029317716142997659 -0.013776163682341575 -0.016154627091690309 0.020055526024144558 0.029903803206980231 0.010056262952940806 0.0090993602809153109 0.042586115607991817 -0.0070187677924981907 -0.0069361907935797653 0.041277283391562003
leaf_weight=471 15.999999999999998 47 35 457 38 40 14.999999999999998 46 45 36 47 39 46 469 29 15.999999999999998 485 44 15.999999999999998 33 38 477 22 29 36 23 25 38 44 38 31 45 46 47 443 35 15.999999999999998 40 47 36 22 31 29 40 454 54 52 35 38 15.999999999999998 463 464 58
leaf_count=471 16 47 35 457 38 40 15 46 45 36 47 39 46 469 29 16 485 44 16 33 38 477 22 29 36 23 25 38 44 38 31 45 46 47 443 35 16 40 47 36 22 31 29 40 454 54 52 35 38 16 463 464 58
internal_value=0 0.0410341 0.0576098 -0.0118901 -0.00852775 0.0270682 0.0258727 0.0481457 0.0755683 0.0214586 -0.00798062 0.03967 -0.0083509 -0.0165841 0.0433681 0.0174251 -0.00866721 0.0813329 0.048954 0.045378 -0.0108091 -0.0151743 0.0129282 0.061953 0.0311865 0.0230461 0.0113717 0.0417138 -0.0163194 0.074467 0.0891142 0.0521828 0.0448892 0.026007 -0.0101196 0.0280023 0.0213436 0.0405253 -0.00956958 0.0583502 0.0159818 0.009652 0.0291981 -0.0146156 -0.0163221 0.0197007 0.029694 0.0103434 0.0088915 0.0423441 -0.0069695 -0.00694473 0.0412733
internal_weight=0 1299 594 4483 2612 705 689 389 205 522 2574 167 2527 1871 289 369 2481 160 93 260 1097 1402 205 100 153 164 173 169 122 85 75 91 78 87 975 74 32 136 490 65 47 126 117 84 925 77 81 66 60 32 1384 921 96
internal_count=5782 1299 594 4483 2612 705 689 389 205 522 2574 167 2527 1871 289 369 2481 160 93 260 1097 1402 205 100 153 164 173 169 122 85 75 91 78 87 975 74 32 136 490 65 47 126 117 84 925 77 81 66 60 32 1384 921 96
is_linear=0
shrinkage=0.2


Tree=3
num_leaves=54
num_cat=0
split_feature=18 53 1 21 1 12 41 25 18 24 25 18 54 1 1 67 67 21 1 1 29 12 1 12 12 14 35 0 1 1 1 12 0 25 29 0 0 0 1 12 15 1 0 1 0 1 0 1 1 1 1 1 1
split_gain=45.1365 4.81138 1.6153 1.13206 0.847422 0.694251 0.671389 0.410569 0.387535 0.342602 0.303596 0.289439 0.218178 0.177849 0.167457 0.147423 0.144346 0.136771 0.127843 0.103727 0.0666868 0.0628669 0.0573045 0.0385689 0.0356822 0.0157406 0.0125265 0.0110572 0.0108904 0.0100644 0.00853554 0.00724223 0.00562371 0.00476765 0.00400955 0.00377735 0.00292232 0.00287217 0.00218565 0.00159525 0.00105998 0.000860946 0.000518088 0.000399958 0.000102318 9.82723e-05 7.16447e-05 2.99904e-05 2.70199e-05 1.09147e-06 3.0947e-07 5.3759e-08 3.64628e-08
threshold=7209.5754468927125 9603.9094351186741 30337.751851630881 5879.1337890625009 21041.298537650295 7200.0000077277282 9963.2944525437815 10762.632812500002 10799.986512343059 8950.4681127639997 6648.2382812500009 10251.880320164079 7627.3724155664613 12873.960748261956 34776.478302512391 8126.6254310298309 5768.592913622263 11347.579589843752 18050.052091728041 31626.923620263977 6442.9167480468759 9000.0000330330458 12847.317416026865 10800.000142357609 9000.0000249046589 10192.382744901535 6431.4309856615864 31.000000000000004 29949.911016356426 31162.97330630256 19510.122719657418 9000.0000205000706 31.000000000000004 5939.6037597656259 9698.2968750000018 31.000000000000004 31.000000000000004 40.500000000000007 33775.347716139389 8906.8639938628821 8532.6075602291585 20876.665735742979 40.500000000000007 12296.779931659914 14.000000000000002 18556.427015209552 14.000000000000002 18729.676025929981 12796.146417148619 12742.544021445048 18318.030897438923 19093.133424985437 32170.311326199586
decision_type=2 2 2 2 2 2 2 2 2 2 2 2 2 2 2 2 2 2 2 2 2 2 2 2 2 2 2 2 2 2 2 2 2 2 2 2 2 2 2 2 2 2 2 2 2 2 2 2 2 2 2 2 2
left_child=3 5 8 13 10 -2 9 23 17 15 12 18 16 22 19 31 48 27 -8 29 33 24 43 -4 39 -21 -22 -3 -19 -9 34 40 47 -18 42 -13 52 -35 -25 50 46 -28 51 -1 -41 -42 -7 -20 49 -5 -11 -17 -27
right_child=1 2 7 4 -6 6 11 14 -10 21 -12 35 -14 -15 -16 30 20 28 32 25 26 -23 -24 38 -26 36 41 -29 -30 -31 -32 -33 -34 37 -36 -37 -38 -39 -40 44 45 -43 -44 -45 -46 -47 -48 -49 -50 -51 -52 -53 -54
leaf_value=-0.013186774507358735 0.062839957699179647 0.061624672184599209 0.054915061848504199 -0.0055627232666088664 -0.036470917553493853 0.0068259693004868241 0.056072638432184851 0.039665961168382481 0.044057739890284012 0.022491590380668641 0.0095422494522434606 0.023755483443920429 0.0069672329918197967 -0.016638618481478521 0.020279302602184232 0.015078885864022597 -0.0085402004090473823 0.073314296115528463 0.033681655186228454 0.03728942889155764 -0.016068639057247262 0.013780743047595023 -0.010358872872814381 0.045388013124465942 0.030118891224265101 0.033013856254125895 -0.012302969048985027 0.057036702011368783 0.068420168336841378 0.043872825586133535 0.019370761466153127 0.011654386059804397 0.037327783425217087 -0.0078133832537159147 0.019070848729461434 0.02089345886238984 0.03098398268222809 -0.0061690791807276144 0.047721076177226179 0.023454172523884938 0.0085340039383980538 -0.011020929906517268 0.016044419107061846 -0.012923705478563972 0.023923038175472849 0.0080450110350336352 0.0072794872875276365 0.034068891545757651 -0.0056150126659168546 -0.0055489528161505692 0.022466030137406459 0.015093981938780813 0.033021826740225843
leaf_weight=471 15.999999999999998 47 35 457 38 22 14.999999999999998 46 45 40 47 39 46 469 29 15.999999999999998 485 44 15.999999999999998 33 38 25 477 29 36 38 44 38 31 45 47 22 46 443 15.999999999999998 35 40 47 36 29 31 40 54 454 52 35 38 15.999999999999998 463 464 36 23 58
leaf_count=471 16 47 35 457 38 22 15 46 45 40 47 39 46 469 29 16 485 44 16 33 38 25 477 29 36 38 44 38 31 45 47 22 46 443 16 35 40 47 36 29 31 40 54 454 52 35 38 16 463 464 36 23 58
internal_value=0 0.0328273 0.0460878 -0.00951207 -0.0068222 0.0216546 0.0206981 0.0385166 0.0604547 0.0171669 -0.0063845 0.031736 -0.00668072 -0.0132673 0.0346945 0.012828 -0.00693377 0.0650663 0.0391632 0.0363024 -0.00864726 0.0232175 -0.0121395 0.0495624 0.0244398 0.033371 -0.0130555 0.0595736 0.0712914 0.0417463 0.0171178 0.0083062 0.0359114 -0.00809566 0.0161464 0.0224018 0.0324202 -0.00765566 0.0466802 0.0231376 0.0077216 -0.0116925 0.0156433 -0.0130577 0.0237552 0.00827469 0.0071132 0.0338753 -0.0055756 -0.00555579 0.0224795 0.0150878 0.0330187
internal_weight=0 1299 594 4483 2612 705 689 389 205 522 2574 167 2527 1871 289 304 2481 160 93 260 1097 218 1402 100 193 169 122 85 75 91 156 148 78 975 109 74 136 490 65 157 126 84 93 925 81 66 60 32 1384 921 76 39 96
internal_count=5782 1299 594 4483 2612 705 689 389 205 522 2574 167 2527 1871 289 304 2481 160 93 260 1097 218 1402 100 193 169 122 85 75 91 156 148 78 975 109 74 136 490 65 157 126 84 93 925 81 66 60 32 1384 921 76 39 96
is_linear=0
shrinkage=0.2


Tree=4
num_leaves=54
num_cat=0
split_feature=18 53 1 21 1 12 41 25 18 24 25 18 54 1 1 67 67 21 1 1 28 12 1 12 12 14 35 0 1 1 1 12 0 25 28 0 0 0 1 12 15 1 0 1 0 1 0 1 1 1 1 1 1
split_gain=28.8874 3.07928 1.03379 0.72452 0.54235 0.444321 0.429689 0.262764 0.248023 0.219265 0.194301 0.185241 0.139634 0.113823 0.107173 0.0943507 0.0923808 0.0875332 0.0818198 0.0663851 0.0426796 0.0402348 0.0366749 0.0246841 0.0228366 0.010074 0.00801696 0.00707657 0.00696985 0.00644118 0.00546272 0.00463502 0.00359918 0.0030513 0.00256611 0.00241752 0.0018703 0.00183818 0.00139881 0.00102098 0.000678389 0.000551003 0.000331578 0.00025596 6.54841e-05 6.28972e-05 4.58534e-05 1.91934e-05 1.72906e-05 6.98559e-07 1.97861e-07 3.44176e-08 2.33126e-08
threshold=7209.5754468927125 9603.9094351186741 30337.751851630881 5879.1337890625009 21041.298537650295 7200.0000077277282 9963.2944525437815 10762.632812500002 10799.986512343059 8950.4681127639997 6648.2382812500009 10251.880320164079 7627.3724155664613 12873.960748261956 34776.478302512391 8126.6254310298309 5768.592913622263 11347.579589843752 18050.052091728041 31626.923620263977 6442.9167480468759 9000.0000330330458 12847.317416026865 10800.000142357609 9000.0000249046589 10192.382744901535 6431.4309856615864 31.000000000000004 29949.911016356426 31162.97330630256 19510.122719657418 9000.0000205000706 31.000000000000004 5939.6037597656259 9698.2968750000018 31.000000000000004 31.000000000000004 40.500000000000007 33775.347716139389 8906.8639938628821 8532.6075602291585 20876.665735742979 40.500000000000007 12296.779931659914 14.000000000000002 18556.427015209552 14.000000000000002 18729.676025929981 12796.146417148619 12742.544021445048 18318.030897438923 19093.133424985437 32170.311326199586
decision_type=2 2 2 2 2 2 2 2 2 2 2 2 2 2 2 2 2 2 2 2 2 2 2 2 2 2 2 2 2 2 2 2 2 2 2 2 2 2 2 2 2 2 2 2 2 2 2 2 2 2 2 2 2
left_child=3 5 8 13 10 -2 9 23 17 15 12 18 16 22 19 31 48 27 -8 29 33 24 43 -4 39 -21 -22 -3 -19 -9 34 40 47 -18 42 -13 52 -35 -25 50 46 -28 51 -1 -41 -42 -7 -20 49 -5 -11 -17 -27
right_child=1 2 7 4 -6 6 11 14 -10 21 -12 35 -14 -15 -16 30 20 28 32 25 26 -23 -24 38 -26 36 41 -29 -30 -31 -32 -33 -34 37 -36 -37 -38 -39 -40 44 45 -43 -44 -45 -46 -47 -48 -49 -50 -51 -52 -53 -54
leaf_value=-0.01054941584492565 0.050271968822926283 0.049299739443875376 0.043932051318032406 -0.0044501815755450102 -0.029176734549630629 0.0054607724601572214 0.044858109255631773 0.031732769172800622 0.035246190180381137 0.017993266358971596 0.0076338015496730804 0.019004388573842172 0.0055737903584604682 -0.013310895637789769 0.016223442233328163 0.012063109537120909 -0.0068321576683791647 0.058651435290547942 0.026945325545966625 0.029831546635338758 -0.012854906524482526 0.011024594709277153 -0.0082870955252922311 0.036310410807872638 0.024095112193996709 0.026411086884572318 -0.0098423733037303809 0.045629365673582806 0.054736134270957165 0.035098259790490076 0.015496605319624886 0.0093235065821896911 0.029862228843747923 -0.0062507028016629664 0.01525667803362012 0.016714763683932168 0.02478718179278076 -0.0049352630338770284 0.03817685784565078 0.018763343784315836 0.0068272086521310189 -0.0088167440146207816 0.012835538704638128 -0.010338966168323737 0.019138437455806595 0.0064360052772930694 0.0058235898613929749 0.027255110931582751 -0.0044920101078412223 -0.0044391650612193067 0.017972828489210873 0.012075188480641532 0.026417460048507004
leaf_weight=471 15.999999999999998 47 35 457 38 22 14.999999999999998 46 45 40 47 39 46 469 29 15.999999999999998 485 44 15.999999999999998 33 38 25 477 29 36 38 44 38 31 45 47 22 46 443 15.999999999999998 35 40 47 36 29 31 40 54 454 52 35 38 15.999999999999998 463 464 36 23 58
leaf_count=471 16 47 35 457 38 22 15 46 45 40 47 39 46 469 29 16 485 44 16 33 38 25 477 29 36 38 44 38 31 45 47 22 46 443 16 35 40 47 36 29 31 40 54 454 52 35 38 16 463 464 36 23 58
internal_value=0 0.0262618 0.0368702 -0.00760966 -0.00545776 0.0173236 0.0165585 0.0308133 0.0483637 0.0137335 -0.0051076 0.0253888 -0.00534458 -0.0106138 0.0277556 0.0102624 -0.00554701 0.052053 0.0313305 0.0290419 -0.00691781 0.018574 -0.00971156 0.0396499 0.0195519 0.0266968 -0.0104444 0.0476589 0.0570331 0.033397 0.0136943 0.00664496 0.0287291 -0.00647653 0.0129171 0.0179215 0.0259362 -0.00612453 0.0373441 0.0185101 0.00617728 -0.00935398 0.0125146 -0.0104461 0.0190041 0.00661975 0.00569056 0.0271002 -0.00446048 -0.00444463 0.0179836 0.0120702 0.0264149
internal_weight=0 1299 594 4483 2612 705 689 389 205 522 2574 167 2527 1871 289 304 2481 160 93 260 1097 218 1402 100 193 169 122 85 75 91 156 148 78 975 109 74 136 490 65 157 126 84 93 925 81 66 60 32 1384 921 76 39 96
internal_count=5782 1299 594 4483 2612 705 689 389 205 522 2574 167 2527 1871 289 304 2481 160 93 260 1097 218 1402 100 193 169 122 85 75 91 156 148 78 975 109 74 136 490 65 157 126 84 93 925 81 66 60 32 1384 921 76 39 96
is_linear=0
shrinkage=0.2


end of trees

feature_importances:
Column_1=99
Column_0=41
Column_12=29
Column_25=15
Column_18=12
Column_21=10
Column_67=6
Column_14=5
Column_15=5
Column_28=5
Column_41=5
Column_53=5
Column_54=5
Column_24=4
Column_35=4
Column_13=3
Column_19=3
Column_29=2
Column_30=2
Column_17=1
Column_36=1
Column_52=1
Column_65=1
Column_72=1

parameters:
[boosting: gbdt]
[objective: regression]
[metric: custom]
[tree_learner: serial]
[device_type: cpu]
[data: ]
[valid: ]
[num_iterations: 10000]
[learning_rate: 0.2]
[num_leaves: 63]
[num_threads: 0]
[deterministic: 0]
[force_col_wise: 0]
[force_row_wise: 0]
[histogram_pool_size: -1]
[max_depth: -1]
[min_data_in_leaf: 5]
[min_sum_hessian_in_leaf: 0.001]
[bagging_fraction: 0.8]
[pos_bagging_fraction: 1]
[neg_bagging_fraction: 1]
[bagging_freq: 0]
[bagging_seed: 20664]
[feature_fraction: 0.8]
[feature_fraction_bynode: 1]
[feature_fraction_seed: 4656]
[extra_trees: 0]
[extra_seed: 6363]
[early_stopping_round: 0]
[first_metric_only: 0]
[max_delta_step: 0]
[lambda_l1: 0]
[lambda_l2: 0]
[linear_lambda: 0]
[min_gain_to_split: 0]
[drop_rate: 0.1]
[max_drop: 50]
[skip_drop: 0.5]
[xgboost_dart_mode: 0]
[uniform_drop: 0]
[drop_seed: 24603]
[top_rate: 0.2]
[other_rate: 0.1]
[min_data_per_group: 100]
[max_cat_threshold: 32]
[cat_l2: 10]
[cat_smooth: 10]
[max_cat_to_onehot: 4]
[top_k: 20]
[monotone_constraints: ]
[monotone_constraints_method: basic]
[monotone_penalty: 0]
[feature_contri: ]
[forcedsplits_filename: ]
[refit_decay_rate: 0.9]
[cegb_tradeoff: 1]
[cegb_penalty_split: 0]
[cegb_penalty_feature_lazy: ]
[cegb_penalty_feature_coupled: ]
[path_smooth: 0]
[interaction_constraints: ]
[verbosity: -1]
[saved_feature_importance_type: 0]
[linear_tree: 0]
[max_bin: 255]
[max_bin_by_feature: ]
[min_data_in_bin: 3]
[bin_construct_sample_cnt: 200000]
[data_random_seed: 4094]
[is_enable_sparse: 1]
[enable_bundle: 1]
[use_missing: 1]
[zero_as_missing: 0]
[feature_pre_filter: 1]
[pre_partition: 0]
[two_round: 0]
[header: 0]
[label_column: ]
[weight_column: ]
[group_column: ]
[ignore_column: ]
[categorical_feature: ]
[forcedbins_filename: ]
[precise_float_parser: 0]
[objective_seed: 7268]
[num_class: 1]
[is_unbalance: 0]
[scale_pos_weight: 1]
[sigmoid: 1]
[boost_from_average: 1]
[reg_sqrt: 0]
[alpha: 0.9]
[fair_c: 1]
[poisson_max_delta_step: 0.7]
[tweedie_variance_power: 1.5]
[lambdarank_truncation_level: 30]
[lambdarank_norm: 1]
[label_gain: ]
[eval_at: ]
[multi_error_top_k: 1]
[auc_mu_weights: ]
[num_machines: 1]
[local_listen_port: 12400]
[time_out: 120]
[machine_list_filename: ]
[machines: ]
[gpu_platform_id: -1]
[gpu_device_id: -1]
[gpu_use_dp: 0]
[num_gpu: 1]

end of parameters

pandas_categorical:null
