tree
version=v3
num_class=1
num_tree_per_iteration=1
label_index=0
max_feature_idx=0
objective=regression
feature_names=Column_0
feature_infos=[5:56]
tree_sizes=672 663 662 664 658 663 664 663 665 663 666 664 668 668 669 671 669 670 672 669 672 669 670 672 671 671 672 674 673 671 674 675 673 674 677 677 677 677 677 677 679 679 679 679 679 678 679 677 681 680 681 678 681 684 682 684 685 685 685 688 689 688 686 688 688 689 689 687 690 690 688 688 691 691 692 692 692 688 693 692 691 691 694 694 693 690 691 689 694 692 692 693 695 695 695 696 694 697 697 694 698 697 695 696 697 699 698 697 699 699 699 696 697 698 699 699 700 699 699 699 698 699 698 698 700 699 700 696 698 695 699 697 699 699 695 699 699 697 700 699 699 700 699 699 699 698 698 698 699 697 698 699 699 699 698 699 698 698 698 700 700 698 699 700 699 698 698 700 698 699 698 698 697 700 698 697 697 700 696 700 699 700 699 696 700 699 698 699 700 698 694 699 698 699 698 698 698 696 696 697 697 698 700 698 698 698 699 700 698 699 696 697 700 698 699 698 694 699 699 699 700 699 700 698 699 699 697 700 699 698 698 697 700 700 698 696 697 699 700 696 696 699 699 697 699 699 699 700 698 700 700 697 697 698 700 699 699 698 697 697 700 698 698 697 698 699 699 700 700 698 695 698 697 699 699 699 698 700 700 699 700 698 699 699 700 697 700 697 698 700 700 697

Tree=0
num_leaves=6
num_cat=0
split_feature=0 0 0 0 0
split_gain=102.003 36.9284 20.7088 15.1527 0.285897
threshold=14.000000000000002 40.500000000000007 9.0000000000000018 22.000000000000004 31.000000000000004
decision_type=2 2 2 2 2
left_child=2 3 -1 -2 -5
right_child=1 -3 -4 4 -6
leaf_value=0.013794318216498428 0.0073817430814759116 -0.00096601048771941987 -0.0044789669529615344 0.021661983202663288 0.019648586515730402
leaf_weight=161 303 415 4193 384 326
leaf_count=161 303 415 4193 384 326
internal_value=-1.42477e-09 0.0115962 -0.00380327 0.0167427 0.0207375
internal_weight=0 1428 4354 1013 710
internal_count=5782 1428 4354 1013 710
is_linear=0
shrinkage=1


Tree=1
num_leaves=6
num_cat=0
split_feature=0 0 0 0 0
split_gain=92.0574 33.3279 18.6897 13.6753 0.258022
threshold=14.000000000000002 40.500000000000007 9.0000000000000018 22.000000000000004 31.000000000000004
decision_type=2 2 2 2 2
left_child=2 3 -1 -2 -5
right_child=1 -3 -4 4 -6
leaf_value=0.013104603544849417 0.0070126566954461164 -0.00091770943461816357 -0.0042550175118168691 0.020578884955709024 0.018666159048493655
leaf_weight=161 303 415 4193 384 326
leaf_count=161 303 415 4193 384 326
internal_value=0 0.0110164 -0.0036131 0.0159055 0.0197006
internal_weight=0 1428 4354 1013 710
internal_count=5782 1428 4354 1013 710
is_linear=0
shrinkage=0.05


Tree=2
num_leaves=6
num_cat=0
split_feature=0 0 0 0 0
split_gain=83.0818 30.0784 16.8675 12.342 0.232865
threshold=14.000000000000002 40.500000000000007 9.0000000000000018 22.000000000000004 31.000000000000004
decision_type=2 2 2 2 2
left_child=2 3 -1 -2 -5
right_child=1 -3 -4 4 -6
leaf_value=0.012449373016336366 0.0066620244924286412 -0.0008718223768252745 -0.0040422661734610312 0.019549941528627338 0.017732850831299107
leaf_weight=161 303 415 4193 384 326
leaf_count=161 303 415 4193 384 326
internal_value=0 0.0104656 -0.00343245 0.0151102 0.0187156
internal_weight=0 1428 4354 1013 710
internal_count=5782 1428 4354 1013 710
is_linear=0
shrinkage=0.05


Tree=3
num_leaves=6
num_cat=0
split_feature=0 0 0 0 0
split_gain=74.9813 27.1458 15.2229 11.1386 0.21016
threshold=14.000000000000002 40.500000000000007 9.0000000000000018 22.000000000000004 31.000000000000004
decision_type=2 2 2 2 2
left_child=2 3 -1 -2 -5
right_child=1 -3 -4 4 -6
leaf_value=0.011826905174331265 0.0063289236501719894 -0.00082823216409495391 -0.0038401529490001522 0.018572444061949987 0.016846208193230849
leaf_weight=161 303 415 4193 384 326
leaf_count=161 303 415 4193 384 326
internal_value=0 0.00994232 -0.00326082 0.0143547 0.0177798
internal_weight=0 1428 4354 1013 710
internal_count=5782 1428 4354 1013 710
is_linear=0
shrinkage=0.05


Tree=4
num_leaves=6
num_cat=0
split_feature=0 0 0 0 0
split_gain=67.6707 24.4991 13.7387 10.0526 0.18967
threshold=14.000000000000002 40.500000000000007 9.0000000000000018 22.000000000000004 31.000000000000004
decision_type=2 2 2 2 2
left_child=2 3 -1 -2 -5
right_child=1 -3 -4 4 -6
leaf_value=0.011235559586238881 0.0060124769364253133 -0.0007868200279099037 -0.00364814624881104 0.01764382140396871 0.016003896925167002
leaf_weight=161 303 415 4193 384 326
leaf_count=161 303 415 4193 384 326
internal_value=0 0.0094452 -0.00309778 0.013637 0.0168908
internal_weight=0 1428 4354 1013 710
internal_count=5782 1428 4354 1013 710
is_linear=0
shrinkage=0.05


Tree=5
num_leaves=6
num_cat=0
split_feature=0 0 0 0 0
split_gain=61.0728 22.1104 12.3991 9.07248 0.171177
threshold=14.000000000000002 40.500000000000007 9.0000000000000018 22.000000000000004 31.000000000000004
decision_type=2 2 2 2 2
left_child=2 3 -1 -2 -5
right_child=1 -3 -4 4 -6
leaf_value=0.010673781823849897 0.005711853248451409 -0.00074747971163681122 -0.0034657385053167298 0.016761631084955299 0.01520370290517533
leaf_weight=161 303 415 4193 384 326
leaf_count=161 303 415 4193 384 326
internal_value=0 0.00897294 -0.00294289 0.0129551 0.0160463
internal_weight=0 1428 4354 1013 710
internal_count=5782 1428 4354 1013 710
is_linear=0
shrinkage=0.05


Tree=6
num_leaves=6
num_cat=0
split_feature=0 0 0 0 0
split_gain=55.1182 19.9547 11.1902 8.18791 0.154487
threshold=14.000000000000002 40.500000000000007 9.0000000000000018 22.000000000000004 31.000000000000004
decision_type=2 2 2 2 2
left_child=2 3 -1 -2 -5
right_child=1 -3 -4 4 -6
leaf_value=0.010140091928896373 0.0054262597405846562 -0.00071010420615055477 -0.0032924514775493265 0.015923549100019349 0.014443517516315715
leaf_weight=161 303 415 4193 384 326
leaf_count=161 303 415 4193 384 326
internal_value=0 0.00852429 -0.00279575 0.0123074 0.015244
internal_weight=0 1428 4354 1013 710
internal_count=5782 1428 4354 1013 710
is_linear=0
shrinkage=0.05


Tree=7
num_leaves=6
num_cat=0
split_feature=0 0 0 0 0
split_gain=49.7441 18.0091 10.0992 7.38959 0.139425
threshold=14.000000000000002 40.500000000000007 9.0000000000000018 22.000000000000004 31.000000000000004
decision_type=2 2 2 2 2
left_child=2 3 -1 -2 -5
right_child=1 -3 -4 4 -6
leaf_value=0.009633087741083797 0.005154946836775089 -0.00067460073505988321 -0.0031278288508961973 0.015127372199882909 0.013721341656041018
leaf_weight=161 303 415 4193 384 326
leaf_count=161 303 415 4193 384 326
internal_value=0 0.00809808 -0.00265596 0.011692 0.0144818
internal_weight=0 1428 4354 1013 710
internal_count=5782 1428 4354 1013 710
is_linear=0
shrinkage=0.05


Tree=8
num_leaves=6
num_cat=0
split_feature=0 0 0 0 0
split_gain=44.8941 16.2532 9.11451 6.66911 0.125831
threshold=14.000000000000002 40.500000000000007 9.0000000000000018 22.000000000000004 31.000000000000004
decision_type=2 2 2 2 2
left_child=2 3 -1 -2 -5
right_child=1 -3 -4 4 -6
leaf_value=0.0091514333266973138 0.0048972006613640703 -0.00064087030028991672 -0.0029714373070353524 0.014371003070239871 0.01303527437784692
leaf_weight=161 303 415 4193 384 326
leaf_count=161 303 415 4193 384 326
internal_value=0 0.00769318 -0.00252316 0.0111074 0.0137577
internal_weight=0 1428 4354 1013 710
internal_count=5782 1428 4354 1013 710
is_linear=0
shrinkage=0.05


Tree=9
num_leaves=6
num_cat=0
split_feature=0 0 0 0 0
split_gain=40.5169 14.6685 8.22584 6.01887 0.113562
threshold=14.000000000000002 40.500000000000007 9.0000000000000018 22.000000000000004 31.000000000000004
decision_type=2 2 2 2 2
left_child=2 3 -1 -2 -5
right_child=1 -3 -4 4 -6
leaf_value=0.0086938616651925978 0.0046523403815875945 -0.00060882684045347833 -0.0028228644469867076 0.013652453556111747 0.012383510559180216
leaf_weight=161 303 415 4193 384 326
leaf_count=161 303 415 4193 384 326
internal_value=0 0.00730852 -0.002397 0.010552 0.0130698
internal_weight=0 1428 4354 1013 710
internal_count=5782 1428 4354 1013 710
is_linear=0
shrinkage=0.05


Tree=10
num_leaves=6
num_cat=0
split_feature=0 0 0 0 0
split_gain=36.5665 13.2383 7.42383 5.43203 0.10249
threshold=14.000000000000002 40.500000000000007 9.0000000000000018 22.000000000000004 31.000000000000004
decision_type=2 2 2 2 2
left_child=2 3 -1 -2 -5
right_child=1 -3 -4 4 -6
leaf_value=0.0082591694455755784 0.0044197231741689713 -0.00057838646896991386 -0.0026817224678552794 0.012969830810228209 0.011764335587972123
leaf_weight=161 303 415 4193 384 326
leaf_count=161 303 415 4193 384 326
internal_value=0 0.00694309 -0.00227716 0.0100244 0.0124163
internal_weight=0 1428 4354 1013 710
internal_count=5782 1428 4354 1013 710
is_linear=0
shrinkage=0.05


Tree=11
num_leaves=6
num_cat=0
split_feature=0 0 0 0 0
split_gain=33.0013 11.9476 6.7 4.90241 0.0924971
threshold=14.000000000000002 40.500000000000007 9.0000000000000018 22.000000000000004 31.000000000000004
decision_type=2 2 2 2 2
left_child=2 3 -1 -2 -5
right_child=1 -3 -4 4 -6
leaf_value=0.0078462103931291136 0.0041987371562577465 -0.00054946674864335236 -0.0025476362437749228 0.012321339045092828 0.011176119615649519
leaf_weight=161 303 415 4193 384 326
leaf_count=161 303 415 4193 384 326
internal_value=0 0.00659594 -0.0021633 0.00952322 0.0117955
internal_weight=0 1428 4354 1013 710
internal_count=5782 1428 4354 1013 710
is_linear=0
shrinkage=0.05


Tree=12
num_leaves=6
num_cat=0
split_feature=0 0 0 0 0
split_gain=29.7837 10.7827 6.04675 4.42442 0.0834788
threshold=14.000000000000002 40.500000000000007 9.0000000000000018 22.000000000000004 31.000000000000004
decision_type=2 2 2 2 2
left_child=2 3 -1 -2 -5
right_child=1 -3 -4 4 -6
leaf_value=0.0074538995858183512 0.0039887998335135693 -0.00052199183233890198 -0.0024202548413257692 0.01170527216490882 0.010617312181603873
leaf_weight=161 303 415 4193 384 326
leaf_count=161 303 415 4193 384 326
internal_value=0 0.00626614 -0.00205513 0.00904706 0.0112057
internal_weight=0 1428 4354 1013 710
internal_count=5782 1428 4354 1013 710
is_linear=0
shrinkage=0.05


Tree=13
num_leaves=6
num_cat=0
split_feature=0 0 0 0 0
split_gain=26.8797 9.73139 5.45719 3.99304 0.0753396
threshold=14.000000000000002 40.500000000000007 9.0000000000000018 22.000000000000004 31.000000000000004
decision_type=2 2 2 2 2
left_child=2 3 -1 -2 -5
right_child=1 -3 -4 4 -6
leaf_value=0.0070812041558880618 0.0037893604315823505 -0.00049589375886751946 -0.0022992413193711533 0.011120008622310707 0.01008644677624335
leaf_weight=161 303 415 4193 384 326
leaf_count=161 303 415 4193 384 326
internal_value=0 0.00595283 -0.00195238 0.00859471 0.0106454
internal_weight=0 1428 4354 1013 710
internal_count=5782 1428 4354 1013 710
is_linear=0
shrinkage=0.05


Tree=14
num_leaves=6
num_cat=0
split_feature=0 0 0 0 0
split_gain=24.259 8.78258 4.92512 3.60372 0.0679938
threshold=14.000000000000002 40.500000000000007 9.0000000000000018 22.000000000000004 31.000000000000004
decision_type=2 2 2 2 2
left_child=2 3 -1 -2 -5
right_child=1 -3 -4 4 -6
leaf_value=0.0067271450294401521 0.0035998915362082692 -0.00047109920980341466 -0.0021842798359423118 0.010564007138115511 0.0095821249335889987
leaf_weight=161 303 415 4193 384 326
leaf_count=161 303 415 4193 384 326
internal_value=0 0.00565519 -0.00185476 0.00816497 0.0101132
internal_weight=0 1428 4354 1013 710
internal_count=5782 1428 4354 1013 710
is_linear=0
shrinkage=0.05


Tree=15
num_leaves=6
num_cat=0
split_feature=0 0 0 0 0
split_gain=21.8937 7.92628 4.44492 3.25236 0.0613645
threshold=14.000000000000002 40.500000000000007 9.0000000000000018 22.000000000000004 31.000000000000004
decision_type=2 2 2 2 2
left_child=2 3 -1 -2 -5
right_child=1 -3 -4 4 -6
leaf_value=0.0063907872075619904 0.0034198972998992251 -0.00044754387765943288 -0.0020750647131560461 0.010035807454551106 0.0091030187719141602
leaf_weight=161 303 415 4193 384 326
leaf_count=161 303 415 4193 384 326
internal_value=0 0.00537243 -0.00176202 0.00775673 0.00960751
internal_weight=0 1428 4354 1013 710
internal_count=5782 1428 4354 1013 710
is_linear=0
shrinkage=0.05


Tree=16
num_leaves=6
num_cat=0
split_feature=0 0 0 0 0
split_gain=19.7591 7.15346 4.01154 2.93525 0.0553815
threshold=14.000000000000002 40.500000000000007 9.0000000000000018 22.000000000000004 31.000000000000004
decision_type=2 2 2 2 2
left_child=2 3 -1 -2 -5
right_child=1 -3 -4 4 -6
leaf_value=0.00607124853138783 0.0032489020807711603 -0.00042516683015119598 -0.0019713124852711256 0.009534016968063953 0.0086478672433141744
leaf_weight=161 303 415 4193 384 326
leaf_count=161 303 415 4193 384 326
internal_value=0 0.00510381 -0.00167392 0.00736889 0.00912714
internal_weight=0 1428 4354 1013 710
internal_count=5782 1428 4354 1013 710
is_linear=0
shrinkage=0.05


Tree=17
num_leaves=6
num_cat=0
split_feature=0 0 0 0 0
split_gain=17.8326 6.456 3.62041 2.64907 0.0499818
threshold=14.000000000000002 40.500000000000007 9.0000000000000018 22.000000000000004 31.000000000000004
decision_type=2 2 2 2 2
left_child=2 3 -1 -2 -5
right_child=1 -3 -4 4 -6
leaf_value=0.0057676855729233405 0.0030864571153552032 -0.00040390783853559616 -0.0018727462641411055 0.0090573168735621334 0.0082154747391508139
leaf_weight=161 303 415 4193 384 326
leaf_count=161 303 415 4193 384 326
internal_value=0 0.00484862 -0.00159022 0.00700045 0.00867078
internal_weight=0 1428 4354 1013 710
internal_count=5782 1428 4354 1013 710
is_linear=0
shrinkage=0.05


Tree=18
num_leaves=6
num_cat=0
split_feature=0 0 0 0 0
split_gain=16.0939 5.82654 3.26742 2.39078 0.0451086
threshold=14.000000000000002 40.500000000000007 9.0000000000000018 22.000000000000004 31.000000000000004
decision_type=2 2 2 2 2
left_child=2 3 -1 -2 -5
right_child=1 -3 -4 4 -6
leaf_value=0.0054793011044261992 0.0029321344326505372 -0.00038371266819626457 -0.0017791093248865509 0.0086044506970210932 0.0078046999643185391
leaf_weight=161 303 415 4193 384 326
leaf_count=161 303 415 4193 384 326
internal_value=0 0.00460619 -0.00151071 0.00665042 0.00823724
internal_weight=0 1428 4354 1013 710
internal_count=5782 1428 4354 1013 710
is_linear=0
shrinkage=0.05


Tree=19
num_leaves=6
num_cat=0
split_feature=0 0 0 0 0
split_gain=14.5247 5.25845 2.94885 2.15768 0.0407105
threshold=14.000000000000002 40.500000000000007 9.0000000000000018 22.000000000000004 31.000000000000004
decision_type=2 2 2 2 2
left_child=2 3 -1 -2 -5
right_child=1 -3 -4 4 -6
leaf_value=0.0052053363640902576 0.002785528528660831 -0.00036452669964497347 -0.001690153816335957 0.0081742281588958587 0.0074144656661372238
leaf_weight=161 303 415 4193 384 326
leaf_count=161 303 415 4193 384 326
internal_value=0 0.00437588 -0.00143518 0.0063179 0.00782538
internal_weight=0 1428 4354 1013 710
internal_count=5782 1428 4354 1013 710
is_linear=0
shrinkage=0.05


Tree=20
num_leaves=6
num_cat=0
split_feature=0 0 0 0 0
split_gain=13.1086 4.74575 2.66134 1.94731 0.0367412
threshold=14.000000000000002 40.500000000000007 9.0000000000000018 22.000000000000004 31.000000000000004
decision_type=2 2 2 2 2
left_child=2 3 -1 -2 -5
right_child=1 -3 -4 4 -6
leaf_value=0.0049450689082190117 0.0026462513034419457 -0.00034630007862326612 -0.0016056458841793412 0.0077655172208324075 0.0070437427370186228
leaf_weight=161 303 415 4193 384 326
leaf_count=161 303 415 4193 384 326
internal_value=0 0.00415709 -0.00136342 0.00600201 0.00743411
internal_weight=0 1428 4354 1013 710
internal_count=5782 1428 4354 1013 710
is_linear=0
shrinkage=0.05


Tree=21
num_leaves=6
num_cat=0
split_feature=0 0 0 0 0
split_gain=11.8305 4.28304 2.40186 1.75744 0.0331589
threshold=14.000000000000002 40.500000000000007 9.0000000000000018 22.000000000000004 31.000000000000004
decision_type=2 2 2 2 2
left_child=2 3 -1 -2 -5
right_child=1 -3 -4 4 -6
leaf_value=0.0046978162128698108 0.002513939892817842 -0.0003289851627076965 -0.0015253640498078414 0.0073772410602638665 0.006691555492579937
leaf_weight=161 303 415 4193 384 326
leaf_count=161 303 415 4193 384 326
internal_value=0 0.00394923 -0.00129525 0.00570191 0.00706241
internal_weight=0 1428 4354 1013 710
internal_count=5782 1428 4354 1013 710
is_linear=0
shrinkage=0.05


Tree=22
num_leaves=6
num_cat=0
split_feature=0 0 0 0 0
split_gain=10.677 3.86544 2.16768 1.58609 0.0299259
threshold=14.000000000000002 40.500000000000007 9.0000000000000018 22.000000000000004 31.000000000000004
decision_type=2 2 2 2 2
left_child=2 3 -1 -2 -5
right_child=1 -3 -4 4 -6
leaf_value=0.0044629258064622559 0.0023882419682375276 -0.00031253543312111538 -0.0014490951176696354 0.0070083785105756156 0.006356978000490213
leaf_weight=161 303 415 4193 384 326
leaf_count=161 303 415 4193 384 326
internal_value=0 0.00375177 -0.00123048 0.00541681 0.00670928
internal_weight=0 1428 4354 1013 710
internal_count=5782 1428 4354 1013 710
is_linear=0
shrinkage=0.05


Tree=23
num_leaves=6
num_cat=0
split_feature=0 0 0 0 0
split_gain=9.63601 3.48857 1.95633 1.43145 0.0270081
threshold=14.000000000000002 40.500000000000007 9.0000000000000018 22.000000000000004 31.000000000000004
decision_type=2 2 2 2 2
left_child=2 3 -1 -2 -5
right_child=1 -3 -4 4 -6
leaf_value=0.0042397787483547875 0.0022688300075261506 -0.00029691000210951612 -0.0013766407610343459 0.0066579593588054807 0.0060391291373186502
leaf_weight=161 303 415 4193 384 326
leaf_count=161 303 415 4193 384 326
internal_value=0 0.00356418 -0.00116896 0.00514597 0.00637382
internal_weight=0 1428 4354 1013 710
internal_count=5782 1428 4354 1013 710
is_linear=0
shrinkage=0.05


Tree=24
num_leaves=6
num_cat=0
split_feature=0 0 0 0 0
split_gain=8.6965 3.14843 1.76558 1.29188 0.0243748
threshold=14.000000000000002 40.500000000000007 9.0000000000000018 22.000000000000004 31.000000000000004
decision_type=2 2 2 2 2
left_child=2 3 -1 -2 -5
right_child=1 -3 -4 4 -6
leaf_value=0.0040277892551587331 0.0021553885262373456 -0.00028206396421574684 -0.0013078082866792144 0.0063250617900242403 0.0057371722835693169
leaf_weight=161 303 415 4193 384 326
leaf_count=161 303 415 4193 384 326
internal_value=0 0.00338597 -0.00111051 0.00488867 0.00605513
internal_weight=0 1428 4354 1013 710
internal_count=5782 1428 4354 1013 710
is_linear=0
shrinkage=0.05


Tree=25
num_leaves=6
num_cat=0
split_feature=0 0 0 0 0
split_gain=7.84859 2.84146 1.59344 1.16592 0.0219983
threshold=14.000000000000002 40.500000000000007 9.0000000000000018 22.000000000000004 31.000000000000004
decision_type=2 2 2 2 2
left_child=2 3 -1 -2 -5
right_child=1 -3 -4 4 -6
leaf_value=0.0038264004817313473 0.002047619249413509 -0.00026796081765408976 -0.0012424177676083905 0.0060088086177226309 0.0054503137310052668
leaf_weight=161 303 415 4193 384 326
leaf_count=161 303 415 4193 384 326
internal_value=0 0.00321667 -0.00105499 0.00464424 0.00575237
internal_weight=0 1428 4354 1013 710
internal_count=5782 1428 4354 1013 710
is_linear=0
shrinkage=0.05


Tree=26
num_leaves=6
num_cat=0
split_feature=0 0 0 0 0
split_gain=7.08335 2.56442 1.43808 1.05225 0.0198535
threshold=14.000000000000002 40.500000000000007 9.0000000000000018 22.000000000000004 31.000000000000004
decision_type=2 2 2 2 2
left_child=2 3 -1 -2 -5
right_child=1 -3 -4 4 -6
leaf_value=0.0036350810987099726 0.0019452385884085701 -0.00025456252070256029 -0.0011802973201280275 0.0057083682359916569 0.0051777975786580178
leaf_weight=161 303 415 4193 384 326
leaf_count=161 303 415 4193 384 326
internal_value=0 0.00305584 -0.00100224 0.00441203 0.00546475
internal_weight=0 1428 4354 1013 710
internal_count=5782 1428 4354 1013 710
is_linear=0
shrinkage=0.05


Tree=27
num_leaves=6
num_cat=0
split_feature=0 0 0 0 0
split_gain=6.39273 2.31439 1.29787 0.949652 0.0179178
threshold=14.000000000000002 40.500000000000007 9.0000000000000018 22.000000000000004 31.000000000000004
decision_type=2 2 2 2 2
left_child=2 3 -1 -2 -5
right_child=1 -3 -4 4 -6
leaf_value=0.0034533259186963119 0.0018479760321281334 -0.00024183525872158718 -0.0011212825531904263 0.0054229496772071201 0.0049189078362042267
leaf_weight=161 303 415 4193 384 326
leaf_count=161 303 415 4193 384 326
internal_value=0 0.00290305 -0.000952125 0.00419142 0.00519152
internal_weight=0 1428 4354 1013 710
internal_count=5782 1428 4354 1013 710
is_linear=0
shrinkage=0.05


Tree=28
num_leaves=6
num_cat=0
split_feature=0 0 0 0 0
split_gain=5.76944 2.08873 1.17133 0.857061 0.0161708
threshold=14.000000000000002 40.500000000000007 9.0000000000000018 22.000000000000004 31.000000000000004
decision_type=2 2 2 2 2
left_child=2 3 -1 -2 -5
right_child=1 -3 -4 4 -6
leaf_value=0.0032806602796909886 0.0017555780800999983 -0.00022974303373730329 -0.0010652184129424746 0.0051518024840333972 0.0046729622676574337
leaf_weight=161 303 415 4193 384 326
leaf_count=161 303 415 4193 384 326
internal_value=0 0.0027579 -0.000904519 0.00398185 0.00493194
internal_weight=0 1428 4354 1013 710
internal_count=5782 1428 4354 1013 710
is_linear=0
shrinkage=0.05


Tree=29
num_leaves=6
num_cat=0
split_feature=0 0 0 0 0
split_gain=5.20692 1.88508 1.05712 0.773498 0.0145942
threshold=14.000000000000002 40.500000000000007 9.0000000000000018 22.000000000000004 31.000000000000004
decision_type=2 2 2 2 2
left_child=2 3 -1 -2 -5
right_child=1 -3 -4 4 -6
leaf_value=0.0031166264542916455 0.0016677986174244005 -0.00021825634100171461 -0.0010119577620575269 0.0048942122992229999 0.0044393141172609177
leaf_weight=161 303 415 4193 384 326
leaf_count=161 303 415 4193 384 326
internal_value=0 0.00262 -0.000859293 0.00378276 0.00468534
internal_weight=0 1428 4354 1013 710
internal_count=5782 1428 4354 1013 710
is_linear=0
shrinkage=0.05


Tree=30
num_leaves=6
num_cat=0
split_feature=0 0 0 0 0
split_gain=4.69924 1.70129 0.954052 0.698082 0.0131712
threshold=14.000000000000002 40.500000000000007 9.0000000000000018 22.000000000000004 31.000000000000004
decision_type=2 2 2 2 2
left_child=2 3 -1 -2 -5
right_child=1 -3 -4 4 -6
leaf_value=0.0029607956567403188 0.0015844080563351855 -0.00020734283714050271 -0.00096135993192187318 0.0046495014020668654 0.0042173491508065743
leaf_weight=161 303 415 4193 384 326
leaf_count=161 303 415 4193 384 326
internal_value=0 0.002489 -0.000816328 0.00359362 0.00445108
internal_weight=0 1428 4354 1013 710
internal_count=5782 1428 4354 1013 710
is_linear=0
shrinkage=0.05


Tree=31
num_leaves=6
num_cat=0
split_feature=0 0 0 0 0
split_gain=4.24106 1.53541 0.861031 0.630019 0.011887
threshold=14.000000000000002 40.500000000000007 9.0000000000000018 22.000000000000004 31.000000000000004
decision_type=2 2 2 2 2
left_child=2 3 -1 -2 -5
right_child=1 -3 -4 4 -6
leaf_value=0.0028127559111453594 0.0015051876140985848 -0.00019697640562452466 -0.00091329127287447963 0.0044170260545797644 0.0040064811180888513
leaf_weight=161 303 415 4193 384 326
leaf_count=161 303 415 4193 384 326
internal_value=0 0.00236455 -0.000775511 0.00341394 0.00422852
internal_weight=0 1428 4354 1013 710
internal_count=5782 1428 4354 1013 710
is_linear=0
shrinkage=0.05


Tree=32
num_leaves=6
num_cat=0
split_feature=0 0 0 0 0
split_gain=3.82756 1.38571 0.777081 0.568592 0.010728
threshold=14.000000000000002 40.500000000000007 9.0000000000000018 22.000000000000004 31.000000000000004
decision_type=2 2 2 2 2
left_child=2 3 -1 -2 -5
right_child=1 -3 -4 4 -6
leaf_value=0.0026721173838093323 0.001429928831522516 -0.00018712675557976748 -0.00086762718626308226 0.0041961749334708054 0.0038061568010712694
leaf_weight=161 303 415 4193 384 326
leaf_count=161 303 415 4193 384 326
internal_value=0 0.00224632 -0.000736736 0.00324324 0.0040171
internal_weight=0 1428 4354 1013 710
internal_count=5782 1428 4354 1013 710
is_linear=0
shrinkage=0.05


Tree=33
num_leaves=6
num_cat=0
split_feature=0 0 0 0 0
split_gain=3.45437 1.2506 0.701316 0.513154 0.00968201
threshold=14.000000000000002 40.500000000000007 9.0000000000000018 22.000000000000004 31.000000000000004
decision_type=2 2 2 2 2
left_child=2 3 -1 -2 -5
right_child=1 -3 -4 4 -6
leaf_value=0.0025385124733243486 0.0013584326302614248 -0.00017777174037982184 -0.0008242454992192106 0.0039863661739218516 0.003615849628541733
leaf_weight=161 303 415 4193 384 326
leaf_count=161 303 415 4193 384 326
internal_value=0 0.00213401 -0.000699899 0.00308108 0.00381624
internal_weight=0 1428 4354 1013 710
internal_count=5782 1428 4354 1013 710
is_linear=0
shrinkage=0.05


Tree=34
num_leaves=6
num_cat=0
split_feature=0 0 0 0 0
split_gain=3.11757 1.12867 0.632937 0.463121 0.00873804
threshold=14.000000000000002 40.500000000000007 9.0000000000000018 22.000000000000004 31.000000000000004
decision_type=2 2 2 2 2
left_child=2 3 -1 -2 -5
right_child=1 -3 -4 4 -6
leaf_value=0.0024115865946001151 0.0012905112723589386 -0.00016888150990188841 -0.00078303284922613811 0.0037870481554515816 0.0034350569274253641
leaf_weight=161 303 415 4193 384 326
leaf_count=161 303 415 4193 384 326
internal_value=0 0.00202731 -0.000664904 0.00292703 0.00362543
internal_weight=0 1428 4354 1013 710
internal_count=5782 1428 4354 1013 710
is_linear=0
shrinkage=0.05


Tree=35
num_leaves=6
num_cat=0
split_feature=0 0 0 0 0
split_gain=2.81361 1.01862 0.571226 0.417967 0.00788603
threshold=14.000000000000002 40.500000000000007 9.0000000000000018 22.000000000000004 31.000000000000004
decision_type=2 2 2 2 2
left_child=2 3 -1 -2 -5
right_child=1 -3 -4 4 -6
leaf_value=0.0022910067727731436 0.0012259851914458591 -0.00016043879271271719 -0.00074388183680396992 0.0035976953651697843 0.0032633049175017541
leaf_weight=161 303 415 4193 384 326
leaf_count=161 303 415 4193 384 326
internal_value=0 0.00192594 -0.000631659 0.00278068 0.00344416
internal_weight=0 1428 4354 1013 710
internal_count=5782 1428 4354 1013 710
is_linear=0
shrinkage=0.05


Tree=36
num_leaves=6
num_cat=0
split_feature=0 0 0 0 0
split_gain=2.53928 0.919307 0.515531 0.377216 0.00711722
threshold=14.000000000000002 40.500000000000007 9.0000000000000018 22.000000000000004 31.000000000000004
decision_type=2 2 2 2 2
left_child=2 3 -1 -2 -5
right_child=1 -3 -4 4 -6
leaf_value=0.002176456703509418 0.0011646861877452226 -0.00015241640047675156 -0.00070668807336922868 0.0034178115003063191 0.0031001386446935452
leaf_weight=161 303 415 4193 384 326
leaf_count=161 303 415 4193 384 326
internal_value=0 0.00182964 -0.000600077 0.00264164 0.00327195
internal_weight=0 1428 4354 1013 710
internal_count=5782 1428 4354 1013 710
is_linear=0
shrinkage=0.05


Tree=37
num_leaves=6
num_cat=0
split_feature=0 0 0 0 0
split_gain=2.2917 0.829674 0.465267 0.340437 0.00642327
threshold=14.000000000000002 40.500000000000007 9.0000000000000018 22.000000000000004 31.000000000000004
decision_type=2 2 2 2 2
left_child=2 3 -1 -2 -5
right_child=1 -3 -4 4 -6
leaf_value=0.0020676342839872617 0.0011064521280630636 -0.00014479494485330869 -0.00067135339242504143 0.0032469204231650416 0.0029451317498117597
leaf_weight=161 303 415 4193 384 326
leaf_count=161 303 415 4193 384 326
internal_value=0 0.00173816 -0.000570072 0.00250956 0.00310835
internal_weight=0 1428 4354 1013 710
internal_count=5782 1428 4354 1013 710
is_linear=0
shrinkage=0.05


Tree=38
num_leaves=6
num_cat=0
split_feature=0 0 0 0 0
split_gain=2.06826 0.748782 0.419904 0.307245 0.00579699
threshold=14.000000000000002 40.500000000000007 9.0000000000000018 22.000000000000004 31.000000000000004
decision_type=2 2 2 2 2
left_child=2 3 -1 -2 -5
right_child=1 -3 -4 4 -6
leaf_value=0.0019642522280908519 0.0010511290056480361 -0.00013755619907415058 -0.00063778557733586204 0.0030845750162067516 0.002797876107306477
leaf_weight=161 303 415 4193 384 326
leaf_count=161 303 415 4193 384 326
internal_value=0 0.00165125 -0.000541569 0.00238408 0.00295294
internal_weight=0 1428 4354 1013 710
internal_count=5782 1428 4354 1013 710
is_linear=0
shrinkage=0.05


Tree=39
num_leaves=6
num_cat=0
split_feature=0 0 0 0 0
split_gain=1.86661 0.675775 0.378963 0.277288 0.0052318
threshold=14.000000000000002 40.500000000000007 9.0000000000000018 22.000000000000004 31.000000000000004
decision_type=2 2 2 2 2
left_child=2 3 -1 -2 -5
right_child=1 -3 -4 4 -6
leaf_value=0.0018660395492955768 0.00099857198005302416 -0.00013067827189722694 -0.00060589663847649441 0.002930345083101808 0.0026579807765826162
leaf_weight=161 303 415 4193 384 326
leaf_count=161 303 415 4193 384 326
internal_value=0 0.00156869 -0.000514491 0.00226488 0.00280529
internal_weight=0 1428 4354 1013 710
internal_count=5782 1428 4354 1013 710
is_linear=0
shrinkage=0.05


Tree=40
num_leaves=6
num_cat=0
split_feature=0 0 0 0 0
split_gain=1.68461 0.609886 0.342014 0.250252 0.00472172
threshold=14.000000000000002 40.500000000000007 9.0000000000000018 22.000000000000004 31.000000000000004
decision_type=2 2 2 2 2
left_child=2 3 -1 -2 -5
right_child=1 -3 -4 4 -6
leaf_value=0.0017727382197652176 0.00094864442086780134 -0.00012414277329233036 -0.00057560101349959632 0.0027838283354261269 0.0025250814969639264
leaf_weight=161 303 415 4193 384 326
leaf_count=161 303 415 4193 384 326
internal_value=0 0.00149026 -0.000488765 0.00215163 0.00266502
internal_weight=0 1428 4354 1013 710
internal_count=5782 1428 4354 1013 710
is_linear=0
shrinkage=0.05


Tree=41
num_leaves=6
num_cat=0
split_feature=0 0 0 0 0
split_gain=1.52036 0.550423 0.308668 0.225853 0.00426133
threshold=14.000000000000002 40.500000000000007 9.0000000000000018 22.000000000000004 31.000000000000004
decision_type=2 2 2 2 2
left_child=2 3 -1 -2 -5
right_child=1 -3 -4 4 -6
leaf_value=0.0016841003797103808 0.00090121178998100483 -0.00011793661211808044 -0.00054682156492038192 0.0026446375374992691 0.0023988288539416084
leaf_weight=161 303 415 4193 384 326
leaf_count=161 303 415 4193 384 326
internal_value=0 0.00141574 -0.000464328 0.00204405 0.00253177
internal_weight=0 1428 4354 1013 710
internal_count=5782 1428 4354 1013 710
is_linear=0
shrinkage=0.05


Tree=42
num_leaves=6
num_cat=0
split_feature=0 0 0 0 0
split_gain=1.37213 0.496757 0.278573 0.203832 0.00384585
threshold=14.000000000000002 40.500000000000007 9.0000000000000018 22.000000000000004 31.000000000000004
decision_type=2 2 2 2 2
left_child=2 3 -1 -2 -5
right_child=1 -3 -4 4 -6
leaf_value=0.0015998955807353587 0.00085615080231093727 -0.00011204024361648472 -0.00051948037557403856 0.0025124052968749314 0.0022788869799114765
leaf_weight=161 303 415 4193 384 326
leaf_count=161 303 415 4193 384 326
internal_value=0 0.00134496 -0.000441111 0.00194185 0.00240518
internal_weight=0 1428 4354 1013 710
internal_count=5782 1428 4354 1013 710
is_linear=0
shrinkage=0.05


Tree=43
num_leaves=6
num_cat=0
split_feature=0 0 0 0 0
split_gain=1.23834 0.448323 0.251412 0.183959 0.00347086
threshold=14.000000000000002 40.500000000000007 9.0000000000000018 22.000000000000004 31.000000000000004
decision_type=2 2 2 2 2
left_child=2 3 -1 -2 -5
right_child=1 -3 -4 4 -6
leaf_value=0.0015199010896710507 0.00081334303495498759 -0.00010643810819250992 -0.00049350655513519953 0.0023867845569232791 0.0021649426633514966
leaf_weight=161 303 415 4193 384 326
leaf_count=161 303 415 4193 384 326
internal_value=0 0.00127771 -0.000419056 0.00184476 0.00228492
internal_weight=0 1428 4354 1013 710
internal_count=5782 1428 4354 1013 710
is_linear=0
shrinkage=0.05


Tree=44
num_leaves=6
num_cat=0
split_feature=0 0 0 0 0
split_gain=1.11761 0.404611 0.226899 0.166023 0.00313248
threshold=14.000000000000002 40.500000000000007 9.0000000000000018 22.000000000000004 31.000000000000004
decision_type=2 2 2 2 2
left_child=2 3 -1 -2 -5
right_child=1 -3 -4 4 -6
leaf_value=0.0014439055701914413 0.00077267600743641024 -0.00010111557802252741 -0.00046883089902365191 0.0022674453498135942 0.0020566948178149989
leaf_weight=161 303 415 4193 384 326
leaf_count=161 303 415 4193 384 326
internal_value=0 0.00121382 -0.000398103 0.00175252 0.00217068
internal_weight=0 1428 4354 1013 710
internal_count=5782 1428 4354 1013 710
is_linear=0
shrinkage=0.05


Tree=45
num_leaves=6
num_cat=0
split_feature=0 0 0 0 0
split_gain=1.00864 0.365162 0.204776 0.149835 0.00282708
threshold=14.000000000000002 40.500000000000007 9.0000000000000018 22.000000000000004 31.000000000000004
decision_type=2 2 2 2 2
left_child=2 3 -1 -2 -5
right_child=1 -3 -4 4 -6
leaf_value=0.0013717105600589551 0.00073404268499174872 -9.6060569140027816e-05 -0.00044538878353528951 0.0021540738343901467 0.001953860063340081
leaf_weight=161 303 415 4193 384 326
leaf_count=161 303 415 4193 384 326
internal_value=0 0.00115313 -0.000378197 0.00166489 0.00206214
internal_weight=0 1428 4354 1013 710
internal_count=5782 1428 4354 1013 710
is_linear=0
shrinkage=0.05


Tree=46
num_leaves=6
num_cat=0
split_feature=0 0 0 0 0
split_gain=0.910297 0.329558 0.184811 0.135227 0.00255143
threshold=14.000000000000002 40.500000000000007 9.0000000000000018 22.000000000000004 31.000000000000004
decision_type=2 2 2 2 2
left_child=2 3 -1 -2 -5
right_child=1 -3 -4 4 -6
leaf_value=0.0013031252098749885 0.00069734014005157425 -9.125688135713698e-05 -0.00042311993627254816 0.0020463698747335002 0.0018561672052208541
leaf_weight=161 303 415 4193 384 326
leaf_count=161 303 415 4193 384 326
internal_value=0 0.00109548 -0.000359288 0.00158165 0.00195904
internal_weight=0 1428 4354 1013 710
internal_count=5782 1428 4354 1013 710
is_linear=0
shrinkage=0.05


Tree=47
num_leaves=6
num_cat=0
split_feature=0 0 0 0 0
split_gain=0.821544 0.297426 0.166792 0.122042 0.00230264
threshold=14.000000000000002 40.500000000000007 9.0000000000000018 22.000000000000004 31.000000000000004
decision_type=2 2 2 2 2
left_child=2 3 -1 -2 -5
right_child=1 -3 -4 4 -6
leaf_value=0.0012379692300506261 0.00066247323409595812 -8.669343485261303e-05 -0.0004019642222457029 0.0019440513771163143 0.0017633598566375265
leaf_weight=161 303 415 4193 384 326
leaf_count=161 303 415 4193 384 326
internal_value=0 0.0010407 -0.000341324 0.00150257 0.00186109
internal_weight=0 1428 4354 1013 710
internal_count=5782 1428 4354 1013 710
is_linear=0
shrinkage=0.05


Tree=48
num_leaves=6
num_cat=0
split_feature=0 0 0 0 0
split_gain=0.741443 0.268427 0.150529 0.110143 0.00207817
threshold=14.000000000000002 40.500000000000007 9.0000000000000018 22.000000000000004 31.000000000000004
decision_type=2 2 2 2 2
left_child=2 3 -1 -2 -5
right_child=1 -3 -4 4 -6
leaf_value=0.0011760704265618177 0.00062934938709100982 -8.2358815538955026e-05 -0.00038186562735780156 0.0018468489464188071 0.0016751905966070166
leaf_weight=161 303 415 4193 384 326
leaf_count=161 303 415 4193 384 326
internal_value=0 0.000988667 -0.000324257 0.00142744 0.00176803
internal_weight=0 1428 4354 1013 710
internal_count=5782 1428 4354 1013 710
is_linear=0
shrinkage=0.05


Tree=49
num_leaves=6
num_cat=0
split_feature=0 0 0 0 0
split_gain=0.669152 0.242256 0.135853 0.0994038 0.00187551
threshold=14.000000000000002 40.500000000000007 9.0000000000000018 22.000000000000004 31.000000000000004
decision_type=2 2 2 2 2
left_child=2 3 -1 -2 -5
right_child=1 -3 -4 4 -6
leaf_value=0.0011172678645538249 0.000597882979217511 -7.8241066356380309e-05 -0.00036277232802480342 0.0017545060489889391 0.0015914319896573441
leaf_weight=161 303 415 4193 384 326
leaf_count=161 303 415 4193 384 326
internal_value=0 0.000939234 -0.000308044 0.00135607 0.00167963
internal_weight=0 1428 4354 1013 710
internal_count=5782 1428 4354 1013 710
is_linear=0
shrinkage=0.05


Tree=50
num_leaves=6
num_cat=0
split_feature=0 0 0 0 0
split_gain=0.603909 0.218636 0.122607 0.089712 0.00169266
threshold=14.000000000000002 40.500000000000007 9.0000000000000018 22.000000000000004 31.000000000000004
decision_type=2 2 2 2 2
left_child=2 3 -1 -2 -5
right_child=1 -3 -4 4 -6
leaf_value=0.0010614033279396733 0.00056798795119800886 -7.4329193322414378e-05 -0.00034463310227139671 0.0016667805601173315 0.0015118599645407768
leaf_weight=161 303 415 4193 384 326
leaf_count=161 303 415 4193 384 326
internal_value=0 0.000892272 -0.000292641 0.00128826 0.00159565
internal_weight=0 1428 4354 1013 710
internal_count=5782 1428 4354 1013 710
is_linear=0
shrinkage=0.05


Tree=51
num_leaves=6
num_cat=0
split_feature=0 0 0 0 0
split_gain=0.545029 0.197319 0.110653 0.0809649 0.0015276
threshold=14.000000000000002 40.500000000000007 9.0000000000000018 22.000000000000004 31.000000000000004
decision_type=2 2 2 2 2
left_child=2 3 -1 -2 -5
right_child=1 -3 -4 4 -6
leaf_value=0.0010083329510984956 0.00053958958844737258 -7.0612096979495988e-05 -0.0003274024748634312 0.0015834413448828856 0.001436267699840967
leaf_weight=161 303 415 4193 384 326
leaf_count=161 303 415 4193 384 326
internal_value=0 0.000847659 -0.00027801 0.00122385 0.00151587
internal_weight=0 1428 4354 1013 710
internal_count=5782 1428 4354 1013 710
is_linear=0
shrinkage=0.05


Tree=52
num_leaves=6
num_cat=0
split_feature=0 0 0 0 0
split_gain=0.491889 0.17808 0.0998644 0.073071 0.00137869
threshold=14.000000000000002 40.500000000000007 9.0000000000000018 22.000000000000004 31.000000000000004
decision_type=2 2 2 2 2
left_child=2 3 -1 -2 -5
right_child=1 -3 -4 4 -6
leaf_value=0.00095791667237044855 0.00051260905789070007 -6.7082320575613573e-05 -0.00031103244898256628 0.0015042698612281434 0.0013644535093428282
leaf_weight=161 303 415 4193 384 326
leaf_count=161 303 415 4193 384 326
internal_value=0 0.000805275 -0.00026411 0.00116266 0.00144007
internal_weight=0 1428 4354 1013 710
internal_count=5782 1428 4354 1013 710
is_linear=0
shrinkage=0.05


Tree=53
num_leaves=6
num_cat=0
split_feature=0 0 0 0 0
split_gain=0.443929 0.160717 0.0901276 0.0659465 0.00124428
threshold=14.000000000000002 40.500000000000007 9.0000000000000018 22.000000000000004 31.000000000000004
decision_type=2 2 2 2 2
left_child=2 3 -1 -2 -5
right_child=1 -3 -4 4 -6
leaf_value=0.00091002090539065946 0.00048697890249686473 -6.3727476174034266e-05 -0.00029548069872201957 0.0014290564844789818 0.0012962303712158436
leaf_weight=161 303 415 4193 384 326
leaf_count=161 303 415 4193 384 326
internal_value=0 0.000765012 -0.000250904 0.00110452 0.00136807
internal_weight=0 1428 4354 1013 710
internal_count=5782 1428 4354 1013 710
is_linear=0
shrinkage=0.05


Tree=54
num_leaves=6
num_cat=0
split_feature=0 0 0 0 0
split_gain=0.400646 0.145048 0.0813403 0.0595168 0.00112294
threshold=14.000000000000002 40.500000000000007 9.0000000000000018 22.000000000000004 31.000000000000004
decision_type=2 2 2 2 2
left_child=2 3 -1 -2 -5
right_child=1 -3 -4 4 -6
leaf_value=0.00086452042950051179 0.00046262932071468424 -6.0542500746178345e-05 -0.00028070667687507653 0.0013576030960393837 0.0012314196855995371
leaf_weight=161 303 415 4193 384 326
leaf_count=161 303 415 4193 384 326
internal_value=0 0.00072676 -0.000238359 0.0010493 0.00129967
internal_weight=0 1428 4354 1013 710
internal_count=5782 1428 4354 1013 710
is_linear=0
shrinkage=0.05


Tree=55
num_leaves=6
num_cat=0
split_feature=0 0 0 0 0
split_gain=0.361583 0.130905 0.0734094 0.0537139 0.00101346
threshold=14.000000000000002 40.500000000000007 9.0000000000000018 22.000000000000004 31.000000000000004
decision_type=2 2 2 2 2
left_child=2 3 -1 -2 -5
right_child=1 -3 -4 4 -6
leaf_value=0.00082129353530103382 0.00043949815921067408 -5.751500792621848e-05 -0.00026667116839778959 0.0012897235476884818 0.0011698485054989899
leaf_weight=161 303 415 4193 384 326
leaf_count=161 303 415 4193 384 326
internal_value=0 0.000690423 -0.000226441 0.000996834 0.00123468
internal_weight=0 1428 4354 1013 710
internal_count=5782 1428 4354 1013 710
is_linear=0
shrinkage=0.05


Tree=56
num_leaves=6
num_cat=0
split_feature=0 0 0 0 0
split_gain=0.326329 0.118142 0.0662521 0.0484767 0.000914635
threshold=14.000000000000002 40.500000000000007 9.0000000000000018 22.000000000000004 31.000000000000004
decision_type=2 2 2 2 2
left_child=2 3 -1 -2 -5
right_child=1 -3 -4 4 -6
leaf_value=0.00078022941044583825 0.00041752388814568714 -5.4638079558330851e-05 -0.00025333773303303213 0.0012252369473117143 0.001111356656072787
leaf_weight=161 303 415 4193 384 326
leaf_count=161 303 415 4193 384 326
internal_value=0 0.000655902 -0.000215119 0.000946992 0.00117295
internal_weight=0 1428 4354 1013 710
internal_count=5782 1428 4354 1013 710
is_linear=0
shrinkage=0.05


Tree=57
num_leaves=6
num_cat=0
split_feature=0 0 0 0 0
split_gain=0.294511 0.106623 0.0597924 0.0437503 0.000825461
threshold=14.000000000000002 40.500000000000007 9.0000000000000018 22.000000000000004 31.000000000000004
decision_type=2 2 2 2 2
left_child=2 3 -1 -2 -5
right_child=1 -3 -4 4 -6
leaf_value=0.00074121790434818094 0.00039664691332543255 -5.1907037261379776e-05 -0.00024067020520747583 0.0011639750882144048 0.0010557885975948323
leaf_weight=161 303 415 4193 384 326
leaf_count=161 303 415 4193 384 326
internal_value=0 0.000623107 -0.000204362 0.000899642 0.0011143
internal_weight=0 1428 4354 1013 710
internal_count=5782 1428 4354 1013 710
is_linear=0
shrinkage=0.05


Tree=58
num_leaves=6
num_cat=0
split_feature=0 0 0 0 0
split_gain=0.265796 0.0962276 0.0539626 0.0394846 0.000744997
threshold=14.000000000000002 40.500000000000007 9.0000000000000018 22.000000000000004 31.000000000000004
decision_type=2 2 2 2 2
left_child=2 3 -1 -2 -5
right_child=1 -3 -4 4 -6
leaf_value=0.00070415681100780177 0.00037681540541916397 -4.9312315454863645e-05 -0.00022863661829130525 0.0011057767513496706 0.001002998314112242
leaf_weight=161 303 415 4193 384 326
leaf_count=161 303 415 4193 384 326
internal_value=0 0.000591951 -0.000194144 0.00085466 0.00105859
internal_weight=0 1428 4354 1013 710
internal_count=5782 1428 4354 1013 710
is_linear=0
shrinkage=0.05


Tree=59
num_leaves=6
num_cat=0
split_feature=0 0 0 0 0
split_gain=0.239882 0.0868452 0.0487013 0.0356348 0.000672358
threshold=14.000000000000002 40.500000000000007 9.0000000000000018 22.000000000000004 31.000000000000004
decision_type=2 2 2 2 2
left_child=2 3 -1 -2 -5
right_child=1 -3 -4 4 -6
leaf_value=0.00066894832824975804 0.00035797455624704907 -4.6845953687127814e-05 -0.00021720543115784255 0.0010504876205231996 0.00095284823499665675
leaf_weight=161 303 415 4193 384 326
leaf_count=161 303 415 4193 384 326
internal_value=0 0.000562354 -0.000184438 0.000811927 0.00100566
internal_weight=0 1428 4354 1013 710
internal_count=5782 1428 4354 1013 710
is_linear=0
shrinkage=0.05


Tree=60
num_leaves=6
num_cat=0
split_feature=0 0 0 0 0
split_gain=0.216493 0.0783778 0.0439529 0.0321604 0.000606793
threshold=14.000000000000002 40.500000000000007 9.0000000000000018 22.000000000000004 31.000000000000004
decision_type=2 2 2 2 2
left_child=2 3 -1 -2 -5
right_child=1 -3 -4 4 -6
leaf_value=0.00063550163129842067 0.00034007546184553763 -4.4503743614417964e-05 -0.00020634448153747864 0.00099796252901190505 0.00090520588246865508
leaf_weight=161 303 415 4193 384 326
leaf_count=161 303 415 4193 384 326
internal_value=0 0.000534236 -0.000175215 0.00077133 0.000955373
internal_weight=0 1428 4354 1013 710
internal_count=5782 1428 4354 1013 710
is_linear=0
shrinkage=0.05


Tree=61
num_leaves=6
num_cat=0
split_feature=0 0 0 0 0
split_gain=0.195385 0.0707361 0.0396676 0.0290249 0.000547632
threshold=14.000000000000002 40.500000000000007 9.0000000000000018 22.000000000000004 31.000000000000004
decision_type=2 2 2 2 2
left_child=2 3 -1 -2 -5
right_child=1 -3 -4 4 -6
leaf_value=0.0006037266207685382 0.0003230710086649401 -4.2279555002249873e-05 -0.00019602776658686285 0.00094806487813912108 0.00085994592907787104
leaf_weight=161 303 415 4193 384 326
leaf_count=161 303 415 4193 384 326
internal_value=0 0.000507524 -0.000166455 0.000732764 0.000907605
internal_weight=0 1428 4354 1013 710
internal_count=5782 1428 4354 1013 710
is_linear=0
shrinkage=0.05


Tree=62
num_leaves=6
num_cat=0
split_feature=0 0 0 0 0
split_gain=0.176335 0.0638392 0.0358 0.0261949 0.000494244
threshold=14.000000000000002 40.500000000000007 9.0000000000000018 22.000000000000004 31.000000000000004
decision_type=2 2 2 2 2
left_child=2 3 -1 -2 -5
right_child=1 -3 -4 4 -6
leaf_value=0.00057354045522786819 0.00030691787990873602 -4.0164527157882617e-05 -0.00018622685059620304 0.0009006618731291383 0.00081694837705306484
leaf_weight=161 303 415 4193 384 326
leaf_count=161 303 415 4193 384 326
internal_value=0 0.000482148 -0.000158133 0.000696126 0.000862224
internal_weight=0 1428 4354 1013 710
internal_count=5782 1428 4354 1013 710
is_linear=0
shrinkage=0.05


Tree=63
num_leaves=6
num_cat=0
split_feature=0 0 0 0 0
split_gain=0.159142 0.0576148 0.0323095 0.0236409 0.000446053
threshold=14.000000000000002 40.500000000000007 9.0000000000000018 22.000000000000004 31.000000000000004
decision_type=2 2 2 2 2
left_child=2 3 -1 -2 -5
right_child=1 -3 -4 4 -6
leaf_value=0.00054486299639347913 0.0002915715153264527 -3.8155958572604569e-05 -0.00017691518271569255 0.00085562857275363064 0.00077610094145945982
leaf_weight=161 303 415 4193 384 326
leaf_count=161 303 415 4193 384 326
internal_value=0 0.00045804 -0.000150226 0.000661319 0.000819113
internal_weight=0 1428 4354 1013 710
internal_count=5782 1428 4354 1013 710
is_linear=0
shrinkage=0.05


Tree=64
num_leaves=6
num_cat=0
split_feature=0 0 0 0 0
split_gain=0.143626 0.0519975 0.0291593 0.0213359 0.000402552
threshold=14.000000000000002 40.500000000000007 9.0000000000000018 22.000000000000004 31.000000000000004
decision_type=2 2 2 2 2
left_child=2 3 -1 -2 -5
right_child=1 -3 -4 4 -6
leaf_value=0.00051761975754862244 0.00027699399825566678 -3.624824346996934e-05 -0.00016806977850965783 0.0008128472021780909 0.00073729702242952919
leaf_weight=161 303 415 4193 384 326
leaf_count=161 303 415 4193 384 326
internal_value=0 0.000435139 -0.000142715 0.000628254 0.000778158
internal_weight=0 1428 4354 1013 710
internal_count=5782 1428 4354 1013 710
is_linear=0
shrinkage=0.05


Tree=65
num_leaves=6
num_cat=0
split_feature=0 0 0 0 0
split_gain=0.129623 0.0469278 0.0263163 0.0192557 0.000363312
threshold=14.000000000000002 40.500000000000007 9.0000000000000018 22.000000000000004 31.000000000000004
decision_type=2 2 2 2 2
left_child=2 3 -1 -2 -5
right_child=1 -3 -4 4 -6
leaf_value=0.00049173908354425283 0.00026314406849370142 -3.4436178000935592e-05 -0.00015966655671853806 0.00077220531578253335 0.00070043174561364521
leaf_weight=161 303 415 4193 384 326
leaf_count=161 303 415 4193 384 326
internal_value=0 0.000413382 -0.000135579 0.000596841 0.00073925
internal_weight=0 1428 4354 1013 710
internal_count=5782 1428 4354 1013 710
is_linear=0
shrinkage=0.05


Tree=66
num_leaves=6
num_cat=0
split_feature=0 0 0 0 0
split_gain=0.116984 0.0423523 0.0237504 0.0173782 0.000327893
threshold=14.000000000000002 40.500000000000007 9.0000000000000018 22.000000000000004 31.000000000000004
decision_type=2 2 2 2 2
left_child=2 3 -1 -2 -5
right_child=1 -3 -4 4 -6
leaf_value=0.00046715198246681175 0.00024998715261101916 -3.2714342316949227e-05 -0.00015168235033487107 0.0007335947976874498 0.00066540949860804835
leaf_weight=161 303 415 4193 384 326
leaf_count=161 303 415 4193 384 326
internal_value=0 0.000392713 -0.000128799 0.000566999 0.000702287
internal_weight=0 1428 4354 1013 710
internal_count=5782 1428 4354 1013 710
is_linear=0
shrinkage=0.05


Tree=67
num_leaves=6
num_cat=0
split_feature=0 0 0 0 0
split_gain=0.105578 0.038223 0.0214348 0.0156838 0.00029592
threshold=14.000000000000002 40.500000000000007 9.0000000000000018 22.000000000000004 31.000000000000004
decision_type=2 2 2 2 2
left_child=2 3 -1 -2 -5
right_child=1 -3 -4 4 -6
leaf_value=0.00044379505554433939 0.00023748793104423746 -3.1078939763716901e-05 -0.00014409838220400098 0.00069691474321492328 0.00063213904122564875
leaf_weight=161 303 415 4193 384 326
leaf_count=161 303 415 4193 384 326
internal_value=0 0.000373077 -0.00012236 0.000538649 0.000667173
internal_weight=0 1428 4354 1013 710
internal_count=5782 1428 4354 1013 710
is_linear=0
shrinkage=0.05


Tree=68
num_leaves=6
num_cat=0
split_feature=0 0 0 0 0
split_gain=0.0952843 0.0344962 0.0193449 0.0141547 0.000267063
threshold=14.000000000000002 40.500000000000007 9.0000000000000018 22.000000000000004 31.000000000000004
decision_type=2 2 2 2 2
left_child=2 3 -1 -2 -5
right_child=1 -3 -4 4 -6
leaf_value=0.00042160550907531882 0.00022561270113505744 -2.9524753588330319e-05 -0.00013689312527298035 0.0006620692358410452 0.00060053294870225388
leaf_weight=161 303 415 4193 384 326
leaf_count=161 303 415 4193 384 326
internal_value=0 0.000354423 -0.000116241 0.000511717 0.000633815
internal_weight=0 1428 4354 1013 710
internal_count=5782 1428 4354 1013 710
is_linear=0
shrinkage=0.05


Tree=69
num_leaves=6
num_cat=0
split_feature=0 0 0 0 0
split_gain=0.0859943 0.0311327 0.0174587 0.0127745 0.000241026
threshold=14.000000000000002 40.500000000000007 9.0000000000000018 22.000000000000004 31.000000000000004
decision_type=2 2 2 2 2
left_child=2 3 -1 -2 -5
right_child=1 -3 -4 4 -6
leaf_value=0.00040052437356540141 0.00021433307537225017 -2.8047738596796988e-05 -0.00013004896894171515 0.00062896546199529748 0.00057050574262357929
leaf_weight=161 303 415 4193 384 326
leaf_count=161 303 415 4193 384 326
internal_value=0 0.000336702 -0.00011043 0.000486131 0.000602123
internal_weight=0 1428 4354 1013 710
internal_count=5782 1428 4354 1013 710
is_linear=0
shrinkage=0.05


Tree=70
num_leaves=6
num_cat=0
split_feature=0 0 0 0 0
split_gain=0.0776098 0.0280974 0.0157565 0.011529 0.00021753
threshold=14.000000000000002 40.500000000000007 9.0000000000000018 22.000000000000004 31.000000000000004
decision_type=2 2 2 2 2
left_child=2 3 -1 -2 -5
right_child=1 -3 -4 4 -6
leaf_value=0.00038049760569604289 0.00020361622740136515 -2.6646140760865558e-05 -0.00012354663009425475 0.0005975174513878301 0.00054198017592421883
leaf_weight=161 303 415 4193 384 326
leaf_count=161 303 415 4193 384 326
internal_value=0 0.000319867 -0.000104908 0.000461824 0.000572017
internal_weight=0 1428 4354 1013 710
internal_count=5782 1428 4354 1013 710
is_linear=0
shrinkage=0.05


Tree=71
num_leaves=6
num_cat=0
split_feature=0 0 0 0 0
split_gain=0.070043 0.0253581 0.0142203 0.010405 0.000196318
threshold=14.000000000000002 40.500000000000007 9.0000000000000018 22.000000000000004 31.000000000000004
decision_type=2 2 2 2 2
left_child=2 3 -1 -2 -5
right_child=1 -3 -4 4 -6
leaf_value=0.00036147318271376335 0.00019343564157733823 -2.5314924655010906e-05 -0.00011736961681289265 0.0005676421442937378 0.00051488216032211217
leaf_weight=161 303 415 4193 384 326
leaf_count=161 303 415 4193 384 326
internal_value=0 0.000303874 -9.96632e-05 0.000438734 0.000543417
internal_weight=0 1428 4354 1013 710
internal_count=5782 1428 4354 1013 710
is_linear=0
shrinkage=0.05


Tree=72
num_leaves=6
num_cat=0
split_feature=0 0 0 0 0
split_gain=0.0632136 0.0228855 0.0128338 0.00939055 0.000177175
threshold=14.000000000000002 40.500000000000007 9.0000000000000018 22.000000000000004 31.000000000000004
decision_type=2 2 2 2 2
left_child=2 3 -1 -2 -5
right_child=1 -3 -4 4 -6
leaf_value=0.00034339933754494478 0.00018376276548644498 -2.4047799363552807e-05 -0.00011150044776074368 0.00053925971703089705 0.00048913799506252159
leaf_weight=161 303 415 4193 384 326
leaf_count=161 303 415 4193 384 326
internal_value=0 0.00028868 -9.46794e-05 0.000416796 0.000516246
internal_weight=0 1428 4354 1013 710
internal_count=5782 1428 4354 1013 710
is_linear=0
shrinkage=0.05


Tree=73
num_leaves=6
num_cat=0
split_feature=0 0 0 0 0
split_gain=0.0570504 0.0206541 0.0115825 0.0084749 0.000159907
threshold=14.000000000000002 40.500000000000007 9.0000000000000018 22.000000000000004 31.000000000000004
decision_type=2 2 2 2 2
left_child=2 3 -1 -2 -5
right_child=1 -3 -4 4 -6
leaf_value=0.00032622928887328004 0.00017457535619487858 -2.2844988516116717e-05 -0.00010592596447414008 0.00051229644698954269 0.00046467988271883299
leaf_weight=161 303 415 4193 384 326
leaf_count=161 303 415 4193 384 326
internal_value=0 0.000274246 -8.99459e-05 0.000395956 0.000490433
internal_weight=0 1428 4354 1013 710
internal_count=5782 1428 4354 1013 710
is_linear=0
shrinkage=0.05


Tree=74
num_leaves=6
num_cat=0
split_feature=0 0 0 0 0
split_gain=0.0514878 0.0186404 0.0104532 0.00764865 0.000144318
threshold=14.000000000000002 40.500000000000007 9.0000000000000018 22.000000000000004 31.000000000000004
decision_type=2 2 2 2 2
left_child=2 3 -1 -2 -5
right_child=1 -3 -4 4 -6
leaf_value=0.00030991845527050658 0.00016584580967036805 -2.1704066297914608e-05 -0.00010062919553363066 0.00048668207327864368 0.00044144598875720448
leaf_weight=161 303 415 4193 384 326
leaf_count=161 303 415 4193 384 326
internal_value=0 0.000260533 -8.54482e-05 0.000376159 0.000465912
internal_weight=0 1428 4354 1013 710
internal_count=5782 1428 4354 1013 710
is_linear=0
shrinkage=0.05


Tree=75
num_leaves=6
num_cat=0
split_feature=0 0 0 0 0
split_gain=0.0464678 0.016823 0.00943402 0.00690288 0.000130242
threshold=14.000000000000002 40.500000000000007 9.0000000000000018 22.000000000000004 31.000000000000004
decision_type=2 2 2 2 2
left_child=2 3 -1 -2 -5
right_child=1 -3 -4 4 -6
leaf_value=0.00029442234554831286 0.00015755406958927024 -2.0618611969143514e-05 -9.5597883205436181e-05 0.00046234759847720854 0.00041937418660560361
leaf_weight=161 303 415 4193 384 326
leaf_count=161 303 415 4193 384 326
internal_value=0 0.000247507 -8.11759e-05 0.000357351 0.000442616
internal_weight=0 1428 4354 1013 710
internal_count=5782 1428 4354 1013 710
is_linear=0
shrinkage=0.05


Tree=76
num_leaves=6
num_cat=0
split_feature=0 0 0 0 0
split_gain=0.0419371 0.0151827 0.0085142 0.00622985 0.000117544
threshold=14.000000000000002 40.500000000000007 9.0000000000000018 22.000000000000004 31.000000000000004
decision_type=2 2 2 2 2
left_child=2 3 -1 -2 -5
right_child=1 -3 -4 4 -6
leaf_value=0.00027970147741414748 0.00014967626950430004 -1.9587754911507469e-05 -9.0817674160598489e-05 0.00043923020257352619 0.00039840534956485862
leaf_weight=161 303 415 4193 384 326
leaf_count=161 303 415 4193 384 326
internal_value=0 0.000235131 -7.71168e-05 0.000339483 0.000420485
internal_weight=0 1428 4354 1013 710
internal_count=5782 1428 4354 1013 710
is_linear=0
shrinkage=0.05


Tree=77
num_leaves=6
num_cat=0
split_feature=0 0 0 0 0
split_gain=0.0378483 0.0137023 0.00768405 0.00562244 0.00010608
threshold=14.000000000000002 40.500000000000007 9.0000000000000018 22.000000000000004 31.000000000000004
decision_type=2 2 2 2 2
left_child=2 3 -1 -2 -5
right_child=1 -3 -4 4 -6
leaf_value=0.00026571601108642099 0.0001421924010410954 -1.860678633562772e-05 -8.6276812603339149e-05 0.0004172683363625159 0.00037848537800650746
leaf_weight=161 303 415 4193 384 326
leaf_count=161 303 415 4193 384 326
internal_value=0 0.000223375 -7.3261e-05 0.000322509 0.000399461
internal_weight=0 1428 4354 1013 710
internal_count=5782 1428 4354 1013 710
is_linear=0
shrinkage=0.05


Tree=78
num_leaves=6
num_cat=0
split_feature=0 0 0 0 0
split_gain=0.0341581 0.0123664 0.00693487 0.00507425 9.57426e-05
threshold=14.000000000000002 40.500000000000007 9.0000000000000018 22.000000000000004 31.000000000000004
decision_type=2 2 2 2 2
left_child=2 3 -1 -2 -5
right_child=1 -3 -4 4 -6
leaf_value=0.00025243059911342884 0.00013508305580604195 -1.7676867140703892e-05 -8.1962945093879444e-05 0.00039640567465539791 0.00035956078030431843
leaf_weight=161 303 415 4193 384 326
leaf_count=161 303 415 4193 384 326
internal_value=0 0.000212206 -6.95979e-05 0.000306384 0.000379488
internal_weight=0 1428 4354 1013 710
internal_count=5782 1428 4354 1013 710
is_linear=0
shrinkage=0.05


Tree=79
num_leaves=6
num_cat=0
split_feature=0 0 0 0 0
split_gain=0.0308278 0.0111607 0.0062587 0.00457949 8.64069e-05
threshold=14.000000000000002 40.500000000000007 9.0000000000000018 22.000000000000004 31.000000000000004
decision_type=2 2 2 2 2
left_child=2 3 -1 -2 -5
right_child=1 -3 -4 4 -6
leaf_value=0.00023980829344125268 0.00012832946595874164 -1.6793288200734609e-05 -7.7865244240997355e-05 0.00037658539513358847 0.00034158290742376557
leaf_weight=161 303 415 4193 384 326
leaf_count=161 303 415 4193 384 326
internal_value=0 0.000201596 -6.61185e-05 0.000291065 0.000360514
internal_weight=0 1428 4354 1013 710
internal_count=5782 1428 4354 1013 710
is_linear=0
shrinkage=0.05


Tree=80
num_leaves=6
num_cat=0
split_feature=0 0 0 0 0
split_gain=0.027822 0.0100725 0.00564851 0.00413307 7.79839e-05
threshold=14.000000000000002 40.500000000000007 9.0000000000000018 22.000000000000004 31.000000000000004
decision_type=2 2 2 2 2
left_child=2 3 -1 -2 -5
right_child=1 -3 -4 4 -6
leaf_value=0.0002278189336800057 0.00012191132129025539 -1.5953626842742943e-05 -7.3971810835677288e-05 0.00035775658731533139 0.00032450386337854506
leaf_weight=161 303 415 4193 384 326
leaf_count=161 303 415 4193 384 326
internal_value=0 0.000191516 -6.28123e-05 0.000276511 0.000342488
internal_weight=0 1428 4354 1013 710
internal_count=5782 1428 4354 1013 710
is_linear=0
shrinkage=0.05


Tree=81
num_leaves=6
num_cat=0
split_feature=0 0 0 0 0
split_gain=0.0251093 0.00909042 0.00509775 0.00373003 7.03717e-05
threshold=14.000000000000002 40.500000000000007 9.0000000000000018 22.000000000000004 31.000000000000004
decision_type=2 2 2 2 2
left_child=2 3 -1 -2 -5
right_child=1 -3 -4 4 -6
leaf_value=0.00021642753449471102 0.00011581705019443541 -1.515585166144084e-05 -7.027283043742993e-05 0.00033986734715654168 0.00030827922819800873
leaf_weight=161 303 415 4193 384 326
leaf_count=161 303 415 4193 384 326
internal_value=0 0.00018194 -5.96714e-05 0.000262686 0.000325364
internal_weight=0 1428 4354 1013 710
internal_count=5782 1428 4354 1013 710
is_linear=0
shrinkage=0.05


Tree=82
num_leaves=6
num_cat=0
split_feature=0 0 0 0 0
split_gain=0.0226613 0.00820412 0.00460072 0.00336638 6.35113e-05
threshold=14.000000000000002 40.500000000000007 9.0000000000000018 22.000000000000004 31.000000000000004
decision_type=2 2 2 2 2
left_child=2 3 -1 -2 -5
right_child=1 -3 -4 4 -6
leaf_value=0.00020560561129765481 0.00011002572496166522 -1.4398247340177914e-05 -6.6759653176835592e-05 0.00032287434799703387 0.00029286544451645745
leaf_weight=161 303 415 4193 384 326
leaf_count=161 303 415 4193 384 326
internal_value=0 0.000172843 -5.66883e-05 0.000249552 0.000309096
internal_weight=0 1428 4354 1013 710
internal_count=5782 1428 4354 1013 710
is_linear=0
shrinkage=0.05


Tree=83
num_leaves=6
num_cat=0
split_feature=0 0 0 0 0
split_gain=0.0204518 0.00740418 0.00415216 0.00303816 5.73199e-05
threshold=14.000000000000002 40.500000000000007 9.0000000000000018 22.000000000000004 31.000000000000004
decision_type=2 2 2 2 2
left_child=2 3 -1 -2 -5
right_child=1 -3 -4 4 -6
leaf_value=0.00019532552752528134 0.00010452429969908775 -1.3677767219852253e-05 -6.3421772361479584e-05 0.00030673077687121499 0.00027822206726017769
leaf_weight=161 303 415 4193 384 326
leaf_count=161 303 415 4193 384 326
internal_value=0 0.000164201 -5.38539e-05 0.000237074 0.000293641
internal_weight=0 1428 4354 1013 710
internal_count=5782 1428 4354 1013 710
is_linear=0
shrinkage=0.05


Tree=84
num_leaves=6
num_cat=0
split_feature=0 0 0 0 0
split_gain=0.0184577 0.00668234 0.00374734 0.00274193 5.17335e-05
threshold=14.000000000000002 40.500000000000007 9.0000000000000018 22.000000000000004 31.000000000000004
decision_type=2 2 2 2 2
left_child=2 3 -1 -2 -5
right_child=1 -3 -4 4 -6
leaf_value=0.00018555961595558975 9.9298375176124444e-05 -1.2994976826460964e-05 -6.0250800731086581e-05 0.00029139454439549206 0.00026431067968487302
leaf_weight=161 303 415 4193 384 326
leaf_count=161 303 415 4193 384 326
internal_value=0 0.000155991 -5.11613e-05 0.00022522 0.000278959
internal_weight=0 1428 4354 1013 710
internal_count=5782 1428 4354 1013 710
is_linear=0
shrinkage=0.05


Tree=85
num_leaves=6
num_cat=0
split_feature=0 0 0 0 0
split_gain=0.016658 0.00603083 0.00338194 0.0024746 4.6693e-05
threshold=14.000000000000002 40.500000000000007 9.0000000000000018 22.000000000000004 31.000000000000004
decision_type=2 2 2 2 2
left_child=2 3 -1 -2 -5
right_child=1 -3 -4 4 -6
leaf_value=0.00017628134662135047 9.4333376040798997e-05 -1.234548648886652e-05 -5.7237480978412393e-05 0.00027682543172886654 0.00025109478373914682
leaf_weight=161 303 415 4193 384 326
leaf_count=161 303 415 4193 384 326
internal_value=0 0.000148192 -4.86025e-05 0.000213959 0.000265011
internal_weight=0 1428 4354 1013 710
internal_count=5782 1428 4354 1013 710
is_linear=0
shrinkage=0.05


Tree=86
num_leaves=6
num_cat=0
split_feature=0 0 0 0 0
split_gain=0.0150339 0.00544276 0.00305223 0.00223331 4.21389e-05
threshold=14.000000000000002 40.500000000000007 9.0000000000000018 22.000000000000004 31.000000000000004
decision_type=2 2 2 2 2
left_child=2 3 -1 -2 -5
right_child=1 -3 -4 4 -6
leaf_value=0.00016746795765176326 8.961669839426827e-05 -1.172731810036194e-05 -5.4375991187927525e-05 0.00026298325791079455 0.00023853960325598625
leaf_weight=161 303 415 4193 384 326
leaf_count=161 303 415 4193 384 326
internal_value=0 0.000140782 -4.61728e-05 0.000203261 0.00025176
internal_weight=0 1428 4354 1013 710
internal_count=5782 1428 4354 1013 710
is_linear=0
shrinkage=0.05


Tree=87
num_leaves=6
num_cat=0
split_feature=0 0 0 0 0
split_gain=0.013568 0.00491214 0.00275465 0.00201559 3.803e-05
threshold=14.000000000000002 40.500000000000007 9.0000000000000018 22.000000000000004 31.000000000000004
decision_type=2 2 2 2 2
left_child=2 3 -1 -2 -5
right_child=1 -3 -4 4 -6
leaf_value=0.00015909474238938427 8.513520382615206e-05 -1.1142120775149529e-05 -5.1657338610579527e-05 0.00024983437718522814 0.0002266129904835159
leaf_weight=161 303 415 4193 384 326
leaf_count=161 303 415 4193 384 326
internal_value=0 0.000133742 -4.38643e-05 0.000193098 0.000239172
internal_weight=0 1428 4354 1013 710
internal_count=5782 1428 4354 1013 710
is_linear=0
shrinkage=0.05


Tree=88
num_leaves=6
num_cat=0
split_feature=0 0 0 0 0
split_gain=0.0122452 0.00443314 0.00248605 0.00181904 3.43215e-05
threshold=14.000000000000002 40.500000000000007 9.0000000000000018 22.000000000000004 31.000000000000004
decision_type=2 2 2 2 2
left_child=2 3 -1 -2 -5
right_child=1 -3 -4 4 -6
leaf_value=0.00015113888690190287 8.0879053666499192e-05 -1.0583634230207249e-05 -4.9074679108249058e-05 0.00023734199926366274 0.00021528187564979849
leaf_weight=161 303 415 4193 384 326
leaf_count=161 303 415 4193 384 326
internal_value=0 0.000127056 -4.16713e-05 0.000183443 0.000227213
internal_weight=0 1428 4354 1013 710
internal_count=5782 1428 4354 1013 710
is_linear=0
shrinkage=0.05


Tree=89
num_leaves=6
num_cat=0
split_feature=0 0 0 0 0
split_gain=0.0110513 0.004001 0.00224366 0.00164168 3.09778e-05
threshold=14.000000000000002 40.500000000000007 9.0000000000000018 22.000000000000004 31.000000000000004
decision_type=2 2 2 2 2
left_child=2 3 -1 -2 -5
right_child=1 -3 -4 4 -6
leaf_value=0.00014358223849757117 7.6835610974493998e-05 -1.0056163644395679e-05 -4.6620892541606986e-05 0.00022547570739182753 0.00020451768025744454
leaf_weight=161 303 415 4193 384 326
leaf_count=161 303 415 4193 384 326
internal_value=0 0.000120703 -3.95877e-05 0.000174271 0.000215853
internal_weight=0 1428 4354 1013 710
internal_count=5782 1428 4354 1013 710
is_linear=0
shrinkage=0.05


Tree=90
num_leaves=6
num_cat=0
split_feature=0 0 0 0 0
split_gain=0.00997382 0.00361084 0.00202492 0.00148163 2.79542e-05
threshold=14.000000000000002 40.500000000000007 9.0000000000000018 22.000000000000004 31.000000000000004
decision_type=2 2 2 2 2
left_child=2 3 -1 -2 -5
right_child=1 -3 -4 4 -6
leaf_value=0.00013640375391389274 7.2993333190187758e-05 -9.551952222743666e-06 -4.4289786498433908e-05 0.0002142015295703459 0.00019429257286689673
leaf_weight=161 303 415 4193 384 326
leaf_count=161 303 415 4193 384 326
internal_value=0 0.000114668 -3.76082e-05 0.000165557 0.00020506
internal_weight=0 1428 4354 1013 710
internal_count=5782 1428 4354 1013 710
is_linear=0
shrinkage=0.05


Tree=91
num_leaves=6
num_cat=0
split_feature=0 0 0 0 0
split_gain=0.0090013 0.00325878 0.00182748 0.00133716 2.52282e-05
threshold=14.000000000000002 40.500000000000007 9.0000000000000018 22.000000000000004 31.000000000000004
decision_type=2 2 2 2 2
left_child=2 3 -1 -2 -5
right_child=1 -3 -4 4 -6
leaf_value=0.00012958346524779101 6.9343614647097328e-05 -9.0746930519859481e-06 -4.2075050688014881e-05 0.00020349077531136575 0.0001845774635032642
leaf_weight=161 303 415 4193 384 326
leaf_count=161 303 415 4193 384 326
internal_value=0 0.000108934 -3.57275e-05 0.000157279 0.000194807
internal_weight=0 1428 4354 1013 710
internal_count=5782 1428 4354 1013 710
is_linear=0
shrinkage=0.05


Tree=92
num_leaves=6
num_cat=0
split_feature=0 0 0 0 0
split_gain=0.00812366 0.00294106 0.00164929 0.00120679 2.27678e-05
threshold=14.000000000000002 40.500000000000007 9.0000000000000018 22.000000000000004 31.000000000000004
decision_type=2 2 2 2 2
left_child=2 3 -1 -2 -5
right_child=1 -3 -4 4 -6
leaf_value=0.00012310424021312168 6.5876537528220967e-05 -8.6209526936332862e-06 -3.9970936175816046e-05 0.00019331655715670122 0.00017534916709102921
leaf_weight=161 303 415 4193 384 326
leaf_count=161 303 415 4193 384 326
internal_value=0 0.000103488 -3.39408e-05 0.000149416 0.000185067
internal_weight=0 1428 4354 1013 710
internal_count=5782 1428 4354 1013 710
is_linear=0
shrinkage=0.05


Tree=93
num_leaves=6
num_cat=0
split_feature=0 0 0 0 0
split_gain=0.00733164 0.00265433 0.00148849 0.00108915 2.05497e-05
threshold=14.000000000000002 40.500000000000007 9.0000000000000018 22.000000000000004 31.000000000000004
decision_type=2 2 2 2 2
left_child=2 3 -1 -2 -5
right_child=1 -3 -4 4 -6
leaf_value=0.00011694890429607089 6.2582276687763716e-05 -8.1903632191649411e-06 -3.7972754256316945e-05 0.00018365158103629637 0.00016658180171875227
leaf_weight=161 303 415 4193 384 326
leaf_count=161 303 415 4193 384 326
internal_value=0 9.83132e-05 -3.22441e-05 0.000141945 0.000175814
internal_weight=0 1428 4354 1013 710
internal_count=5782 1428 4354 1013 710
is_linear=0
shrinkage=0.05


Tree=94
num_leaves=6
num_cat=0
split_feature=0 0 0 0 0
split_gain=0.00661685 0.00239553 0.00134338 0.000982952 1.85475e-05
threshold=14.000000000000002 40.500000000000007 9.0000000000000018 22.000000000000004 31.000000000000004
decision_type=2 2 2 2 2
left_child=2 3 -1 -2 -5
right_child=1 -3 -4 4 -6
leaf_value=0.00011110146072988185 5.9453058502215762e-05 -7.7808390270514661e-06 -3.607470818779494e-05 0.00017446895204026685 0.00015825205511110692
leaf_weight=161 303 415 4193 384 326
leaf_count=161 303 415 4193 384 326
internal_value=0 9.33974e-05 -3.06325e-05 0.000134848 0.000167023
internal_weight=0 1428 4354 1013 710
internal_count=5782 1428 4354 1013 710
is_linear=0
shrinkage=0.05


Tree=95
num_leaves=6
num_cat=0
split_feature=0 0 0 0 0
split_gain=0.00597169 0.00216197 0.00121239 0.000887104 1.67365e-05
threshold=14.000000000000002 40.500000000000007 9.0000000000000018 22.000000000000004 31.000000000000004
decision_type=2 2 2 2 2
left_child=2 3 -1 -2 -5
right_child=1 -3 -4 4 -6
leaf_value=0.00010554631246450526 5.6480929845630534e-05 -7.3920264391295888e-06 -3.4270783673750671e-05 0.00016574487030993624 0.00015034002988982055
leaf_weight=161 303 415 4193 384 326
leaf_count=161 303 415 4193 384 326
internal_value=0 8.87275e-05 -2.91007e-05 0.000128105 0.000158672
internal_weight=0 1428 4354 1013 710
internal_count=5782 1428 4354 1013 710
is_linear=0
shrinkage=0.05


Tree=96
num_leaves=6
num_cat=0
split_feature=0 0 0 0 0
split_gain=0.00538939 0.00195119 0.00109418 0.000800612 1.51049e-05
threshold=14.000000000000002 40.500000000000007 9.0000000000000018 22.000000000000004 31.000000000000004
decision_type=2 2 2 2 2
left_child=2 3 -1 -2 -5
right_child=1 -3 -4 4 -6
leaf_value=0.00010026960766741209 5.3657084801802941e-05 -7.0224185081490555e-06 -3.2556509338550298e-05 0.00015745789297246424 0.00014282320976040207
leaf_weight=161 303 415 4193 384 326
leaf_count=161 303 415 4193 384 326
internal_value=0 8.42913e-05 -2.76449e-05 0.0001217 0.000150738
internal_weight=0 1428 4354 1013 710
internal_count=5782 1428 4354 1013 710
is_linear=0
shrinkage=0.05


Tree=97
num_leaves=6
num_cat=0
split_feature=0 0 0 0 0
split_gain=0.00486397 0.00176094 0.000987487 0.000722543 1.36301e-05
threshold=14.000000000000002 40.500000000000007 9.0000000000000018 22.000000000000004 31.000000000000004
decision_type=2 2 2 2 2
left_child=2 3 -1 -2 -5
right_child=1 -3 -4 4 -6
leaf_value=9.5255061498154763e-05 5.0974599156442657e-05 -6.6711226231362452e-06 -3.0929032176659274e-05 0.00014958432950606948 0.00013568242540457315
leaf_weight=161 303 415 4193 384 326
leaf_count=161 303 415 4193 384 326
internal_value=0 8.00768e-05 -2.62631e-05 0.000115615 0.000143201
internal_weight=0 1428 4354 1013 710
internal_count=5782 1428 4354 1013 710
is_linear=0
shrinkage=0.05


Tree=98
num_leaves=6
num_cat=0
split_feature=0 0 0 0 0
split_gain=0.00438971 0.00158924 0.000891215 0.000652108 1.23034e-05
threshold=14.000000000000002 40.500000000000007 9.0000000000000018 22.000000000000004 31.000000000000004
decision_type=2 2 2 2 2
left_child=2 3 -1 -2 -5
right_child=1 -3 -4 4 -6
leaf_value=9.0492580965253892e-05 4.8424731540453711e-05 -6.3378984355423826e-06 -2.9382837555690406e-05 0.00014210539583624874 0.00012889737363310497
leaf_weight=161 303 415 4193 384 326
leaf_count=161 303 415 4193 384 326
internal_value=0 7.60725e-05 -2.49501e-05 0.000109834 0.000136041
internal_weight=0 1428 4354 1013 710
internal_count=5782 1428 4354 1013 710
is_linear=0
shrinkage=0.05


Tree=99
num_leaves=6
num_cat=0
split_feature=0 0 0 0 0
split_gain=0.0039617 0.00143429 0.000804322 0.00058852 1.11041e-05
threshold=14.000000000000002 40.500000000000007 9.0000000000000018 22.000000000000004 31.000000000000004
decision_type=2 2 2 2 2
left_child=2 3 -1 -2 -5
right_child=1 -3 -4 4 -6
leaf_value=8.5968274322355753e-05 4.6004005938325781e-05 -6.0207253120031706e-06 -2.7913418070397849e-05 0.00013500020624330016 0.00012245241301191365
leaf_weight=161 303 415 4193 384 326
leaf_count=161 303 415 4193 384 326
internal_value=0 7.2269e-05 -2.37024e-05 0.000104342 0.000129239
internal_weight=0 1428 4354 1013 710
internal_count=5782 1428 4354 1013 710
is_linear=0
shrinkage=0.05


Tree=100
num_leaves=6
num_cat=0
split_feature=0 0 0 0 0
split_gain=0.00357543 0.00129443 0.000725891 0.000531143 1.00215e-05
threshold=14.000000000000002 40.500000000000007 9.0000000000000018 22.000000000000004 31.000000000000004
decision_type=2 2 2 2 2
left_child=2 3 -1 -2 -5
right_child=1 -3 -4 4 -6
leaf_value=8.1669551939327528e-05 4.3703718940810407e-05 -5.7188025395195168e-06 -2.6517279220457553e-05 0.00012825034521786924 0.00011632995989939279
leaf_weight=161 303 415 4193 384 326
leaf_count=161 303 415 4193 384 326
internal_value=0 6.86559e-05 -2.25168e-05 9.91253e-05 0.000122777
internal_weight=0 1428 4354 1013 710
internal_count=5782 1428 4354 1013 710
is_linear=0
shrinkage=0.05


Tree=101
num_leaves=6
num_cat=0
split_feature=0 0 0 0 0
split_gain=0.0032269 0.00116822 0.000655132 0.000479366 9.04422e-06
threshold=14.000000000000002 40.500000000000007 9.0000000000000018 22.000000000000004 31.000000000000004
decision_type=2 2 2 2 2
left_child=2 3 -1 -2 -5
right_child=1 -3 -4 4 -6
leaf_value=7.7586334129297959e-05 4.1518059156515425e-05 -5.4327300918030453e-06 -2.5192405760306897e-05 0.00012183805501990719 0.00011051378050030557
leaf_weight=161 303 415 4193 384 326
leaf_count=161 303 415 4193 384 326
internal_value=0 6.52232e-05 -2.13919e-05 9.41691e-05 0.000116638
internal_weight=0 1428 4354 1013 710
internal_count=5782 1428 4354 1013 710
is_linear=0
shrinkage=0.05


Tree=102
num_leaves=6
num_cat=0
split_feature=0 0 0 0 0
split_gain=0.0029122 0.00105435 0.000591241 0.000432629 8.16281e-06
threshold=14.000000000000002 40.500000000000007 9.0000000000000018 22.000000000000004 31.000000000000004
decision_type=2 2 2 2 2
left_child=2 3 -1 -2 -5
right_child=1 -3 -4 4 -6
leaf_value=7.370664038180565e-05 3.9442233962587794e-05 -5.162363782165999e-06 -2.3931902343522329e-05 0.00011574645597344596 0.00010498812867819899
leaf_weight=161 303 415 4193 384 326
leaf_count=161 303 415 4193 384 326
internal_value=0 6.19618e-05 -2.03215e-05 8.94608e-05 0.000110807
internal_weight=0 1428 4354 1013 710
internal_count=5782 1428 4354 1013 710
is_linear=0
shrinkage=0.05


Tree=103
num_leaves=6
num_cat=0
split_feature=0 0 0 0 0
split_gain=0.0026283 0.000951516 0.000533604 0.000390438 7.3665e-06
threshold=14.000000000000002 40.500000000000007 9.0000000000000018 22.000000000000004 31.000000000000004
decision_type=2 2 2 2 2
left_child=2 3 -1 -2 -5
right_child=1 -3 -4 4 -6
leaf_value=7.0021680978514395e-05 3.7470541082986513e-05 -4.9028707196913571e-06 -2.2735709368679724e-05 0.0001099585542154576 9.9738447304152268e-05
leaf_weight=161 303 415 4193 384 326
leaf_count=161 303 415 4193 384 326
internal_value=0 5.88639e-05 -1.93058e-05 8.49876e-05 0.000105266
internal_weight=0 1428 4354 1013 710
internal_count=5782 1428 4354 1013 710
is_linear=0
shrinkage=0.05


Tree=104
num_leaves=6
num_cat=0
split_feature=0 0 0 0 0
split_gain=0.00237205 0.00085875 0.000481571 0.000352373 6.6484e-06
threshold=14.000000000000002 40.500000000000007 9.0000000000000018 22.000000000000004 31.000000000000004
decision_type=2 2 2 2 2
left_child=2 3 -1 -2 -5
right_child=1 -3 -4 4 -6
leaf_value=6.6519939913327648e-05 3.5597036036327729e-05 -4.6578105763498559e-06 -2.1598916374757308e-05 0.00010446098308420916 9.4751783280970495e-05
leaf_weight=161 303 415 4193 384 326
leaf_count=161 303 415 4193 384 326
internal_value=0 5.59209e-05 -1.83405e-05 8.07384e-05 0.000100003
internal_weight=0 1428 4354 1013 710
internal_count=5782 1428 4354 1013 710
is_linear=0
shrinkage=0.05


Tree=105
num_leaves=6
num_cat=0
split_feature=0 0 0 0 0
split_gain=0.00214078 0.000775029 0.000434622 0.000318019 5.99917e-06
threshold=14.000000000000002 40.500000000000007 9.0000000000000018 22.000000000000004 31.000000000000004
decision_type=2 2 2 2 2
left_child=2 3 -1 -2 -5
right_child=1 -3 -4 4 -6
leaf_value=6.3193986273330194e-05 3.3816866109473477e-05 -4.4255267200340708e-06 -2.0519402856529187e-05 9.9237420272402233e-05 9.0014458736804737e-05
leaf_weight=161 303 415 4193 384 326
leaf_count=161 303 415 4193 384 326
internal_value=0 5.31245e-05 -1.74239e-05 7.67013e-05 9.50027e-05
internal_weight=0 1428 4354 1013 710
internal_count=5782 1428 4354 1013 710
is_linear=0
shrinkage=0.05


Tree=106
num_leaves=6
num_cat=0
split_feature=0 0 0 0 0
split_gain=0.00193204 0.00069947 0.000392247 0.000287006 5.41509e-06
threshold=14.000000000000002 40.500000000000007 9.0000000000000018 22.000000000000004 31.000000000000004
decision_type=2 2 2 2 2
left_child=2 3 -1 -2 -5
right_child=1 -3 -4 4 -6
leaf_value=6.0034607485029275e-05 3.2126471836722332e-05 -4.2045613503958805e-06 -1.9493168666372432e-05 9.4275738850531837e-05 8.5513249890981652e-05
leaf_weight=161 303 415 4193 384 326
leaf_count=161 303 415 4193 384 326
internal_value=0 5.04682e-05 -1.65524e-05 7.28663e-05 9.02524e-05
internal_weight=0 1428 4354 1013 710
internal_count=5782 1428 4354 1013 710
is_linear=0
shrinkage=0.05


Tree=107
num_leaves=6
num_cat=0
split_feature=0 0 0 0 0
split_gain=0.00174363 0.00063127 0.00035401 0.000259028 4.88751e-06
threshold=14.000000000000002 40.500000000000007 9.0000000000000018 22.000000000000004 31.000000000000004
decision_type=2 2 2 2 2
left_child=2 3 -1 -2 -5
right_child=1 -3 -4 4 -6
leaf_value=5.7033884992695752e-05 3.0519497325711521e-05 -3.9945049099175327e-06 -1.8518232211720258e-05 8.9561967600578415e-05 8.1237264268923037e-05
leaf_weight=161 303 415 4193 384 326
leaf_count=161 303 415 4193 384 326
internal_value=0 4.79446e-05 -1.57245e-05 6.92227e-05 8.57396e-05
internal_weight=0 1428 4354 1013 710
internal_count=5782 1428 4354 1013 710
is_linear=0
shrinkage=0.05


Tree=108
num_leaves=6
num_cat=0
split_feature=0 0 0 0 0
split_gain=0.00157369 0.000569717 0.000319492 0.000233777 4.41083e-06
threshold=14.000000000000002 40.500000000000007 9.0000000000000018 22.000000000000004 31.000000000000004
decision_type=2 2 2 2 2
left_child=2 3 -1 -2 -5
right_child=1 -3 -4 4 -6
leaf_value=5.4181376992730621e-05 2.8993560634430487e-05 -3.7941678864769191e-06 -1.7592956850848491e-05 8.5084276452107599e-05 7.7175941358268997e-05
leaf_weight=161 303 415 4193 384 326
leaf_count=161 303 415 4193 384 326
internal_value=0 4.55478e-05 -1.49389e-05 6.57619e-05 8.14531e-05
internal_weight=0 1428 4354 1013 710
internal_count=5782 1428 4354 1013 710
is_linear=0
shrinkage=0.05


Tree=109
num_leaves=6
num_cat=0
split_feature=0 0 0 0 0
split_gain=0.00142019 0.000514161 0.000288335 0.000210974 3.98199e-06
threshold=14.000000000000002 40.500000000000007 9.0000000000000018 22.000000000000004 31.000000000000004
decision_type=2 2 2 2 2
left_child=2 3 -1 -2 -5
right_child=1 -3 -4 4 -6
leaf_value=5.1472659992135086e-05 2.7544466969203634e-05 -3.6041392574468293e-06 -1.6712179357390751e-05 8.0830034767132028e-05 7.3315975244836939e-05
leaf_weight=161 303 415 4193 384 326
leaf_count=161 303 415 4193 384 326
internal_value=0 4.32703e-05 -1.41909e-05 6.24736e-05 7.73799e-05
internal_weight=0 1428 4354 1013 710
internal_count=5782 1428 4354 1013 710
is_linear=0
shrinkage=0.05


Tree=110
num_leaves=6
num_cat=0
split_feature=0 0 0 0 0
split_gain=0.00128175 0.000464035 0.000260226 0.000190401 3.59287e-06
threshold=14.000000000000002 40.500000000000007 9.0000000000000018 22.000000000000004 31.000000000000004
decision_type=2 2 2 2 2
left_child=2 3 -1 -2 -5
right_child=1 -3 -4 4 -6
leaf_value=4.8898839571090958e-05 2.6167468121736357e-05 -3.4242223230112032e-06 -1.5877161706197404e-05 7.6788034615068079e-05 6.9650544562131363e-05
leaf_weight=161 303 415 4193 384 326
leaf_count=161 303 415 4193 384 326
internal_value=0 4.11067e-05 -1.34819e-05 5.93499e-05 7.35108e-05
internal_weight=0 1428 4354 1013 710
internal_count=5782 1428 4354 1013 710
is_linear=0
shrinkage=0.05


Tree=111
num_leaves=6
num_cat=0
split_feature=0 0 0 0 0
split_gain=0.0011568 0.00041878 0.000234856 0.000171844 3.24252e-06
threshold=14.000000000000002 40.500000000000007 9.0000000000000018 22.000000000000004 31.000000000000004
decision_type=2 2 2 2 2
left_child=2 3 -1 -2 -5
right_child=1 -3 -4 4 -6
leaf_value=4.6453963942039088e-05 2.4858471036891734e-05 -3.2522343099117279e-06 -1.5083511308126104e-05 7.2948897953513866e-05 6.6168327884394339e-05
leaf_weight=161 303 415 4193 384 326
leaf_count=161 303 415 4193 384 326
internal_value=0 3.90516e-05 -1.2808e-05 5.63824e-05 6.98356e-05
internal_weight=0 1428 4354 1013 710
internal_count=5782 1428 4354 1013 710
is_linear=0
shrinkage=0.05


Tree=112
num_leaves=6
num_cat=0
split_feature=0 0 0 0 0
split_gain=0.00104399 0.000377962 0.000211952 0.000155084 2.9264e-06
threshold=14.000000000000002 40.500000000000007 9.0000000000000018 22.000000000000004 31.000000000000004
decision_type=2 2 2 2 2
left_child=2 3 -1 -2 -5
right_child=1 -3 -4 4 -6
leaf_value=4.413081506579559e-05 2.3616180315662926e-05 -3.0904346291559288e-06 -1.4328965621818486e-05 6.9301381730232011e-05 6.2859810723071822e-05
leaf_weight=161 303 415 4193 384 326
leaf_count=161 303 415 4193 384 326
internal_value=0 3.70989e-05 -1.21673e-05 5.35634e-05 6.63437e-05
internal_weight=0 1428 4354 1013 710
internal_count=5782 1428 4354 1013 710
is_linear=0
shrinkage=0.05


Tree=113
num_leaves=6
num_cat=0
split_feature=0 0 0 0 0
split_gain=0.000942205 0.000341116 0.000191285 0.000139964 2.64124e-06
threshold=14.000000000000002 40.500000000000007 9.0000000000000018 22.000000000000004 31.000000000000004
decision_type=2 2 2 2 2
left_child=2 3 -1 -2 -5
right_child=1 -3 -4 4 -6
leaf_value=4.1924358015845282e-05 2.2435846059235805e-05 -2.9358617871640678e-06 -1.3612282273954639e-05 6.583690598442142e-05 5.9717225819323328e-05
leaf_weight=161 303 415 4193 384 326
leaf_count=161 303 415 4193 384 326
internal_value=0 3.52443e-05 -1.15587e-05 5.08857e-05 6.3027e-05
internal_weight=0 1428 4354 1013 710
internal_count=5782 1428 4354 1013 710
is_linear=0
shrinkage=0.05


Tree=114
num_leaves=6
num_cat=0
split_feature=0 0 0 0 0
split_gain=0.000850348 0.000307868 0.000172642 0.000126318 2.38323e-06
threshold=14.000000000000002 40.500000000000007 9.0000000000000018 22.000000000000004 31.000000000000004
decision_type=2 2 2 2 2
left_child=2 3 -1 -2 -5
right_child=1 -3 -4 4 -6
leaf_value=3.9828518949310233e-05 2.1313807063370257e-05 -2.7901259621223773e-06 -1.2932347317332625e-05 6.254464818387836e-05 5.6731548200310012e-05
leaf_weight=161 303 415 4193 384 326
leaf_count=161 303 415 4193 384 326
internal_value=0 3.34817e-05 -1.09814e-05 4.83413e-05 5.98755e-05
internal_weight=0 1428 4354 1013 710
internal_count=5782 1428 4354 1013 710
is_linear=0
shrinkage=0.05


Tree=115
num_leaves=6
num_cat=0
split_feature=0 0 0 0 0
split_gain=0.00076743 0.000277837 0.000155802 0.000113999 2.15108e-06
threshold=14.000000000000002 40.500000000000007 9.0000000000000018 22.000000000000004 31.000000000000004
decision_type=2 2 2 2 2
left_child=2 3 -1 -2 -5
right_child=1 -3 -4 4 -6
leaf_value=3.7836565155975568e-05 2.0248375267478892e-05 -2.6494500238493266e-06 -1.2285162353474579e-05 5.9417308906025336e-05 5.3894587941010672e-05
leaf_weight=161 303 415 4193 384 326
leaf_count=161 303 415 4193 384 326
internal_value=0 3.18079e-05 -1.04318e-05 4.59241e-05 5.68815e-05
internal_weight=0 1428 4354 1013 710
internal_count=5782 1428 4354 1013 710
is_linear=0
shrinkage=0.05


Tree=116
num_leaves=6
num_cat=0
split_feature=0 0 0 0 0
split_gain=0.000692598 0.000250749 0.000140619 0.000102886 1.94063e-06
threshold=14.000000000000002 40.500000000000007 9.0000000000000018 22.000000000000004 31.000000000000004
decision_type=2 2 2 2 2
left_child=2 3 -1 -2 -5
right_child=1 -3 -4 4 -6
leaf_value=3.5945775554231976e-05 1.9235467759541947e-05 -2.5174040796167881e-06 -1.1671017815425349e-05 5.6445852897013539e-05 5.1200237165153758e-05
leaf_weight=161 303 415 4193 384 326
leaf_count=161 303 415 4193 384 326
internal_value=0 3.02172e-05 -9.91027e-06 4.36277e-05 5.40373e-05
internal_weight=0 1428 4354 1013 710
internal_count=5782 1428 4354 1013 710
is_linear=0
shrinkage=0.05


Tree=117
num_leaves=6
num_cat=0
split_feature=0 0 0 0 0
split_gain=0.00062505 0.000226307 0.000126897 9.28521e-05 1.75224e-06
threshold=14.000000000000002 40.500000000000007 9.0000000000000018 22.000000000000004 31.000000000000004
decision_type=2 2 2 2 2
left_child=2 3 -1 -2 -5
right_child=1 -3 -4 4 -6
leaf_value=3.4146963601341895e-05 1.8273969104040183e-05 -2.3921291871243212e-06 -1.1086999005581425e-05 5.3623937643957714e-05 4.8639431475815966e-05
leaf_weight=161 303 415 4193 384 326
leaf_count=161 303 415 4193 384 326
internal_value=0 2.87061e-05 -9.41436e-06 4.14463e-05 5.13353e-05
internal_weight=0 1428 4354 1013 710
internal_count=5782 1428 4354 1013 710
is_linear=0
shrinkage=0.05


Tree=118
num_leaves=6
num_cat=0
split_feature=0 0 0 0 0
split_gain=0.000564112 0.00020424 0.000114533 8.38017e-05 1.58143e-06
threshold=14.000000000000002 40.500000000000007 9.0000000000000018 22.000000000000004 31.000000000000004
decision_type=2 2 2 2 2
left_child=2 3 -1 -2 -5
right_child=1 -3 -4 4 -6
leaf_value=3.2441044422965615e-05 1.7359879685461323e-05 -2.2723284516348895e-06 -1.0532798985076632e-05 5.0942877896886786e-05 4.6207557398071689e-05
leaf_weight=161 303 415 4193 384 326
leaf_count=161 303 415 4193 384 326
internal_value=0 2.72708e-05 -8.94373e-06 3.93739e-05 4.87686e-05
internal_weight=0 1428 4354 1013 710
internal_count=5782 1428 4354 1013 710
is_linear=0
shrinkage=0.05


Tree=119
num_leaves=6
num_cat=0
split_feature=0 0 0 0 0
split_gain=0.00050913 0.000184333 0.000103365 7.56344e-05 1.42722e-06
threshold=14.000000000000002 40.500000000000007 9.0000000000000018 22.000000000000004 31.000000000000004
decision_type=2 2 2 2 2
left_child=2 3 -1 -2 -5
right_child=1 -3 -4 4 -6
leaf_value=3.0818617445711769e-05 1.6492081301981465e-05 -2.1586811775902672e-06 -1.0006326270611118e-05 4.8396583467062258e-05 4.3898050250496966e-05
leaf_weight=161 303 415 4193 384 326
leaf_count=161 303 415 4193 384 326
internal_value=0 2.59078e-05 -8.49672e-06 3.74059e-05 4.63311e-05
internal_weight=0 1428 4354 1013 710
internal_count=5782 1428 4354 1013 710
is_linear=0
shrinkage=0.05


Tree=120
num_leaves=6
num_cat=0
split_feature=0 0 0 0 0
split_gain=0.000459488 0.000166362 9.32851e-05 6.82618e-05 1.28783e-06
threshold=14.000000000000002 40.500000000000007 9.0000000000000018 22.000000000000004 31.000000000000004
decision_type=2 2 2 2 2
left_child=2 3 -1 -2 -5
right_child=1 -3 -4 4 -6
leaf_value=2.927727395703334e-05 1.5667156030488488e-05 -2.0510308354733937e-06 -9.5060389741478702e-06 4.5976614455867096e-05 4.170341402909324e-05
leaf_weight=161 303 415 4193 384 326
leaf_count=161 303 415 4193 384 326
internal_value=0 2.46123e-05 -8.07193e-06 3.55355e-05 4.40146e-05
internal_weight=0 1428 4354 1013 710
internal_count=5782 1428 4354 1013 710
is_linear=0
shrinkage=0.05


Tree=121
num_leaves=6
num_cat=0
split_feature=0 0 0 0 0
split_gain=0.000414692 0.000150128 8.41934e-05 6.16023e-05 1.16244e-06
threshold=14.000000000000002 40.500000000000007 9.0000000000000018 22.000000000000004 31.000000000000004
decision_type=2 2 2 2 2
left_child=2 3 -1 -2 -5
right_child=1 -3 -4 4 -6
leaf_value=2.7814196272296194e-05 1.4884118298099379e-05 -1.9471222781632322e-06 -9.0307373737424605e-06 4.3677366617581964e-05 3.9617522573955588e-05
leaf_weight=161 303 415 4193 384 326
leaf_count=161 303 415 4193 384 326
internal_value=0 2.33818e-05 -7.6683e-06 3.37584e-05 4.18133e-05
internal_weight=0 1428 4354 1013 710
internal_count=5782 1428 4354 1013 710
is_linear=0
shrinkage=0.05


Tree=122
num_leaves=6
num_cat=0
split_feature=0 0 0 0 0
split_gain=0.000374264 0.000135489 7.59809e-05 5.55949e-05 1.04908e-06
threshold=14.000000000000002 40.500000000000007 9.0000000000000018 22.000000000000004 31.000000000000004
decision_type=2 2 2 2 2
left_child=2 3 -1 -2 -5
right_child=1 -3 -4 4 -6
leaf_value=2.64221432138674e-05 1.4139703404244417e-05 -1.8499460609921488e-06 -8.5797013435934801e-06 4.1492996721596387e-05 3.7636187790315948e-05
leaf_weight=161 303 415 4193 384 326
leaf_count=161 303 415 4193 384 326
internal_value=0 2.22124e-05 -7.28542e-06 3.20701e-05 3.97221e-05
internal_weight=0 1428 4354 1013 710
internal_count=5782 1428 4354 1013 710
is_linear=0
shrinkage=0.05


Tree=123
num_leaves=6
num_cat=0
split_feature=0 0 0 0 0
split_gain=0.000337776 0.000122275 6.85763e-05 5.0178e-05 9.46469e-07
threshold=14.000000000000002 40.500000000000007 9.0000000000000018 22.000000000000004 31.000000000000004
decision_type=2 2 2 2 2
left_child=2 3 -1 -2 -5
right_child=1 -3 -4 4 -6
leaf_value=2.5102038005864397e-05 1.3432239886164274e-05 -1.7568381525665881e-06 -8.150591607626032e-06 3.9418452130727627e-05 3.5755106882175059e-05
leaf_weight=161 303 415 4193 384 326
leaf_count=161 303 415 4193 384 326
internal_value=0 2.11021e-05 -6.92099e-06 3.04668e-05 3.77364e-05
internal_weight=0 1428 4354 1013 710
internal_count=5782 1428 4354 1013 710
is_linear=0
shrinkage=0.05


Tree=124
num_leaves=6
num_cat=0
split_feature=0 0 0 0 0
split_gain=0.000304831 0.000110361 6.18875e-05 4.52841e-05 8.54294e-07
threshold=14.000000000000002 40.500000000000007 9.0000000000000018 22.000000000000004 31.000000000000004
decision_type=2 2 2 2 2
left_child=2 3 -1 -2 -5
right_child=1 -3 -4 4 -6
leaf_value=2.3846513366106876e-05 1.2760945033318927e-05 -1.6700936458915113e-06 -7.7428190093580794e-06 3.7447548038471723e-05 3.3967153089223835e-05
leaf_weight=161 303 415 4193 384 326
leaf_count=161 303 415 4193 384 326
internal_value=0 2.00467e-05 -6.57472e-06 2.89435e-05 3.58495e-05
internal_weight=0 1428 4354 1013 710
internal_count=5782 1428 4354 1013 710
is_linear=0
shrinkage=0.05


Tree=125
num_leaves=6
num_cat=0
split_feature=0 0 0 0 0
split_gain=0.000275115 9.96036e-05 5.5854e-05 4.08698e-05 7.70815e-07
threshold=14.000000000000002 40.500000000000007 9.0000000000000018 22.000000000000004 31.000000000000004
decision_type=2 2 2 2 2
left_child=2 3 -1 -2 -5
right_child=1 -3 -4 4 -6
leaf_value=2.2654360889092736e-05 1.2123090500878817e-05 -1.5865880098328534e-06 -7.3556422860970893e-06 3.5575436019522995e-05 3.2269458309318758e-05
leaf_weight=161 303 415 4193 384 326
leaf_count=161 303 415 4193 384 326
internal_value=0 1.90446e-05 -6.24595e-06 2.74967e-05 3.40575e-05
internal_weight=0 1428 4354 1013 710
internal_count=5782 1428 4354 1013 710
is_linear=0
shrinkage=0.05


Tree=126
num_leaves=6
num_cat=0
split_feature=0 0 0 0 0
split_gain=0.000248295 8.98844e-05 5.04098e-05 3.68838e-05 6.95594e-07
threshold=14.000000000000002 40.500000000000007 9.0000000000000018 22.000000000000004 31.000000000000004
decision_type=2 2 2 2 2
left_child=2 3 -1 -2 -5
right_child=1 -3 -4 4 -6
leaf_value=2.1521820576849931e-05 1.1516758471284764e-05 -1.5064751931342734e-06 -6.9881343992856559e-06 3.3796077756657422e-05 3.0655549136361827e-05
leaf_weight=161 303 415 4193 384 326
leaf_count=161 303 415 4193 384 326
internal_value=0 1.80923e-05 -5.93391e-06 2.61214e-05 3.23541e-05
internal_weight=0 1428 4354 1013 710
internal_count=5782 1428 4354 1013 710
is_linear=0
shrinkage=0.05


Tree=127
num_leaves=6
num_cat=0
split_feature=0 0 0 0 0
split_gain=0.000224077 8.11276e-05 4.5493e-05 3.32893e-05 6.27975e-07
threshold=14.000000000000002 40.500000000000007 9.0000000000000018 22.000000000000004 31.000000000000004
decision_type=2 2 2 2 2
left_child=2 3 -1 -2 -5
right_child=1 -3 -4 4 -6
leaf_value=2.0445392738958323e-05 1.0940602368893405e-05 -1.432237675391048e-06 -6.6384961422121452e-06 3.2106681798419839e-05 2.9122701451822293e-05
leaf_weight=161 303 415 4193 384 326
leaf_count=161 303 415 4193 384 326
internal_value=0 1.71874e-05 -5.637e-06 2.48154e-05 3.07366e-05
internal_weight=0 1428 4354 1013 710
internal_count=5782 1428 4354 1013 710
is_linear=0
shrinkage=0.05


Tree=128
num_leaves=6
num_cat=0
split_feature=0 0 0 0 0
split_gain=0.000202233 7.322e-05 4.10586e-05 3.00417e-05 5.66595e-07
threshold=14.000000000000002 40.500000000000007 9.0000000000000018 22.000000000000004 31.000000000000004
decision_type=2 2 2 2 2
left_child=2 3 -1 -2 -5
right_child=1 -3 -4 4 -6
leaf_value=1.9423483136277764e-05 1.0394296230803622e-05 -1.3607096330947187e-06 -6.3065985418036992e-06 3.0501309326306609e-05 2.7666910568629306e-05
leaf_weight=161 303 415 4193 384 326
leaf_count=161 303 415 4193 384 326
internal_value=0 1.63282e-05 -5.35516e-06 2.35749e-05 2.91999e-05
internal_weight=0 1428 4354 1013 710
internal_count=5782 1428 4354 1013 710
is_linear=0
shrinkage=0.05


Tree=129
num_leaves=6
num_cat=0
split_feature=0 0 0 0 0
split_gain=0.000182514 6.60739e-05 3.70535e-05 2.71151e-05 5.11115e-07
threshold=14.000000000000002 40.500000000000007 9.0000000000000018 22.000000000000004 31.000000000000004
decision_type=2 2 2 2 2
left_child=2 3 -1 -2 -5
right_child=1 -3 -4 4 -6
leaf_value=1.8452010724855508e-05 9.8738622645733786e-06 -1.2915575854390502e-06 -5.9909356785540567e-06 2.8976022167626071e-05 2.6283967108722846e-05
leaf_weight=161 303 415 4193 384 326
leaf_count=161 303 415 4193 384 326
internal_value=0 1.5512e-05 -5.0871e-06 2.2396e-05 2.774e-05
internal_weight=0 1428 4354 1013 710
internal_count=5782 1428 4354 1013 710
is_linear=0
shrinkage=0.05


Tree=130
num_leaves=6
num_cat=0
split_feature=0 0 0 0 0
split_gain=0.000164712 5.96394e-05 3.34397e-05 2.44679e-05 4.61436e-07
threshold=14.000000000000002 40.500000000000007 9.0000000000000018 22.000000000000004 31.000000000000004
decision_type=2 2 2 2 2
left_child=2 3 -1 -2 -5
right_child=1 -3 -4 4 -6
leaf_value=1.7529028404203263e-05 9.3810137348993386e-06 -1.2284268187471183e-06 -5.6913861701246763e-06 2.7527070718254738e-05 2.4969188319347754e-05
leaf_weight=161 303 415 4193 384 326
leaf_count=161 303 415 4193 384 326
internal_value=0 1.4736e-05 -4.83275e-06 2.12762e-05 2.63526e-05
internal_weight=0 1428 4354 1013 710
internal_count=5782 1428 4354 1013 710
is_linear=0
shrinkage=0.05


Tree=131
num_leaves=6
num_cat=0
split_feature=0 0 0 0 0
split_gain=0.00014866 5.3817e-05 3.01799e-05 2.20835e-05 4.16362e-07
threshold=14.000000000000002 40.500000000000007 9.0000000000000018 22.000000000000004 31.000000000000004
decision_type=2 2 2 2 2
left_child=2 3 -1 -2 -5
right_child=1 -3 -4 4 -6
leaf_value=1.665280599679266e-05 8.9117341210739843e-06 -1.1654289057814932e-06 -5.4067995343930384e-06 2.6150807934754996e-05 2.3721064800865082e-05
leaf_weight=161 303 415 4193 384 326
leaf_count=161 303 415 4193 384 326
internal_value=0 1.39997e-05 -4.59109e-06 2.02125e-05 2.50352e-05
internal_weight=0 1428 4354 1013 710
internal_count=5782 1428 4354 1013 710
is_linear=0
shrinkage=0.05


Tree=132
num_leaves=6
num_cat=0
split_feature=0 0 0 0 0
split_gain=0.000134164 4.85667e-05 2.72374e-05 1.99316e-05 3.75875e-07
threshold=14.000000000000002 40.500000000000007 9.0000000000000018 22.000000000000004 31.000000000000004
decision_type=2 2 2 2 2
left_child=2 3 -1 -2 -5
right_child=1 -3 -4 4 -6
leaf_value=1.5820135935122924e-05 8.465504740970363e-06 -1.1068105652748821e-06 -5.1364917445802595e-06 2.4843247895963335e-05 2.2534660400788479e-05
leaf_weight=161 303 415 4193 384 326
leaf_count=161 303 415 4193 384 326
internal_value=0 1.32996e-05 -4.36157e-06 1.92015e-05 2.37832e-05
internal_weight=0 1428 4354 1013 710
internal_count=5782 1428 4354 1013 710
is_linear=0
shrinkage=0.05


Tree=133
num_leaves=6
num_cat=0
split_feature=0 0 0 0 0
split_gain=0.000121091 4.38371e-05 2.45833e-05 1.79893e-05 3.39284e-07
threshold=14.000000000000002 40.500000000000007 9.0000000000000018 22.000000000000004 31.000000000000004
decision_type=2 2 2 2 2
left_child=2 3 -1 -2 -5
right_child=1 -3 -4 4 -6
leaf_value=1.5029214577089927e-05 8.042289632627674e-06 -1.0523566953748106e-06 -4.8802284180234898e-06 2.3601670030378351e-05 2.1408328735069631e-05
leaf_weight=161 303 415 4193 384 326
leaf_count=161 303 415 4193 384 326
internal_value=0 1.26346e-05 -4.14403e-06 1.82418e-05 2.25946e-05
internal_weight=0 1428 4354 1013 710
internal_count=5782 1428 4354 1013 710
is_linear=0
shrinkage=0.05


Tree=134
num_leaves=6
num_cat=0
split_feature=0 0 0 0 0
split_gain=0.00010928 3.95603e-05 2.21862e-05 1.6233e-05 3.06396e-07
threshold=14.000000000000002 40.500000000000007 9.0000000000000018 22.000000000000004 31.000000000000004
decision_type=2 2 2 2 2
left_child=2 3 -1 -2 -5
right_child=1 -3 -4 4 -6
leaf_value=1.4278079782213484e-05 7.6407720350196267e-06 -9.9920735032443552e-07 -4.635785849937748e-06 2.2421481723237473e-05 2.0337153220423527e-05
leaf_weight=161 303 415 4193 384 326
leaf_count=161 303 415 4193 384 326
internal_value=0 1.2003e-05 -3.9364e-06 1.73296e-05 2.14645e-05
internal_weight=0 1428 4354 1013 710
internal_count=5782 1428 4354 1013 710
is_linear=0
shrinkage=0.05


Tree=135
num_leaves=6
num_cat=0
split_feature=0 0 0 0 0
split_gain=9.86214e-05 3.5707e-05 2.00228e-05 1.46495e-05 2.76664e-07
threshold=14.000000000000002 40.500000000000007 9.0000000000000018 22.000000000000004 31.000000000000004
decision_type=2 2 2 2 2
left_child=2 3 -1 -2 -5
right_child=1 -3 -4 4 -6
leaf_value=1.3564146985733732e-05 7.2590267537745712e-06 -9.5014134982982323e-07 -4.4039238467297237e-06 2.1300581617348751e-05 1.9319960704656103e-05
leaf_weight=161 303 415 4193 384 326
leaf_count=161 303 415 4193 384 326
internal_value=0 1.14026e-05 -3.73951e-06 1.64632e-05 2.03912e-05
internal_weight=0 1428 4354 1013 710
internal_count=5782 1428 4354 1013 710
is_linear=0
shrinkage=0.05


Tree=136
num_leaves=6
num_cat=0
split_feature=0 0 0 0 0
split_gain=8.90107e-05 3.22244e-05 1.80712e-05 1.32217e-05 2.49498e-07
threshold=14.000000000000002 40.500000000000007 9.0000000000000018 22.000000000000004 31.000000000000004
decision_type=2 2 2 2 2
left_child=2 3 -1 -2 -5
right_child=1 -3 -4 4 -6
leaf_value=1.2885751954702118e-05 6.8957359520810668e-06 -9.024881544601488e-07 -4.1842113746316372e-06 2.0235132281716991e-05 1.8354266184879227e-05
leaf_weight=161 303 415 4193 384 326
leaf_count=161 303 415 4193 384 326
internal_value=0 1.08324e-05 -3.55301e-06 1.56399e-05 1.93715e-05
internal_weight=0 1428 4354 1013 710
internal_count=5782 1428 4354 1013 710
is_linear=0
shrinkage=0.05


Tree=137
num_leaves=6
num_cat=0
split_feature=0 0 0 0 0
split_gain=8.03323e-05 2.90794e-05 1.63083e-05 1.19317e-05 2.25178e-07
threshold=14.000000000000002 40.500000000000007 9.0000000000000018 22.000000000000004 31.000000000000004
decision_type=2 2 2 2 2
left_child=2 3 -1 -2 -5
right_child=1 -3 -4 4 -6
leaf_value=1.2241270948455943e-05 6.5512796894650251e-06 -8.5649731378239329e-07 -3.97471984850157e-06 1.9223282106395348e-05 1.7436432932143562e-05
leaf_weight=161 303 415 4193 384 326
leaf_count=161 303 415 4193 384 326
internal_value=0 1.0291e-05 -3.37509e-06 1.48579e-05 1.84028e-05
internal_weight=0 1428 4354 1013 710
internal_count=5782 1428 4354 1013 710
is_linear=0
shrinkage=0.05


Tree=138
num_leaves=6
num_cat=0
split_feature=0 0 0 0 0
split_gain=7.25076e-05 2.62461e-05 1.47199e-05 1.07695e-05 2.03222e-07
threshold=14.000000000000002 40.500000000000007 9.0000000000000018 22.000000000000004 31.000000000000004
decision_type=2 2 2 2 2
left_child=2 3 -1 -2 -5
right_child=1 -3 -4 4 -6
leaf_value=1.1629397801545837e-05 6.2235412817977051e-06 -8.1402070102203332e-07 -3.7766515917901903e-06 1.8262513458466858e-05 1.6565012111345684e-05
leaf_weight=161 303 415 4193 384 326
leaf_count=161 303 415 4193 384 326
internal_value=0 9.77655e-06 -3.20697e-06 1.41152e-05 1.74831e-05
internal_weight=0 1428 4354 1013 710
internal_count=5782 1428 4354 1013 710
is_linear=0
shrinkage=0.05


Tree=139
num_leaves=6
num_cat=0
split_feature=0 0 0 0 0
split_gain=6.54312e-05 2.36856e-05 1.3283e-05 9.71941e-06 1.83559e-07
threshold=14.000000000000002 40.500000000000007 9.0000000000000018 22.000000000000004 31.000000000000004
decision_type=2 2 2 2 2
left_child=2 3 -1 -2 -5
right_child=1 -3 -4 4 -6
leaf_value=1.1047664798379686e-05 5.9122373365332977e-06 -7.7299156551619612e-07 -3.5871318679177661e-06 1.7349549125356134e-05 1.5736257434576934e-05
leaf_weight=161 303 415 4193 384 326
leaf_count=161 303 415 4193 384 326
internal_value=0 9.28772e-06 -3.04597e-06 1.34093e-05 1.66088e-05
internal_weight=0 1428 4354 1013 710
internal_count=5782 1428 4354 1013 710
is_linear=0
shrinkage=0.05


Tree=140
num_leaves=6
num_cat=0
split_feature=0 0 0 0 0
split_gain=5.90472e-05 2.13789e-05 1.19883e-05 8.77182e-06 1.65529e-07
threshold=14.000000000000002 40.500000000000007 9.0000000000000018 22.000000000000004 31.000000000000004
decision_type=2 2 2 2 2
left_child=2 3 -1 -2 -5
right_child=1 -3 -4 4 -6
leaf_value=1.0495396874706198e-05 5.6162894558985244e-06 -7.354861955685789e-07 -3.4078957427238867e-06 1.6481482392312805e-05 1.4949473409564949e-05
leaf_weight=161 303 415 4193 384 326
leaf_count=161 303 415 4193 384 326
internal_value=0 8.82278e-06 -2.89379e-06 1.27386e-05 1.57781e-05
internal_weight=0 1428 4354 1013 710
internal_count=5782 1428 4354 1013 710
is_linear=0
shrinkage=0.05


Tree=141
num_leaves=6
num_cat=0
split_feature=0 0 0 0 0
split_gain=5.32879e-05 1.92952e-05 1.08192e-05 7.91652e-06 1.49356e-07
threshold=14.000000000000002 40.500000000000007 9.0000000000000018 22.000000000000004 31.000000000000004
decision_type=2 2 2 2 2
left_child=2 3 -1 -2 -5
right_child=1 -3 -4 4 -6
leaf_value=9.9708395576254937e-06 5.3356704378973931e-06 -6.9879646222275427e-07 -3.2371704299167254e-06 1.5657496411828713e-05 1.4202253310226956e-05
leaf_weight=161 303 415 4193 384 326
leaf_count=161 303 415 4193 384 326
internal_value=0 8.38174e-06 -2.74877e-06 1.21018e-05 1.49893e-05
internal_weight=0 1428 4354 1013 710
internal_count=5782 1428 4354 1013 710
is_linear=0
shrinkage=0.05


Tree=142
num_leaves=6
num_cat=0
split_feature=0 0 0 0 0
split_gain=4.80971e-05 1.7414e-05 9.76436e-06 7.14659e-06 1.34737e-07
threshold=14.000000000000002 40.500000000000007 9.0000000000000018 22.000000000000004 31.000000000000004
decision_type=2 2 2 2 2
left_child=2 3 -1 -2 -5
right_child=1 -3 -4 4 -6
leaf_value=9.4719925282164391e-06 5.0682525331824525e-06 -6.6365182669047854e-07 -3.0756073555427778e-06 1.4875093681136302e-05 1.3492903615022365e-05
leaf_weight=161 303 415 4193 384 326
leaf_count=161 303 415 4193 384 326
internal_value=0 7.96288e-06 -2.61163e-06 1.14969e-05 1.42405e-05
internal_weight=0 1428 4354 1013 710
internal_count=5782 1428 4354 1013 710
is_linear=0
shrinkage=0.05


Tree=143
num_leaves=6
num_cat=0
split_feature=0 0 0 0 0
split_gain=4.34144e-05 1.57129e-05 8.81391e-06 6.44766e-06 1.2177e-07
threshold=14.000000000000002 40.500000000000007 9.0000000000000018 22.000000000000004 31.000000000000004
decision_type=2 2 2 2 2
left_child=2 3 -1 -2 -5
right_child=1 -3 -4 4 -6
leaf_value=8.9986996019478905e-06 4.8155598219471801e-06 -6.2954993581915481e-07 -2.9225903624282685e-06 1.4131035338020107e-05 1.2817035394897858e-05
leaf_weight=161 303 415 4193 384 326
leaf_count=161 303 415 4193 384 326
