tree
version=v3
num_class=1
num_tree_per_iteration=1
label_index=0
max_feature_idx=0
objective=regression
feature_names=Column_0
feature_infos=[5:56]
tree_sizes=665 661 659 661 660 663 661 662 662 663 663 666 667 667 667 666 666 665 669 666 667 668 667 665 668 667 667 668 671 671 672 671 674 674 671 673 673

Tree=0
num_leaves=6
num_cat=0
split_feature=0 0 0 0 0
split_gain=104.752 36.9498 23.2479 12.5123 1.53238
threshold=14.000000000000002 40.500000000000007 9.0000000000000018 22.000000000000004 31.000000000000004
decision_type=2 2 2 2 2
left_child=2 3 -1 -2 -5
right_child=1 -3 -4 4 -6
leaf_value=0.014782799781683714 0.0087037278955500244 -0.00084793533269622297 -0.0045184763140815615 0.023010443277807102 0.0182764140369218
leaf_weight=162 308 404 4219 371 317
leaf_count=162 308 404 4219 371 317
internal_value=6.9618e-09 0.0119062 -0.00380476 0.0170796 0.0208292
internal_weight=0 1400 4381 996 688
internal_count=5781 1400 4381 996 688
is_linear=0
shrinkage=1


Tree=1
num_leaves=6
num_cat=0
split_feature=0 0 0 0 0
split_gain=94.5389 33.3472 20.9812 11.2924 1.38297
threshold=14.000000000000002 40.500000000000007 9.0000000000000018 22.000000000000004 31.000000000000004
decision_type=2 2 2 2 2
left_child=2 3 -1 -2 -5
right_child=1 -3 -4 4 -6
leaf_value=0.014043652902667722 0.0082685350324405212 -0.00080554576609099269 -0.0042925591710257357 0.021859913444864459 0.017362585790420087
leaf_weight=162 308 404 4219 371 317
leaf_count=162 308 404 4219 371 317
internal_value=0 0.0113109 -0.00361453 0.0162256 0.0197877
internal_weight=0 1400 4381 996 688
internal_count=5781 1400 4381 996 688
is_linear=0
shrinkage=0.05


Tree=2
num_leaves=6
num_cat=0
split_feature=0 0 0 0 0
split_gain=85.3214 30.0958 18.9355 10.1914 1.24813
threshold=14.000000000000002 40.500000000000007 9.0000000000000018 22.000000000000004 31.000000000000004
decision_type=2 2 2 2 2
left_child=2 3 -1 -2 -5
right_child=1 -3 -4 4 -6
leaf_value=0.013341469805181763 0.007855107329707206 -0.00076526904289638356 -0.0040779318855967243 0.020766918040872263 0.016494456240877933
leaf_weight=162 308 404 4219 371 317
leaf_count=162 308 404 4219 371 317
internal_value=0 0.0107453 -0.0034338 0.0154143 0.0187984
internal_weight=0 1400 4381 996 688
internal_count=5781 1400 4381 996 688
is_linear=0
shrinkage=0.05


Tree=3
num_leaves=6
num_cat=0
split_feature=0 0 0 0 0
split_gain=77.0026 27.1615 17.0893 9.19771 1.12644
threshold=14.000000000000002 40.500000000000007 9.0000000000000018 22.000000000000004 31.000000000000004
decision_type=2 2 2 2 2
left_child=2 3 -1 -2 -5
right_child=1 -3 -4 4 -6
leaf_value=0.012674397166335472 0.0074623525224311593 -0.00072700452718809988 -0.0038740357712995499 0.019728572785131376 0.015669734063866764
leaf_weight=162 308 404 4219 371 317
leaf_count=162 308 404 4219 371 317
internal_value=0 0.0102081 -0.00326211 0.0146436 0.0178584
internal_weight=0 1400 4381 996 688
internal_count=5781 1400 4381 996 688
is_linear=0
shrinkage=0.05


Tree=4
num_leaves=6
num_cat=0
split_feature=0 0 0 0 0
split_gain=69.4948 24.5132 15.4231 8.30093 1.01661
threshold=14.000000000000002 40.500000000000007 9.0000000000000018 22.000000000000004 31.000000000000004
decision_type=2 2 2 2 2
left_child=2 3 -1 -2 -5
right_child=1 -3 -4 4 -6
leaf_value=0.012040676890561978 0.0070892343669525021 -0.00069065348194487914 -0.0036803332496717885 0.018742143876776553 0.014886248356747893
leaf_weight=162 308 404 4219 371 317
leaf_count=162 308 404 4219 371 317
internal_value=0 0.00969767 -0.003099 0.0139114 0.0169655
internal_weight=0 1400 4381 996 688
internal_count=5781 1400 4381 996 688
is_linear=0
shrinkage=0.05


Tree=5
num_leaves=6
num_cat=0
split_feature=0 0 0 0 0
split_gain=62.7191 22.1232 13.9194 7.49159 0.917493
threshold=14.000000000000002 40.500000000000007 9.0000000000000018 22.000000000000004 31.000000000000004
decision_type=2 2 2 2 2
left_child=2 3 -1 -2 -5
right_child=1 -3 -4 4 -6
leaf_value=0.011438643395394823 0.0067347724982476853 -0.00065612240238022981 -0.0034963165473547888 0.017805036557009921 0.014141935113911467
leaf_weight=162 308 404 4219 371 317
leaf_count=162 308 404 4219 371 317
internal_value=0 0.00921278 -0.00294405 0.0132158 0.0161172
internal_weight=0 1400 4381 996 688
internal_count=5781 1400 4381 996 688
is_linear=0
shrinkage=0.05


Tree=6
num_leaves=6
num_cat=0
split_feature=0 0 0 0 0
split_gain=56.604 19.9662 12.5622 6.76116 0.828037
threshold=14.000000000000002 40.500000000000007 9.0000000000000018 22.000000000000004 31.000000000000004
decision_type=2 2 2 2 2
left_child=2 3 -1 -2 -5
right_child=1 -3 -4 4 -6
leaf_value=0.010866710000648452 0.0063980342941237743 -0.00062331604324096805 -0.0033215012225905416 0.016914784898504495 0.013434839494267851
leaf_weight=162 308 404 4219 371 317
leaf_count=162 308 404 4219 371 317
internal_value=0 0.00875215 -0.00279685 0.012555 0.0153114
internal_weight=0 1400 4381 996 688
internal_count=5781 1400 4381 996 688
is_linear=0
shrinkage=0.05


Tree=7
num_leaves=6
num_cat=0
split_feature=0 0 0 0 0
split_gain=51.0851 18.0195 11.3374 6.10195 0.747304
threshold=14.000000000000002 40.500000000000007 9.0000000000000018 22.000000000000004 31.000000000000004
decision_type=2 2 2 2 2
left_child=2 3 -1 -2 -5
right_child=1 -3 -4 4 -6
leaf_value=0.010323375650900014 0.0060781322897399785 -0.0005921496172887411 -0.0031554256492305633 0.016069046039548032 0.012763096506733813
leaf_weight=162 308 404 4219 371 317
leaf_count=162 308 404 4219 371 317
internal_value=0 0.00831454 -0.00265701 0.0119273 0.0145458
internal_weight=0 1400 4381 996 688
internal_count=5781 1400 4381 996 688
is_linear=0
shrinkage=0.05


Tree=8
num_leaves=6
num_cat=0
split_feature=0 0 0 0 0
split_gain=46.1043 16.2626 10.232 5.50701 0.674441
threshold=14.000000000000002 40.500000000000007 9.0000000000000018 22.000000000000004 31.000000000000004
decision_type=2 2 2 2 2
left_child=2 3 -1 -2 -5
right_child=1 -3 -4 4 -6
leaf_value=0.0098072066477695383 0.0057742256586524572 -0.00056254280809460596 -0.002997653678437438 0.015265592909104259 0.012124941441045388
leaf_weight=162 308 404 4219 371 317
leaf_count=162 308 404 4219 371 317
internal_value=0 0.00789881 -0.00252416 0.0113309 0.0138185
internal_weight=0 1400 4381 996 688
internal_count=5781 1400 4381 996 688
is_linear=0
shrinkage=0.05


Tree=9
num_leaves=6
num_cat=0
split_feature=0 0 0 0 0
split_gain=41.6091 14.677 9.23439 4.97007 0.608684
threshold=14.000000000000002 40.500000000000007 9.0000000000000018 22.000000000000004 31.000000000000004
decision_type=2 2 2 2 2
left_child=2 3 -1 -2 -5
right_child=1 -3 -4 4 -6
leaf_value=0.0093168458297710737 0.0054855153400015528 -0.00053441550578036822 -0.0028477712841865634 0.014502314072227197 0.011518694570270436
leaf_weight=162 308 404 4219 371 317
leaf_count=162 308 404 4219 371 317
internal_value=0 0.00750387 -0.00239795 0.0107644 0.0131276
internal_weight=0 1400 4381 996 688
internal_count=5781 1400 4381 996 688
is_linear=0
shrinkage=0.05


Tree=10
num_leaves=6
num_cat=0
split_feature=0 0 0 0 0
split_gain=37.5522 13.246 8.33404 4.48549 0.549337
threshold=14.000000000000002 40.500000000000007 9.0000000000000018 22.000000000000004 31.000000000000004
decision_type=2 2 2 2 2
left_child=2 3 -1 -2 -5
right_child=1 -3 -4 4 -6
leaf_value=0.0088510036273043106 0.0052112396449673099 -0.00050769497958555964 -0.0027053828448161811 0.013777198542456704 0.01094275932665033
leaf_weight=162 308 404 4219 371 317
leaf_count=162 308 404 4219 371 317
internal_value=0 0.00712868 -0.00227805 0.0102262 0.0124712
internal_weight=0 1400 4381 996 688
internal_count=5781 1400 4381 996 688
is_linear=0
shrinkage=0.05


Tree=11
num_leaves=6
num_cat=0
split_feature=0 0 0 0 0
split_gain=33.8909 11.9545 7.52147 4.04816 0.495776
threshold=14.000000000000002 40.500000000000007 9.0000000000000018 22.000000000000004 31.000000000000004
decision_type=2 2 2 2 2
left_child=2 3 -1 -2 -5
right_child=1 -3 -4 4 -6
leaf_value=0.0084084535172830027 0.0049506773590299235 -0.00048230975372993415 -0.0025701141410516535 0.013088337765680878 0.010395622683824143
leaf_weight=162 308 404 4219 371 317
leaf_count=162 308 404 4219 371 317
internal_value=0 0.00677224 -0.00216415 0.00971485 0.0118477
internal_weight=0 1400 4381 996 688
internal_count=5781 1400 4381 996 688
is_linear=0
shrinkage=0.05


Tree=12
num_leaves=6
num_cat=0
split_feature=0 0 0 0 0
split_gain=30.5865 10.7889 6.78812 3.65346 0.447438
threshold=14.000000000000002 40.500000000000007 9.0000000000000018 22.000000000000004 31.000000000000004
decision_type=2 2 2 2 2
left_child=2 3 -1 -2 -5
right_child=1 -3 -4 4 -6
leaf_value=0.0079880308768752236 0.0047031424407448091 -0.00045819416490042273 -0.0024416076606035789 0.012433921113595207 0.0098758407566573031
leaf_weight=162 308 404 4219 371 317
leaf_count=162 308 404 4219 371 317
internal_value=0 0.00643363 -0.00205594 0.00922911 0.0112553
internal_weight=0 1400 4381 996 688
internal_count=5781 1400 4381 996 688
is_linear=0
shrinkage=0.05


Tree=13
num_leaves=6
num_cat=0
split_feature=0 0 0 0 0
split_gain=27.6043 9.73702 6.12628 3.29725 0.403813
threshold=14.000000000000002 40.500000000000007 9.0000000000000018 22.000000000000004 31.000000000000004
decision_type=2 2 2 2 2
left_child=2 3 -1 -2 -5
right_child=1 -3 -4 4 -6
leaf_value=0.0075886299464288228 0.0044679866504988503 -0.00043528576008053404 -0.0023195270534240998 0.011812225349261263 0.0093820482839122189
leaf_weight=162 308 404 4219 371 317
leaf_count=162 308 404 4219 371 317
internal_value=0 0.00611195 -0.00195314 0.00876766 0.0106925
internal_weight=0 1400 4381 996 688
internal_count=5781 1400 4381 996 688
is_linear=0
shrinkage=0.05


Tree=14
num_leaves=6
num_cat=0
split_feature=0 0 0 0 0
split_gain=24.9129 8.78765 5.52897 2.97577 0.364441
threshold=14.000000000000002 40.500000000000007 9.0000000000000018 22.000000000000004 31.000000000000004
decision_type=2 2 2 2 2
left_child=2 3 -1 -2 -5
right_child=1 -3 -4 4 -6
leaf_value=0.0072091985833083782 0.0042445861692117018 -0.00041351985280853836 -0.0022035517421438249 0.011221614473993889 0.0089129463719550741
leaf_weight=162 308 404 4219 371 317
leaf_count=162 308 404 4219 371 317
internal_value=0 0.00580635 -0.00185549 0.00832927 0.0101579
internal_weight=0 1400 4381 996 688
internal_count=5781 1400 4381 996 688
is_linear=0
shrinkage=0.05


Tree=15
num_leaves=6
num_cat=0
split_feature=0 0 0 0 0
split_gain=22.4839 7.93086 4.9899 2.68563 0.328908
threshold=14.000000000000002 40.500000000000007 9.0000000000000018 22.000000000000004 31.000000000000004
decision_type=2 2 2 2 2
left_child=2 3 -1 -2 -5
right_child=1 -3 -4 4 -6
leaf_value=0.0068487388208324524 0.0040323575160333093 -0.0003928437513197855 -0.0020933734450836296 0.010660533078963745 0.0084672987634427724
leaf_weight=162 308 404 4219 371 317
leaf_count=162 308 404 4219 371 317
internal_value=0 0.00551603 -0.00176271 0.00791281 0.00964999
internal_weight=0 1400 4381 996 688
internal_count=5781 1400 4381 996 688
is_linear=0
shrinkage=0.05


Tree=16
num_leaves=6
num_cat=0
split_feature=0 0 0 0 0
split_gain=20.2917 7.1576 4.50338 2.42378 0.29684
threshold=14.000000000000002 40.500000000000007 9.0000000000000018 22.000000000000004 31.000000000000004
decision_type=2 2 2 2 2
left_child=2 3 -1 -2 -5
right_child=1 -3 -4 4 -6
leaf_value=0.0065063012137227226 0.0038307391778360325 -0.00037320271874363031 -0.0019887054308257339 0.010127506978468433 0.0080439344262968667
leaf_weight=162 308 404 4219 371 317
leaf_count=162 308 404 4219 371 317
internal_value=0 0.00524023 -0.00167458 0.00751717 0.00916749
internal_weight=0 1400 4381 996 688
internal_count=5781 1400 4381 996 688
is_linear=0
shrinkage=0.05


Tree=17
num_leaves=6
num_cat=0
split_feature=0 0 0 0 0
split_gain=18.3133 6.45973 4.0643 2.18746 0.267898
threshold=14.000000000000002 40.500000000000007 9.0000000000000018 22.000000000000004 31.000000000000004
decision_type=2 2 2 2 2
left_child=2 3 -1 -2 -5
right_child=1 -3 -4 4 -6
leaf_value=0.006180985832448911 0.0036392029858641813 -0.0003545416608950732 -0.0018892695221910444 0.0096211311113681766 0.007641736010959143
leaf_weight=162 308 404 4219 371 317
leaf_count=162 308 404 4219 371 317
internal_value=0 0.00497822 -0.00159085 0.00714131 0.00870911
internal_weight=0 1400 4381 996 688
internal_count=5781 1400 4381 996 688
is_linear=0
shrinkage=0.05


Tree=18
num_leaves=6
num_cat=0
split_feature=0 0 0 0 0
split_gain=16.5277 5.82991 3.66803 1.97418 0.241778
threshold=14.000000000000002 40.500000000000007 9.0000000000000018 22.000000000000004 31.000000000000004
decision_type=2 2 2 2 2
left_child=2 3 -1 -2 -5
right_child=1 -3 -4 4 -6
leaf_value=0.0058719360901985642 0.0034572422462092207 -0.00033681487715295932 -0.0017948065802459807 0.0091400742827038566 0.0072596501313702258
leaf_weight=162 308 404 4219 371 317
leaf_count=162 308 404 4219 371 317
internal_value=0 0.00472931 -0.00151131 0.00678424 0.00827366
internal_weight=0 1400 4381 996 688
internal_count=5781 1400 4381 996 688
is_linear=0
shrinkage=0.05


Tree=19
num_leaves=6
num_cat=0
split_feature=0 0 0 0 0
split_gain=14.9163 5.2615 3.3104 1.7817 0.218204
threshold=14.000000000000002 40.500000000000007 9.0000000000000018 22.000000000000004 31.000000000000004
decision_type=2 2 2 2 2
left_child=2 3 -1 -2 -5
right_child=1 -3 -4 4 -6
leaf_value=0.0055783402752476166 0.0032843814037933753 -0.00031997497933501803 -0.0017050661694584712 0.0086830705326462216 0.0068966685002890037
leaf_weight=162 308 404 4219 371 317
leaf_count=162 308 404 4219 371 317
internal_value=0 0.00449284 -0.00143574 0.00644503 0.00785998
internal_weight=0 1400 4381 996 688
internal_count=5781 1400 4381 996 688
is_linear=0
shrinkage=0.05


Tree=20
num_leaves=6
num_cat=0
split_feature=0 0 0 0 0
split_gain=13.4619 4.7485 2.98764 1.60799 0.196929
threshold=14.000000000000002 40.500000000000007 9.0000000000000018 22.000000000000004 31.000000000000004
decision_type=2 2 2 2 2
left_child=2 3 -1 -2 -5
right_child=1 -3 -4 4 -6
leaf_value=0.0052994234530531151 0.0031201609879030617 -0.00030397666413060367 -0.0016198133164558725 0.0082489172353175776 0.0065518346603383962
leaf_weight=162 308 404 4219 371 317
leaf_count=162 308 404 4219 371 317
internal_value=0 0.0042682 -0.00136395 0.00612278 0.00746698
internal_weight=0 1400 4381 996 688
internal_count=5781 1400 4381 996 688
is_linear=0
shrinkage=0.05


Tree=21
num_leaves=6
num_cat=0
split_feature=0 0 0 0 0
split_gain=12.1494 4.28552 2.69634 1.45121 0.177729
threshold=14.000000000000002 40.500000000000007 9.0000000000000018 22.000000000000004 31.000000000000004
decision_type=2 2 2 2 2
left_child=2 3 -1 -2 -5
right_child=1 -3 -4 4 -6
leaf_value=0.0050344524757769881 0.002964152812099012 -0.00028877762528966265 -0.0015388226172381063 0.0078364717417061316 0.0062242419294401864
leaf_weight=162 308 404 4219 371 317
leaf_count=162 308 404 4219 371 317
internal_value=0 0.00405479 -0.00129576 0.00581664 0.00709363
internal_weight=0 1400 4381 996 688
internal_count=5781 1400 4381 996 688
is_linear=0
shrinkage=0.05


Tree=22
num_leaves=6
num_cat=0
split_feature=0 0 0 0 0
split_gain=10.9648 3.86768 2.43345 1.30971 0.1604
threshold=14.000000000000002 40.500000000000007 9.0000000000000018 22.000000000000004 31.000000000000004
decision_type=2 2 2 2 2
left_child=2 3 -1 -2 -5
right_child=1 -3 -4 4 -6
leaf_value=0.0047827294557700288 0.0028159451404852526 -0.00027433731570139085 -0.0014618804308373192 0.0074446477967432412 0.0059130316068438894
leaf_weight=162 308 404 4219 371 317
leaf_count=162 308 404 4219 371 317
internal_value=0 0.00385205 -0.00123097 0.00552581 0.00673895
internal_weight=0 1400 4381 996 688
internal_count=5781 1400 4381 996 688
is_linear=0
shrinkage=0.05


Tree=23
num_leaves=6
num_cat=0
split_feature=0 0 0 0 0
split_gain=9.89577 3.49058 2.19619 1.18202 0.144761
threshold=14.000000000000002 40.500000000000007 9.0000000000000018 22.000000000000004 31.000000000000004
decision_type=2 2 2 2 2
left_child=2 3 -1 -2 -5
right_child=1 -3 -4 4 -6
leaf_value=0.004543592827969495 0.0026751479711504531 -0.00026062146442398283 -0.0013887866122264465 0.0070724159920954642 0.005617380361785166
leaf_weight=162 308 404 4219 371 317
leaf_count=162 308 404 4219 371 317
internal_value=0 0.00365945 -0.00116942 0.00524952 0.006402
internal_weight=0 1400 4381 996 688
internal_count=5781 1400 4381 996 688
is_linear=0
shrinkage=0.05


Tree=24
num_leaves=6
num_cat=0
split_feature=0 0 0 0 0
split_gain=8.93093 3.15025 1.98206 1.06677 0.130647
threshold=14.000000000000002 40.500000000000007 9.0000000000000018 22.000000000000004 31.000000000000004
decision_type=2 2 2 2 2
left_child=2 3 -1 -2 -5
right_child=1 -3 -4 4 -6
leaf_value=0.0043164131162619149 0.0025413915038701488 -0.00024759075673536795 -0.0013193472106627587 0.0067187945416819737 0.0053365113475133761
leaf_weight=162 308 404 4219 371 317
leaf_count=162 308 404 4219 371 317
internal_value=0 0.00347648 -0.00111095 0.00498704 0.0060819
internal_weight=0 1400 4381 996 688
internal_count=5781 1400 4381 996 688
is_linear=0
shrinkage=0.05


Tree=25
num_leaves=6
num_cat=0
split_feature=0 0 0 0 0
split_gain=8.06016 2.8431 1.78881 0.962761 0.117909
threshold=14.000000000000002 40.500000000000007 9.0000000000000018 22.000000000000004 31.000000000000004
decision_type=2 2 2 2 2
left_child=2 3 -1 -2 -5
right_child=1 -3 -4 4 -6
leaf_value=0.0041005920426184193 0.0024143217317457617 -0.00023521067284158257 -0.0012533803119172497 0.0063828552611212373 0.0050696854905610206
leaf_weight=162 308 404 4219 371 317
leaf_count=162 308 404 4219 371 317
internal_value=0 0.00330265 -0.0010554 0.00473769 0.0057778
internal_weight=0 1400 4381 996 688
internal_count=5781 1400 4381 996 688
is_linear=0
shrinkage=0.05


Tree=26
num_leaves=6
num_cat=0
split_feature=0 0 0 0 0
split_gain=7.2743 2.5659 1.6144 0.868891 0.106413
threshold=14.000000000000002 40.500000000000007 9.0000000000000018 22.000000000000004 31.000000000000004
decision_type=2 2 2 2 2
left_child=2 3 -1 -2 -5
right_child=1 -3 -4 4 -6
leaf_value=0.0038955630355135156 0.0022936054452491754 -0.00022345088067289335 -0.0011907118254134348 0.0060637115740601348 0.0048162002662895985
leaf_weight=162 308 404 4219 371 317
leaf_count=162 308 404 4219 371 317
internal_value=0 0.00313752 -0.00100263 0.00450081 0.00548891
internal_weight=0 1400 4381 996 688
internal_count=5781 1400 4381 996 688
is_linear=0
shrinkage=0.05


Tree=27
num_leaves=6
num_cat=0
split_feature=0 0 0 0 0
split_gain=6.56505 2.31572 1.457 0.784174 0.0960376
threshold=14.000000000000002 40.500000000000007 9.0000000000000018 22.000000000000004 31.000000000000004
decision_type=2 2 2 2 2
left_child=2 3 -1 -2 -5
right_child=1 -3 -4 4 -6
leaf_value=0.0037007854121053063 0.0021789251677026707 -0.00021227692671138611 -0.0011311753188266744 0.0057605265098124381 0.0045753905226473554
leaf_weight=162 308 404 4219 371 317
leaf_count=162 308 404 4219 371 317
internal_value=0 0.00298065 -0.0009525 0.00427577 0.00521447
internal_weight=0 1400 4381 996 688
internal_count=5781 1400 4381 996 688
is_linear=0
shrinkage=0.05


Tree=28
num_leaves=6
num_cat=0
split_feature=0 0 0 0 0
split_gain=5.92496 2.08994 1.31494 0.707718 0.0866739
threshold=14.000000000000002 40.500000000000007 9.0000000000000018 22.000000000000004 31.000000000000004
decision_type=2 2 2 2 2
left_child=2 3 -1 -2 -5
right_child=1 -3 -4 4 -6
leaf_value=0.0035157454368963063 0.0020699787374688678 -0.00020166251031534361 -0.0010746166605114296 0.0054725005952161281 0.004346621503659792
leaf_weight=162 308 404 4219 371 317
leaf_count=162 308 404 4219 371 317
internal_value=0 0.00283161 -0.000904875 0.00406198 0.00495375
internal_weight=0 1400 4381 996 688
internal_count=5781 1400 4381 996 688
is_linear=0
shrinkage=0.05


Tree=29
num_leaves=6
num_cat=0
split_feature=0 0 0 0 0
split_gain=5.34728 1.88617 1.18673 0.638715 0.0782231
threshold=14.000000000000002 40.500000000000007 9.0000000000000018 22.000000000000004 31.000000000000004
decision_type=2 2 2 2 2
left_child=2 3 -1 -2 -5
right_child=1 -3 -4 4 -6
leaf_value=0.0033399580540221735 0.0019664807586065895 -0.00019158046418284573 -0.0010208863921509403 0.0051988754651792896 0.004129290754087152
leaf_weight=162 308 404 4219 371 317
leaf_count=162 308 404 4219 371 317
internal_value=0 0.00269003 -0.000859632 0.00385888 0.00470606
internal_weight=0 1400 4381 996 688
internal_count=5781 1400 4381 996 688
is_linear=0
shrinkage=0.05


Tree=30
num_leaves=6
num_cat=0
split_feature=0 0 0 0 0
split_gain=4.82592 1.70227 1.07102 0.576441 0.0705964
threshold=14.000000000000002 40.500000000000007 9.0000000000000018 22.000000000000004 31.000000000000004
decision_type=2 2 2 2 2
left_child=2 3 -1 -2 -5
right_child=1 -3 -4 4 -6
leaf_value=0.0031729602378528614 0.0018681548402777741 -0.00018200184239332778 -0.00096984148346917218 0.0049389317835056082 0.0039228257937621242
leaf_weight=162 308 404 4219 371 317
leaf_count=162 308 404 4219 371 317
internal_value=0 0.00255553 -0.00081665 0.00366593 0.00447076
internal_weight=0 1400 4381 996 688
internal_count=5781 1400 4381 996 688
is_linear=0
shrinkage=0.05


Tree=31
num_leaves=6
num_cat=0
split_feature=0 0 0 0 0
split_gain=4.35539 1.5363 0.9666 0.520238 0.0637132
threshold=14.000000000000002 40.500000000000007 9.0000000000000018 22.000000000000004 31.000000000000004
decision_type=2 2 2 2 2
left_child=2 3 -1 -2 -5
right_child=1 -3 -4 4 -6
leaf_value=0.0030143126256097063 0.0017747481559551974 -0.00017290141013921192 -0.00092134959422913705 0.0046919852585564411 0.0037266851834694297
leaf_weight=162 308 404 4219 371 317
leaf_count=162 308 404 4219 371 317
internal_value=0 0.00242775 -0.000775817 0.00348264 0.00424722
internal_weight=0 1400 4381 996 688
internal_count=5781 1400 4381 996 688
is_linear=0
shrinkage=0.05


Tree=32
num_leaves=6
num_cat=0
split_feature=0 0 0 0 0
split_gain=3.93074 1.38651 0.872357 0.469514 0.0575012
threshold=14.000000000000002 40.500000000000007 9.0000000000000018 22.000000000000004 31.000000000000004
decision_type=2 2 2 2 2
left_child=2 3 -1 -2 -5
right_child=1 -3 -4 4 -6
leaf_value=0.0028635966557043571 0.0016860113543074263 -0.00016425475466646033 -0.00087528205264786199 0.0044573858400400118 0.0035403502073832306
leaf_weight=162 308 404 4219 371 317
leaf_count=162 308 404 4219 371 317
internal_value=0 0.00230637 -0.000737026 0.00330851 0.00403486
internal_weight=0 1400 4381 996 688
internal_count=5781 1400 4381 996 688
is_linear=0
shrinkage=0.05


Tree=33
num_leaves=6
num_cat=0
split_feature=0 0 0 0 0
split_gain=3.54749 1.25132 0.787302 0.423737 0.0518949
threshold=14.000000000000002 40.500000000000007 9.0000000000000018 22.000000000000004 31.000000000000004
decision_type=2 2 2 2 2
left_child=2 3 -1 -2 -5
right_child=1 -3 -4 4 -6
leaf_value=0.0027204167833666743 0.0016017097664177541 -0.00015604384036015462 -0.00083151848326276255 0.0042345161301226954 0.0033633319198297876
leaf_weight=162 308 404 4219 371 317
leaf_count=162 308 404 4219 371 317
internal_value=0 0.00219105 -0.000700176 0.00314308 0.00383311
internal_weight=0 1400 4381 996 688
internal_count=5781 1400 4381 996 688
is_linear=0
shrinkage=0.05


Tree=34
num_leaves=6
num_cat=0
split_feature=0 0 0 0 0
split_gain=3.20161 1.12932 0.71054 0.382423 0.0468351
threshold=14.000000000000002 40.500000000000007 9.0000000000000018 22.000000000000004 31.000000000000004
decision_type=2 2 2 2 2
left_child=2 3 -1 -2 -5
right_child=1 -3 -4 4 -6
leaf_value=0.0025843962380248642 0.0015216241259575374 -0.0001482417699788688 -0.00078994227311913643 0.0040227911929597432 0.0031951667653537749
leaf_weight=162 308 404 4219 371 317
leaf_count=162 308 404 4219 371 317
internal_value=0 0.0020815 -0.000665166 0.00298593 0.00364146
internal_weight=0 1400 4381 996 688
internal_count=5781 1400 4381 996 688
is_linear=0
shrinkage=0.05


Tree=35
num_leaves=6
num_cat=0
split_feature=0 0 0 0 0
split_gain=2.88945 1.01921 0.641262 0.345136 0.0422686
threshold=14.000000000000002 40.500000000000007 9.0000000000000018 22.000000000000004 31.000000000000004
decision_type=2 2 2 2 2
left_child=2 3 -1 -2 -5
right_child=1 -3 -4 4 -6
leaf_value=0.0024551761151222445 0.0014455436109776865 -0.00014082865978563481 -0.00075044468827554481 0.0038216510718572898 0.003035408022265576
leaf_weight=162 308 404 4219 371 317
leaf_count=162 308 404 4219 371 317
internal_value=0 0.00197742 -0.000631908 0.00283663 0.00345939
internal_weight=0 1400 4381 996 688
internal_count=5781 1400 4381 996 688
is_linear=0
shrinkage=0.05


Tree=36
num_leaves=6
num_cat=0
split_feature=0 0 0 0 0
split_gain=2.60773 0.919839 0.578739 0.311485 0.0381475
threshold=14.000000000000002 40.500000000000007 9.0000000000000018 22.000000000000004 31.000000000000004
decision_type=2 2 2 2 2
left_child=2 3 -1 -2 -5
right_child=1 -3 -4 4 -6
leaf_value=0.0023324178608657539 0.0013732669057094724 -0.00013378780072388968 -0.00071292299027619823 0.0036305689053343876 0.002883637424893325
leaf_weight=162 308 404 4219 371 317
leaf_count=162 308 404 4219 371 317
internal_value=0 0.00187855 -0.000600313 0.0026948 0.00328642
internal_weight=0 1400 4381 996 688
internal_count=5781 1400 4381 996 688
is_linear=0
shrinkage=0.05


end of trees

feature_importances:
Column_0=185

parameters:
[boosting: gbdt]
[objective: regression]
[metric: custom]
[tree_learner: serial]
[device_type: cpu]
[data: ]
[valid: ]
[num_iterations: 10000]
[learning_rate: 0.05]
[num_leaves: 95]
[num_threads: 0]
[deterministic: 0]
[force_col_wise: 0]
[force_row_wise: 0]
[histogram_pool_size: -1]
[max_depth: -1]
[min_data_in_leaf: 10]
[min_sum_hessian_in_leaf: 0.001]
[bagging_fraction: 1]
[pos_bagging_fraction: 1]
[neg_bagging_fraction: 1]
[bagging_freq: 0]
[bagging_seed: 10438]
[feature_fraction: 1]
[feature_fraction_bynode: 1]
[feature_fraction_seed: 6707]
[extra_trees: 0]
[extra_seed: 23424]
[early_stopping_round: 0]
[first_metric_only: 0]
[max_delta_step: 0]
[lambda_l1: 0]
[lambda_l2: 0]
[linear_lambda: 0]
[min_gain_to_split: 0]
[drop_rate: 0.1]
[max_drop: 50]
[skip_drop: 0.5]
[xgboost_dart_mode: 0]
[uniform_drop: 0]
[drop_seed: 18682]
[top_rate: 0.2]
[other_rate: 0.1]
[min_data_per_group: 100]
[max_cat_threshold: 32]
[cat_l2: 10]
[cat_smooth: 10]
[max_cat_to_onehot: 4]
[top_k: 20]
[monotone_constraints: ]
[monotone_constraints_method: basic]
[monotone_penalty: 0]
[feature_contri: ]
[forcedsplits_filename: ]
[refit_decay_rate: 0.9]
[cegb_tradeoff: 1]
[cegb_penalty_split: 0]
[cegb_penalty_feature_lazy: ]
[cegb_penalty_feature_coupled: ]
[path_smooth: 0]
[interaction_constraints: ]
[verbosity: -1]
[saved_feature_importance_type: 0]
[linear_tree: 0]
[max_bin: 255]
[max_bin_by_feature: ]
[min_data_in_bin: 3]
[bin_construct_sample_cnt: 200000]
[data_random_seed: 4081]
[is_enable_sparse: 1]
[enable_bundle: 1]
[use_missing: 1]
[zero_as_missing: 0]
[feature_pre_filter: 1]
[pre_partition: 0]
[two_round: 0]
[header: 0]
[label_column: ]
[weight_column: ]
[group_column: ]
[ignore_column: ]
[categorical_feature: ]
[forcedbins_filename: ]
[precise_float_parser: 0]
[objective_seed: 31546]
[num_class: 1]
[is_unbalance: 0]
[scale_pos_weight: 1]
[sigmoid: 1]
[boost_from_average: 1]
[reg_sqrt: 0]
[alpha: 0.9]
[fair_c: 1]
[poisson_max_delta_step: 0.7]
[tweedie_variance_power: 1.5]
[lambdarank_truncation_level: 30]
[lambdarank_norm: 1]
[label_gain: ]
[eval_at: ]
[multi_error_top_k: 1]
[auc_mu_weights: ]
[num_machines: 1]
[local_listen_port: 12400]
[time_out: 120]
[machine_list_filename: ]
[machines: ]
[gpu_platform_id: -1]
[gpu_device_id: -1]
[gpu_use_dp: 0]
[num_gpu: 1]

end of parameters

pandas_categorical:null
