tree
version=v3
num_class=1
num_tree_per_iteration=1
label_index=0
max_feature_idx=0
objective=regression
feature_names=Column_0
feature_infos=[5:56]
tree_sizes=665 656 653 653 659 657 659 658 661 662 662 664 663 667 666 668 670 669

Tree=0
num_leaves=6
num_cat=0
split_feature=0 0 0 0 0
split_gain=104.752 36.9498 23.2479 12.5123 1.53238
threshold=14.000000000000002 40.500000000000007 9.0000000000000018 22.000000000000004 31.000000000000004
decision_type=2 2 2 2 2
left_child=2 3 -1 -2 -5
right_child=1 -3 -4 4 -6
leaf_value=0.029565592601566056 0.017407448829298677 -0.0016958776271938192 -0.0090369595899644963 0.046020879593812826 0.036552821112042222
leaf_weight=162 308 404 4219 371 317
leaf_count=162 308 404 4219 371 317
internal_value=6.9618e-09 0.0238124 -0.00760952 0.0341591 0.0416584
internal_weight=0 1400 4381 996 688
internal_count=5781 1400 4381 996 688
is_linear=0
shrinkage=1


Tree=1
num_leaves=6
num_cat=0
split_feature=0 0 0 0 0
split_gain=84.8493 29.9293 18.8308 10.135 1.24123
threshold=14.000000000000002 40.500000000000007 9.0000000000000018 22.000000000000004 31.000000000000004
decision_type=2 2 2 2 2
left_child=2 3 -1 -2 -5
right_child=1 -3 -4 4 -6
leaf_value=0.026609027325348172 0.015666697454312213 -0.0015262971788939865 -0.008133268768564272 0.041418784515394998 0.032897532057921973
leaf_weight=162 308 404 4219 371 317
leaf_count=162 308 404 4219 371 317
internal_value=0 0.0214311 -0.00684857 0.0307432 0.0374926
internal_weight=0 1400 4381 996 688
internal_count=5781 1400 4381 996 688
is_linear=0
shrinkage=0.1


Tree=2
num_leaves=6
num_cat=0
split_feature=0 0 0 0 0
split_gain=68.728 24.2428 15.2529 8.20933 1.0054
threshold=14.000000000000002 40.500000000000007 9.0000000000000018 22.000000000000004 31.000000000000004
decision_type=2 2 2 2 2
left_child=2 3 -1 -2 -5
right_child=1 -3 -4 4 -6
leaf_value=0.023948124007977273 0.014100027416361037 -0.001373665097012821 -0.007319944377164757 0.037276905531947305 0.029607777383284239
leaf_weight=162 308 404 4219 371 317
leaf_count=162 308 404 4219 371 317
internal_value=0 0.019288 -0.00616372 0.0276689 0.0337433
internal_weight=0 1400 4381 996 688
internal_count=5781 1400 4381 996 688
is_linear=0
shrinkage=0.1


Tree=3
num_leaves=6
num_cat=0
split_feature=0 0 0 0 0
split_gain=55.6697 19.6366 12.3549 6.64956 0.81437
threshold=14.000000000000002 40.500000000000007 9.0000000000000018 22.000000000000004 31.000000000000004
decision_type=2 2 2 2 2
left_child=2 3 -1 -2 -5
right_child=1 -3 -4 4 -6
leaf_value=0.021553312125903223 0.012690023428385523 -0.001236299746715934 -0.006587950650920011 0.033549217155549642 0.02664699995837377
leaf_weight=162 308 404 4219 371 317
leaf_count=162 308 404 4219 371 317
internal_value=0 0.0173592 -0.00554735 0.024902 0.030369
internal_weight=0 1400 4381 996 688
internal_count=5781 1400 4381 996 688
is_linear=0
shrinkage=0.1


Tree=4
num_leaves=6
num_cat=0
split_feature=0 0 0 0 0
split_gain=45.0924 15.9057 10.0074 5.38614 0.659639
threshold=14.000000000000002 40.500000000000007 9.0000000000000018 22.000000000000004 31.000000000000004
decision_type=2 2 2 2 2
left_child=2 3 -1 -2 -5
right_child=1 -3 -4 4 -6
leaf_value=0.019397979383759294 0.011421022570220294 -0.0011126681585971376 -0.0059291551833795661 0.030194292916612565 0.023982300404870552
leaf_weight=162 308 404 4219 371 317
leaf_count=162 308 404 4219 371 317
internal_value=0 0.0156233 -0.00499261 0.0224118 0.0273321
internal_weight=0 1400 4381 996 688
internal_count=5781 1400 4381 996 688
is_linear=0
shrinkage=0.1


Tree=5
num_leaves=6
num_cat=0
split_feature=0 0 0 0 0
split_gain=36.5249 12.8836 8.10603 4.36278 0.534308
threshold=14.000000000000002 40.500000000000007 9.0000000000000018 22.000000000000004 31.000000000000004
decision_type=2 2 2 2 2
left_child=2 3 -1 -2 -5
right_child=1 -3 -4 4 -6
leaf_value=0.017458181929441149 0.010278918448980753 -0.0010014043249521811 -0.0053362376075705969 0.027174864302708136 0.02158407136674512
leaf_weight=162 308 404 4219 371 317
leaf_count=162 308 404 4219 371 317
internal_value=0 0.014061 -0.00449335 0.0201706 0.0245989
internal_weight=0 1400 4381 996 688
internal_count=5781 1400 4381 996 688
is_linear=0
shrinkage=0.1


Tree=6
num_leaves=6
num_cat=0
split_feature=0 0 0 0 0
split_gain=29.5851 10.4357 6.56589 3.53385 0.432789
threshold=14.000000000000002 40.500000000000007 9.0000000000000018 22.000000000000004 31.000000000000004
decision_type=2 2 2 2 2
left_child=2 3 -1 -2 -5
right_child=1 -3 -4 4 -6
leaf_value=0.015712365765765204 0.0092510266840312768 -0.00090126167512544902 -0.0048026152658751965 0.024457377198872702 0.01942566563742535
leaf_weight=162 308 404 4219 371 317
leaf_count=162 308 404 4219 371 317
internal_value=0 0.0126549 -0.00404402 0.0181536 0.022139
internal_weight=0 1400 4381 996 688
internal_count=5781 1400 4381 996 688
is_linear=0
shrinkage=0.1


Tree=7
num_leaves=6
num_cat=0
split_feature=0 0 0 0 0
split_gain=23.964 8.45293 5.31837 2.86242 0.35056
threshold=14.000000000000002 40.500000000000007 9.0000000000000018 22.000000000000004 31.000000000000004
decision_type=2 2 2 2 2
left_child=2 3 -1 -2 -5
right_child=1 -3 -4 4 -6
leaf_value=0.014141127618926545 0.0083259247182928906 -0.00081113712553229969 -0.0043223540200188516 0.022011641940890218 0.01748309590933075
leaf_weight=162 308 404 4219 371 317
leaf_count=162 308 404 4219 371 317
internal_value=0 0.0113894 -0.00363961 0.0163382 0.0199251
internal_weight=0 1400 4381 996 688
internal_count=5781 1400 4381 996 688
is_linear=0
shrinkage=0.1


Tree=8
num_leaves=6
num_cat=0
split_feature=0 0 0 0 0
split_gain=19.4108 6.84687 4.30788 2.31856 0.283953
threshold=14.000000000000002 40.500000000000007 9.0000000000000018 22.000000000000004 31.000000000000004
decision_type=2 2 2 2 2
left_child=2 3 -1 -2 -5
right_child=1 -3 -4 4 -6
leaf_value=0.012727014193840234 0.0074933326621721323 -0.00073002466567709007 -0.0038901177702926788 0.019810476745390951 0.015734786970382234
leaf_weight=162 308 404 4219 371 317
leaf_count=162 308 404 4219 371 317
internal_value=0 0.0102505 -0.00327565 0.0147044 0.0179326
internal_weight=0 1400 4381 996 688
internal_count=5781 1400 4381 996 688
is_linear=0
shrinkage=0.1


Tree=9
num_leaves=6
num_cat=0
split_feature=0 0 0 0 0
split_gain=15.7228 5.54597 3.48938 1.87803 0.230002
threshold=14.000000000000002 40.500000000000007 9.0000000000000018 22.000000000000004 31.000000000000004
decision_type=2 2 2 2 2
left_child=2 3 -1 -2 -5
right_child=1 -3 -4 4 -6
leaf_value=0.011454312386060204 0.0067440010196009245 -0.00065702209272191375 -0.0035011057650441279 0.017829428149281807 0.014161307135801058
leaf_weight=162 308 404 4219 371 317
leaf_count=162 308 404 4219 371 317
internal_value=0 0.00922541 -0.00294809 0.0132339 0.0161393
internal_weight=0 1400 4381 996 688
internal_count=5781 1400 4381 996 688
is_linear=0
shrinkage=0.1


Tree=10
num_leaves=6
num_cat=0
split_feature=0 0 0 0 0
split_gain=12.7354 4.49223 2.8264 1.52121 0.186301
threshold=14.000000000000002 40.500000000000007 9.0000000000000018 22.000000000000004 31.000000000000004
decision_type=2 2 2 2 2
left_child=2 3 -1 -2 -5
right_child=1 -3 -4 4 -6
leaf_value=0.010308882500976325 0.0060695999767631298 -0.00059131741325490843 -0.0031509954049822597 0.016046485005855319 0.012745179246805538
leaf_weight=162 308 404 4219 371 317
leaf_count=162 308 404 4219 371 317
internal_value=0 0.00830287 -0.00265328 0.0119105 0.0145254
internal_weight=0 1400 4381 996 688
internal_count=5781 1400 4381 996 688
is_linear=0
shrinkage=0.1


Tree=11
num_leaves=6
num_cat=0
split_feature=0 0 0 0 0
split_gain=10.3157 3.63871 2.28938 1.23218 0.150905
threshold=14.000000000000002 40.500000000000007 9.0000000000000018 22.000000000000004 31.000000000000004
decision_type=2 2 2 2 2
left_child=2 3 -1 -2 -5
right_child=1 -3 -4 4 -6
leaf_value=0.0092779927507594794 0.0054626387767735627 -0.00053218714086025363 -0.0028358971481348624 0.014441838416690134 0.011470658265859218
leaf_weight=162 308 404 4219 371 317
leaf_count=162 308 404 4219 371 317
internal_value=0 0.00747258 -0.00238795 0.0107195 0.0130728
internal_weight=0 1400 4381 996 688
internal_count=5781 1400 4381 996 688
is_linear=0
shrinkage=0.1


Tree=12
num_leaves=6
num_cat=0
split_feature=0 0 0 0 0
split_gain=8.35572 2.94736 1.8544 0.998064 0.122232
threshold=14.000000000000002 40.500000000000007 9.0000000000000018 22.000000000000004 31.000000000000004
decision_type=2 2 2 2 2
left_child=2 3 -1 -2 -5
right_child=1 -3 -4 4 -6
leaf_value=0.0083501941800393446 0.0049163745685976441 -0.0004789697942277878 -0.002552306464783632 0.012997654927618341 0.010323596629387574
leaf_weight=162 308 404 4219 371 317
leaf_count=162 308 404 4219 371 317
internal_value=0 0.00672532 -0.00214916 0.00964754 0.0117656
internal_weight=0 1400 4381 996 688
internal_count=5781 1400 4381 996 688
is_linear=0
shrinkage=0.1


Tree=13
num_leaves=6
num_cat=0
split_feature=0 0 0 0 0
split_gain=6.76813 2.38736 1.50206 0.808431 0.0990084
threshold=14.000000000000002 40.500000000000007 9.0000000000000018 22.000000000000004 31.000000000000004
decision_type=2 2 2 2 2
left_child=2 3 -1 -2 -5
right_child=1 -3 -4 4 -6
leaf_value=0.0075151738354269377 0.0044247390276014615 -0.00043107285717557565 -0.0022970753945397008 0.011697887517059991 0.0092912340072521284
leaf_weight=162 308 404 4219 371 317
leaf_count=162 308 404 4219 371 317
internal_value=0 0.00605279 -0.00193424 0.00868279 0.010589
internal_weight=0 1400 4381 996 688
internal_count=5781 1400 4381 996 688
is_linear=0
shrinkage=0.1


Tree=14
num_leaves=6
num_cat=0
split_feature=0 0 0 0 0
split_gain=5.48218 1.93376 1.21667 0.65483 0.0801968
threshold=14.000000000000002 40.500000000000007 9.0000000000000018 22.000000000000004 31.000000000000004
decision_type=2 2 2 2 2
left_child=2 3 -1 -2 -5
right_child=1 -3 -4 4 -6
leaf_value=0.006763658710370231 0.0039822622905364381 -0.00038796554176634786 -0.002067368311439311 0.010528097709269336 0.0083621092363956977
leaf_weight=162 308 404 4219 371 317
leaf_count=162 308 404 4219 371 317
internal_value=0 0.00544751 -0.00174082 0.00781451 0.00953011
internal_weight=0 1400 4381 996 688
internal_count=5781 1400 4381 996 688
is_linear=0
shrinkage=0.1


Tree=15
num_leaves=6
num_cat=0
split_feature=0 0 0 0 0
split_gain=4.44057 1.56634 0.985504 0.530412 0.0649593
threshold=14.000000000000002 40.500000000000007 9.0000000000000018 22.000000000000004 31.000000000000004
decision_type=2 2 2 2 2
left_child=2 3 -1 -2 -5
right_child=1 -3 -4 4 -6
leaf_value=0.0060872918684725412 0.003584038507395164 -0.00034916663938893539 -0.0018606306093652885 0.009475288723126014 0.0075259008530045544
leaf_weight=162 308 404 4219 371 317
leaf_count=162 308 404 4219 371 317
internal_value=0 0.00490276 -0.00156673 0.00703306 0.0085771
internal_weight=0 1400 4381 996 688
internal_count=5781 1400 4381 996 688
is_linear=0
shrinkage=0.1


Tree=16
num_leaves=6
num_cat=0
split_feature=0 0 0 0 0
split_gain=3.59686 1.26874 0.798259 0.429634 0.0526172
threshold=14.000000000000002 40.500000000000007 9.0000000000000018 22.000000000000004 31.000000000000004
decision_type=2 2 2 2 2
left_child=2 3 -1 -2 -5
right_child=1 -3 -4 4 -6
leaf_value=0.0054785624744347582 0.003225634488966558 -0.00031424976152248023 -0.0016745684503525335 0.0085277615441385953 0.0067733094087369999
leaf_weight=162 308 404 4219 371 317
leaf_count=162 308 404 4219 371 317
internal_value=0 0.00441248 -0.00141006 0.00632975 0.00771939
internal_weight=0 1400 4381 996 688
internal_count=5781 1400 4381 996 688
is_linear=0
shrinkage=0.1


Tree=17
num_leaves=6
num_cat=0
split_feature=0 0 0 0 0
split_gain=2.91346 1.02768 0.64659 0.348004 0.0426198
threshold=14.000000000000002 40.500000000000007 9.0000000000000018 22.000000000000004 31.000000000000004
decision_type=2 2 2 2 2
left_child=2 3 -1 -2 -5
right_child=1 -3 -4 4 -6
leaf_value=0.0049307073610202401 0.0029030704309909862 -0.00028282534469398533 -0.0015071115065361615 0.0076749858471522273 0.006095981971090454
leaf_weight=162 308 404 4219 371 317
leaf_count=162 308 404 4219 371 317
internal_value=0 0.00397124 -0.00126905 0.00569678 0.00694745
internal_weight=0 1400 4381 996 688
internal_count=5781 1400 4381 996 688
is_linear=0
shrinkage=0.1


end of trees

feature_importances:
Column_0=90

parameters:
[boosting: gbdt]
[objective: regression]
[metric: custom]
[tree_learner: serial]
[device_type: cpu]
[data: ]
[valid: ]
[num_iterations: 10000]
[learning_rate: 0.1]
[num_leaves: 63]
[num_threads: 0]
[deterministic: 0]
[force_col_wise: 0]
[force_row_wise: 0]
[histogram_pool_size: -1]
[max_depth: -1]
[min_data_in_leaf: 30]
[min_sum_hessian_in_leaf: 0.001]
[bagging_fraction: 1]
[pos_bagging_fraction: 1]
[neg_bagging_fraction: 1]
[bagging_freq: 0]
[bagging_seed: 21187]
[feature_fraction: 0.5]
[feature_fraction_bynode: 1]
[feature_fraction_seed: 30770]
[extra_trees: 0]
[extra_seed: 27351]
[early_stopping_round: 0]
[first_metric_only: 0]
[max_delta_step: 0]
[lambda_l1: 0]
[lambda_l2: 0]
[linear_lambda: 0]
[min_gain_to_split: 0]
[drop_rate: 0.1]
[max_drop: 50]
[skip_drop: 0.5]
[xgboost_dart_mode: 0]
[uniform_drop: 0]
[drop_seed: 3778]
[top_rate: 0.2]
[other_rate: 0.1]
[min_data_per_group: 100]
[max_cat_threshold: 32]
[cat_l2: 10]
[cat_smooth: 10]
[max_cat_to_onehot: 4]
[top_k: 20]
[monotone_constraints: ]
[monotone_constraints_method: basic]
[monotone_penalty: 0]
[feature_contri: ]
[forcedsplits_filename: ]
[refit_decay_rate: 0.9]
[cegb_tradeoff: 1]
[cegb_penalty_split: 0]
[cegb_penalty_feature_lazy: ]
[cegb_penalty_feature_coupled: ]
[path_smooth: 0]
[interaction_constraints: ]
[verbosity: -1]
[saved_feature_importance_type: 0]
[linear_tree: 0]
[max_bin: 255]
[max_bin_by_feature: ]
[min_data_in_bin: 3]
[bin_construct_sample_cnt: 200000]
[data_random_seed: 4084]
[is_enable_sparse: 1]
[enable_bundle: 1]
[use_missing: 1]
[zero_as_missing: 0]
[feature_pre_filter: 1]
[pre_partition: 0]
[two_round: 0]
[header: 0]
[label_column: ]
[weight_column: ]
[group_column: ]
[ignore_column: ]
[categorical_feature: ]
[forcedbins_filename: ]
[precise_float_parser: 0]
[objective_seed: 9093]
[num_class: 1]
[is_unbalance: 0]
[scale_pos_weight: 1]
[sigmoid: 1]
[boost_from_average: 1]
[reg_sqrt: 0]
[alpha: 0.9]
[fair_c: 1]
[poisson_max_delta_step: 0.7]
[tweedie_variance_power: 1.5]
[lambdarank_truncation_level: 30]
[lambdarank_norm: 1]
[label_gain: ]
[eval_at: ]
[multi_error_top_k: 1]
[auc_mu_weights: ]
[num_machines: 1]
[local_listen_port: 12400]
[time_out: 120]
[machine_list_filename: ]
[machines: ]
[gpu_platform_id: -1]
[gpu_device_id: -1]
[gpu_use_dp: 0]
[num_gpu: 1]

end of parameters

pandas_categorical:null
