tree
version=v3
num_class=1
num_tree_per_iteration=1
label_index=0
max_feature_idx=0
objective=regression
feature_names=Column_0
feature_infos=[5:56]
tree_sizes=668 657 660 660 660 661 661 667 668 670 674 675 676 681 681 680 683 682 687 689 693 692 692 693 693 696 694 696 696 695 696 698 695 696 697 694 697 697 698 695 697 698 697 698 698 698 697 696 696 697 698 698 695 696 698 697 697 697 697 696 697 696 697 695 694 697 695 697

Tree=0
num_leaves=6
num_cat=0
split_feature=0 0 0 0 0
split_gain=102.003 36.9284 20.7088 15.1527 0.285897
threshold=14.000000000000002 40.500000000000007 9.0000000000000018 22.000000000000004 31.000000000000004
decision_type=2 2 2 2 2
left_child=2 3 -1 -2 -5
right_child=1 -3 -4 4 -6
leaf_value=0.055177277140300442 0.029526976600210374 -0.0038640376765709515 -0.017915863537539409 0.086647937084959881 0.078594350337228336
leaf_weight=161 303 415 4193 384 326
leaf_count=161 303 415 4193 384 326
internal_value=-1.42477e-09 0.0463849 -0.0152131 0.0669706 0.0829501
internal_weight=0 1428 4354 1013 710
internal_count=5782 1428 4354 1013 710
is_linear=0
shrinkage=1


Tree=1
num_leaves=6
num_cat=0
split_feature=0 0 0 0 0
split_gain=65.2817 23.6342 13.2537 9.69773 0.182974
threshold=14.000000000000002 40.500000000000007 9.0000000000000018 22.000000000000004 31.000000000000004
decision_type=2 2 2 2 2
left_child=2 3 -1 -2 -5
right_child=1 -3 -4 4 -6
leaf_value=0.04414182181776681 0.023621586107774931 -0.0030912270861487073 -0.014332690476507638 0.06931834882901361 0.062875483201622423
leaf_weight=161 303 415 4193 384 326
leaf_count=161 303 415 4193 384 326
internal_value=0 0.0371079 -0.0121704 0.0535765 0.0663601
internal_weight=0 1428 4354 1013 710
internal_count=5782 1428 4354 1013 710
is_linear=0
shrinkage=0.2


Tree=2
num_leaves=6
num_cat=0
split_feature=0 0 0 0 0
split_gain=41.7803 15.1259 8.48234 6.20654 0.117103
threshold=14.000000000000002 40.500000000000007 9.0000000000000018 22.000000000000004 31.000000000000004
decision_type=2 2 2 2 2
left_child=2 3 -1 -2 -5
right_child=1 -3 -4 4 -6
leaf_value=0.035313460020267445 0.018897267994732157 -0.0024729843931384837 -0.011466154508335321 0.055454681448342549 0.050300386284072345
leaf_weight=161 303 415 4193 384 326
leaf_count=161 303 415 4193 384 326
internal_value=0 0.0296863 -0.00973636 0.0428612 0.0530881
internal_weight=0 1428 4354 1013 710
internal_count=5782 1428 4354 1013 710
is_linear=0
shrinkage=0.2


Tree=3
num_leaves=6
num_cat=0
split_feature=0 0 0 0 0
split_gain=26.7394 9.68057 5.42869 3.97219 0.074946
threshold=14.000000000000002 40.500000000000007 9.0000000000000018 22.000000000000004 31.000000000000004
decision_type=2 2 2 2 2
left_child=2 3 -1 -2 -5
right_child=1 -3 -4 4 -6
leaf_value=0.028250763818089455 0.015117815107709605 -0.0019783845202750471 -0.0091729185673113459 0.044363743673117524 0.040240309345164552
leaf_weight=161 303 415 4193 384 326
leaf_count=161 303 415 4193 384 326
internal_value=0 0.0237491 -0.00778908 0.034289 0.0424704
internal_weight=0 1428 4354 1013 710
internal_count=5782 1428 4354 1013 710
is_linear=0
shrinkage=0.2


Tree=4
num_leaves=6
num_cat=0
split_feature=0 0 0 0 0
split_gain=17.1132 6.19556 3.47437 2.5422 0.0479655
threshold=14.000000000000002 40.500000000000007 9.0000000000000018 22.000000000000004 31.000000000000004
decision_type=2 2 2 2 2
left_child=2 3 -1 -2 -5
right_child=1 -3 -4 4 -6
leaf_value=0.022600615103237378 0.01209424785753288 -0.0015827067259205395 -0.0073383350718669617 0.035490995243890211 0.032192247235244768
leaf_weight=161 303 415 4193 384 326
leaf_count=161 303 415 4193 384 326
internal_value=0 0.0189993 -0.00623127 0.0274312 0.0339764
internal_weight=0 1428 4354 1013 710
internal_count=5782 1428 4354 1013 710
is_linear=0
shrinkage=0.2


Tree=5
num_leaves=6
num_cat=0
split_feature=0 0 0 0 0
split_gain=10.9524 3.96516 2.22359 1.62701 0.030698
threshold=14.000000000000002 40.500000000000007 9.0000000000000018 22.000000000000004 31.000000000000004
decision_type=2 2 2 2 2
left_child=2 3 -1 -2 -5
right_child=1 -3 -4 4 -6
leaf_value=0.018080491429449331 0.0096753971706522585 -0.0012661728307784322 -0.0058706697629177856 0.02839279671291782 0.025753792654151564
leaf_weight=161 303 415 4193 384 326
leaf_count=161 303 415 4193 384 326
internal_value=0 0.0151994 -0.00498502 0.0219449 0.0271811
internal_weight=0 1428 4354 1013 710
internal_count=5782 1428 4354 1013 710
is_linear=0
shrinkage=0.2


Tree=6
num_leaves=6
num_cat=0
split_feature=0 0 0 0 0
split_gain=7.00957 2.5377 1.4231 1.04129 0.0196466
threshold=14.000000000000002 40.500000000000007 9.0000000000000018 22.000000000000004 31.000000000000004
decision_type=2 2 2 2 2
left_child=2 3 -1 -2 -5
right_child=1 -3 -4 4 -6
leaf_value=0.014464395206352199 0.0077403193296674061 -0.0010129319687923754 -0.0046965364672398192 0.022714235261567715 0.020603038746709337
leaf_weight=161 303 415 4193 384 326
leaf_count=161 303 415 4193 384 326
internal_value=0 0.0121595 -0.00398801 0.0175559 0.0217449
internal_weight=0 1428 4354 1013 710
internal_count=5782 1428 4354 1013 710
is_linear=0
shrinkage=0.2


Tree=7
num_leaves=6
num_cat=0
split_feature=0 0 0 0 0
split_gain=4.48613 1.62413 0.910784 0.666422 0.0125739
threshold=14.000000000000002 40.500000000000007 9.0000000000000018 22.000000000000004 31.000000000000004
decision_type=2 2 2 2 2
left_child=2 3 -1 -2 -5
right_child=1 -3 -4 4 -6
leaf_value=0.011571514847404931 0.0061922580317252934 -0.00081034611147570333 -0.0037572294037527907 0.018171390046154558 0.016482428744709565
leaf_weight=161 303 415 4193 384 326
leaf_count=161 303 415 4193 384 326
internal_value=0 0.00972762 -0.00319041 0.0140448 0.0173959
internal_weight=0 1428 4354 1013 710
internal_count=5782 1428 4354 1013 710
is_linear=0
shrinkage=0.2


Tree=8
num_leaves=6
num_cat=0
split_feature=0 0 0 0 0
split_gain=2.87112 1.03944 0.582902 0.426511 0.00804728
threshold=14.000000000000002 40.500000000000007 9.0000000000000018 22.000000000000004 31.000000000000004
decision_type=2 2 2 2 2
left_child=2 3 -1 -2 -5
right_child=1 -3 -4 4 -6
leaf_value=0.0092572131801558575 0.0049538030823932429 -0.00064827616045992067 -0.0030057832436987475 0.014537114603444935 0.013185946871326563
leaf_weight=161 303 415 4193 384 326
leaf_count=161 303 415 4193 384 326
internal_value=0 0.0077821 -0.00255233 0.0112358 0.0139167
internal_weight=0 1428 4354 1013 710
internal_count=5782 1428 4354 1013 710
is_linear=0
shrinkage=0.2


Tree=9
num_leaves=6
num_cat=0
split_feature=0 0 0 0 0
split_gain=1.83752 0.665244 0.373057 0.272967 0.00515026
threshold=14.000000000000002 40.500000000000007 9.0000000000000018 22.000000000000004 31.000000000000004
decision_type=2 2 2 2 2
left_child=2 3 -1 -2 -5
right_child=1 -3 -4 4 -6
leaf_value=0.0074057689156406415 0.003963045374468805 -0.00051862166678330981 -0.0024046270399131842 0.011629690612123038 0.010548756349591848
leaf_weight=161 303 415 4193 384 326
leaf_count=161 303 415 4193 384 326
internal_value=0 0.00622568 -0.00204186 0.00898865 0.0111334
internal_weight=0 1428 4354 1013 710
internal_count=5782 1428 4354 1013 710
is_linear=0
shrinkage=0.2


Tree=10
num_leaves=6
num_cat=0
split_feature=0 0 0 0 0
split_gain=1.17601 0.425756 0.238757 0.174699 0.00329619
threshold=14.000000000000002 40.500000000000007 9.0000000000000018 22.000000000000004 31.000000000000004
decision_type=2 2 2 2 2
left_child=2 3 -1 -2 -5
right_child=1 -3 -4 4 -6
leaf_value=0.0059246169808118247 0.0031704324395964451 -0.00041490011006952771 -0.0019236998632272597 0.0093037525383503333 0.0084390014867109769
leaf_weight=161 303 415 4193 384 326
leaf_count=161 303 415 4193 384 326
internal_value=0 0.00498054 -0.00163349 0.00719091 0.0089067
internal_weight=0 1428 4354 1013 710
internal_count=5782 1428 4354 1013 710
is_linear=0
shrinkage=0.2


Tree=11
num_leaves=6
num_cat=0
split_feature=0 0 0 0 0
split_gain=0.752647 0.272483 0.152804 0.111807 0.00210953
threshold=14.000000000000002 40.500000000000007 9.0000000000000018 22.000000000000004 31.000000000000004
decision_type=2 2 2 2 2
left_child=2 3 -1 -2 -5
right_child=1 -3 -4 4 -6
leaf_value=0.0047396875964188434 0.0025363488205809998 -0.0003319149477833725 -0.0015389602935626204 0.0074429997432162061 0.0067512038409527093
leaf_weight=161 303 415 4193 384 326
leaf_count=161 303 415 4193 384 326
internal_value=0 0.00398444 -0.00130679 0.00575273 0.00712536
internal_weight=0 1428 4354 1013 710
internal_count=5782 1428 4354 1013 710
is_linear=0
shrinkage=0.2


Tree=12
num_leaves=6
num_cat=0
split_feature=0 0 0 0 0
split_gain=0.481693 0.17439 0.0977946 0.0715568 0.0013501
threshold=14.000000000000002 40.500000000000007 9.0000000000000018 22.000000000000004 31.000000000000004
decision_type=2 2 2 2 2
left_child=2 3 -1 -2 -5
right_child=1 -3 -4 4 -6
leaf_value=0.0037917539569902129 0.0020290752202764203 -0.00026553652013640809 -0.0012311663462176489 0.0059544016447034666 0.0054009651306708081
leaf_weight=161 303 415 4193 384 326
leaf_count=161 303 415 4193 384 326
internal_value=0 0.00318755 -0.00104543 0.00460219 0.00570029
internal_weight=0 1428 4354 1013 710
internal_count=5782 1428 4354 1013 710
is_linear=0
shrinkage=0.2


Tree=13
num_leaves=6
num_cat=0
split_feature=0 0 0 0 0
split_gain=0.308284 0.111609 0.0625886 0.0457962 0.000864082
threshold=14.000000000000002 40.500000000000007 9.0000000000000018 22.000000000000004 31.000000000000004
decision_type=2 2 2 2 2
left_child=2 3 -1 -2 -5
right_child=1 -3 -4 4 -6
leaf_value=0.0030334027657597704 0.0016232623783226062 -0.00021242381219404289 -0.00098493358924595792 0.0047635214844982936 0.0043207676709841004
leaf_weight=161 303 415 4193 384 326
leaf_count=161 303 415 4193 384 326
internal_value=0 0.00255004 -0.000836346 0.00368175 0.00456023
internal_weight=0 1428 4354 1013 710
internal_count=5782 1428 4354 1013 710
is_linear=0
shrinkage=0.2


Tree=14
num_leaves=6
num_cat=0
split_feature=0 0 0 0 0
split_gain=0.197301 0.0714302 0.0400567 0.0293096 0.000553007
threshold=14.000000000000002 40.500000000000007 9.0000000000000018 22.000000000000004 31.000000000000004
decision_type=2 2 2 2 2
left_child=2 3 -1 -2 -5
right_child=1 -3 -4 4 -6
leaf_value=0.0024267225508919415 0.0012986083628714281 -0.00016994727753013013 -0.00078794627149775709 0.0038108170730993154 0.0034566159537233461
leaf_weight=161 303 415 4193 384 326
leaf_count=161 303 415 4193 384 326
internal_value=0 0.00204003 -0.000669076 0.0029454 0.00364818
internal_weight=0 1428 4354 1013 710
internal_count=5782 1428 4354 1013 710
is_linear=0
shrinkage=0.2


Tree=15
num_leaves=6
num_cat=0
split_feature=0 0 0 0 0
split_gain=0.126273 0.0457153 0.0256362 0.0187581 0.00035392
threshold=14.000000000000002 40.500000000000007 9.0000000000000018 22.000000000000004 31.000000000000004
decision_type=2 2 2 2 2
left_child=2 3 -1 -2 -5
right_child=1 -3 -4 4 -6
leaf_value=0.0019413747911497675 0.001038889493485882 -0.00013595462922590324 -0.00063035747992750595 0.0030486544982219737 0.0027652951683049191
leaf_weight=161 303 415 4193 384 326
leaf_count=161 303 415 4193 384 326
internal_value=0 0.00163203 -0.000535261 0.00235632 0.00291855
internal_weight=0 1428 4354 1013 710
internal_count=5782 1428 4354 1013 710
is_linear=0
shrinkage=0.2


Tree=16
num_leaves=6
num_cat=0
split_feature=0 0 0 0 0
split_gain=0.0808152 0.0292576 0.0164073 0.0120052 0.000226508
threshold=14.000000000000002 40.500000000000007 9.0000000000000018 22.000000000000004 31.000000000000004
decision_type=2 2 2 2 2
left_child=2 3 -1 -2 -5
right_child=1 -3 -4 4 -6
leaf_value=0.0015531030847974446 0.0008311098281650654 -0.00010875920574349094 -0.00050428934081744306 0.0024389230549180258 0.0022122363377065383
leaf_weight=161 303 415 4193 384 326
leaf_count=161 303 415 4193 384 326
internal_value=0 0.00130562 -0.000428212 0.00188506 0.00233484
internal_weight=0 1428 4354 1013 710
internal_count=5782 1428 4354 1013 710
is_linear=0
shrinkage=0.2


Tree=17
num_leaves=6
num_cat=0
split_feature=0 0 0 0 0
split_gain=0.0517215 0.0187249 0.0105006 0.00768329 0.00014497
threshold=14.000000000000002 40.500000000000007 9.0000000000000018 22.000000000000004 31.000000000000004
decision_type=2 2 2 2 2
left_child=2 3 -1 -2 -5
right_child=1 -3 -4 4 -6
leaf_value=0.0012424820860535463 0.00066488987886079468 -8.7009571851736096e-05 -0.0004034289467063413 0.0019511376742836245 0.0017697848451032412
leaf_weight=161 303 415 4193 384 326
leaf_count=161 303 415 4193 384 326
internal_value=0 0.0010445 -0.000342567 0.00150804 0.00186787
internal_weight=0 1428 4354 1013 710
internal_count=5782 1428 4354 1013 710
is_linear=0
shrinkage=0.2


Tree=18
num_leaves=6
num_cat=0
split_feature=0 0 0 0 0
split_gain=0.0331018 0.0119839 0.0067204 0.00491728 9.27796e-05
threshold=14.000000000000002 40.500000000000007 9.0000000000000018 22.000000000000004 31.000000000000004
decision_type=2 2 2 2 2
left_child=2 3 -1 -2 -5
right_child=1 -3 -4 4 -6
leaf_value=0.00099398554389521204 0.00053191451300488844 -6.9606926696128156e-05 -0.00032274355533722261 0.0015609091994216822 0.0014158280082104124
leaf_weight=161 303 415 4193 384 326
leaf_count=161 303 415 4193 384 326
internal_value=0 0.000835597 -0.000274054 0.00120644 0.00149429
internal_weight=0 1428 4354 1013 710
internal_count=5782 1428 4354 1013 710
is_linear=0
shrinkage=0.2


Tree=19
num_leaves=6
num_cat=0
split_feature=0 0 0 0 0
split_gain=0.0211853 0.00766974 0.0043011 0.00314711 5.93822e-05
threshold=14.000000000000002 40.500000000000007 9.0000000000000018 22.000000000000004 31.000000000000004
decision_type=2 2 2 2 2
left_child=2 3 -1 -2 -5
right_child=1 -3 -4 4 -6
leaf_value=0.00079519058236424221 0.00042552791671095902 -5.5685769093323905e-05 -0.00025819792062836645 0.0012487316319796569 0.0011326635077858538
leaf_weight=161 303 415 4193 384 326
leaf_count=161 303 415 4193 384 326
internal_value=0 0.000668478 -0.000219246 0.000965149 0.00119544
internal_weight=0 1428 4354 1013 710
internal_count=5782 1428 4354 1013 710
is_linear=0
shrinkage=0.2


Tree=20
num_leaves=6
num_cat=0
split_feature=0 0 0 0 0
split_gain=0.0135585 0.00490863 0.00275269 0.00201414 3.79994e-05
threshold=14.000000000000002 40.500000000000007 9.0000000000000018 22.000000000000004 31.000000000000004
decision_type=2 2 2 2 2
left_child=2 3 -1 -2 -5
right_child=1 -3 -4 4 -6
leaf_value=0.00063615123400036601 0.00034042124639544944 -4.4549959880041794e-05 -0.00020655678010341548 0.00099898027444093418 0.00090613215547512098
leaf_weight=161 303 415 4193 384 326
leaf_count=161 303 415 4193 384 326
internal_value=0 0.000534781 -0.000175396 0.000772118 0.000956349
internal_weight=0 1428 4354 1013 710
internal_count=5782 1428 4354 1013 710
is_linear=0
shrinkage=0.2


Tree=21
num_leaves=6
num_cat=0
split_feature=0 0 0 0 0
split_gain=0.0086774 0.00314149 0.00176171 0.00128906 2.43203e-05
threshold=14.000000000000002 40.500000000000007 9.0000000000000018 22.000000000000004 31.000000000000004
decision_type=2 2 2 2 2
left_child=2 3 -1 -2 -5
right_child=1 -3 -4 4 -6
leaf_value=0.00050892081597576975 0.00027233567826523642 -3.5637467201933802e-05 -0.0001652441814012298 0.00079918438717262088 0.00072490487339123624
leaf_weight=161 303 415 4193 384 326
leaf_count=161 303 415 4193 384 326
internal_value=0 0.000427825 -0.000140315 0.000617693 0.000765079
internal_weight=0 1428 4354 1013 710
internal_count=5782 1428 4354 1013 710
is_linear=0
shrinkage=0.2


Tree=22
num_leaves=6
num_cat=0
split_feature=0 0 0 0 0
split_gain=0.0055535 0.00201062 0.00112749 0.000824987 1.5565e-05
threshold=14.000000000000002 40.500000000000007 9.0000000000000018 22.000000000000004 31.000000000000004
decision_type=2 2 2 2 2
left_child=2 3 -1 -2 -5
right_child=1 -3 -4 4 -6
leaf_value=0.00040713584293489868 0.00021787146198572497 -2.8517369225800757e-05 -0.0001321952997142884 0.00063934812302856399 0.00057992440694086024
leaf_weight=161 303 415 4193 384 326
leaf_count=161 303 415 4193 384 326
internal_value=0 0.000342259 -0.000112252 0.000494156 0.000612063
internal_weight=0 1428 4354 1013 710
internal_count=5782 1428 4354 1013 710
is_linear=0
shrinkage=0.2


Tree=23
num_leaves=6
num_cat=0
split_feature=0 0 0 0 0
split_gain=0.00355427 0.00128677 0.00072159 0.000527994 9.96304e-06
threshold=14.000000000000002 40.500000000000007 9.0000000000000018 22.000000000000004 31.000000000000004
decision_type=2 2 2 2 2
left_child=2 3 -1 -2 -5
right_child=1 -3 -4 4 -6
leaf_value=0.00032570713332721163 0.00017429646719308576 -2.2808874407446531e-05 -0.0001057564190415865 0.00051148017973901005 0.00046393781460455957
leaf_weight=161 303 415 4193 384 326
leaf_count=161 303 415 4193 384 326
internal_value=0 0.000273808 -8.9802e-05 0.000395325 0.000489651
internal_weight=0 1428 4354 1013 710
internal_count=5782 1428 4354 1013 710
is_linear=0
shrinkage=0.2


Tree=24
num_leaves=6
num_cat=0
split_feature=0 0 0 0 0
split_gain=0.00227473 0.000823532 0.00046182 0.000337919 6.37546e-06
threshold=14.000000000000002 40.500000000000007 9.0000000000000018 22.000000000000004 31.000000000000004
decision_type=2 2 2 2 2
left_child=2 3 -1 -2 -5
right_child=1 -3 -4 4 -6
leaf_value=0.0002605651291260808 0.00013943505857643906 -1.8248967826366425e-05 -8.460664815157688e-05 0.00040918168791298135 0.0003711504330344361
leaf_weight=161 303 415 4193 384 326
leaf_count=161 303 415 4193 384 326
internal_value=0 0.000219045 -7.18431e-05 0.000316258 0.000391719
internal_weight=0 1428 4354 1013 710
internal_count=5782 1428 4354 1013 710
is_linear=0
shrinkage=0.2


Tree=25
num_leaves=6
num_cat=0
split_feature=0 0 0 0 0
split_gain=0.00145583 0.000527068 0.000295562 0.000216261 4.08047e-06
threshold=14.000000000000002 40.500000000000007 9.0000000000000018 22.000000000000004 31.000000000000004
decision_type=2 2 2 2 2
left_child=2 3 -1 -2 -5
right_child=1 -3 -4 4 -6
leaf_value=0.00020845268176209115 0.00011155310243663222 -1.4598567532487663e-05 -6.768331393659926e-05 0.00032734728398888061 0.00029692161668297705
leaf_weight=161 303 415 4193 384 326
leaf_count=161 303 415 4193 384 326
internal_value=0 0.000175238 -5.74725e-05 0.000253009 0.000313377
internal_weight=0 1428 4354 1013 710
internal_count=5782 1428 4354 1013 710
is_linear=0
shrinkage=0.2


Tree=26
num_leaves=6
num_cat=0
split_feature=0 0 0 0 0
split_gain=0.000931742 0.00033731 0.000189168 0.000138405 2.61184e-06
threshold=14.000000000000002 40.500000000000007 9.0000000000000018 22.000000000000004 31.000000000000004
decision_type=2 2 2 2 2
left_child=2 3 -1 -2 -5
right_child=1 -3 -4 4 -6
leaf_value=0.00016676665555616344 8.9242975089219543e-05 -1.1675044983984476e-05 -5.414711099118883e-05 0.0002618776859890204 0.0002375356018817498
leaf_weight=161 303 415 4193 384 326
leaf_count=161 303 415 4193 384 326
internal_value=0 0.000140191 -4.59783e-05 0.000202407 0.000250701
internal_weight=0 1428 4354 1013 710
internal_count=5782 1428 4354 1013 710
is_linear=0
shrinkage=0.2


Tree=27
num_leaves=6
num_cat=0
split_feature=0 0 0 0 0
split_gain=0.000596303 0.000215872 0.000121064 8.85842e-05 1.67161e-06
threshold=14.000000000000002 40.500000000000007 9.0000000000000018 22.000000000000004 31.000000000000004
decision_type=2 2 2 2 2
left_child=2 3 -1 -2 -5
right_child=1 -3 -4 4 -6
leaf_value=0.00013341144976778801 7.1389947959495464e-05 -9.3391030488244037e-06 -4.3317058492134732e-05 0.00020950166290276684 0.0001900277746144248
leaf_weight=161 303 415 4193 384 326
leaf_count=161 303 415 4193 384 326
internal_value=0 0.000112152 -3.67821e-05 0.000161924 0.00020056
internal_weight=0 1428 4354 1013 710
internal_count=5782 1428 4354 1013 710
is_linear=0
shrinkage=0.2


Tree=28
num_leaves=6
num_cat=0
split_feature=0 0 0 0 0
split_gain=0.000381657 0.000138165 7.74836e-05 5.66941e-05 1.0701e-06
threshold=14.000000000000002 40.500000000000007 9.0000000000000018 22.000000000000004 31.000000000000004
decision_type=2 2 2 2 2
left_child=2 3 -1 -2 -5
right_child=1 -3 -4 4 -6
leaf_value=0.00010672837542080733 5.7113412214387766e-05 -7.4732626777097409e-06 -3.4656741701007857e-05 0.00016760390487130888 0.00015202288064488604
leaf_weight=161 303 415 4193 384 326
leaf_count=161 303 415 4193 384 326
internal_value=0 8.97222e-05 -2.94287e-05 0.000129541 0.00016045
internal_weight=0 1428 4354 1013 710
internal_count=5782 1428 4354 1013 710
is_linear=0
shrinkage=0.2


Tree=29
num_leaves=6
num_cat=0
split_feature=0 0 0 0 0
split_gain=0.000244249 8.8425e-05 4.95857e-05 3.62869e-05 6.84551e-07
threshold=14.000000000000002 40.500000000000007 9.0000000000000018 22.000000000000004 31.000000000000004
decision_type=2 2 2 2 2
left_child=2 3 -1 -2 -5
right_child=1 -3 -4 4 -6
leaf_value=8.5381008916019657e-05 4.5688676558705449e-05 -5.9779971299401255e-06 -2.772277879650642e-05 0.00013408284163839805 0.00012162084022731138
leaf_weight=161 303 415 4193 384 326
leaf_count=161 303 415 4193 384 326
internal_value=0 7.1778e-05 -2.35405e-05 0.000103633 0.000128361
internal_weight=0 1428 4354 1013 710
internal_count=5782 1428 4354 1013 710
is_linear=0
shrinkage=0.2


Tree=30
num_leaves=6
num_cat=0
split_feature=0 0 0 0 0
split_gain=0.000156328 5.6595e-05 3.17363e-05 2.32211e-05 4.38103e-07
threshold=14.000000000000002 40.500000000000007 9.0000000000000018 22.000000000000004 31.000000000000004
decision_type=2 2 2 2 2
left_child=2 3 -1 -2 -5
right_child=1 -3 -4 4 -6
leaf_value=6.8304329092458175e-05 3.6553787713003631e-05 -4.7844298273684036e-06 -2.2180783916633482e-05 0.00010726544169301633 9.7295951006785497e-05
leaf_weight=161 303 415 4193 384 326
leaf_count=161 303 415 4193 384 326
internal_value=0 5.7422e-05 -1.88349e-05 8.29064e-05 0.000102688
internal_weight=0 1428 4354 1013 710
internal_count=5782 1428 4354 1013 710
is_linear=0
shrinkage=0.2


Tree=31
num_leaves=6
num_cat=0
split_feature=0 0 0 0 0
split_gain=0.000100034 3.62202e-05 2.03091e-05 1.48613e-05 2.80226e-07
threshold=14.000000000000002 40.500000000000007 9.0000000000000018 22.000000000000004 31.000000000000004
decision_type=2 2 2 2 2
left_child=2 3 -1 -2 -5
right_child=1 -3 -4 4 -6
leaf_value=5.4643835340227408e-05 2.9242359003414811e-05 -3.8279570549367421e-06 -1.7740387341148413e-05 8.5810218903740559e-05 7.7836902846405119e-05
leaf_weight=161 303 415 4193 384 326
leaf_count=161 303 415 4193 384 326
internal_value=0 4.59368e-05 -1.50638e-05 6.63242e-05 8.21492e-05
internal_weight=0 1428 4354 1013 710
internal_count=5782 1428 4354 1013 710
is_linear=0
shrinkage=0.2


Tree=32
num_leaves=6
num_cat=0
split_feature=0 0 0 0 0
split_gain=6.40306e-05 2.3182e-05 1.3001e-05 9.51157e-06 1.79349e-07
threshold=14.000000000000002 40.500000000000007 9.0000000000000018 22.000000000000004 31.000000000000004
decision_type=2 2 2 2 2
left_child=2 3 -1 -2 -5
right_child=1 -3 -4 4 -6
leaf_value=4.3718227596016405e-05 2.3393519837470732e-05 -3.0634395149816952e-06 -1.419614896092954e-05 6.8648639838405265e-05 6.2269914003968969e-05
leaf_weight=161 303 415 4193 384 326
leaf_count=161 303 415 4193 384 326
internal_value=0 3.67493e-05 -1.20546e-05 5.30595e-05 6.57198e-05
internal_weight=0 1428 4354 1013 710
internal_count=5782 1428 4354 1013 710
is_linear=0
shrinkage=0.2


Tree=33
num_leaves=6
num_cat=0
split_feature=0 0 0 0 0
split_gain=4.09837e-05 1.48358e-05 8.31967e-06 6.08638e-06 1.15017e-07
threshold=14.000000000000002 40.500000000000007 9.0000000000000018 22.000000000000004 31.000000000000004
decision_type=2 2 2 2 2
left_child=2 3 -1 -2 -5
right_child=1 -3 -4 4 -6
leaf_value=3.4972173827035092e-05 1.8718562675978093e-05 -2.4479232638715263e-06 -1.1356721856295281e-05 5.4922190247452822e-05 4.981401507839835e-05
leaf_weight=161 303 415 4193 384 326
leaf_count=161 303 415 4193 384 326
internal_value=0 2.94015e-05 -9.6436e-06 4.24494e-05 5.25767e-05
internal_weight=0 1428 4354 1013 710
internal_count=5782 1428 4354 1013 710
is_linear=0
shrinkage=0.2


Tree=34
num_leaves=6
num_cat=0
split_feature=0 0 0 0 0
split_gain=2.62232e-05 9.49549e-06 5.32432e-06 3.89583e-06 7.35811e-08
threshold=14.000000000000002 40.500000000000007 9.0000000000000018 22.000000000000004 31.000000000000004
decision_type=2 2 2 2 2
left_child=2 3 -1 -2 -5
right_child=1 -3 -4 4 -6
leaf_value=2.7977978313191342e-05 1.4971162226333871e-05 -1.9618289836918017e-06 -9.084209882392822e-06 4.3935600600282973e-05 3.9849886270754178e-05
leaf_weight=161 303 415 4193 384 326
leaf_count=161 303 415 4193 384 326
internal_value=0 2.35185e-05 -7.71374e-06 3.39572e-05 4.20596e-05
internal_weight=0 1428 4354 1013 710
internal_count=5782 1428 4354 1013 710
is_linear=0
shrinkage=0.2


Tree=35
num_leaves=6
num_cat=0
split_feature=0 0 0 0 0
split_gain=1.67834e-05 6.07512e-06 3.4076e-06 2.49366e-06 4.70296e-08
threshold=14.000000000000002 40.500000000000007 9.0000000000000018 22.000000000000004 31.000000000000004
decision_type=2 2 2 2 2
left_child=2 3 -1 -2 -5
right_child=1 -3 -4 4 -6
leaf_value=2.2383376678324636e-05 1.1975851168136786e-05 -1.564845891602068e-06 -7.2665121752814077e-06 3.514782001730055e-05 3.1881410902811703e-05
leaf_weight=161 303 415 4193 384 326
leaf_count=161 303 415 4193 384 326
internal_value=0 1.88161e-05 -6.17013e-06 2.71656e-05 3.3648e-05
internal_weight=0 1428 4354 1013 710
internal_count=5782 1428 4354 1013 710
is_linear=0
shrinkage=0.2


Tree=36
num_leaves=6
num_cat=0
split_feature=0 0 0 0 0
split_gain=1.07406e-05 3.88913e-06 2.17993e-06 1.59581e-06 2.99974e-08
threshold=14.000000000000002 40.500000000000007 9.0000000000000018 22.000000000000004 31.000000000000004
decision_type=2 2 2 2 2
left_child=2 3 -1 -2 -5
right_child=1 -3 -4 4 -6
leaf_value=1.7903085728609786e-05 9.5826957878893378e-06 -1.2534722147217718e-06 -5.8117419687398947e-06 2.8117520802576719e-05 2.5508804189646906e-05
leaf_weight=161 303 415 4193 384 326
leaf_count=161 303 415 4193 384 326
internal_value=0 1.50535e-05 -4.93483e-06 2.1734e-05 2.69197e-05
internal_weight=0 1428 4354 1013 710
internal_count=5782 1428 4354 1013 710
is_linear=0
shrinkage=0.2


Tree=37
num_leaves=6
num_cat=0
split_feature=0 0 0 0 0
split_gain=6.87424e-06 2.49007e-06 1.39562e-06 1.02166e-06 1.92658e-08
threshold=14.000000000000002 40.500000000000007 9.0000000000000018 22.000000000000004 31.000000000000004
decision_type=2 2 2 2 2
left_child=2 3 -1 -2 -5
right_child=1 -3 -4 4 -6
leaf_value=1.4325032323043538e-05 7.6653989087236992e-06 -1.005663659917303e-06 -4.6499745066051347e-06 2.2497302901077398e-05 2.0406664880506833e-05
leaf_weight=161 303 415 4193 384 326
leaf_count=161 303 415 4193 384 326
internal_value=0 1.20426e-05 -3.94833e-06 1.73881e-05 2.15374e-05
internal_weight=0 1428 4354 1013 710
internal_count=5782 1428 4354 1013 710
is_linear=0
shrinkage=0.2


Tree=38
num_leaves=6
num_cat=0
split_feature=0 0 0 0 0
split_gain=4.39942e-06 1.59279e-06 8.93395e-07 6.53569e-07 1.23137e-08
threshold=14.000000000000002 40.500000000000007 9.0000000000000018 22.000000000000004 31.000000000000004
decision_type=2 2 2 2 2
left_child=2 3 -1 -2 -5
right_child=1 -3 -4 4 -6
leaf_value=1.1462068057948759e-05 6.1332048362631216e-06 -8.0146389194281708e-07 -3.7196375835654051e-06 1.7995698605470049e-05 1.6324306078300886e-05
leaf_weight=161 303 415 4193 384 326
leaf_count=161 303 415 4193 384 326
internal_value=0 9.63433e-06 -3.15826e-06 1.39096e-05 1.72283e-05
internal_weight=0 1428 4354 1013 710
internal_count=5782 1428 4354 1013 710
is_linear=0
shrinkage=0.2


Tree=39
num_leaves=6
num_cat=0
split_feature=0 0 0 0 0
split_gain=2.81557e-06 1.02061e-06 5.71677e-07 4.1821e-07 7.8935e-09
threshold=14.000000000000002 40.500000000000007 9.0000000000000018 22.000000000000004 31.000000000000004
decision_type=2 2 2 2 2
left_child=2 3 -1 -2 -5
right_child=1 -3 -4 4 -6
leaf_value=9.1677843969060782e-06 4.908162793113847e-06 -6.4717358853443569e-07 -2.9765606000255408e-06 1.4397867441099757e-05 1.3059671922512582e-05
leaf_weight=161 303 415 4193 384 326
leaf_count=161 303 415 4193 384 326
internal_value=0 7.70646e-06 -2.52749e-06 1.11287e-05 1.37834e-05
internal_weight=0 1428 4354 1013 710
internal_count=5782 1428 4354 1013 710
is_linear=0
shrinkage=0.2


Tree=40
num_leaves=6
num_cat=0
split_feature=0 0 0 0 0
split_gain=1.80156e-06 6.52006e-07 3.65897e-07 2.67753e-07 5.06324e-09
threshold=14.000000000000002 40.500000000000007 9.0000000000000018 22.000000000000004 31.000000000000004
decision_type=2 2 2 2 2
left_child=2 3 -1 -2 -5
right_child=1 -3 -4 4 -6
leaf_value=7.3357051388817542e-06 3.9233878353247944e-06 -5.1143971911395893e-07 -2.3800852063722555e-06 1.1517009625094943e-05 1.044524605014573e-05
leaf_weight=161 303 415 4193 384 326
leaf_count=161 303 415 4193 384 326
internal_value=0 6.16542e-06 -2.02082e-06 8.90076e-06 1.10249e-05
internal_weight=0 1428 4354 1013 710
internal_count=5782 1428 4354 1013 710
is_linear=0
shrinkage=0.2


Tree=41
num_leaves=6
num_cat=0
split_feature=0 0 0 0 0
split_gain=1.15176e-06 4.17509e-07 2.34107e-07 1.71304e-07 3.23883e-09
threshold=14.000000000000002 40.500000000000007 9.0000000000000018 22.000000000000004 31.000000000000004
decision_type=2 2 2 2 2
left_child=2 3 -1 -2 -5
right_child=1 -3 -4 4 -6
leaf_value=5.8680194320145602e-06 3.1369895038038198e-06 -4.1357364999242575e-07 -1.9034964822973698e-06 9.2108304670546214e-06 8.3536366743544128e-06
leaf_weight=161 303 415 4193 384 326
leaf_count=161 303 415 4193 384 326
internal_value=0 4.92936e-06 -1.61613e-06 7.11822e-06 8.81725e-06
internal_weight=0 1428 4354 1013 710
internal_count=5782 1428 4354 1013 710
is_linear=0
shrinkage=0.2


Tree=42
num_leaves=6
num_cat=0
split_feature=0 0 0 0 0
split_gain=7.38676e-07 2.66805e-07 1.49905e-07 1.09655e-07 2.07639e-09
threshold=14.000000000000002 40.500000000000007 9.0000000000000018 22.000000000000004 31.000000000000004
decision_type=2 2 2 2 2
left_child=2 3 -1 -2 -5
right_child=1 -3 -4 4 -6
leaf_value=4.693016594981555e-06 2.5105555065394239e-06 -3.2507870570722832e-07 -1.5257806542726853e-06 7.3703265419074645e-06 6.6839861312161193e-06
leaf_weight=161 303 415 4193 384 326
leaf_count=161 303 415 4193 384 326
internal_value=0 3.94606e-06 -1.29583e-06 5.69584e-06 7.05519e-06
internal_weight=0 1428 4354 1013 710
internal_count=5782 1428 4354 1013 710
is_linear=0
shrinkage=0.2


Tree=43
num_leaves=6
num_cat=0
split_feature=0 0 0 0 0
split_gain=4.71902e-07 1.71306e-07 9.58678e-08 7.01735e-08 1.32817e-09
threshold=14.000000000000002 40.500000000000007 9.0000000000000018 22.000000000000004 31.000000000000004
decision_type=2 2 2 2 2
left_child=2 3 -1 -2 -5
right_child=1 -3 -4 4 -6
leaf_value=3.7547062087503284e-06 2.0091043840540519e-06 -2.6726623974650739e-07 -1.2184846182299376e-06 5.8967019867850471e-06 5.3477782093308459e-06
leaf_weight=161 303 415 4193 384 326
leaf_count=161 303 415 4193 384 326
internal_value=0 3.15515e-06 -1.03459e-06 4.55722e-06 5.64466e-06
internal_weight=0 1428 4354 1013 710
internal_count=5782 1428 4354 1013 710
is_linear=0
shrinkage=0.2


Tree=44
num_leaves=6
num_cat=0
split_feature=0 0 0 0 0
split_gain=3.02154e-07 1.09301e-07 6.12964e-08 4.49828e-08 8.55051e-10
threshold=14.000000000000002 40.500000000000007 9.0000000000000018 22.000000000000004 31.000000000000004
decision_type=2 2 2 2 2
left_child=2 3 -1 -2 -5
right_child=1 -3 -4 4 -6
leaf_value=3.0024289529516092e-06 1.6052048444354494e-06 -2.0836850246751165e-07 -9.7421217810175116e-07 4.7181990036430461e-06 4.2777651338123838e-06
leaf_weight=161 303 415 4193 384 326
leaf_count=161 303 415 4193 384 326
internal_value=0 2.52538e-06 -8.27166e-07 3.64533e-06 4.51597e-06
internal_weight=0 1428 4354 1013 710
internal_count=5782 1428 4354 1013 710
is_linear=0
shrinkage=0.2


Tree=45
num_leaves=6
num_cat=0
split_feature=0 0 0 0 0
split_gain=1.93686e-07 7.03039e-08 3.93288e-08 2.86688e-08 5.26311e-10
threshold=14.000000000000002 40.500000000000007 9.0000000000000018 22.000000000000004 31.000000000000004
decision_type=2 2 2 2 2
left_child=2 3 -1 -2 -5
right_child=1 -3 -4 4 -6
leaf_value=2.4039575957363442e-06 1.2900956934041316e-06 -1.7190194991697749e-07 -7.8137007810934161e-07 3.7725039874203503e-06 3.4269579669083553e-06
leaf_weight=161 303 415 4193 384 326
leaf_count=161 303 415 4193 384 326
internal_value=0 2.02058e-06 -6.63585e-07 2.91878e-06 3.61384e-06
internal_weight=0 1428 4354 1013 710
internal_count=5782 1428 4354 1013 710
is_linear=0
shrinkage=0.2


Tree=46
num_leaves=6
num_cat=0
split_feature=0 0 0 0 0
split_gain=1.24378e-07 4.47453e-08 2.52481e-08 1.83922e-08 3.46702e-10
threshold=14.000000000000002 40.500000000000007 9.0000000000000018 22.000000000000004 31.000000000000004
decision_type=2 2 2 2 2
left_child=2 3 -1 -2 -5
right_child=1 -3 -4 4 -6
leaf_value=1.9244502605118365e-06 1.0296505669949472e-06 -1.3152608670384052e-07 -6.2773939050625655e-07 3.0196556811764214e-06 2.7392008141871614e-06
leaf_weight=161 303 415 4193 384 326
leaf_count=161 303 415 4193 384 326
internal_value=0 1.6176e-06 -5.33366e-07 2.33417e-06 2.89088e-06
internal_weight=0 1428 4354 1013 710
internal_count=5782 1428 4354 1013 710
is_linear=0
shrinkage=0.2


Tree=47
num_leaves=6
num_cat=0
split_feature=0 0 0 0 0
split_gain=7.90956e-08 2.86875e-08 1.60609e-08 1.17758e-08 2.18527e-10
threshold=14.000000000000002 40.500000000000007 9.0000000000000018 22.000000000000004 31.000000000000004
decision_type=2 2 2 2 2
left_child=2 3 -1 -2 -5
right_child=1 -3 -4 4 -6
leaf_value=1.5381561673205832e-06 8.230948998983151e-07 -1.0737543364605272e-07 -4.9740007431942676e-07 2.4146167561411859e-06 2.1919590975243622e-06
leaf_weight=161 303 415 4193 384 326
leaf_count=161 303 415 4193 384 326
internal_value=0 1.29316e-06 -4.2213e-07 1.86692e-06 2.31238e-06
internal_weight=0 1428 4354 1013 710
internal_count=5782 1428 4354 1013 710
is_linear=0
shrinkage=0.2


Tree=48
num_leaves=6
num_cat=0
split_feature=0 0 0 0 0
split_gain=5.07526e-08 1.82929e-08 1.03251e-08 7.54088e-09 1.4596e-10
threshold=14.000000000000002 40.500000000000007 9.0000000000000018 22.000000000000004 31.000000000000004
decision_type=2 2 2 2 2
left_child=2 3 -1 -2 -5
right_child=1 -3 -4 4 -6
leaf_value=1.2320391139628725e-06 6.5717071589857046e-07 -8.4071723093469465e-08 -4.0005653076657467e-07 1.9325010119549311e-06 1.7505299094264493e-06
leaf_weight=161 303 415 4193 384 326
leaf_count=161 303 415 4193 384 326
internal_value=0 1.0343e-06 -3.39706e-07 1.49247e-06 1.84895e-06
internal_weight=0 1428 4354 1013 710
internal_count=5782 1428 4354 1013 710
is_linear=0
shrinkage=0.2


Tree=49
num_leaves=6
num_cat=0
split_feature=0 0 0 0 0
split_gain=3.26267e-08 1.17102e-08 6.56968e-09 4.81388e-09 8.9291e-11
threshold=14.000000000000002 40.500000000000007 9.0000000000000018 22.000000000000004 31.000000000000004
decision_type=2 2 2 2 2
left_child=2 3 -1 -2 -5
right_child=1 -3 -4 4 -6
leaf_value=9.8134327379072684e-07 5.2845087086800302e-07 -6.5544014235576954e-08 -3.2053630903004292e-07 1.5460094194471215e-06 1.4036819567343941e-06
leaf_weight=161 303 415 4193 384 326
leaf_count=161 303 415 4193 384 326
internal_value=0 8.29263e-07 -2.72396e-07 1.19584e-06 1.48066e-06
internal_weight=0 1428 4354 1013 710
internal_count=5782 1428 4354 1013 710
is_linear=0
shrinkage=0.2


Tree=50
num_leaves=6
num_cat=0
split_feature=0 0 0 0 0
split_gain=2.08298e-08 7.54862e-09 4.20312e-09 3.12085e-09 5.79092e-11
threshold=14.000000000000002 40.500000000000007 9.0000000000000018 22.000000000000004 31.000000000000004
decision_type=2 2 2 2 2
left_child=2 3 -1 -2 -5
right_child=1 -3 -4 4 -6
leaf_value=7.8463406296250235e-07 4.1901708731163451e-07 -5.6360051574477236e-08 -2.5668750534173047e-07 1.2383373056460792e-06 1.1237178203518405e-06
leaf_weight=161 303 415 4193 384 326
leaf_count=161 303 415 4193 384 326
internal_value=0 6.62063e-07 -2.18182e-07 9.56383e-07 1.18571e-06
internal_weight=0 1428 4354 1013 710
internal_count=5782 1428 4354 1013 710
is_linear=0
shrinkage=0.2


Tree=51
num_leaves=6
num_cat=0
split_feature=0 0 0 0 0
split_gain=1.34043e-08 4.79687e-09 2.71544e-09 1.98447e-09 3.73883e-11
threshold=14.000000000000002 40.500000000000007 9.0000000000000018 22.000000000000004 31.000000000000004
decision_type=2 2 2 2 2
left_child=2 3 -1 -2 -5
right_child=1 -3 -4 4 -6
leaf_value=6.3195269300330498e-07 3.3815800160071244e-07 -4.0654137910130511e-08 -2.0503401871785727e-07 9.9181949432628849e-07 8.9972102843179303e-07
leaf_weight=161 303 415 4193 384 326
leaf_count=161 303 415 4193 384 326
internal_value=0 5.32044e-07 -1.74084e-07 7.66663e-07 9.49532e-07
internal_weight=0 1428 4354 1013 710
internal_count=5782 1428 4354 1013 710
is_linear=0
shrinkage=0.2


Tree=52
num_leaves=6
num_cat=0
split_feature=0 0 0 0 0
split_gain=8.47135e-09 3.07649e-09 1.7211e-09 1.26377e-09 2.32265e-11
threshold=14.000000000000002 40.500000000000007 9.0000000000000018 22.000000000000004 31.000000000000004
decision_type=2 2 2 2 2
left_child=2 3 -1 -2 -5
right_child=1 -3 -4 4 -6
leaf_value=5.0317565476672247e-07 2.6876186773721928e-07 -3.582113478557173e-08 -1.6317286810953409e-07 7.899775179491068e-07 7.1738749468253434e-07
leaf_weight=161 303 415 4193 384 326
leaf_count=161 303 415 4193 384 326
internal_value=0 4.22821e-07 -1.38533e-07 6.10715e-07 7.56647e-07
internal_weight=0 1428 4354 1013 710
internal_count=5782 1428 4354 1013 710
is_linear=0
shrinkage=0.2


Tree=53
num_leaves=6
num_cat=0
split_feature=0 0 0 0 0
split_gain=5.49801e-09 2.00769e-09 1.11409e-09 8.01162e-10 1.5496e-11
threshold=14.000000000000002 40.500000000000007 9.0000000000000018 22.000000000000004 31.000000000000004
decision_type=2 2 2 2 2
left_child=2 3 -1 -2 -5
right_child=1 -3 -4 4 -6
leaf_value=4.0246324139352168e-07 2.1792579405378589e-07 -3.210123044898711e-08 -1.3365359626392348e-07 6.3360809387328735e-07 5.7431634949760207e-07
leaf_weight=161 303 415 4193 384 326
leaf_count=161 303 415 4193 384 326
internal_value=0 3.38405e-07 -1.13829e-07 4.90192e-07 6.06384e-07
internal_weight=0 1428 4354 1013 710
internal_count=5782 1428 4354 1013 710
is_linear=0
shrinkage=0.2


Tree=54
num_leaves=6
num_cat=0
split_feature=0 0 0 0 0
split_gain=3.45911e-09 1.28977e-09 7.20224e-10 5.15247e-10 1.05275e-11
threshold=14.000000000000002 40.500000000000007 9.0000000000000018 22.000000000000004 31.000000000000004
decision_type=2 2 2 2 2
left_child=2 3 -1 -2 -5
right_child=1 -3 -4 4 -6
leaf_value=3.2584720887012365e-07 1.7275511234900348e-07 -2.7521816362817607e-08 -1.0520778862937608e-07 5.0671854599689445e-07 4.5784789086119529e-07
leaf_weight=161 303 415 4193 384 326
leaf_count=161 303 415 4193 384 326
internal_value=0 2.69441e-07 -8.92685e-08 3.91099e-07 4.84279e-07
internal_weight=0 1428 4354 1013 710
internal_count=5782 1428 4354 1013 710
is_linear=0
shrinkage=0.2


Tree=55
num_leaves=6
num_cat=0
split_feature=0 0 0 0 0
split_gain=2.27543e-09 8.00893e-10 4.58994e-10 3.25607e-10 7.07406e-12
threshold=14.000000000000002 40.500000000000007 9.0000000000000018 22.000000000000004 31.000000000000004
decision_type=2 2 2 2 2
left_child=2 3 -1 -2 -5
right_child=1 -3 -4 4 -6
leaf_value=2.5819269766718705e-07 1.4003157222231624e-07 -1.627368381224483e-08 -8.5921404137407831e-08 4.0607167951141794e-07 3.6601091455096848e-07
leaf_weight=161 303 415 4193 384 326
leaf_count=161 303 415 4193 384 326
internal_value=0 2.17736e-07 -7.31969e-08 3.13604e-07 3.87678e-07
internal_weight=0 1428 4354 1013 710
internal_count=5782 1428 4354 1013 710
is_linear=0
shrinkage=0.2


Tree=56
num_leaves=6
num_cat=0
split_feature=0 0 0 0 0
split_gain=1.41485e-09 5.11707e-10 2.90918e-10 2.16092e-10 4.59418e-12
threshold=14.000000000000002 40.500000000000007 9.0000000000000018 22.000000000000004 31.000000000000004
decision_type=2 2 2 2 2
left_child=2 3 -1 -2 -5
right_child=1 -3 -4 4 -6
leaf_value=2.0789202325832771e-07 1.0870470859036588e-07 -1.3573521591094604e-08 -6.6065842287084983e-08 3.2527362539743386e-07 2.9298951106568789e-07
leaf_weight=161 303 415 4193 384 326
leaf_count=161 303 415 4193 384 326
internal_value=0 1.73476e-07 -5.59356e-08 2.50106e-07 3.1045e-07
internal_weight=0 1428 4354 1013 710
internal_count=5782 1428 4354 1013 710
is_linear=0
shrinkage=0.2


Tree=57
num_leaves=6
num_cat=0
split_feature=0 0 0 0 0
split_gain=9.27132e-10 3.29777e-10 1.85591e-10 1.41338e-10 2.05817e-12
threshold=14.000000000000002 40.500000000000007 9.0000000000000018 22.000000000000004 31.000000000000004
decision_type=2 2 2 2 2
left_child=2 3 -1 -2 -5
right_child=1 -3 -4 4 -6
leaf_value=1.632834073179257e-07 8.5427791568705754e-08 -1.1893101485378772e-08 -5.5531802128102199e-08 2.5850955959564695e-07 2.3690103753212774e-07
leaf_weight=161 303 415 4193 384 326
leaf_count=161 303 415 4193 384 326
internal_value=0 1.38268e-07 -4.74406e-08 1.99785e-07 2.48588e-07
internal_weight=0 1428 4354 1013 710
internal_count=5782 1428 4354 1013 710
is_linear=0
shrinkage=0.2


Tree=58
num_leaves=6
num_cat=0
split_feature=0 0 0 0 0
split_gain=5.80239e-10 2.13542e-10 1.21109e-10 8.19189e-11 1.2836e-12
threshold=14.000000000000002 40.500000000000007 9.0000000000000018 22.000000000000004 31.000000000000004
decision_type=2 2 2 2 2
left_child=2 3 -1 -2 -5
right_child=1 -3 -4 4 -6
leaf_value=1.3511003174396776e-07 7.4240240720239029e-08 -9.0345022190048034e-09 -4.1651441996631491e-08 2.0629122445825488e-07 1.8922646352849857e-07
leaf_weight=161 303 415 4193 384 326
leaf_count=161 303 415 4193 384 326
internal_value=0 1.11799e-07 -3.51152e-08 1.61302e-07 1.98456e-07
internal_weight=0 1428 4354 1013 710
internal_count=5782 1428 4354 1013 710
is_linear=0
shrinkage=0.2


Tree=59
num_leaves=6
num_cat=0
split_feature=0 0 0 0 0
split_gain=3.71255e-10 1.37749e-10 7.67117e-11 5.80573e-11 1.4003e-12
threshold=14.000000000000002 40.500000000000007 9.0000000000000018 22.000000000000004 31.000000000000004
decision_type=2 2 2 2 2
left_child=2 3 -1 -2 -5
right_child=1 -3 -4 4 -6
leaf_value=1.0641835491109339e-07 5.4922827793033216e-08 -8.591955684753785e-09 -3.4260754348013187e-08 1.6767795993170393e-07 1.4985437316397217e-07
leaf_weight=161 303 415 4193 384 326
leaf_count=161 303 415 4193 384 326
internal_value=0 8.84572e-08 -2.90588e-08 1.28216e-07 1.59494e-07
internal_weight=0 1428 4354 1013 710
internal_count=5782 1428 4354 1013 710
is_linear=0
shrinkage=0.2


Tree=60
num_leaves=6
num_cat=0
split_feature=0 0 0 0 0
split_gain=2.36132e-10 9.09002e-11 4.63226e-11 3.62983e-11 5.96838e-13
threshold=14.000000000000002 40.500000000000007 9.0000000000000018 22.000000000000004 31.000000000000004
decision_type=2 2 2 2 2
left_child=2 3 -1 -2 -5
right_child=1 -3 -4 4 -6
leaf_value=8.3164213607029888e-08 4.5953238561208493e-08 -7.2279608393289964e-09 -2.6154683024622281e-08 1.3398118123101692e-07 1.223449326731676e-07
leaf_weight=161 303 415 4193 384 326
leaf_count=161 303 415 4193 384 326
internal_value=0 7.16089e-08 -2.21123e-08 1.03906e-07 1.28638e-07
internal_weight=0 1428 4354 1013 710
internal_count=5782 1428 4354 1013 710
is_linear=0
shrinkage=0.2


Tree=61
num_leaves=6
num_cat=0
split_feature=0 0 0 0 0
split_gain=1.40193e-10 5.63652e-11 2.98358e-11 2.15044e-11 2.43165e-13
threshold=14.000000000000002 40.500000000000007 9.0000000000000018 22.000000000000004 31.000000000000004
decision_type=2 2 2 2 2
left_child=2 3 -1 -2 -5
right_child=1 -3 -4 4 -6
leaf_value=6.7457834385937051e-08 3.6008680614307772e-08 -6.8976218441882764e-09 -2.0276134064736014e-08 1.0306163555166374e-07 9.563425841507005e-08
leaf_weight=161 303 415 4193 384 326
leaf_count=161 303 415 4193 384 326
internal_value=0 5.51825e-08 -1.7032e-08 8.06151e-08 9.96513e-08
internal_weight=0 1428 4354 1013 710
internal_count=5782 1428 4354 1013 710
is_linear=0
shrinkage=0.2


Tree=62
num_leaves=6
num_cat=0
split_feature=0 0 0 0 0
split_gain=1.00759e-10 3.66573e-11 1.92386e-11 1.42768e-11 5.05052e-13
threshold=14.000000000000002 40.500000000000007 9.0000000000000018 22.000000000000004 31.000000000000004
decision_type=2 2 2 2 2
left_child=2 3 -1 -2 -5
right_child=1 -3 -4 4 -6
leaf_value=5.2149436488655047e-08 2.9689825997494236e-08 -4.5390193720898001e-09 -1.830128820036864e-08 8.6460689393182602e-08 7.5756520764228026e-08
leaf_weight=161 303 415 4193 384 326
leaf_count=161 303 415 4193 384 326
internal_value=0 4.55251e-08 -1.56962e-08 6.60351e-08 8.15458e-08
internal_weight=0 1428 4354 1013 710
internal_count=5782 1428 4354 1013 710
is_linear=0
shrinkage=0.2


Tree=63
num_leaves=6
num_cat=0
split_feature=0 0 0 0 0
split_gain=6.52169e-11 2.51604e-11 1.33234e-11 8.23269e-12 6.87749e-14
threshold=14.000000000000002 40.500000000000007 9.0000000000000018 22.000000000000004 31.000000000000004
decision_type=2 2 2 2 2
left_child=2 3 -1 -2 -5
right_child=1 -3 -4 4 -6
leaf_value=4.435640684566143e-08 2.6542386009354795e-08 -4.326722708093115e-09 -1.427175771669815e-08 6.7734193483678009e-08 6.3784169090306102e-08
leaf_weight=161 303 415 4193 384 326
leaf_count=161 303 415 4193 384 326
internal_value=0 3.71501e-08 -1.21038e-08 5.41421e-08 6.59205e-08
internal_weight=0 1428 4354 1013 710
internal_count=5782 1428 4354 1013 710
is_linear=0
shrinkage=0.2


Tree=64
num_leaves=6
num_cat=0
split_feature=0 0 0 0 0
split_gain=3.73425e-11 1.5911e-11 7.89417e-12 5.06767e-12 4.95305e-14
threshold=14.000000000000002 40.500000000000007 9.0000000000000018 22.000000000000004 31.000000000000004
decision_type=2 2 2 2 2
left_child=2 3 -1 -2 -5
right_child=1 -3 -4 4 -6
leaf_value=3.4971451907424455e-08 2.0640321297220666e-08 -4.2014990944460217e-09 -1.0157179912774796e-08 5.3074472816661e-08 4.9722340940697794e-08
leaf_weight=161 303 415 4193 384 326
leaf_count=161 303 415 4193 384 326
internal_value=0 2.87818e-08 -8.48844e-09 4.22943e-08 5.15353e-08
internal_weight=0 1428 4354 1013 710
internal_count=5782 1428 4354 1013 710
is_linear=0
shrinkage=0.2


Tree=65
num_leaves=6
num_cat=0
split_feature=0 0 0 0 0
split_gain=2.67242e-11 9.9334e-12 5.03676e-12 4.80988e-12 2.79979e-14
threshold=14.000000000000002 40.500000000000007 9.0000000000000018 22.000000000000004 31.000000000000004
decision_type=2 2 2 2 2
left_child=2 3 -1 -2 -5
right_child=1 -3 -4 4 -6
leaf_value=2.6282964285856447e-08 1.2678281702224178e-08 -2.9636255229812072e-09 -9.7644829626388151e-09 4.3934414861723782e-08 4.1414143666167933e-08
leaf_weight=161 303 415 4193 384 326
leaf_count=161 303 415 4193 384 326
internal_value=0 2.30976e-08 -8.43154e-09 3.37743e-08 4.27772e-08
internal_weight=0 1428 4354 1013 710
internal_count=5782 1428 4354 1013 710
is_linear=0
shrinkage=0.2


Tree=66
num_leaves=6
num_cat=0
split_feature=0 0 0 0 0
split_gain=1.85833e-11 7.09894e-12 3.2999e-12 2.83206e-12 1.74061e-13
threshold=14.000000000000002 40.500000000000007 9.0000000000000018 22.000000000000004 31.000000000000004
decision_type=2 2 2 2 2
left_child=2 3 -1 -2 -5
right_child=1 -3 -4 4 -6
leaf_value=2.0993514831021708e-08 1.2024819064061635e-08 -2.8446855315242906e-09 -8.1840776406351142e-09 3.800608586364736e-08 3.172210389119716e-08
leaf_weight=161 303 415 4193 384 326
leaf_count=161 303 415 4193 384 326
internal_value=0 1.91868e-08 -7.10516e-09 2.82125e-08 3.51208e-08
internal_weight=0 1428 4354 1013 710
internal_count=5782 1428 4354 1013 710
is_linear=0
shrinkage=0.2


Tree=67
num_leaves=6
num_cat=0
split_feature=0 0 0 0 0
split_gain=1.06443e-11 3.56662e-12 2.6769e-12 1.59154e-12 3.89141e-14
threshold=14.000000000000002 40.500000000000007 9.0000000000000018 22.000000000000004 31.000000000000004
decision_type=2 2 2 2 2
left_child=2 3 -1 -2 -5
right_child=1 -3 -4 4 -6
leaf_value=1.8385811622098368e-08 7.2391119727207105e-09 -2.6395701500306647e-09 -7.8935640795885353e-09 2.5917203553641839e-08 2.2945959875188725e-08
leaf_weight=161 303 415 4193 384 326
leaf_count=161 303 415 4193 384 326
internal_value=0 1.29766e-08 -6.92182e-09 1.93742e-08 2.45529e-08
internal_weight=0 1428 4354 1013 710
internal_count=5782 1428 4354 1013 710
is_linear=0
shrinkage=0.2


end of trees

feature_importances:
Column_0=340

parameters:
[boosting: gbdt]
[objective: regression]
[metric: custom]
[tree_learner: serial]
[device_type: cpu]
[data: ]
[valid: ]
[num_iterations: 10000]
[learning_rate: 0.2]
[num_leaves: 63]
[num_threads: 0]
[deterministic: 0]
[force_col_wise: 0]
[force_row_wise: 0]
[histogram_pool_size: -1]
[max_depth: -1]
[min_data_in_leaf: 30]
[min_sum_hessian_in_leaf: 0.001]
[bagging_fraction: 1]
[pos_bagging_fraction: 1]
[neg_bagging_fraction: 1]
[bagging_freq: 0]
[bagging_seed: 21187]
[feature_fraction: 0.5]
[feature_fraction_bynode: 1]
[feature_fraction_seed: 30770]
[extra_trees: 0]
[extra_seed: 27351]
[early_stopping_round: 0]
[first_metric_only: 0]
[max_delta_step: 0]
[lambda_l1: 0]
[lambda_l2: 0]
[linear_lambda: 0]
[min_gain_to_split: 0]
[drop_rate: 0.1]
[max_drop: 50]
[skip_drop: 0.5]
[xgboost_dart_mode: 0]
[uniform_drop: 0]
[drop_seed: 3778]
[top_rate: 0.2]
[other_rate: 0.1]
[min_data_per_group: 100]
[max_cat_threshold: 32]
[cat_l2: 10]
[cat_smooth: 10]
[max_cat_to_onehot: 4]
[top_k: 20]
[monotone_constraints: ]
[monotone_constraints_method: basic]
[monotone_penalty: 0]
[feature_contri: ]
[forcedsplits_filename: ]
[refit_decay_rate: 0.9]
[cegb_tradeoff: 1]
[cegb_penalty_split: 0]
[cegb_penalty_feature_lazy: ]
[cegb_penalty_feature_coupled: ]
[path_smooth: 0]
[interaction_constraints: ]
[verbosity: -1]
[saved_feature_importance_type: 0]
[linear_tree: 0]
[max_bin: 255]
[max_bin_by_feature: ]
[min_data_in_bin: 3]
[bin_construct_sample_cnt: 200000]
[data_random_seed: 4084]
[is_enable_sparse: 1]
[enable_bundle: 1]
[use_missing: 1]
[zero_as_missing: 0]
[feature_pre_filter: 1]
[pre_partition: 0]
[two_round: 0]
[header: 0]
[label_column: ]
[weight_column: ]
[group_column: ]
[ignore_column: ]
[categorical_feature: ]
[forcedbins_filename: ]
[precise_float_parser: 0]
[objective_seed: 9093]
[num_class: 1]
[is_unbalance: 0]
[scale_pos_weight: 1]
[sigmoid: 1]
[boost_from_average: 1]
[reg_sqrt: 0]
[alpha: 0.9]
[fair_c: 1]
[poisson_max_delta_step: 0.7]
[tweedie_variance_power: 1.5]
[lambdarank_truncation_level: 30]
[lambdarank_norm: 1]
[label_gain: ]
[eval_at: ]
[multi_error_top_k: 1]
[auc_mu_weights: ]
[num_machines: 1]
[local_listen_port: 12400]
[time_out: 120]
[machine_list_filename: ]
[machines: ]
[gpu_platform_id: -1]
[gpu_device_id: -1]
[gpu_use_dp: 0]
[num_gpu: 1]

end of parameters

pandas_categorical:null
