tree
version=v3
num_class=1
num_tree_per_iteration=1
label_index=0
max_feature_idx=72
objective=regression
feature_names=Column_0 Column_1 Column_2 Column_3 Column_4 Column_5 Column_6 Column_7 Column_8 Column_9 Column_10 Column_11 Column_12 Column_13 Column_14 Column_15 Column_16 Column_17 Column_18 Column_19 Column_20 Column_21 Column_22 Column_23 Column_24 Column_25 Column_26 Column_27 Column_28 Column_29 Column_30 Column_31 Column_32 Column_33 Column_34 Column_35 Column_36 Column_37 Column_38 Column_39 Column_40 Column_41 Column_42 Column_43 Column_44 Column_45 Column_46 Column_47 Column_48 Column_49 Column_50 Column_51 Column_52 Column_53 Column_54 Column_55 Column_56 Column_57 Column_58 Column_59 Column_60 Column_61 Column_62 Column_63 Column_64 Column_65 Column_66 Column_67 Column_68 Column_69 Column_70 Column_71 Column_72
feature_infos=[5:56] [3862.1968252761731:34830.782809281292] [3600:36097.546012269937] [3600:36097.546012269937] [3600:36097.546012269937] [3600:36097.546012269937] [3600:36097.546012269937] [3600:36097.546012269937] [3600:36097.546012269937] [3600:36097.546012269937] [3600:36097.546012269937] [3600:36097.546012269937] [3600.0000510003374:10800.000170809659] [3600.000051000331:10800.000170271722] [3600.1379879094484:10800.000142357654] [3599.9985041427444:10802.378597712463] [3599.9985041427444:10802.378597712463] [3599.9985041427444:10802.378597712463] [3599.9970784284369:10824.369168355082] [3599.9970784284369:10824.369168355082] [3599.9970784284369:10824.369168355082] [5833.48486328125:11705.0947265625] [5833.48486328125:11705.0947265625] [5833.48486328125:11705.0947265625] [3599.9985721739713:10800.01370759139] [5486.63330078125:11693.0390625] [5486.63330078125:11693.0390625] [5486.63330078125:11693.0390625] [5826.51171875:11765.7724609375] [5826.51171875:11765.7724609375] [5826.51171875:11765.7724609375] [5410.93115234375:11710.005859375] [4322.343875974072:12169.21654132908] [4322.343875974072:12169.21654132908] [4322.343875974072:12169.21654132908] [3600.0000000000005:11973.646284864382] [3600.0000000000005:11973.646284864382] [3600.0000000000005:11973.646284864382] [4658.2077587370877:11708.156873723416] [4658.2077587370877:11708.156873723416] [4658.2077587370877:11708.156873723416] [4870.3792011057931:12406.854860656607] [3600.0000000000005:11702.084126378597] [3600.0000000000005:11702.084126378597] [3600.0000000000005:11702.084126378597] [3600.0000000000005:11702.084126378597] [3600.0000000000005:11702.084126378597] [3600.0000000000005:11702.084126378597] [3600.0000000000005:11702.084126378597] [3600.0000000000005:11702.084126378597] [3600.0000000000005:11702.084126378597] [3600.0000000000005:11702.084126378597] [5375.5914935020501:12390.272091594814] [5569.0077228318178:12695.950666046418] [4671.2788396669785:11865.888611784518] [5850.5549356312858:11453.941784757943] [5850.5549356312858:11453.941784757943] [5850.5549356312858:11453.941784757943] [5850.5549356312858:11453.941784757943] [5850.5549356312858:11453.941784757943] [5850.5549356312858:11453.941784757943] [5850.5549356312858:11453.941784757943] [5850.5549356312858:11453.941784757943] [5850.5549356312858:11453.941784757943] [5850.554932927068:11453.941371529456] [4314.7566924276534:11643.484449980011] [5037.5442936491818:13540.430952399904] [5078.4213707715162:13834.320049432148] [3906.6588086640872:15473.864126395112] [5325.2712823127631:12008.482444389463] [5266.7974509333126:12989.646985052672] [3824.0249138868999:12367.273851514268] [5797.7096739579183:9381.0379377608806]
tree_sizes=3988 3991 4012 4031 4042 4150 4067 4077 4010

Tree=0
num_leaves=45
num_cat=0
split_feature=18 41 4 65 43 22 4 4 35 40 4 16 52 41 22 16 0 25 4 14 28 18 4 0 14 4 0 4 4 16 25 4 4 4 16 0 4 4 4 0 4 4 4 4
split_gain=169.745 16.3024 5.03301 3.72469 2.80973 2.53301 1.96762 1.89418 1.8885 1.43013 1.26745 1.20817 0.740188 0.631337 0.525365 0.319211 0.307863 0.270783 0.253839 0.181112 0.159364 0.131271 0.10831 0.0939165 0.0932854 0.0915835 0.0518271 0.0402682 0.0215335 0.0170437 0.0160242 0.0112751 0.0100265 0.00732287 0.00424941 0.00369495 0.00313063 0.00307306 0.00291516 0.000693235 0.000403155 3.26595e-05 1.85857e-05 8.88411e-06
threshold=7212.2764436691023 9788.140004626528 31496.595050972883 10163.478915697106 5858.0824392601326 6475.0893554687509 36043.117559523816 21865.370585190871 8744.5484122613179 8046.8201507903705 21127.157337788918 10451.636014918327 5879.8215834493794 9195.5497179237736 11347.579589843752 10614.709322664936 40.500000000000007 6094.6381835937509 13224.860040921163 8523.4658164340271 9239.8818359375018 8999.9898638481081 32139.280352480422 31.000000000000004 8985.9169433514708 21433.372845217018 31.000000000000004 31034.012996921785 35114.29934383458 7205.5746209826602 5939.6037597656259 13152.61872553881 20252.2693155372 32827.627145116268 8715.1063373269226 40.500000000000007 13278.568667948182 12654.537653336456 18686.124101009453 40.500000000000007 18937.093902981756 35452.085957870695 18986.657360012414 33295.539945264412
decision_type=2 2 2 2 2 2 2 2 2 2 2 2 2 2 2 2 2 2 2 2 2 2 2 2 2 2 2 2 2 2 2 2 2 2 2 2 2 2 2 2 2 2 2 2
left_child=4 8 3 20 17 7 11 12 9 16 32 23 35 -10 26 -13 21 30 37 -11 -3 38 -17 33 34 -12 -5 -16 -24 39 36 -19 -7 -4 40 -6 -1 -14 -2 -20 -21 -25 -40 -35
right_child=1 2 6 14 5 10 -8 -9 13 19 25 15 18 -15 27 22 -18 31 29 24 -22 -23 28 41 -26 -27 -28 -29 -30 -31 -32 -33 -34 43 -36 -37 -38 -39 42 -41 -42 -43 -44 -45
leaf_value=-0.015552858335924336 0.047207072243350127 0.087965332250992762 0.062007824733376703 0.12046765733215119 -0.030895491581768554 0.018009115341239487 0.040605380292556968 -0.069202935242053343 0.046013992386233521 0.033879012146312906 -0.023803121803372306 0.10706551021887074 -0.024287436522089412 0.078028025592451963 0.14288265030809777 0.077781845945136319 0.031643227020422812 -0.0096184385708539336 -0.018829058472075173 0.015620672205454794 0.070354741999691217 0.059723567867795833 0.087387276250079152 0.073492643041605188 0.026346137824271289 -0.011106617949049822 0.11053472817404056 0.13347168239429466 0.093350983978496851 -0.015029136502143216 -0.013738593527327401 -0.011018785186407089 0.013855569153781439 0.065427795437499464 0.017735013366983715 -0.028792962330145777 -0.014832761415162833 -0.023558234238944039 0.045169863390777047 -0.019695873505395128 0.014756440169218709 0.073771946289946044 0.045367945646183558 0.065303382178712926
leaf_weight=481 52 31 36 47 469 47 64 38 44 39 44 35 471 56 44 46 54 457 477 38 61 36 74 33 47 47 38 31 36 50 443 463 46 38 35 36 485 454 40 40 50 34 36 58
leaf_count=481 52 31 36 47 469 47 64 38 44 39 44 35 471 56 44 46 54 457 477 38 61 36 74 33 47 47 38 31 36 50 443 463 46 38 35 36 485 454 40 40 50 34 36 58
internal_value=-1.05199e-10 0.0658197 0.0856887 0.108354 -0.0178443 -0.0229371 0.0731078 -0.024969 0.039202 0.0334081 -0.000465021 0.0784415 -0.0241272 0.0639419 0.126792 0.0898039 0.0447412 -0.012992 -0.0218871 0.021587 0.0762887 0.049054 0.0859311 0.0675359 0.0187671 -0.0172456 0.116027 0.138993 0.089339 -0.0185551 -0.0147346 -0.0103232 0.0159547 0.0644404 0.015871 -0.0307456 -0.0151913 -0.0239295 0.0460532 -0.0188961 0.0151296 0.0736344 0.0452637 0.0653526
internal_weight=0 1233 706 252 4548 2219 454 2035 527 427 184 390 1997 100 160 191 218 2329 1492 209 92 164 156 199 170 91 85 75 110 567 1409 920 93 132 123 505 966 925 128 517 88 67 76 96
internal_count=5781 1233 706 252 4548 2219 454 2035 527 427 184 390 1997 100 160 191 218 2329 1492 209 92 164 156 199 170 91 85 75 110 567 1409 920 93 132 123 505 966 925 128 517 88 67 76 96
is_linear=0
shrinkage=1


Tree=1
num_leaves=45
num_cat=0
split_feature=18 41 2 53 43 22 2 2 36 39 2 15 52 2 22 15 15 25 2 2 29 18 2 2 15 2 2 2 2 15 25 2 2 2 15 2 2 2 2 2 2 2 2 2
split_gain=108.637 10.4335 3.22113 2.3838 1.79822 1.62112 1.25928 1.21228 1.20864 0.915284 0.811166 0.773227 0.473721 0.469833 0.336233 0.204295 0.197032 0.173301 0.162457 0.126881 0.115912 0.0840136 0.0693187 0.0601065 0.0597027 0.0586135 0.0331694 0.0257716 0.0137814 0.010908 0.0102555 0.00721607 0.00641699 0.00468664 0.00271963 0.00236477 0.00200358 0.00196675 0.0018657 0.000443672 0.000258017 2.09016e-05 1.18947e-05 5.68555e-06
threshold=7212.2764436691023 9788.140004626528 31496.595050972883 10042.227675647331 5858.0824392601326 6475.0893554687509 36043.117559523816 21865.370585190871 8744.5484122613179 8046.8201507903705 21127.157337788918 10451.636014918327 5879.8215834493794 19367.439463762046 11347.579589843752 10614.709322664936 8924.1292100928968 6094.6381835937509 13224.860040921163 19448.786866359453 9156.5400390625018 8999.9898638481081 32139.280352480422 34828.721855590069 8950.038449796315 21433.372845217018 30972.865506221529 31034.012996921785 35114.29934383458 7205.5746209826602 5939.6037597656259 13152.61872553881 20252.2693155372 32827.627145116268 8715.1063373269226 21270.320330015249 13278.568667948182 12654.537653336456 18686.124101009453 21660.744808962525 18937.093902981756 35452.085957870695 18986.657360012414 33295.539945264412
decision_type=2 2 2 2 2 2 2 2 2 2 2 2 2 2 2 2 2 2 2 2 2 2 2 2 2 2 2 2 2 2 2 2 2 2 2 2 2 2 2 2 2 2 2 2
left_child=4 8 3 19 17 7 11 12 9 16 32 23 35 -10 26 -13 -2 30 37 -3 24 38 -17 33 34 -12 -5 -16 -24 39 36 -19 -7 -4 40 -6 -1 -14 -18 -20 -11 -25 -40 -35
right_child=1 2 6 14 5 10 -8 -9 13 20 25 15 18 -15 27 22 21 31 29 -21 -22 -23 28 41 -26 -27 -28 -29 -30 -31 -32 -33 -34 43 -36 -37 -38 -39 42 -41 -42 -43 -44 -45
leaf_value=-0.012442285387840687 0.025314579621233325 0.071449812877202229 0.049606260926359232 0.088427779470619416 -0.024716394561241625 0.014407293657039076 0.032484303158707921 -0.055362347984000262 0.071605927154662158 0.012496535519236013 -0.019042497500777245 0.085652406428541467 -0.019429946500974099 0.041964699233463715 0.11430611923675647 0.062225477296211154 0.03776565543734111 -0.0076947515736653987 -0.015063245454912937 0.055736189090539935 0.027103206973809465 0.047778853173885083 0.069909819124291672 0.058794116844056235 0.021076912797511893 -0.0088852949281956299 0.096374125255549212 0.10677734411531879 0.074680786579847336 -0.012023304766044022 -0.010990873231230889 -0.0088150289788697378 0.011084455057330755 0.052342236512585696 0.01418801201241357 -0.023034368082880976 -0.011866211355519816 -0.018846585415303707 0.036135891247540713 -0.01575669864192605 0.011805152073502542 0.059017556598957847 0.036294355988502502 0.052242708321789212
leaf_weight=481 54 31 36 38 469 47 64 38 31 38 44 35 471 69 44 46 52 457 477 61 39 36 74 33 47 47 47 31 36 50 443 463 46 38 35 36 485 454 40 40 50 34 36 58
leaf_count=481 54 31 36 38 469 47 64 38 31 38 44 35 471 69 44 46 52 457 477 61 39 36 74 33 47 47 47 31 36 50 443 463 46 38 35 36 485 454 40 40 50 34 36 58
internal_value=0 0.0526558 0.068551 0.0866836 -0.0142754 -0.0183497 0.0584862 -0.0199752 0.0313616 0.0267265 -0.000372016 0.0627532 -0.0193018 0.0511535 0.101434 0.0718431 0.035793 -0.0103936 -0.0175097 0.061031 0.0172696 0.0392432 0.0687449 0.0540287 0.0150137 -0.0137965 0.0928216 0.111194 0.0714712 -0.0148441 -0.0117877 -0.00825854 0.0127637 0.0515523 0.0126968 -0.0245965 -0.0121531 -0.0191436 0.0368426 -0.0151169 0.0121037 0.0589075 0.036211 0.0522821
internal_weight=0 1233 706 252 4548 2219 454 2035 527 427 184 390 1997 100 160 191 218 2329 1492 92 209 164 156 199 170 91 85 75 110 567 1409 920 93 132 123 505 966 925 128 517 88 67 76 96
internal_count=5781 1233 706 252 4548 2219 454 2035 527 427 184 390 1997 100 160 191 218 2329 1492 92 209 164 156 199 170 91 85 75 110 567 1409 920 93 132 123 505 966 925 128 517 88 67 76 96
is_linear=0
shrinkage=0.2


Tree=2
num_leaves=45
num_cat=0
split_feature=18 71 58 27 1 45 22 54 27 1 1 15 52 13 41 1 27 1 13 13 38 41 13 1 1 1 13 27 0 1 1 1 1 15 0 1 1 1 0 1 0 1 1 1
split_gain=69.5277 6.73662 2.04089 1.46565 1.19915 1.15086 1.03752 1.00388 1.24341 0.775858 0.519146 0.437515 0.303181 0.264693 0.212837 0.203381 0.110913 0.103973 0.102664 0.101536 0.0810779 0.0738294 0.0693168 0.0389841 0.0375126 0.0164938 0.00698107 0.00656356 0.00480419 0.00461832 0.00410686 0.00299945 0.0022454 0.00174056 0.00151345 0.0012823 0.00125872 0.00119405 0.00028395 0.000165135 0.000113937 1.33779e-05 7.61268e-06 3.6388e-06
threshold=7212.2764436691023 8590.2968787866121 10957.521756204558 11335.930175781252 18831.374857318609 5858.0824392601326 6475.0893554687509 9564.6164034938247 10623.342285156252 21041.298537650295 20399.663928785598 8879.8833620392197 5879.8215834493794 8603.6517817421882 7562.0788802767265 34519.840602979959 6094.6381835937509 12870.209739330887 10741.210034416277 10257.991764219247 8924.2746082340182 11448.603288597342 9000.0000092972023 30971.126128574022 20653.463679586977 29949.911016356426 7200.0722197771638 5939.6037597656259 31.000000000000004 12769.178722480503 19573.84779438129 31637.465284800932 33239.539936987981 8715.1063373269226 40.500000000000007 12907.644475638774 12296.779931659914 18038.50850146919 40.500000000000007 18224.144368759957 31.000000000000004 34138.078016283871 18318.030897438923 32170.311326199586
decision_type=2 2 2 2 2 2 2 2 2 2 2 2 2 2 2 2 2 2 2 2 2 2 2 2 2 2 2 2 2 2 2 2 2 2 2 2 2 2 2 2 2 2 2 2
left_child=5 11 4 19 -3 16 9 40 18 12 30 13 34 20 -13 21 27 36 32 25 -2 28 37 -5 -12 -4 38 35 -10 -18 -8 -23 -9 39 -7 -1 -14 -16 -19 -15 -6 -30 -39 -33
right_child=1 2 3 23 7 6 10 8 15 -11 24 14 17 33 22 -17 29 26 -20 -21 -22 31 -24 -25 -26 -27 -28 -29 41 -31 -32 43 -34 -35 -36 -37 -38 42 -40 -41 -42 -43 -44 -45
leaf_value=-0.0099538296956778079 0.020115412849986899 0.085371287119004047 0.091444893782450409 0.046581053071551859 0.025058765925216275 -0.019773115189636807 0.011525831949659327 0.070742229176195048 0.0497803807258606 -0.044289878108783771 -0.015233998855745251 0.016861529806826977 -0.015543959760591548 0.0099972335327612738 0.030212527404252728 0.032161575944527336 -0.006155798616880221 -0.012050596513713182 0.058749185026838228 0.077099301808692053 0.032295276946388188 0.039685006563862167 0.038133266548482848 0.054906020636359854 -0.0071082353908964932 0.085421878748363073 -0.009618649862706663 -0.0087926979290224774 0.0470352883704684 -0.007052023797225586 0.0088675647650075986 0.041873787500356377 0.068521925636700218 0.011350409175668444 -0.018427498514453571 -0.0094929686826221715 -0.015077271143442209 0.028908712973352527 -0.012605359107255937 0.0094441195577383043 0.025525517389178277 0.047214046054903203 0.029035485287507375 0.041794164453087181
leaf_weight=481 69 31 44 45 52 469 47 38 46 38 44 47 471 38 52 69 457 477 65 47 32 36 52 45 47 31 50 443 33 463 46 38 35 35 36 485 454 40 40 50 35 34 36 58
leaf_count=481 69 31 44 45 52 469 47 38 46 38 44 47 471 38 52 69 457 477 65 47 32 36 52 45 47 31 50 443 33 463 46 38 35 35 36 485 454 40 40 50 35 34 36 58
internal_value=0 0.0421246 0.0533514 0.0701049 0.0471202 -0.0114203 -0.0146797 0.0449203 0.048707 -0.0159801 -0.000297614 0.0226583 -0.0154414 0.0163874 0.0288463 0.0417529 -0.00831487 -0.0140078 0.0645302 0.0843879 0.0239744 0.0444541 0.0319756 0.0507435 -0.0110372 0.0889554 -0.0118753 -0.00943013 0.0482065 -0.00660683 0.010211 0.0412419 0.0696777 0.0101574 -0.0196772 -0.00972245 -0.0153149 0.029474 -0.0120935 0.00968296 0.0252465 0.047126 0.0289688 0.0418257
internal_weight=0 1233 782 212 570 4548 2219 539 452 2035 184 451 1997 224 227 314 2329 1492 138 122 101 245 180 90 91 75 567 1409 113 920 93 132 73 123 505 966 925 128 517 88 87 67 76 96
internal_count=5781 1233 782 212 570 4548 2219 539 452 2035 184 451 1997 224 227 314 2329 1492 138 122 101 245 180 90 91 75 567 1409 113 920 93 132 73 123 505 966 925 128 517 88 87 67 76 96
is_linear=0
shrinkage=0.2


Tree=3
num_leaves=45
num_cat=0
split_feature=19 53 2 2 0 42 19 21 2 26 2 16 52 2 12 21 72 42 26 2 69 12 12 2 21 0 2 0 0 13 26 0 2 2 2 14 0 2 2 0 0 2 2 2
split_gain=44.4977 4.1426 1.54086 0.921366 0.945444 0.736553 0.671423 0.664013 0.496549 0.440797 0.332253 0.273051 0.194036 0.172664 0.15692 0.137721 0.103942 0.090588 0.0709841 0.0665425 0.0641752 0.0388207 0.0347644 0.0240081 0.0231119 0.0135862 0.0105561 0.00715275 0.00454585 0.00446789 0.00420064 0.00307467 0.00295566 0.00262841 0.00191965 0.00114344 0.000968604 0.000820682 0.000805593 0.000181727 1.29991e-05 8.56131e-06 4.87223e-06 2.32916e-06
threshold=7212.2764436691023 9520.3607513599782 31496.595050972883 18214.036274324582 14.000000000000002 5858.0824392601326 10799.986512343059 6475.0893554687509 21865.370585190871 10623.342285156252 21127.157337788918 8879.8833620392197 5879.8215834493794 35866.813529149986 8407.3510188552082 11347.579589843752 6397.5317203059467 11563.65956563267 6094.6381835937509 13224.860040921163 6543.8427132075331 7200.7763138830733 10800.000142357609 21433.372845217018 11506.625976562502 31.000000000000004 31034.012996921785 14.000000000000002 31.000000000000004 7200.0722197771638 5939.6037597656259 31.000000000000004 13152.61872553881 20252.2693155372 32827.627145116268 8795.6529434458116 40.500000000000007 13278.568667948182 12654.537653336456 40.500000000000007 40.500000000000007 35452.085957870695 18986.657360012414 33295.539945264412
decision_type=2 2 2 2 2 2 2 2 2 2 2 2 2 2 2 2 2 2 2 2 2 2 2 2 2 2 2 2 2 2 2 2 2 2 2 2 2 2 2 2 2 2 2 2
left_child=5 3 6 4 -2 18 15 8 12 22 33 14 36 17 21 25 27 24 30 38 -18 -5 -4 -12 31 -3 -17 -13 42 39 37 -11 -20 -9 -19 -16 -7 -1 -14 -21 -23 -33 -22 -36
right_child=1 2 9 11 -6 7 -8 10 -10 13 23 16 19 -15 35 26 20 34 32 29 28 40 -24 -25 -26 -27 -28 -29 -30 -31 -32 41 -34 -35 43 -37 -38 -39 -40 -41 -42 -43 -44 -45
leaf_value=-0.0079630640821372646 0.068297030512363674 0.061679438945460831 0.054817539879253932 0.024337449741940347 0.024170021598155685 -0.01581849289188253 0.037264842424127795 0.0092206696959886147 -0.035431899914616032 0.039824305539545808 -0.012187199315733532 0.026814169511198999 -0.012435169886864897 0.025729258961813606 0.0075010956575473145 0.073155917421999311 0.013489222019276721 0.031748004712992245 -0.0049246420920775547 -0.0096404786395451816 0.023126970771700145 0.016077052618269451 0.046999346178311571 -0.0056865858904858856 0.043924817442893983 0.056593781239108035 0.068337498701387833 0.030596430516905256 0.020420414262584279 -0.0076949186995625505 -0.0070341610856371056 0.037628237135482558 -0.0056416149575013834 0.0070940474453179735 0.03349903380792392 0.0087210514952266033 -0.014741999862922562 -0.0075943730241551837 -0.012061816226641776 -0.010084287784993649 0.016228582656562882 0.037771238781073517 0.023228389769792558 0.033435330925316649
leaf_weight=481 31 47 35 31 52 469 45 47 38 46 44 45 471 69 60 44 47 36 457 477 40 39 65 47 45 38 31 36 35 50 443 33 463 46 38 63 36 485 454 40 54 34 36 58
leaf_count=481 31 47 35 31 52 469 45 47 38 46 44 45 471 69 60 44 47 36 457 477 40 39 65 47 45 38 31 36 35 50 443 33 463 46 38 63 36 485 454 40 54 34 36 58
internal_value=0 0.0336997 0.0444311 0.0211766 0.0406512 -0.00913626 0.0588475 -0.0117438 -0.0127841 0.0379924 -0.00023809 0.0178507 -0.0123531 0.0347213 0.0131875 0.0649176 0.0226699 0.0368608 -0.0066519 -0.0112062 0.0196836 0.0182081 0.0497357 -0.00882974 0.0400917 0.0594059 0.0711643 0.0284952 0.0223064 -0.00950022 -0.0075441 0.0385652 -0.00528547 0.00816879 0.0329935 0.00812595 -0.0157418 -0.00777796 -0.0122519 -0.00967482 0.016165 0.0377008 0.023175 0.0334605
internal_weight=0 1233 664 569 83 4548 205 2219 2035 459 184 486 1997 359 247 160 239 290 2329 1492 158 124 100 91 158 85 75 81 111 567 1409 113 920 93 132 123 505 966 925 517 93 67 76 96
internal_count=5781 1233 664 569 83 4548 205 2219 2035 459 184 486 1997 359 247 160 239 290 2329 1492 158 124 100 91 158 85 75 81 111 567 1409 113 920 93 132 123 505 966 925 517 93 67 76 96
is_linear=0
shrinkage=0.2


Tree=4
num_leaves=45
num_cat=0
split_feature=18 71 55 25 2 45 21 35 25 2 2 15 35 18 2 25 25 25 71 13 13 0 2 15 2 2 2 13 21 0 0 25 2 2 13 15 2 2 2 2 0 2 2 2
split_gain=28.4785 2.73875 0.840139 0.60033 0.492651 0.471394 0.424968 0.422499 0.517208 0.317791 0.212642 0.179448 0.117772 0.11458 0.104531 0.0629377 0.0559981 0.0454299 0.0432749 0.0420513 0.0415893 0.0390054 0.0213038 0.0209647 0.0159679 0.0153651 0.00675588 0.00369599 0.0032888 0.00288248 0.00274087 0.00268841 0.00189166 0.00168217 0.00116438 0.00103446 0.000919709 0.00052523 0.000515575 0.000489082 0.00026145 5.47938e-06 3.11829e-06 1.49052e-06
threshold=7212.2764436691023 8590.2968787866121 10957.521756204558 11335.930175781252 19367.439463762046 5858.0824392601326 6475.0893554687509 10318.695061695938 10623.342285156252 21865.370585190871 21127.157337788918 8879.8833620392197 5842.7551055826125 7956.729769984624 36043.117559523816 8230.0146484375018 8060.1623535156259 6094.6381835937509 5823.513837585796 10741.210034416277 10257.991764219247 40.500000000000007 32409.518129770997 10114.247414249643 32139.280352480422 21433.372845217018 31034.012996921785 7200.002166032953 11291.067382812502 40.500000000000007 40.500000000000007 5939.6037597656259 13152.61872553881 20252.2693155372 8838.0695208543711 8715.1063373269226 34511.948811349699 13278.568667948182 12654.537653336456 18686.124101009453 31.000000000000004 35452.085957870695 18986.657360012414 33295.539945264412
decision_type=2 2 2 2 2 2 2 2 2 2 2 2 2 2 2 2 2 2 2 2 2 2 2 2 2 2 2 2 2 2 2 2 2 2 2 2 2 2 2 2 2 2 2 2
left_child=5 11 4 20 -3 17 9 -6 19 12 33 13 -7 21 22 16 39 31 30 36 26 -2 -10 41 -5 -12 -4 29 40 38 -14 37 -19 -8 -15 -36 -9 -1 -20 -13 -25 -24 -41 -30
right_child=1 2 3 24 7 6 10 8 14 -11 25 15 18 34 -16 -17 -18 32 27 -21 -22 -23 23 28 -26 -27 -28 -29 43 -31 -32 -33 -34 -35 35 -37 -38 -39 -40 42 -42 -43 -44 -45
leaf_value=-0.0063704519824990371 0.021794774313457312 0.054637625104477332 0.058524735737591982 0.029811876085069446 0.015395120374950361 -0.012654794677933144 0.0073765332077411899 0.045275026510812735 0.03185944316665764 -0.028345524040540977 -0.0097497557850808603 0.019336016630180752 -0.007712384049567849 0.0076966476187391095 0.016336331452642169 0.024620083547555485 0.010791377596398618 -0.0039397119648379624 -0.0099481329242768063 0.037599478492943143 0.049343552630632483 0.012982869631162398 0.030102587559006435 0.025398407509136536 0.035139855535493959 -0.0045492716609163491 0.054670001335081556 -0.011793597911794981 0.026799223846510841 -0.0080674297362566001 -0.0061559339538216594 -0.0056273298888860381 -0.004513295332360087 0.0056752401525559633 0.0059184436202049254 0.0073361173272132874 0.043854037182671689 -0.0060755008862344263 -0.0096494514207942379 0.018501575961709021 0.024655473922030071 0.030216990367454646 0.018582712031073041 0.026748263880867387
leaf_weight=481 32 31 44 45 81 469 47 38 46 38 44 52 477 53 35 52 47 457 471 65 47 54 33 36 45 47 31 36 38 40 50 443 463 46 50 35 35 485 454 40 40 34 36 58
leaf_count=481 32 31 44 45 81 469 47 38 46 38 44 52 477 53 35 52 47 457 471 65 47 54 33 36 45 47 31 36 38 40 50 443 463 46 50 35 35 485 454 40 40 34 36 58
internal_value=0 0.0269598 0.034118 0.0448671 0.0301201 -0.00730901 -0.00939503 0.02871 0.0310649 -0.0102273 -0.000190472 0.0145478 -0.00988252 0.0105318 0.0266513 0.0185108 0.0166955 -0.00532152 -0.0090316 0.0412993 0.0540082 0.0162617 0.027918 0.0271594 0.0324759 -0.00706379 0.0569314 -0.00980388 0.0259903 -0.00972966 -0.00756471 -0.00603528 -0.00422837 0.00653503 0.00696093 0.00650219 0.0445937 -0.00622237 -0.00980154 0.0188634 0.0250074 0.0301606 0.01854 0.0267684
internal_weight=0 1233 782 212 570 4548 2219 539 458 2035 184 451 1997 224 320 227 175 2329 1528 138 122 86 285 239 90 91 75 1001 172 965 527 1409 920 93 138 85 73 966 925 128 76 67 76 96
internal_count=5781 1233 782 212 570 4548 2219 539 458 2035 184 451 1997 224 320 227 175 2329 1528 138 122 86 285 239 90 91 75 1001 172 965 527 1409 920 93 138 85 73 966 925 128 76 67 76 96
is_linear=0
shrinkage=0.2


Tree=5
num_leaves=46
num_cat=0
split_feature=55 71 21 55 25 18 3 35 25 3 67 67 25 3 52 25 25 15 15 15 28 15 3 15 15 3 3 21 0 3 52 3 3 3 3 0 3 3 0 18 3 0 3 3 3
split_gain=18.2328 1.34021 0.5893 0.537689 0.384211 0.359476 0.315297 0.270399 0.331013 0.201777 0.184128 0.124825 0.0715657 0.0668998 0.0583991 0.0508251 0.048882 0.0269128 0.0268301 0.0266171 0.0221894 0.0217694 0.0136344 0.0134174 0.0132087 0.0102195 0.00432376 0.00210485 0.00187852 0.00184326 0.00122527 0.00121066 0.0011185 0.00100061 0.000588617 0.000396747 0.000325309 0.000313014 0.000167329 0.000159947 1.57353e-05 6.45677e-06 3.50681e-06 1.99584e-06 9.54027e-07
threshold=7649.3936768155609 8590.2968787866121 6597.3710937500009 10957.521756204558 11335.930175781252 6299.9920521279992 19367.439463762046 10318.695061695938 10623.342285156252 21865.370585190871 5363.0807246161175 6206.7100710924633 8230.0146484375018 36043.117559523816 5879.8215834493794 8060.1623535156259 6094.6381835937509 10614.709322664936 7203.4098102107027 10798.081972403003 6629.4968261718759 6028.0098619737928 32409.518129770997 10114.247414249643 8123.6295117536056 32139.280352480422 31034.012996921785 11291.067382812502 14.000000000000002 21660.744808962525 6669.8287827246759 13152.61872553881 13239.588220626758 21433.372845217018 34511.948811349699 40.500000000000007 12654.537653336456 18686.124101009453 31.000000000000004 9008.5890138545747 13278.568667948182 40.500000000000007 35452.085957870695 18986.657360012414 33295.539945264412
decision_type=2 2 2 2 2 2 2 2 2 2 2 2 2 2 2 2 2 2 2 2 2 2 2 2 2 2 2 2 2 2 2 2 2 2 2 2 2 2 2 2 2 2 2 2 2
left_child=2 11 5 6 19 16 -3 -8 17 10 -7 12 15 22 35 37 21 34 29 26 -4 -1 -10 42 -13 -6 -5 38 -14 36 -22 -18 -23 -20 -9 -12 -16 -2 -25 -26 -34 -38 -24 -39 -29
right_child=1 3 20 4 25 9 7 8 13 -11 14 24 28 -15 18 -17 31 -19 33 -21 30 32 23 27 39 -27 -28 44 -30 -31 -32 -33 40 -35 -36 -37 41 43 -40 -41 -42 -43 -44 -45 -46
leaf_value=-0.0063271527307178187 0.015468812049724735 0.043710101227606497 0.010386296030547885 0.046819785728373309 0.023849500657783615 0.0045401953160762792 0.012316092302919263 0.036220019391590828 0.025487551520295117 -0.022676416290433786 -0.010123836610472199 0.010421309499971328 0.021659167110919954 0.013069065468651908 -0.0079585067528416664 0.0077258320490144333 -0.0031517701048232797 0.030079583926842762 -0.0049247463941574096 0.039474842834108056 0.0043848270216049296 -0.004501861144639299 0.024082066299337332 0.020318721234798432 0.0052960044958374718 0.028111884295940401 0.043735999445761405 0.021439380169306934 0.019553127949539988 -0.0064539421349763875 0.0059012248953606225 -0.0036106365682561248 -0.0049115055505116328 -0.0036394183305983848 0.035083225156579703 -0.0094348757217327765 -0.007719563037189881 0.014801257159560918 0.019724372439086438 0.0058688951815877646 -0.0048604001106751955 -0.0077998043397780178 0.024173588656327308 0.014866168176134429 0.021398610223470064
leaf_weight=478 52 31 54 44 45 46 81 38 46 38 469 31 32 35 471 53 457 65 50 47 39 443 33 36 44 45 31 38 36 40 47 463 479 47 35 36 454 40 40 35 485 44 34 36 58
leaf_count=478 52 31 54 44 45 46 81 38 46 38 469 31 32 35 471 53 457 65 50 47 39 443 33 36 44 45 31 38 36 40 47 463 479 47 35 36 454 40 40 35 485 44 34 36 58
internal_value=0 0.0226502 -0.00556979 0.0272944 0.0358937 -0.00596735 0.0240961 0.022968 0.0248519 -0.00826688 -0.00793643 0.0125337 0.0150124 0.021321 -0.00829268 0.0129341 -0.00457779 0.0330395 -0.007479 0.0432066 0.00720876 -0.00516107 0.0223344 0.0217275 0.00692269 0.0259807 0.0455452 0.0207922 0.0205442 -0.00778443 0.00521356 -0.0033827 -0.00476491 -0.00430196 0.035675 -0.0100747 -0.00783935 0.0150907 0.0200059 0.00554982 -0.00488579 -0.00772665 0.0241285 0.014832 0.0214147
internal_weight=0 1141 4640 782 212 4500 570 539 458 1695 1657 359 249 320 1611 181 2805 138 1106 122 140 1885 285 239 110 90 75 172 68 1009 86 920 1407 97 73 505 969 128 76 79 964 498 67 76 96
internal_count=5781 1141 4640 782 212 4500 570 539 458 1695 1657 359 249 320 1611 181 2805 138 1106 122 140 1885 285 239 110 90 75 172 68 1009 86 920 1407 97 73 505 969 128 76 79 964 498 67 76 96
is_linear=0
shrinkage=0.2


Tree=6
num_leaves=45
num_cat=0
split_feature=21 35 55 25 42 21 25 41 15 3 3 3 41 3 52 3 12 25 3 13 3 3 15 3 3 3 3 15 21 25 13 3 3 3 3 3 3 13 3 3 3 3 3 3
split_gain=11.6696 1.11574 0.350734 0.245895 0.190857 0.173668 0.170254 0.189105 0.153011 0.130333 0.0870982 0.0811177 0.0691942 0.0514017 0.0513067 0.0446055 0.0382493 0.0190529 0.018105 0.017035 0.014467 0.00872603 0.00858714 0.00716876 0.00654044 0.00629359 0.00276721 0.00199909 0.0013471 0.00122013 0.00110514 0.000774808 0.000689018 0.000362124 0.000316651 0.000253912 0.00024802 0.000227457 0.000211174 0.000123614 0.000107093 6.17379e-05 2.24413e-06 6.10594e-07
threshold=6722.8425292968759 8744.5484122613179 10957.521756204558 11335.930175781252 5858.0824392601326 6475.0893554687509 10623.342285156252 9195.5497179237736 8978.7960723177257 21865.370585190871 21127.157337788918 36043.117559523816 10054.347448868792 18776.401053864171 5879.8215834493794 26090.216905754223 9000.0000249046589 6094.6381835937509 13224.860040921163 10257.991764219247 33904.535991268836 32409.518129770997 10114.247414249643 18686.124101009453 32139.280352480422 21433.372845217018 31034.012996921785 8715.1063373269226 11291.067382812502 5939.6037597656259 7200.0722197771638 13152.61872553881 20252.2693155372 18417.690325497289 13278.568667948182 21270.320330015249 18937.093902981756 8999.9999896971767 12654.537653336456 18986.657360012414 35866.813529149986 21660.744808962525 35452.085957870695 33295.539945264412
decision_type=2 2 2 2 2 2 2 2 2 2 2 2 2 2 2 2 2 2 2 2 2 2 2 2 2 2 2 2 2 2 2 2 2 2 2 2 2 2 2 2 2 2 2 2
left_child=4 8 6 19 17 9 7 -3 13 14 32 21 -9 23 35 -14 39 29 38 26 -17 -8 42 33 -5 -12 -4 36 40 34 41 -19 -7 -2 -1 -6 -15 -29 -16 -10 -24 -20 -23 -30
right_child=1 2 3 24 5 10 11 12 16 -11 25 -13 15 27 18 20 -18 31 30 -21 -22 22 28 -25 -26 -27 -28 37 43 -31 -32 -33 -34 -35 -36 -37 -38 -39 -40 -41 -42 -43 -44 -45
leaf_value=-0.0041173358810165216 0.0083090317194108622 0.011640433492985639 0.03745583061933179 0.019079602300706839 -0.0080990680519229304 0.0047209824177813029 0.020390045027370039 0.032496716753880987 0.012375051707315905 -0.018141135573387146 -0.0062398479701104492 0.0099882084265118468 0.017327334685251116 0.0040812680693833453 -0.0063668053810763516 0.028976014707433551 0.019061537656713937 -0.0025214162164039636 -0.0049044758550026131 0.031579873536495454 0.024063665267939752 0.01926565585714398 0.016254981896943518 0.011841013077646494 0.022489507794380189 -0.0029115299595163227 0.034988801565862475 0.0053749194906817545 0.017151506382383799 -0.0036014895898796636 -0.0039397970354184504 -0.0028885061287403624 0.0036321550931619562 0.009097404032945634 -0.0038883199510116556 -0.0075479055858320657 0.0034034112170338634 0.004695114323071071 -0.0061756515649807877 0.011892934640248617 0.01577949844300747 -0.0051631554216146477 0.019338870004696005 0.017118889973338308
leaf_weight=481 54 44 44 45 469 47 46 51 52 38 44 64 32 38 471 38 51 457 477 47 65 33 36 40 45 47 31 45 38 443 50 463 46 41 485 36 50 35 454 36 40 40 34 58
leaf_count=481 54 44 44 45 469 47 46 51 52 38 44 64 32 38 471 38 51 457 477 47 65 33 36 40 45 47 31 45 38 443 50 463 46 41 485 36 50 35 454 36 40 40 34 58
internal_value=0 0.0172578 0.0217551 0.028715 -0.00467873 -0.00600606 0.0192067 0.0234314 0.00920943 -0.00653809 -0.000121902 0.0164226 0.0262206 0.00668905 -0.0063173 0.0238496 0.0147035 -0.00341408 -0.00572752 0.0345653 0.025876 0.0178675 0.017382 0.00959498 0.0207846 -0.00452083 0.0364361 0.00435392 0.0166338 -0.00387632 -0.00483766 -0.00270616 0.00418242 0.00864928 -0.00400235 -0.00805978 0.00369612 0.0050775 -0.00627299 0.0121778 0.0160047 -0.00492449 0.0193028 0.0171318
internal_weight=0 1233 791 212 4548 2219 579 230 442 2035 184 349 186 303 1997 135 139 2329 1492 122 103 285 239 135 90 91 75 168 172 1409 567 920 93 95 966 505 88 80 925 88 76 517 67 96
internal_count=5781 1233 791 212 4548 2219 579 230 442 2035 184 349 186 303 1997 135 139 2329 1492 122 103 285 239 135 90 91 75 168 172 1409 567 920 93 95 966 505 88 80 925 88 76 517 67 96
is_linear=0
shrinkage=0.2


Tree=7
num_leaves=45
num_cat=0
split_feature=18 71 55 3 26 45 22 36 26 3 3 15 18 36 3 41 67 0 26 15 15 54 26 22 3 3 3 3 0 26 15 0 3 3 18 15 22 3 3 0 0 3 3 3
split_gain=7.46853 0.735649 0.216433 0.167171 0.157373 0.122148 0.111147 0.105918 0.127222 0.083413 0.0557429 0.0466269 0.034812 0.031135 0.0265457 0.0186651 0.0125498 0.0122489 0.0121938 0.0109024 0.00856325 0.00575387 0.00567286 0.00485718 0.00418589 0.00402787 0.00177101 0.00118589 0.000901161 0.000780864 0.000707291 0.000515849 0.00049589 0.000440973 0.000243569 0.000549619 0.00021957 0.000135162 0.000128212 6.85382e-05 3.95124e-05 1.43635e-06 8.17369e-07 3.90666e-07
threshold=7212.2764436691023 8590.2968787866121 10957.521756204558 19367.439463762046 11335.930175781252 5858.0824392601326 6475.0893554687509 10318.695061695938 10623.342285156252 21865.370585190871 21127.157337788918 8879.8833620392197 7956.729769984624 5842.7551055826125 36043.117559523816 7562.0788802767265 5962.420939493637 40.500000000000007 6094.6381835937509 10798.081972403003 10614.709322664936 11315.391744189646 11625.506347656252 8174.1166992187509 32139.280352480422 21433.372845217018 31034.012996921785 34511.948811349699 40.500000000000007 5939.6037597656259 7205.5746209826602 31.000000000000004 13152.61872553881 20252.2693155372 8525.4532837347779 8715.1063373269226 5982.8142089843759 12654.537653336456 18686.124101009453 31.000000000000004 40.500000000000007 35452.085957870695 18986.657360012414 33295.539945264412
decision_type=2 2 2 2 2 2 2 2 2 2 2 2 2 2 2 2 2 2 2 2 2 2 2 2 2 2 2 2 2 2 2 2 2 2 2 2 2 2 2 2 2 2 2 2
left_child=5 11 3 -3 19 18 9 -5 20 13 33 12 17 -7 21 -13 28 -2 29 26 27 22 31 38 -6 -12 -4 -9 37 36 40 -10 -20 -8 -14 -36 -1 -15 -17 -23 -18 -33 -40 -24
right_child=1 2 4 7 24 6 10 8 14 -11 25 15 34 16 -16 23 30 -19 32 -21 -22 39 43 -25 -26 -27 -28 -29 -30 -31 -32 41 -34 -35 35 -37 -38 -39 42 -41 -42 -43 -44 -45
leaf_value=-0.0031057373142270432 0.011585293673851993 0.029768914501032525 0.029964662410996181 0.0079989134299534356 0.015263678323891429 -0.0064792527795346309 0.0037767852557466387 0.023180811969857468 0.016312036401106286 -0.014512907439156585 -0.004991874606771903 0.0058444156608682997 0.0036945324391126633 -0.0050934467656733647 0.0084576077972139639 0.009900042901818569 -0.003923580462827622 0.0066472294153990573 -0.002017131758368772 0.025263897440534956 0.019250936313317372 0.013003983100255332 0.01372120227499277 0.011950249744292636 0.01799160377846824 -0.0023292289452349888 0.027991041444963023 0.021567241506917138 -0.0060383182639877006 -0.0028811937584867597 -0.0031518383808434012 0.01541252298788591 -0.0023108074437529174 0.0029057222377994788 0.002722729191184044 0.0037560888273375373 -0.0032964468538738191 -0.0049405175344280012 0.0094728071056306359 0.012623599329963327 -0.0041305245459079742 0.015471096501192627 0.0095143469257487207 0.013695112971492627
leaf_weight=479 32 31 44 81 45 469 47 38 46 38 44 47 53 471 35 52 477 54 457 47 65 36 38 52 45 47 31 35 36 443 50 33 463 46 50 35 487 454 40 40 40 34 36 58
leaf_count=479 32 31 44 81 45 469 47 38 46 38 44 47 53 471 35 52 477 54 457 47 65 36 38 52 45 47 31 35 36 443 50 33 463 46 50 35 487 454 40 40 40 34 36 58
internal_value=0 0.0138062 0.0175162 0.015487 0.022972 -0.00374298 -0.00480485 0.0146656 0.0158446 -0.00523047 -9.75224e-05 0.00737344 0.00532629 -0.00505384 0.0136557 0.00939353 -0.00461633 0.00848465 -0.00273127 0.0276522 0.0209205 0.014294 0.0148359 0.0103202 0.0166276 -0.00361666 0.0291489 0.0224072 -0.0050566 -0.00310106 -0.00387012 0.0157963 -0.00216493 0.00334594 0.00335804 0.00314823 -0.00320188 -0.00501839 0.00965805 0.0128038 -0.00393959 0.0154422 0.00949248 0.0137054
internal_weight=0 1233 782 570 212 4548 2219 539 458 2035 184 451 224 1997 320 227 1528 86 2329 122 138 285 209 180 90 91 75 73 961 1409 567 113 920 93 138 85 966 925 128 76 517 67 76 96
internal_count=5781 1233 782 570 212 4548 2219 539 458 2035 184 451 224 1997 320 227 1528 86 2329 122 138 285 209 180 90 91 75 73 961 1409 567 113 920 93 138 85 966 925 128 76 517 67 76 96
is_linear=0
shrinkage=0.2


Tree=8
num_leaves=44
num_cat=0
split_feature=55 35 22 55 25 12 25 41 16 1 54 1 41 1 35 52 12 12 16 16 22 28 54 25 1 1 2 1 54 52 1 0 1 1 1 0 1 1 0 1 0 1 1
split_gain=4.78198 0.368593 0.151706 0.139331 0.100719 0.094416 0.0779404 0.0712412 0.0543979 0.0528945 0.0482679 0.0339125 0.0311978 0.0194998 0.0186872 0.015309 0.0131291 0.0130265 0.00703333 0.00697753 0.00651847 0.00625181 0.00368248 0.00363063 0.00267897 0.00213328 0.00186065 0.00113345 0.00057468 0.000523125 0.000483197 0.00033014 0.000317363 0.000262306 0.000201408 0.000104004 8.52801e-05 5.06322e-05 4.38649e-05 6.64948e-06 1.69266e-06 9.19182e-07 2.50116e-07
threshold=7649.3936768155609 8744.5484122613179 6597.3710937500009 10957.521756204558 11335.930175781252 6599.9999993006159 10623.342285156252 9195.5497179237736 8978.7960723177257 21041.298537650295 7627.3724155664613 34662.432439441851 10054.347448868792 18224.144368759957 11209.271438980993 5879.8215834493794 6299.9999975303899 9000.0000249046589 7203.4098102107027 10798.081972403003 6138.6779785156259 6629.4968261718759 11315.391744189646 11625.506347656252 30971.126128574022 33775.347716139389 18686.124101009453 29949.911016356426 6536.9925171827135 6669.8287827246759 20876.665735742979 31.000000000000004 12769.178722480503 20653.463679586977 12845.673441488094 40.500000000000007 12296.779931659914 18318.030897438923 31.000000000000004 12907.644475638774 40.500000000000007 34138.078016283871 32170.311326199586
decision_type=2 2 2 2 2 2 2 2 2 2 2 2 2 2 2 2 2 2 2 2 2 2 2 2 2 2 2 2 2 2 2 2 2 2 2 2 2 2 2 2 2 2 2
left_child=2 8 5 6 19 16 7 -3 13 10 15 22 -9 26 -14 35 -1 37 30 27 34 -4 23 31 -6 -16 -2 -5 -15 -23 36 -8 -22 -20 -18 -7 -17 -10 -24 -36 -38 -33 -25
right_child=1 3 21 4 24 9 11 12 17 -11 -12 -13 14 28 25 18 20 -19 33 -21 32 29 38 42 -26 -27 -28 -29 -30 -31 -32 41 -34 -35 39 -37 40 -39 -40 -41 -42 -43 -44
leaf_value=-0.0032967042287024499 0.0056609717992747704 0.0080060429871082316 0.0053177826934390597 0.023971732841296632 0.01221094376511044 -0.0051834030446213201 0.013049629282044329 0.021169307725686655 0.0079200318226447484 -0.011610326504236775 0.0023245764653319896 0.0063406113535165792 0.012771339293141835 0.003130234176652473 0.018544649688134851 -0.0040747558075199079 -0.0023049526894149742 0.011811022460460664 -0.0025214736312627797 0.020211120005300703 -0.0016137049017836804 0.002030594723346906 0.010403188318014145 0.010976964622539909 0.014393283294306862 0.016396192523340385 0.0075782421976327901 0.022392835347883167 0.0022827810059263282 0.0030214280048583416 -0.0033044202439486987 0.012330022634881916 -0.0018486429275401724 -0.0018633828518238476 -0.0024845872130750488 -0.0048306559936867818 -0.0039524149414283194 0.0076114772508541753 0.010098879761062564 -0.0024513653765634164 -0.0039934991774233904 0.012376879340530757 0.01095608940733404
leaf_weight=478 41 44 54 44 45 469 46 51 52 38 46 64 61 57 38 471 443 51 50 47 457 39 36 38 45 36 40 31 73 47 40 33 463 47 479 36 454 36 40 485 44 34 58
leaf_count=478 41 44 54 44 45 469 46 51 52 38 46 64 61 57 38 471 443 51 50 47 457 39 36 38 45 36 40 31 73 47 40 33 463 47 479 36 454 36 40 485 44 34 58
internal_value=0 0.0115997 -0.00285244 0.0139909 0.0183776 -0.00305415 0.0123847 0.0152431 0.00619575 -0.00423264 -0.00406345 0.010501 0.0169551 0.00417202 0.015363 -0.00424585 -0.00234201 0.00926775 -0.00382925 0.0221218 -0.0021459 0.00363115 0.0114352 0.0118687 0.0133021 0.0174995 0.00660777 0.0233191 0.00265436 0.0025721 -0.00398563 0.0126371 -0.00173194 -0.0022026 -0.00241658 -0.00515826 -0.00401375 0.0077938 0.010243 -0.00246787 -0.00395604 0.0123538 0.0109644
internal_weight=0 1141 4640 791 212 4500 579 230 350 1695 1657 349 186 211 135 1611 2805 139 1106 122 2327 140 285 209 90 74 81 75 130 86 1009 113 920 97 1407 505 969 88 76 964 498 67 96
internal_count=5781 1141 4640 791 212 4500 579 230 350 1695 1657 349 186 211 135 1611 2805 139 1106 122 2327 140 285 209 90 74 81 75 130 86 1009 113 920 97 1407 505 969 88 76 964 498 67 96
is_linear=0
shrinkage=0.2


end of trees

feature_importances:
Column_2=59
Column_3=56
Column_0=34
Column_1=34
Column_15=25
Column_25=22
Column_4=19
Column_13=13
Column_18=12
Column_21=10
Column_22=10
Column_41=10
Column_52=9
Column_16=8
Column_26=8
Column_12=7
Column_35=7
Column_55=7
Column_54=5
Column_71=5
Column_27=4
Column_14=3
Column_28=3
Column_36=3
Column_42=3
Column_45=3
Column_67=3
Column_19=2
Column_43=2
Column_53=2
Column_29=1
Column_38=1
Column_39=1
Column_40=1
Column_58=1
Column_65=1
Column_69=1
Column_72=1

parameters:
[boosting: gbdt]
[objective: regression]
[metric: custom]
[tree_learner: serial]
[device_type: cpu]
[data: ]
[valid: ]
[num_iterations: 10000]
[learning_rate: 0.2]
[num_leaves: 63]
[num_threads: 0]
[deterministic: 0]
[force_col_wise: 0]
[force_row_wise: 0]
[histogram_pool_size: -1]
[max_depth: -1]
[min_data_in_leaf: 30]
[min_sum_hessian_in_leaf: 0.001]
[bagging_fraction: 1]
[pos_bagging_fraction: 1]
[neg_bagging_fraction: 1]
[bagging_freq: 0]
[bagging_seed: 21187]
[feature_fraction: 0.5]
[feature_fraction_bynode: 1]
[feature_fraction_seed: 30770]
[extra_trees: 0]
[extra_seed: 27351]
[early_stopping_round: 0]
[first_metric_only: 0]
[max_delta_step: 0]
[lambda_l1: 0]
[lambda_l2: 0]
[linear_lambda: 0]
[min_gain_to_split: 0]
[drop_rate: 0.1]
[max_drop: 50]
[skip_drop: 0.5]
[xgboost_dart_mode: 0]
[uniform_drop: 0]
[drop_seed: 3778]
[top_rate: 0.2]
[other_rate: 0.1]
[min_data_per_group: 100]
[max_cat_threshold: 32]
[cat_l2: 10]
[cat_smooth: 10]
[max_cat_to_onehot: 4]
[top_k: 20]
[monotone_constraints: ]
[monotone_constraints_method: basic]
[monotone_penalty: 0]
[feature_contri: ]
[forcedsplits_filename: ]
[refit_decay_rate: 0.9]
[cegb_tradeoff: 1]
[cegb_penalty_split: 0]
[cegb_penalty_feature_lazy: ]
[cegb_penalty_feature_coupled: ]
[path_smooth: 0]
[interaction_constraints: ]
[verbosity: -1]
[saved_feature_importance_type: 0]
[linear_tree: 0]
[max_bin: 255]
[max_bin_by_feature: ]
[min_data_in_bin: 3]
[bin_construct_sample_cnt: 200000]
[data_random_seed: 4084]
[is_enable_sparse: 1]
[enable_bundle: 1]
[use_missing: 1]
[zero_as_missing: 0]
[feature_pre_filter: 1]
[pre_partition: 0]
[two_round: 0]
[header: 0]
[label_column: ]
[weight_column: ]
[group_column: ]
[ignore_column: ]
[categorical_feature: ]
[forcedbins_filename: ]
[precise_float_parser: 0]
[objective_seed: 9093]
[num_class: 1]
[is_unbalance: 0]
[scale_pos_weight: 1]
[sigmoid: 1]
[boost_from_average: 1]
[reg_sqrt: 0]
[alpha: 0.9]
[fair_c: 1]
[poisson_max_delta_step: 0.7]
[tweedie_variance_power: 1.5]
[lambdarank_truncation_level: 30]
[lambdarank_norm: 1]
[label_gain: ]
[eval_at: ]
[multi_error_top_k: 1]
[auc_mu_weights: ]
[num_machines: 1]
[local_listen_port: 12400]
[time_out: 120]
[machine_list_filename: ]
[machines: ]
[gpu_platform_id: -1]
[gpu_device_id: -1]
[gpu_use_dp: 0]
[num_gpu: 1]

end of parameters

pandas_categorical:null
