tree
version=v3
num_class=1
num_tree_per_iteration=1
label_index=0
max_feature_idx=72
objective=regression
feature_names=Column_0 Column_1 Column_2 Column_3 Column_4 Column_5 Column_6 Column_7 Column_8 Column_9 Column_10 Column_11 Column_12 Column_13 Column_14 Column_15 Column_16 Column_17 Column_18 Column_19 Column_20 Column_21 Column_22 Column_23 Column_24 Column_25 Column_26 Column_27 Column_28 Column_29 Column_30 Column_31 Column_32 Column_33 Column_34 Column_35 Column_36 Column_37 Column_38 Column_39 Column_40 Column_41 Column_42 Column_43 Column_44 Column_45 Column_46 Column_47 Column_48 Column_49 Column_50 Column_51 Column_52 Column_53 Column_54 Column_55 Column_56 Column_57 Column_58 Column_59 Column_60 Column_61 Column_62 Column_63 Column_64 Column_65 Column_66 Column_67 Column_68 Column_69 Column_70 Column_71 Column_72
feature_infos=[5:56] [3862.1968252761731:34830.782809281292] [3600:36097.546012269937] [3600:36097.546012269937] [3600:36097.546012269937] [3600:36097.546012269937] [3600:36097.546012269937] [3600:36097.546012269937] [3600:36097.546012269937] [3600:36097.546012269937] [3600:36097.546012269937] [3600:36097.546012269937] [3600.0000510003374:10800.000170809659] [3600.000051000331:10800.000170271722] [3600.1379879094484:10800.000142357654] [3599.9985041427444:10802.378597712463] [3599.9985041427444:10802.378597712463] [3599.9985041427444:10802.378597712463] [3599.9970784284369:10824.369168355082] [3599.9970784284369:10824.369168355082] [3599.9970784284369:10824.369168355082] [5833.48486328125:11572.5400390625] [5833.48486328125:11572.5400390625] [5833.48486328125:11572.5400390625] [3599.9985721739713:10800.01370759139] [5486.63330078125:11693.0390625] [5486.63330078125:11693.0390625] [5486.63330078125:11693.0390625] [5826.51171875:11765.7724609375] [5826.51171875:11765.7724609375] [5826.51171875:11765.7724609375] [5410.93115234375:11710.005859375] [4322.343875974072:12169.21654132908] [4322.343875974072:12169.21654132908] [4322.343875974072:12169.21654132908] [3600.0000000000005:11973.646284864382] [3600.0000000000005:11973.646284864382] [3600.0000000000005:11973.646284864382] [4658.2077587370877:11559.081719386913] [4658.2077587370877:11559.081719386913] [4658.2077587370877:11559.081719386913] [4870.3792011057931:12406.854860656607] [3600.0000000000005:11702.084126378597] [3600.0000000000005:11702.084126378597] [3600.0000000000005:11702.084126378597] [3600.0000000000005:11702.084126378597] [3600.0000000000005:11702.084126378597] [3600.0000000000005:11702.084126378597] [3600.0000000000005:11702.084126378597] [3600.0000000000005:11702.084126378597] [3600.0000000000005:11702.084126378597] [3600.0000000000005:11702.084126378597] [5375.5914935020501:12170.331008765575] [5569.0077228318178:12695.950666046418] [4671.2788396669785:11865.888611784518] [5850.5549356312858:11453.941784757943] [5850.5549356312858:11453.941784757943] [5850.5549356312858:11453.941784757943] [5850.5549356312858:11453.941784757943] [5850.5549356312858:11453.941784757943] [5850.5549356312858:11453.941784757943] [5850.5549356312858:11453.941784757943] [5850.5549356312858:11453.941784757943] [5850.5549356312858:11453.941784757943] [5850.554932927068:11453.941371529456] [4314.7566924276534:11643.484449980011] [5037.5442936491818:13540.430952399904] [5078.4213707715162:13834.320049432148] [3906.6588086640872:15473.864126395112] [4673.0625441292268:12008.482444389463] [5266.7974509333126:12989.646985052672] [3824.0249138868999:12367.273851514268] [5774.1865476673202:9381.0379377608806]
tree_sizes=3986 3905 4010 3937 4037 4058 3984 3997 4086

Tree=0
num_leaves=45
num_cat=0
split_feature=16 41 4 43 65 22 25 70 4 40 4 4 52 31 22 25 14 4 28 4 18 16 22 0 4 4 0 0 4 16 22 4 0 0 4 4 54 0 4 4 4 4 4 4
split_gain=175.768 15.8193 6.51601 3.1035 2.85192 2.82417 2.09921 2.00493 1.94353 1.54318 1.33268 1.11071 0.7487 0.696655 0.523358 0.359292 0.347135 0.271445 0.248581 0.198306 0.184883 0.147585 0.0992665 0.0849081 0.0823654 0.081795 0.0449039 0.0423107 0.0416726 0.0210126 0.0168484 0.0147461 0.013339 0.00709467 0.00615491 0.00511593 0.00464059 0.00154748 0.00153046 0.000552287 0.000376051 0.000242949 4.17739e-06 1.184e-06
threshold=7206.7360822747514 9788.140004626528 31496.595050972883 5858.0824392601326 10163.478915697106 6475.0893554687509 10623.342285156252 8514.9235356073168 21865.370585190871 8046.8201507903705 21127.157337788918 36043.117559523816 5879.8215834493794 11598.778320312502 11347.579589843752 6037.2236328125009 8991.9496434651865 13189.295158472802 9156.5400390625018 32409.518129770997 8999.9898638481081 10614.709322664936 11506.625976562502 31.000000000000004 18937.093902981756 21433.372845217018 40.500000000000007 31.000000000000004 31034.012996921785 7205.5746209826602 5982.8142089843759 20571.335320914044 31.000000000000004 40.500000000000007 18686.124101009453 32920.446706618175 6536.9925171827135 40.500000000000007 12654.537653336456 13239.588220626758 19223.309190809196 35452.085957870695 13117.053843090451 18986.657360012414
decision_type=2 2 2 2 2 2 2 2 2 2 2 2 2 2 2 2 2 2 2 2 2 2 2 2 2 2 2 2 2 2 2 2 2 2 2 2 2 2 2 2 2 2 2 2
left_child=3 7 4 15 16 8 21 9 12 20 31 13 33 22 27 30 -3 38 24 -15 26 -4 32 -9 -11 -12 34 -6 -16 37 39 -7 -8 -5 -2 -21 40 -19 -14 -1 -26 -34 -17 -36
right_child=1 2 6 5 14 10 11 23 -10 18 25 -13 17 19 28 42 -18 29 -20 35 -22 -23 -24 -25 36 -27 -28 -29 -30 -31 -32 -33 41 -35 43 -37 -38 -39 -40 -41 -42 -43 -44 -45
leaf_value=-0.014400868256595239 0.047680452409635588 0.067148543046291281 0.10830560855251753 -0.031664386821338507 0.12143063669578358 0.019549413262271258 0.078476023666226524 0.074156927546611046 -0.07045941222704756 0.025893562674581129 -0.023183188406738674 0.04120974469880323 -0.024912049419875203 0.047352682704517313 0.14429733723860408 -0.0099982382453787291 0.092942757696038103 -0.019380236094653697 0.034487384673815687 0.062443845812770009 0.059800485532441675 0.092196891053728414 0.086705293549349527 0.061492729139949492 0.017577137693627187 -0.011184361300511174 0.038775487572171974 0.11245585697898537 0.13472366589342297 -0.015186746527005628 -0.016016060488500138 0.014512285954916129 0.073902196680387888 -0.02875095936415864 0.044880311656247188 0.065479070668993583 0.014515474866579578 -0.02067532237203111 -0.024397444391241259 -0.014710687509571004 0.016620581412990068 0.074607238029455458 -0.0099712983979826832 0.044830316124608721
leaf_weight=443 52 32 35 469 47 47 46 45 38 47 44 64 471 39 44 457 60 477 54 36 36 65 45 40 31 47 47 38 31 50 487 46 46 36 40 58 50 40 454 479 35 34 464 36
leaf_count=443 52 32 35 469 47 47 46 45 38 47 44 64 471 39 44 457 60 477 54 36 36 65 45 40 31 47 47 38 31 50 487 46 46 36 40 58 50 40 454 479 35 34 464 36
internal_value=-3.78167e-09 0.0669788 0.0861009 -0.0181545 0.112029 -0.0235075 0.0721394 0.0401408 -0.025653 0.0345688 0.000220991 0.0651569 -0.0248004 0.0701984 0.128163 -0.0130565 0.0839709 -0.0225474 0.0227267 0.0593422 0.0467476 0.0978349 0.078642 0.0681973 0.0188306 -0.016986 0.0440625 0.117418 0.14034 -0.0191018 -0.0150645 0.0170579 0.0757623 -0.0314567 0.0460038 0.0643166 0.0159688 -0.0194804 -0.0246595 -0.0145618 0.0170699 0.0742018 -0.00998467 0.0448566
internal_weight=0 1233 720 4549 252 2219 468 513 2035 428 184 368 1997 304 160 2330 92 1492 217 133 211 100 171 85 163 91 175 85 75 567 1409 93 126 505 128 94 116 517 925 922 66 80 921 76
internal_count=5782 1233 720 4549 252 2219 468 513 2035 428 184 368 1997 304 160 2330 92 1492 217 133 211 100 171 85 163 91 175 85 75 567 1409 93 126 505 128 94 116 517 925 922 66 80 921 76
is_linear=0
shrinkage=1


Tree=1
num_leaves=44
num_cat=0
split_feature=15 53 2 43 22 70 2 2 25 18 2 39 53 52 55 2 22 25 2 2 18 15 15 2 2 2 2 2 2 22 15 22 2 2 2 2 2 15 2 2 2 2 2
split_gain=112.492 10.405 3.92519 1.98624 1.80747 1.69041 2.19535 1.24386 1.02272 1.01813 0.852915 0.612801 0.981013 0.479168 0.473286 0.420531 0.334949 0.229947 0.173725 0.149307 0.118325 0.0944547 0.0653757 0.0523487 0.0423056 0.0287385 0.0270788 0.0266704 0.0246474 0.0156714 0.0134481 0.010783 0.00943757 0.00752824 0.00454062 0.00393914 0.00327419 0.00104163 0.000990387 0.000979515 0.000353462 2.67354e-06 7.57827e-07
threshold=7206.7360822747514 9603.9094351186741 31496.595050972883 5858.0824392601326 6475.0893554687509 8514.9235356073168 19401.286866359453 21865.370585190871 10623.342285156252 10799.986512343059 21127.157337788918 8046.8201507903705 8647.534750851386 5879.8215834493794 9192.6855200984937 32409.518129770997 11347.579589843752 6037.2236328125009 13189.295158472802 35866.813529149986 8999.9898638481081 10614.709322664936 8788.5428798621888 21433.372845217018 35452.085957870695 20057.202651339579 30972.865506221529 31034.012996921785 32311.625000000004 11539.967773437502 7205.5746209826602 5982.8142089843759 20571.335320914044 19360.081168831173 21270.320330015249 18686.124101009453 32920.446706618175 8631.3390660606656 21660.744808962525 12654.537653336456 13239.588220626758 13117.053843090451 18986.657360012414
decision_type=2 2 2 2 2 2 2 2 2 2 2 2 2 2 2 2 2 2 2 2 2 2 2 2 2 2 2 2 2 2 2 2 2 2 2 2 2 2 2 2 2 2 2
left_child=3 5 9 17 7 11 -7 13 21 16 32 20 22 34 -8 28 26 31 39 24 25 -4 33 -12 36 35 -3 -18 -10 -16 38 40 -6 37 -5 -2 -17 -13 -20 -15 -1 -19 -37
right_child=1 2 8 4 10 6 14 -9 15 -11 23 12 -14 18 29 19 27 41 30 -21 -22 -23 -24 -25 -26 -27 -28 -29 -30 -31 -32 -33 -34 -35 -36 42 -38 -39 -40 -41 -42 -43 -44
leaf_value=-0.011520693648126162 0.03814436535422619 0.089964689922175919 0.086644490488937922 -0.025331506637860338 0.01563953856115249 0.10075311347421619 0.059121761248325522 -0.056367526046539607 0.062780822361009611 0.068478461172845631 -0.0185465447943319 0.014061713146586573 0.048773681475444045 -0.01992963820126406 0.032796112303185514 0.049955080522017352 0.11543787101453001 -0.0079985876035768566 -0.015504187016710797 0.042098271679403131 0.047840390375090969 0.073757514036618746 0.021633911005088262 -0.0089474877461473996 0.059685793519704877 0.031020397470986588 0.097144513180915354 0.10777893688890242 0.069364239192671248 0.037882149486969684 -0.012149390194565058 -0.012812847307514117 0.011609829832678257 0.016448474910698438 -0.023000758244759507 0.035904253665357828 0.052383259841208833 0.012645596809803495 -0.016540255807340146 -0.019517950274641031 -0.011768548484572788 -0.0079770356593332412 0.035864255453149481
leaf_weight=443 52 38 35 469 47 31 46 38 46 45 44 31 47 471 64 36 44 457 477 69 36 65 70 47 34 47 47 31 45 39 50 487 46 38 36 40 58 63 40 454 479 464 36
leaf_count=443 52 38 35 469 47 31 46 38 46 45 44 31 47 471 64 36 44 457 477 69 36 65 70 47 34 47 47 31 45 39 50 487 46 38 36 40 58 63 40 454 479 464 36
internal_value=0 0.053583 0.0726698 -0.0145236 -0.018806 0.0358979 0.0523295 -0.0205224 0.0608423 0.0950556 0.000176797 0.0294682 0.0227485 -0.0198403 0.0422547 0.0547917 0.10253 -0.0104452 -0.0180379 0.0495975 0.0373981 0.078268 0.0166931 -0.0135888 0.0536401 0.03525 0.0939347 0.112272 0.0660364 0.0347219 -0.0152814 -0.0120516 0.0136463 0.0140729 -0.0251654 0.036803 0.0514533 0.0131126 -0.0155843 -0.0197276 -0.0116495 -0.00798773 0.0358853
internal_weight=0 1233 593 4549 2219 640 180 2035 388 205 184 460 249 1997 149 288 160 2330 1492 197 211 100 202 91 128 175 85 75 91 103 567 1409 93 132 505 128 94 94 517 925 922 921 76
internal_count=5782 1233 593 4549 2219 640 180 2035 388 205 184 460 249 1997 149 288 160 2330 1492 197 211 100 202 91 128 175 85 75 91 103 567 1409 93 132 505 128 94 94 517 925 922 921 76
is_linear=0
shrinkage=0.2


Tree=2
num_leaves=45
num_cat=0
split_feature=15 41 1 45 22 1 1 27 1 1 1 1 52 27 15 71 1 28 27 1 1 13 13 13 3 1 13 38 1 0 13 22 1 0 54 0 22 0 1 0 1 1 1 1
split_gain=71.9946 6.46254 2.86365 1.27119 1.15678 1.06724 1.03927 0.896605 0.796069 0.545866 0.48079 0.353235 0.306668 0.272444 0.243484 0.242526 0.178931 0.177389 0.147166 0.115805 0.111184 0.105795 0.0604509 0.0342213 0.0338457 0.0335032 0.030451 0.0241097 0.0170691 0.0109971 0.00860671 0.00690113 0.00604001 0.00492707 0.00358496 0.00290599 0.00189001 0.000633852 0.000626878 0.000311147 0.000226219 9.54886e-05 1.71188e-06 4.84909e-07
threshold=7206.7360822747514 9570.4455873143215 30337.751851630881 5858.0824392601326 6475.0893554687509 29791.786570560307 18029.680224436906 10623.342285156252 21041.298537650295 20399.663928785598 34662.432439441851 17331.789806637626 5879.8215834493794 8060.1623535156259 8999.9885985510373 10798.101265979329 29554.271740756729 9156.5400390625018 6037.2236328125009 31308.46222261569 12870.209739330887 10257.991764219247 10741.210034416277 10280.556307023657 18937.093902981756 20653.463679586977 10110.807275203284 9146.9026551561201 29949.911016356426 40.500000000000007 7200.0722197771638 5982.8142089843759 19902.016080549703 31.000000000000004 6536.9925171827135 40.500000000000007 11291.067382812502 40.500000000000007 12296.779931659914 31.000000000000004 12819.038740452641 18594.211686121827 12742.544021445048 18318.030897438923
decision_type=2 2 2 2 2 2 2 2 2 2 2 2 2 2 2 2 2 2 2 2 2 2 2 2 2 2 2 2 2 2 2 2 2 2 2 2 2 2 2 2 2 2 2 2
left_child=3 6 5 18 8 14 11 22 12 32 15 -2 35 29 -3 19 -16 24 31 -9 38 28 -4 -17 -15 -11 -21 -19 -7 43 37 40 -6 -25 41 -5 39 -22 -14 -28 -1 -26 -20 -8
right_child=1 2 7 4 9 21 13 10 -10 25 -12 -13 20 17 16 23 -18 27 42 26 30 -23 -24 33 34 -27 36 -29 -30 -31 -32 -33 -34 -35 -36 -37 -38 -39 -40 -41 -42 -43 -44 -45
leaf_value=-0.0092165502196106374 0.030515489154137099 0.043964102515019476 0.069315592880759933 -0.02026520657029424 0.01251162819643604 0.09235029926692899 0.028723402714822446 0.03030571784728613 -0.045094021566604317 -0.014837241443720731 0.025565569306490944 0.053827268085800684 -0.015943709465095698 0.016388073753803335 0.071931868735349402 0.055491391883956069 0.054782765275902229 0.026428336269137539 -0.0063988710645610713 0.047748632137389752 -0.012403344465282979 0.077715608414183276 0.059006016851904299 0.050224660013032996 0.011249369551097194 -0.0071579905266457413 0.039964061685734326 0.019598558210791688 0.08622314601295418 0.024816316061038922 -0.0097195168165490047 -0.010250276999521305 0.0092878699950549922 0.047297406941652298 0.0087486097663640981 -0.018400610528058477 0.041906606894114927 -0.013232202101498843 -0.015614362154566245 0.040774534810334447 -0.0094148355160911801 0.010767351984977722 -0.0063816254324247619 0.028691407458649745
leaf_weight=443 52 32 35 469 47 44 40 39 38 44 64 52 471 47 53 45 45 44 457 34 477 47 65 46 31 47 36 39 31 47 50 487 46 46 50 36 58 40 454 40 479 35 464 36
leaf_count=443 52 32 35 469 47 44 40 39 38 44 64 52 471 47 53 45 45 44 457 34 477 47 65 46 31 47 36 39 31 47 50 487 46 46 50 36 58 40 454 40 479 35 464 36
internal_value=0 0.0428664 0.0542893 -0.0116189 -0.0150448 0.07172 0.0245126 0.0456425 -0.0164179 0.000141437 0.0414828 0.0421714 -0.0158722 0.0195356 0.0591113 0.0444441 0.0640573 0.0156929 -0.00835617 0.0401239 -0.0144303 0.0851554 0.0626144 0.0509717 0.0118605 -0.010871 0.0424031 0.0232192 0.0898177 0.0272211 -0.0122251 -0.00964125 0.0109171 0.048761 0.010026 -0.0201323 0.0410468 -0.0124675 -0.0157821 0.0403906 -0.00931956 0.0109938 -0.00639018 0.0287082
internal_weight=0 1233 760 4549 2219 252 473 508 2035 184 408 104 1997 369 130 344 98 246 2330 207 1492 122 100 137 163 91 168 83 75 123 567 1409 93 92 116 505 134 517 925 76 922 66 921 76
internal_count=5782 1233 760 4549 2219 252 473 508 2035 184 408 104 1997 369 130 344 98 246 2330 207 1492 122 100 137 163 91 168 83 75 123 567 1409 93 92 116 505 134 517 925 76 922 66 921 76
is_linear=0
shrinkage=0.2


Tree=3
num_leaves=44
num_cat=0
split_feature=16 53 2 13 42 21 16 2 26 19 2 52 2 69 14 16 13 21 69 26 2 2 12 2 0 2 12 0 2 14 2 13 21 2 0 53 0 2 0 2 2 2 2
split_gain=46.0765 4.25084 1.61165 0.962959 0.813564 0.74034 0.600763 0.509484 0.420789 0.417098 0.349354 0.196267 0.173867 0.163573 0.201679 0.145151 0.15497 0.137112 0.0974301 0.094186 0.0711576 0.063509 0.0386886 0.0214421 0.0173284 0.01647 0.0148433 0.011053 0.0109242 0.010855 0.0100956 0.0055083 0.00441669 0.0038656 0.00346117 0.00229437 0.00185982 0.00134111 0.000405663 0.000401204 0.000144782 6.11154e-05 1.09424e-06
threshold=7206.7360822747514 9603.9094351186741 31496.595050972883 7261.0763257552435 5858.0824392601326 6475.0893554687509 8992.7049865463378 21865.370585190871 10623.342285156252 10799.986512343059 21127.157337788918 5879.8215834493794 32409.518129770997 8411.1986168523217 10009.538565731507 8879.8833620392197 8511.1651278319496 11347.579589843752 6543.8427132075331 6037.2236328125009 13189.295158472802 35866.813529149986 10800.000142357609 21433.372845217018 31.000000000000004 18986.657360012414 7757.5750025669813 31.000000000000004 31034.012996921785 8998.3742176181022 32311.625000000004 7200.0722197771638 5982.8142089843759 20571.335320914044 31.000000000000004 6804.2836537933536 40.500000000000007 32920.446706618175 40.500000000000007 12654.537653336456 13239.588220626758 19223.309190809196 13117.053843090451
decision_type=2 2 2 2 2 2 2 2 2 2 2 2 2 2 2 2 2 2 2 2 2 2 2 2 2 2 2 2 2 2 2 2 2 2 2 2 2 2 2 2 2 2 2
left_child=4 3 9 -2 19 7 15 11 22 17 33 36 30 29 -15 16 26 27 -17 32 39 24 -4 -12 37 -20 -5 -3 -19 -8 -10 38 40 -7 -31 41 -6 -14 -22 -13 -1 -18 -21
right_child=1 2 8 6 5 10 13 -9 12 -11 23 20 21 14 -16 18 35 28 25 42 31 -23 -24 -25 -26 -27 -28 -29 -30 34 -32 -33 -34 -35 -36 -37 -38 -39 -40 -41 -42 -43 -44
leaf_value=-0.0073732406361360723 0.056805245531722906 0.062172487108631339 0.055452474738870355 0.020658831526675532 -0.016212163717031224 0.010009304053605872 0.027506860723305084 -0.036075215590627568 0.040179725234275279 0.043826217171218665 -0.011869792445478115 -0.012754965666032717 0.031971252875195609 0.042659209009076729 0.024244577762408136 0.013110458977678988 0.008999500471738078 0.073880239711566417 0.026354098213570459 -0.0051190939371186751 -0.0099226776151224768 0.02680214004915046 0.047204809549909375 -0.0057263860360104992 0.038198910741245047 0.021674395352602006 0.015678848868283708 0.057585376893219201 0.068978519533430371 0.024412396843903339 0.044393110159370641 -0.0077756132818758488 -0.008200219402460714 0.0074302998573883717 0.021839836516550609 0.0069988914579153065 -0.014720492768618795 0.033525287192957158 -0.010585761833935977 -0.012491487212774512 -0.0075318700476454297 0.0086138777647699633 -0.0051053060098262184
leaf_weight=443 32 47 35 62 469 47 36 38 46 45 44 471 36 61 39 47 31 44 56 457 477 69 65 47 34 65 39 38 31 52 45 50 487 46 35 50 36 58 40 454 479 35 464
leaf_count=443 32 47 35 62 469 47 36 38 46 45 44 471 36 61 39 47 31 44 56 457 477 69 65 47 34 65 39 38 31 52 45 50 487 46 35 50 36 58 40 454 479 35 464
internal_value=0 0.0342931 0.0464928 0.0229894 -0.00929511 -0.0120358 0.0212096 -0.0131343 0.038914 0.0608371 0.000113153 -0.0126978 0.035033 0.0294701 0.0354775 0.0164249 0.013008 0.0656213 0.0208384 -0.00668494 -0.0115443 0.0316931 0.0500915 -0.00869682 0.0343296 0.0238402 0.0187359 0.0601218 0.0718542 0.0245861 0.0422633 -0.00978012 -0.007713 0.00873367 0.0233775 0.00802082 -0.0161058 0.0329301 -0.00997398 -0.0126256 -0.00745565 0.008795 -0.00511215
internal_weight=0 1233 593 640 4549 2219 608 2035 388 205 184 1997 288 223 100 385 217 160 168 2330 1492 197 100 91 128 121 101 85 75 123 91 567 1409 93 87 116 505 94 517 925 922 66 921
internal_count=5782 1233 593 640 4549 2219 608 2035 388 205 184 1997 288 223 100 385 217 160 168 2330 1492 197 100 91 128 121 101 85 75 123 91 567 1409 93 87 116 505 94 517 925 922 66 921
is_linear=0
shrinkage=0.2


Tree=4
num_leaves=45
num_cat=0
split_feature=15 21 55 2 45 35 25 25 21 2 2 39 35 2 21 2 21 25 13 71 13 31 15 15 2 21 2 13 0 21 2 2 0 2 0 2 0 2 2 2 13 2 2 2
split_gain=29.489 2.57888 1.09083 0.660717 0.520681 0.512499 0.577151 0.477904 0.473817 0.32607 0.223587 0.160757 0.121127 0.102429 0.0911757 0.0770138 0.0716128 0.0602792 0.0481768 0.0464716 0.0433334 0.0185034 0.0181566 0.0143385 0.0137229 0.0100621 0.00699149 0.00518257 0.00333803 0.00282667 0.0027572 0.00247398 0.00243299 0.00224104 0.00213211 0.00132614 0.00122731 0.000858315 0.000442014 0.000256767 0.000210338 0.000115695 9.26591e-05 7.01014e-07
threshold=7206.7360822747514 9205.5483398437518 10957.521756204558 18698.417609618107 5858.0824392601326 10318.695061695938 10623.342285156252 11335.930175781252 6475.0893554687509 21865.370585190871 21127.157337788918 8046.8201507903705 5842.7551055826125 19360.081168831173 9058.5058593750018 36043.117559523816 11539.967773437502 6037.2236328125009 10741.210034416277 5875.7325102389759 10257.991764219247 11612.206542968752 8788.5428798621888 8978.7960723177257 21433.372845217018 10757.951660156252 31034.012996921785 9000.0000092972023 40.500000000000007 5982.8142089843759 21660.744808962525 20571.335320914044 40.500000000000007 35866.813529149986 40.500000000000007 34511.948811349699 31.000000000000004 32920.446706618175 18986.657360012414 12654.537653336456 8838.0695208543711 32311.625000000004 13239.588220626758 13117.053843090451
decision_type=2 2 2 2 2 2 2 2 2 2 2 2 2 2 2 2 2 2 2 2 2 2 2 2 2 2 2 2 2 2 2 2 2 2 2 2 2 2 2 2 2 2 2 2
left_child=4 11 3 -3 17 13 18 20 9 12 31 23 -6 -5 22 16 21 29 35 28 26 25 40 34 -12 33 -4 38 -14 42 32 -10 39 -8 -2 -7 -27 -23 -25 -21 -13 -9 -1 -19
right_child=1 2 7 5 8 6 15 41 10 -11 24 14 19 -15 -16 -17 -18 43 -20 30 -22 37 -24 27 -26 36 -28 -29 -30 -31 -32 -33 -34 -35 -36 -37 -38 -39 -40 -41 -42 -43 -44 -45
leaf_value=-0.0058985947397943274 0.017707901000976561 0.058092900822239536 0.059104190639812842 0.024455651520721378 -0.012969729221705943 0.046068301296939979 0.029306085990822836 0.035060970272041032 0.008007438877161514 -0.02886017301659051 -0.0094958335669203253 0.0071995930325600413 -0.0079381435430087386 0.010551752558728653 0.018751897265513739 0.01747187410082136 0.019395660895567674 -0.0040952766061958168 0.03776385025336193 -0.010203973348638054 0.049737989442779663 0.025576999949084391 0.011027667157884155 0.019529914222389033 -0.0045811151570462165 0.032143779285252097 0.055182816001075899 0.022005490482681328 -0.0062204879745841029 -0.0065601766453692563 -0.0084686118736863134 0.005944236141184102 -0.011776388809084893 0.027259194030193612 0.015721279822606991 0.044361982260431559 0.030559125279679019 0.026820231871358281 0.018618246995740467 -0.0099931919003635791 0.006563234210960449 0.035514490736855406 -0.0060254971712578815 -0.0040842407530300119
leaf_weight=443 40 31 44 31 469 38 46 45 47 38 44 31 477 67 45 35 39 457 65 471 47 36 70 52 47 46 31 36 50 487 40 46 36 40 47 35 34 58 36 454 63 45 479 464
leaf_count=443 40 31 44 31 469 38 46 45 47 38 44 31 477 67 45 35 39 457 65 471 47 36 70 52 47 46 31 36 50 487 40 46 36 40 47 35 34 58 36 454 63 45 479 464
internal_value=0 0.0274345 0.0340087 0.0296577 -0.00743609 0.0281112 0.0308438 0.0463436 -0.00962867 -0.0105075 9.05185e-05 0.0147087 -0.0101582 0.0149499 0.0107772 0.0263484 0.0273875 -0.00534795 0.041724 -0.00929528 0.0544995 0.0285862 0.00858907 0.018603 -0.00695746 0.0298559 0.0574834 0.019984 -0.00777518 -0.0061704 -0.0100956 0.00698693 -0.0101633 0.028354 0.0166347 0.0452502 0.0314703 0.0263441 0.019157 -0.0101005 0.0067731 0.0352877 -0.00596452 -0.00408972
internal_weight=0 1233 813 601 4549 570 472 212 2219 2035 184 420 1997 98 209 334 299 2330 138 1528 122 260 164 211 91 166 75 124 527 1409 1001 93 961 86 87 73 80 94 88 925 94 90 922 921
internal_count=5782 1233 813 601 4549 570 472 212 2219 2035 184 420 1997 98 209 334 299 2330 138 1528 122 260 164 211 91 166 75 124 527 1409 1001 93 961 86 87 73 80 94 88 925 94 90 922 921
is_linear=0
shrinkage=0.2


Tree=5
num_leaves=45
num_cat=0
split_feature=15 21 55 3 43 66 25 21 69 25 3 3 39 52 66 25 3 43 15 24 15 3 15 3 15 3 21 18 3 3 15 21 3 0 3 0 3 3 0 3 15 3 3 3
split_gain=18.8729 1.66378 0.711894 0.425434 0.333236 0.30601 0.305858 0.303243 0.259637 0.224761 0.208685 0.143095 0.1321 0.080391 0.0768264 0.0385787 0.0291462 0.0286862 0.0277334 0.02348 0.0185579 0.00941833 0.00917659 0.00878267 0.00522879 0.00447454 0.00335631 0.00331684 0.00240739 0.00229593 0.0022562 0.00180907 0.00158335 0.00136454 0.000848739 0.000761777 0.000549317 0.000282892 0.00016616 0.000164335 0.000134621 7.40441e-05 5.93004e-05 4.48346e-07
threshold=7206.7360822747514 9163.3564453125018 10957.521756204558 18698.417609618107 5858.0824392601326 11593.786333401231 11335.930175781252 6475.0893554687509 9849.1085649571487 10506.991699218752 21865.370585190871 21127.157337788918 8046.8201507903705 5879.8215834493794 10121.381653766295 6037.2236328125009 13189.295158472802 11577.276074126603 10798.081972403003 8955.7077000101654 8879.8833620392197 34884.014988244518 8978.7960723177257 21433.372845217018 8788.5428798621888 31034.012996921785 11539.967773437502 8999.9898638481081 35452.085957870695 35866.813529149986 7205.5746209826602 5982.8142089843759 20571.335320914044 40.500000000000007 34511.948811349699 40.500000000000007 32920.446706618175 18986.657360012414 40.500000000000007 12654.537653336456 8631.3390660606656 32311.625000000004 13239.588220626758 13117.053843090451
decision_type=2 2 2 2 2 2 2 2 2 2 2 2 2 2 2 2 2 2 2 2 2 2 2 2 2 2 2 2 2 2 2 2 2 2 2 2 2 2 2 2 2 2 2 2
left_child=4 12 3 -3 15 8 18 10 14 21 13 32 22 35 20 31 39 28 25 24 -5 34 33 -13 40 -4 -16 37 -11 -22 38 42 -9 -2 -10 -6 -19 -24 -18 -15 -14 -8 -1 -17
right_child=1 2 6 5 7 -7 41 11 9 17 -12 23 19 16 26 43 30 36 -20 -21 29 -23 27 -25 -26 -27 -28 -29 -30 -31 -32 -33 -34 -35 -36 -37 -38 -39 -40 -41 -42 -43 -44 -45
leaf_value=-0.0047188762592206418 0.014166321232914926 0.046474320507578312 0.047283351590687583 0.017400916131033051 -0.010375783127992711 0.007630255411141644 0.028048778507444597 0.0064059529849823486 0.036854642508306397 0.026476137456794582 -0.02308813921715084 -0.0075966648884456273 0.0057596795501247532 -0.0081631802243918115 0.0130518266675519 -0.0032762193598904741 -0.0063505142888120635 0.020461601515611015 0.039790394006574414 0.011181410153706869 0.023750857346796342 0.032247244111365744 0.015623933141334699 -0.0036648895829281911 0.0080400857826073962 0.0441462554037571 0.015516529862697311 0.017604390438646079 0.024447304448660681 0.021807360919192435 -0.0049763922467827805 -0.0052481411518318704 0.0047553881516923073 0.01257702913927905 0.035489579694611688 -0.0094211162378390629 0.021456182414087758 0.014894595162736047 -0.0067748885229229928 -0.0079945531669626674 0.0052505848308404294 0.028411592402391963 -0.0048203969572618265 -0.0032673936547984467
leaf_weight=443 40 31 44 31 469 51 45 47 38 75 38 44 31 471 51 457 477 36 47 54 62 36 52 47 45 31 39 36 34 40 50 487 46 47 35 36 58 36 40 454 63 45 479 464
leaf_count=443 40 31 44 31 469 51 45 47 38 75 38 44 31 471 51 457 477 36 47 54 62 36 52 47 45 31 39 36 34 40 50 487 46 47 35 36 58 36 40 454 63 45 479 464
internal_value=0 0.0219476 0.0270763 0.0236409 -0.00594887 0.022433 0.0370748 -0.00770294 0.0238441 0.0275689 -0.00840597 7.24162e-05 0.0114236 -0.00812659 0.0186326 -0.00427836 -0.00738833 0.0236354 0.0435996 0.00764216 0.0216863 0.0348946 0.0148824 -0.00556597 0.0062672 0.0459867 0.0141199 0.0159872 0.0258433 0.0229887 -0.00625928 -0.00493632 0.00558954 0.0133077 0.0362002 -0.0103077 0.0210753 0.0153256 -0.00638335 -0.00808042 0.00541848 0.0282302 -0.00477162 -0.00327177
internal_weight=0 1233 829 617 4549 586 212 2219 535 312 2035 184 404 1997 223 2330 1492 203 122 193 133 109 211 91 139 75 90 124 109 102 567 1409 93 87 73 505 94 88 517 925 94 90 922 921
internal_count=5782 1233 829 617 4549 586 212 2219 535 312 2035 184 404 1997 223 2330 1492 203 122 193 133 109 211 91 139 75 90 124 109 102 567 1409 93 87 73 505 94 88 517 925 94 90 922 921
is_linear=0
shrinkage=0.2


Tree=6
num_leaves=44
num_cat=0
split_feature=15 41 3 12 42 69 21 25 3 38 3 3 52 42 21 25 29 3 14 3 21 12 15 3 32 21 3 3 15 12 13 21 3 3 3 3 3 3 3 3 3 3 3
split_gain=12.0787 1.08539 0.475839 0.291978 0.213271 0.198221 0.194076 0.15262 0.133558 0.10242 0.0915811 0.0765176 0.0514503 0.0373137 0.035943 0.0246903 0.0238623 0.0186536 0.0152683 0.0136275 0.0119903 0.00963113 0.00587301 0.00562092 0.00560729 0.00389808 0.00289749 0.00286372 0.00222248 0.00212277 0.00144397 0.00115781 0.00101335 0.000873307 0.000834166 0.000487538 0.000363124 0.000351562 0.000181048 0.000106343 0.000105172 3.79548e-05 2.8718e-07
threshold=7206.7360822747514 9570.4455873143215 31496.595050972883 7241.6391032033544 5858.0824392601326 10232.764910540434 6475.0893554687509 10623.342285156252 21865.370585190871 8046.8201507903705 21127.157337788918 36043.117559523816 5879.8215834493794 11534.27101722891 11347.579589843752 6037.2236328125009 9156.5400390625018 13189.295158472802 8991.9496434651865 32409.518129770997 11506.625976562502 10800.000142357609 8978.7960723177257 21433.372845217018 8090.8656836477758 10757.951660156252 30972.865506221529 31034.012996921785 8715.1063373269226 9000.0000249046589 7200.0722197771638 5982.8142089843759 20571.335320914044 20057.202651339579 35866.813529149986 21270.320330015249 35452.085957870695 32920.446706618175 18986.657360012414 21660.744808962525 12654.537653336456 13239.588220626758 13117.053843090451
decision_type=2 2 2 2 2 2 2 2 2 2 2 2 2 2 2 2 2 2 2 2 2 2 2 2 2 2 2 2 2 2 2 2 2 2 2 2 2 2 2 2 2 2 2
left_child=4 3 5 -2 15 18 8 21 12 22 32 13 35 20 26 31 24 40 -3 -15 25 -4 33 -12 -11 34 -7 -16 -26 38 39 41 -8 -5 -9 -6 -27 -21 -24 -19 -14 -1 -17
right_child=1 2 7 9 6 14 10 11 -10 16 23 -13 17 19 27 42 -18 30 -20 37 -22 -23 29 -25 28 36 -28 -29 -30 -31 -32 -33 -34 -35 -36 -37 -38 -39 -40 -41 -42 -43 -44
leaf_value=-0.0037750981689239462 0.028799467858287599 0.018419415978860345 0.028391665262835365 0.011333057824522257 -0.008300627511379912 0.029483713562551302 0.0051247617982803509 0.018694695004302524 -0.018470511958003043 0.0061192598692806702 -0.0060773352433567528 0.010648505517747254 -0.0065305435575244283 0.012413221444839086 0.037826682694933639 -0.0026209767757052927 0.0089578726602827802 -0.0050804109330166063 0.023829060279143353 0.016369283571839335 0.022729274349080193 0.024276587779705344 0.012499145833918682 -0.0029319119580248571 0.0026759438849985602 0.02041979703809256 0.031832315233793665 0.035317000169907846 0.004502858927375392 0.014083510637283326 -0.0039811150766909126 -0.0041985127080453738 0.0038043107027592865 0.010061622973769269 0.017445884346961978 -0.0075368932551807821 0.019557843510718907 0.017164947741247459 0.011915679648518564 -0.005419911779463292 -0.0063956436803687513 -0.0038563174811932638 -0.0026139132814995691
leaf_weight=443 31 32 35 40 469 38 47 46 38 56 44 64 471 39 44 457 68 477 60 36 45 65 52 47 50 46 47 31 57 36 50 487 46 47 40 36 34 58 36 40 454 479 464
leaf_count=443 31 32 35 40 469 38 47 46 38 56 44 64 471 39 44 457 68 477 60 36 45 65 52 47 50 46 47 31 57 36 50 487 46 47 40 36 34 58 36 40 454 479 464
internal_value=0 0.0175581 0.0222394 0.0100364 -0.00475909 0.0293447 -0.00616235 0.0187147 -0.00672478 0.00872041 5.7932e-05 0.0169984 -0.00650127 0.0181798 0.0335981 -0.00342269 0.00581071 -0.00591067 0.0219474 0.0155562 0.0198336 0.0257169 0.0119059 -0.00445278 0.00449778 0.0190486 0.0307824 0.0367893 0.00364916 0.0127897 -0.00500742 -0.00394906 0.00447164 0.0106462 0.0181139 -0.00824618 0.0200535 0.0168602 0.0122605 -0.00510668 -0.00646433 -0.00381729 -0.00261742
internal_weight=0 1233 760 473 4549 252 2219 508 2035 442 184 408 1997 344 160 2330 231 1492 92 133 211 100 211 91 163 166 85 75 107 124 567 1409 93 87 86 505 80 94 88 517 925 922 921
internal_count=5782 1233 760 473 4549 252 2219 508 2035 442 184 408 1997 344 160 2330 231 1492 92 133 211 100 211 91 163 166 85 75 107 124 567 1409 93 87 86 505 80 94 88 517 925 922 921
is_linear=0
shrinkage=0.2


Tree=7
num_leaves=44
num_cat=0
split_feature=15 41 3 3 45 65 22 26 3 3 38 3 36 45 22 26 67 67 15 3 22 15 3 36 3 22 0 3 36 0 15 22 3 0 3 0 3 3 0 3 3 3 3
split_gain=7.73036 0.694648 0.304537 0.162085 0.136493 0.126862 0.124208 0.0976769 0.0854772 0.0586118 0.0534338 0.0489713 0.0317528 0.0238808 0.0230036 0.0158018 0.0146974 0.0127879 0.00977171 0.00872158 0.00767379 0.00616393 0.00418801 0.00399505 0.00359738 0.00249477 0.0018544 0.00183278 0.00124112 0.0011126 0.000924135 0.000741 0.000648538 0.000637802 0.000533867 0.000232403 0.000225001 0.000102907 6.80596e-05 6.73108e-05 2.44432e-05 2.42898e-05 1.83744e-07
threshold=7206.7360822747514 9570.4455873143215 31496.595050972883 18440.446353139963 5858.0824392601326 10163.478915697106 6475.0893554687509 10623.342285156252 21865.370585190871 21127.157337788918 8046.8201507903705 36043.117559523816 5842.7551055826125 11534.27101722891 11347.579589843752 6037.2236328125009 8126.6254310298309 5962.420939493637 8999.9885985510373 32409.518129770997 11506.625976562502 10614.709322664936 18686.124101009453 8177.2717294426811 21433.372845217018 10757.951660156252 31.000000000000004 31034.012996921785 8035.5057570042145 40.500000000000007 7205.5746209826602 5982.8142089843759 20571.335320914044 40.500000000000007 35866.813529149986 31.000000000000004 32920.446706618175 18986.657360012414 40.500000000000007 12654.537653336456 19223.309190809196 13239.588220626758 13117.053843090451
decision_type=2 2 2 2 2 2 2 2 2 2 2 2 2 2 2 2 2 2 2 2 2 2 2 2 2 2 2 2 2 2 2 2 2 2 2 2 2 2 2 2 2 2 2
left_child=4 3 5 -2 15 18 8 21 12 32 22 13 -6 20 26 31 23 33 -3 -15 25 -4 -5 28 -11 34 -7 -16 -12 37 38 41 -8 39 -9 -27 -21 -24 -19 -14 -30 -1 -17
right_child=1 2 7 10 6 14 9 11 -10 24 16 -13 17 19 27 42 -18 30 -20 36 -22 -23 29 -25 -26 35 -28 -29 40 -31 -32 -33 -34 -35 -36 -37 -38 -39 -40 -41 -42 -43 -44
leaf_value=-0.0030200799107215209 0.017064433555830927 0.014735531876794994 0.022713336774281095 0.011266809370782642 -0.0066405005373759698 0.025465852941604375 0.0040998055896860489 0.014955760089113659 -0.014776408691939556 -0.0048618629638274968 0.0021419125947762618 0.0085188051831210036 -0.0052244346201293281 0.0099305799374213594 0.030261347682045941 -0.0020967817732848275 0.0071662983692744198 -0.0040643272972206903 0.019063245548556249 0.013095425566037497 0.018183417121569314 0.019421273045814955 0.0090664432290941486 0.004914768177139409 -0.0023455290084189559 0.016335841788626886 0.023586969057980339 0.028253603750659575 0.0033838924230827441 0.0080492981253786292 -0.003184892375022173 -0.0033588106049802268 0.0030434474349021914 -0.0060295155892769493 0.013956710807979106 0.01564627351677593 0.013731958545294815 0.0095325429820352151 -0.0043359279260039331 -0.005116513874463836 0.0036277667965207783 -0.0030850536860758926 -0.0020911317583623117
leaf_weight=443 68 32 35 36 469 47 47 46 38 44 44 64 471 39 44 457 68 477 60 36 45 65 40 68 47 46 38 31 31 47 50 487 46 36 40 34 58 36 40 454 35 479 464
leaf_count=443 68 32 35 36 469 47 47 46 38 44 44 64 471 39 44 457 68 477 60 36 45 65 40 68 47 46 38 31 31 47 50 487 46 36 40 34 58 36 40 454 35 479 464
internal_value=0 0.0140465 0.0177915 0.0080291 -0.00380728 0.0234758 -0.00492988 0.0149717 -0.00537982 4.63457e-05 0.00651205 0.0135988 -0.00520102 0.0145439 0.0268785 -0.00273815 0.00466516 -0.00475918 0.017558 0.012445 0.0158669 0.0205735 0.00936951 0.00370967 -0.00356222 0.0152389 0.0246259 0.0294315 0.0029647 0.0088142 -0.00400594 -0.00315925 0.00357731 -0.00520361 0.0144911 0.0160428 0.0134882 0.00928723 -0.00408534 -0.00517147 0.00351322 -0.00305384 -0.00209394
internal_weight=0 1233 760 473 4549 252 2219 508 2035 184 405 408 1997 344 160 2330 246 1528 92 133 211 100 159 178 91 166 85 75 110 123 567 1409 93 961 86 80 94 76 517 925 66 922 921
internal_count=5782 1233 760 473 4549 252 2219 508 2035 184 405 408 1997 344 160 2330 246 1528 92 133 211 100 159 178 91 166 85 75 110 123 567 1409 93 961 86 80 94 76 517 925 66 922 921
is_linear=0
shrinkage=0.2


Tree=8
num_leaves=45
num_cat=0
split_feature=16 22 55 1 41 25 42 25 22 1 1 72 42 1 52 22 25 16 1 16 12 31 1 22 1 1 0 22 16 22 1 1 1 1 0 0 1 1 1 0 1 1 0 1
split_gain=4.94743 0.460168 0.173898 0.210407 0.107324 0.0938504 0.0873558 0.0853588 0.0794935 0.0547054 0.0375116 0.0282399 0.0271846 0.0253045 0.0210741 0.0118609 0.0101132 0.00818696 0.00764051 0.00727014 0.00329257 0.00294312 0.00230233 0.00159665 0.00131359 0.00117298 0.00113291 0.000896231 0.000591448 0.000474244 0.000415064 0.000341673 0.000264847 0.000222492 0.000199702 0.000148738 0.000144001 8.84725e-05 6.58578e-05 4.35586e-05 4.3077e-05 1.55444e-05 1.33348e-05 1.1767e-07
threshold=7206.7360822747514 9163.3564453125018 10957.521756204558 18050.052091728041 9570.4455873143215 10623.342285156252 5858.0824392601326 11335.930175781252 6475.0893554687509 21041.298537650295 20399.663928785598 7555.5421413719878 8033.4296787439325 34662.432439441851 5879.8215834493794 11539.967773437502 6037.2236328125009 8788.5428798621888 12870.209739330887 10798.081972403003 9000.0000249046589 11612.206542968752 20653.463679586977 10757.951660156252 33622.102526050061 29949.911016356426 14.000000000000002 8041.8173828125009 7205.5746209826602 5982.8142089843759 19902.016080549703 34519.840602979959 31162.97330630256 33239.539936987981 40.500000000000007 31.000000000000004 31851.849928551299 18594.211686121827 18318.030897438923 40.500000000000007 12296.779931659914 12819.038740452641 40.500000000000007 12742.544021445048
decision_type=2 2 2 2 2 2 2 2 2 2 2 2 2 2 2 2 2 2 2 2 2 2 2 2 2 2 2 2 2 2 2 2 2 2 2 2 2 2 2 2 2 2 2 2
left_child=6 12 3 -3 -5 11 16 19 9 14 30 -6 20 15 34 21 29 37 40 25 27 23 -12 31 33 -4 -19 42 39 41 -10 -7 -9 -13 -8 -25 -23 -14 -29 -20 -16 -1 -2 -18
right_child=1 2 7 4 5 13 8 32 10 -11 22 24 17 -15 18 -17 43 26 28 -21 -22 36 -24 35 -26 -27 -28 38 -30 -31 -32 -33 -34 -35 -36 -37 -38 -39 -40 -41 -42 -43 -44 -45
leaf_value=-0.0024160640747296893 0.0065864321130972639 0.02829425036907196 0.024209076953543861 0.002803660939746308 0.012672780170181737 0.01196460373821142 -0.0053124042748134018 0.013860559595955745 0.003279848507744201 -0.011821125349716138 -0.0038894933733073151 0.018869575860566999 0.0025008531220225717 0.0068150425904605072 -0.0041795473015865201 0.0079444639193706028 -0.0016774260657034506 0.0058995991372145142 -0.0032514624938025163 0.020372681097781405 0.0090134478924382058 0.010476340684625838 -0.001876423587190344 0.01306866988863634 0.017058226321306495 0.022602881731525547 0.0045447355572213518 0.0072531592752784497 -0.0025479135122150184 -0.0026870487340070019 0.0024347615306792056 0.01116536635789089 0.014546736578146617 0.01817066360797201 -0.004823606833815575 0.012517014666296103 0.010985567131689911 0.0029022168048790527 0.0076260308010710617 -0.0034687440469861035 -0.0040932126839682134 -0.0024680412747743611 0.0064394413632281287 -0.0016729046373852884
leaf_weight=443 52 31 44 53 61 46 469 45 47 38 44 38 59 64 471 39 457 52 477 47 36 36 47 46 36 31 47 40 50 487 46 40 45 35 36 34 58 35 36 40 454 479 47 464
leaf_count=443 52 31 44 53 61 46 469 45 47 38 44 38 59 64 471 39 457 52 477 47 36 36 47 46 36 31 47 40 50 487 46 40 45 35 36 34 58 35 36 40 454 479 47 464
internal_value=0 0.0112372 0.0139344 0.0122365 0.011387 0.0122405 -0.00304582 0.0188761 -0.00394391 -0.00430386 3.70777e-05 0.0161185 0.00570249 0.0104243 -0.00416081 0.0111969 -0.00219052 0.0039871 -0.00378283 0.022323 0.00727154 0.0116847 -0.00284978 0.0121911 0.0180469 0.0235452 0.00525638 0.00691321 -0.00320475 -0.0025274 0.00286185 0.0115929 0.0142036 0.0185345 -0.00527756 0.0128342 0.0107905 0.0026503 0.00742978 -0.00326827 -0.00413717 -0.00244307 0.00651665 -0.00167515
internal_weight=0 1233 829 617 586 533 4549 212 2219 2035 184 170 404 363 1997 299 2330 193 1492 122 211 260 91 166 109 75 99 175 567 1409 93 86 90 73 505 80 94 94 76 517 925 922 99 921
internal_count=5782 1233 829 617 586 533 4549 212 2219 2035 184 170 404 363 1997 299 2330 193 1492 122 211 260 91 166 109 75 99 175 567 1409 93 86 90 73 505 80 94 94 76 517 925 922 99 921
is_linear=0
shrinkage=0.2


end of trees

feature_importances:
Column_2=56
Column_3=55
Column_1=36
Column_0=33
Column_15=24
Column_22=22
Column_4=18
Column_21=18
Column_25=15
Column_13=13
Column_16=10
Column_52=7
Column_12=6
Column_41=5
Column_42=5
Column_14=4
Column_18=4
Column_26=4
Column_43=4
Column_45=4
Column_53=4
Column_55=4
Column_69=4
Column_27=3
Column_31=3
Column_36=3
Column_38=3
Column_39=3
Column_28=2
Column_35=2
Column_54=2
Column_65=2
Column_66=2
Column_67=2
Column_70=2
Column_71=2
Column_19=1
Column_24=1
Column_29=1
Column_32=1
Column_40=1
Column_72=1

parameters:
[boosting: gbdt]
[objective: regression]
[metric: custom]
[tree_learner: serial]
[device_type: cpu]
[data: ]
[valid: ]
[num_iterations: 10000]
[learning_rate: 0.2]
[num_leaves: 63]
[num_threads: 0]
[deterministic: 0]
[force_col_wise: 0]
[force_row_wise: 0]
[histogram_pool_size: -1]
[max_depth: -1]
[min_data_in_leaf: 30]
[min_sum_hessian_in_leaf: 0.001]
[bagging_fraction: 1]
[pos_bagging_fraction: 1]
[neg_bagging_fraction: 1]
[bagging_freq: 0]
[bagging_seed: 21187]
[feature_fraction: 0.5]
[feature_fraction_bynode: 1]
[feature_fraction_seed: 30770]
[extra_trees: 0]
[extra_seed: 27351]
[early_stopping_round: 0]
[first_metric_only: 0]
[max_delta_step: 0]
[lambda_l1: 0]
[lambda_l2: 0]
[linear_lambda: 0]
[min_gain_to_split: 0]
[drop_rate: 0.1]
[max_drop: 50]
[skip_drop: 0.5]
[xgboost_dart_mode: 0]
[uniform_drop: 0]
[drop_seed: 3778]
[top_rate: 0.2]
[other_rate: 0.1]
[min_data_per_group: 100]
[max_cat_threshold: 32]
[cat_l2: 10]
[cat_smooth: 10]
[max_cat_to_onehot: 4]
[top_k: 20]
[monotone_constraints: ]
[monotone_constraints_method: basic]
[monotone_penalty: 0]
[feature_contri: ]
[forcedsplits_filename: ]
[refit_decay_rate: 0.9]
[cegb_tradeoff: 1]
[cegb_penalty_split: 0]
[cegb_penalty_feature_lazy: ]
[cegb_penalty_feature_coupled: ]
[path_smooth: 0]
[interaction_constraints: ]
[verbosity: -1]
[saved_feature_importance_type: 0]
[linear_tree: 0]
[max_bin: 255]
[max_bin_by_feature: ]
[min_data_in_bin: 3]
[bin_construct_sample_cnt: 200000]
[data_random_seed: 4084]
[is_enable_sparse: 1]
[enable_bundle: 1]
[use_missing: 1]
[zero_as_missing: 0]
[feature_pre_filter: 1]
[pre_partition: 0]
[two_round: 0]
[header: 0]
[label_column: ]
[weight_column: ]
[group_column: ]
[ignore_column: ]
[categorical_feature: ]
[forcedbins_filename: ]
[precise_float_parser: 0]
[objective_seed: 9093]
[num_class: 1]
[is_unbalance: 0]
[scale_pos_weight: 1]
[sigmoid: 1]
[boost_from_average: 1]
[reg_sqrt: 0]
[alpha: 0.9]
[fair_c: 1]
[poisson_max_delta_step: 0.7]
[tweedie_variance_power: 1.5]
[lambdarank_truncation_level: 30]
[lambdarank_norm: 1]
[label_gain: ]
[eval_at: ]
[multi_error_top_k: 1]
[auc_mu_weights: ]
[num_machines: 1]
[local_listen_port: 12400]
[time_out: 120]
[machine_list_filename: ]
[machines: ]
[gpu_platform_id: -1]
[gpu_device_id: -1]
[gpu_use_dp: 0]
[num_gpu: 1]

end of parameters

pandas_categorical:null
