tree
version=v3
num_class=1
num_tree_per_iteration=1
label_index=0
max_feature_idx=72
objective=regression
feature_names=Column_0 Column_1 Column_2 Column_3 Column_4 Column_5 Column_6 Column_7 Column_8 Column_9 Column_10 Column_11 Column_12 Column_13 Column_14 Column_15 Column_16 Column_17 Column_18 Column_19 Column_20 Column_21 Column_22 Column_23 Column_24 Column_25 Column_26 Column_27 Column_28 Column_29 Column_30 Column_31 Column_32 Column_33 Column_34 Column_35 Column_36 Column_37 Column_38 Column_39 Column_40 Column_41 Column_42 Column_43 Column_44 Column_45 Column_46 Column_47 Column_48 Column_49 Column_50 Column_51 Column_52 Column_53 Column_54 Column_55 Column_56 Column_57 Column_58 Column_59 Column_60 Column_61 Column_62 Column_63 Column_64 Column_65 Column_66 Column_67 Column_68 Column_69 Column_70 Column_71 Column_72
feature_infos=[5:56] [3862.1968252761731:34830.782809281292] [3600:36097.546012269937] [3600:36097.546012269937] [3600:36097.546012269937] [3600:36097.546012269937] [3600:36097.546012269937] [3600:36097.546012269937] [3600:36097.546012269937] [3600:36097.546012269937] [3600:36097.546012269937] [3600:36097.546012269937] [3600.0000510003374:10800.000170809659] [3600.000051000331:10800.000170271722] [3600.1379879094484:10800.000142357654] [3599.9985041427444:10802.378597712463] [3599.9985041427444:10802.378597712463] [3599.9985041427444:10802.378597712463] [3599.9970784284369:10824.369168355082] [3599.9970784284369:10824.369168355082] [3599.9970784284369:10824.369168355082] [5833.48486328125:11705.0947265625] [5833.48486328125:11705.0947265625] [5833.48486328125:11705.0947265625] [3599.9985721739713:10800.01370759139] [5486.63330078125:11648.24609375] [5486.63330078125:11648.24609375] [5486.63330078125:11648.24609375] [5865.61328125:11704.2060546875] [5865.61328125:11704.2060546875] [5865.61328125:11704.2060546875] [5410.93115234375:11660.6640625] [4322.343875974072:12169.21654132908] [4322.343875974072:12169.21654132908] [4322.343875974072:12169.21654132908] [3600.0000000000005:11973.646284864382] [3600.0000000000005:11973.646284864382] [3600.0000000000005:11973.646284864382] [4658.2077587370877:11708.156873723416] [4658.2077587370877:11708.156873723416] [4658.2077587370877:11708.156873723416] [4870.3792011057931:12406.854860656607] [3600.0000000000005:11612.049051231208] [3600.0000000000005:11612.049051231208] [3600.0000000000005:11612.049051231208] [3600.0000000000005:11612.049051231208] [3600.0000000000005:11612.049051231208] [3600.0000000000005:11612.049051231208] [3600.0000000000005:11612.049051231228] [3600.0000000000005:11612.049051231228] [3600.0000000000005:11612.049051231208] [3600.0000000000005:11612.049051231208] [5375.5914935020501:12390.272091594814] [5767.3925394271173:12695.950666046418] [4671.2788396669785:11865.888611784518] [5850.5549356312858:11453.941784757943] [5850.5549356312858:11453.941784757943] [5850.5549356312858:11453.941784757943] [5850.5549356312858:11453.941784757943] [5850.5549356312858:11453.941784757943] [5850.5549356312858:11453.941784757943] [5850.5549356312858:11453.941784757943] [5850.5549356312858:11453.941784757943] [5850.5549356312858:11453.941784757943] [5850.554932927068:11453.941371529456] [4314.7566924276534:11504.03599232849] [5037.5442936491818:13540.430952399904] [5078.4213707715162:11339.93750453577] [3906.6588086640872:15473.864126395112] [4673.0625441292268:12008.482444389463] [5266.7974509333126:12989.646985052672] [3824.0249138868999:12367.273851514268] [5774.1865476673202:9381.0379377608806]
tree_sizes=3908 3913 3838 3945 3954 3970 3896 3903 3920 4027 4131 4052 4071 4175 4195 4286 4300 4147 4242 4151 4173 4067 4254 4252 4166 4153 4158 4351 4146 4252 4259 4356

Tree=0
num_leaves=44
num_cat=0
split_feature=18 41 56 43 22 25 25 4 14 16 4 4 52 14 67 68 25 4 16 18 16 52 31 4 14 16 0 0 4 22 0 4 4 14 4 0 4 0 4 4 4 4 4
split_gain=167.242 15.4272 6.30971 3.76104 2.84287 2.75586 2.19936 1.9406 1.70398 1.62568 1.20737 0.945798 0.747573 0.653879 0.602843 0.49642 0.405774 0.271036 0.257899 0.229134 0.198825 0.171623 0.162849 0.0416098 0.0354339 0.020981 0.0201035 0.0156815 0.0147239 0.0102717 0.007084 0.00650048 0.00420775 0.00395636 0.00361053 0.00154515 0.00152816 0.00135444 0.000321756 0.000103234 7.34846e-05 4.17087e-06 2.70049e-06
threshold=7212.2764436691023 9788.140004626528 10957.521756204558 5858.0824392601326 6475.0893554687509 11335.930175781252 10623.342285156252 21865.370585190871 7204.1983899791294 8978.7960723177257 21127.157337788918 36043.117559523816 5879.8215834493794 8991.9496434651865 5845.7248328811338 11210.864770321639 6020.9714355468759 13224.860040921163 10798.081972403003 8999.9898638481081 10614.709322664936 6592.9498973308737 11612.206542968752 31034.012996921785 8985.9169433514708 7204.2361734299911 40.500000000000007 31.000000000000004 20571.335320914044 5978.3933105468759 40.500000000000007 19257.156593406598 32832.374792044306 8998.3742176181022 19113.860946745564 40.500000000000007 12654.537653336456 31.000000000000004 35452.085957870695 13181.682081114393 32311.625000000004 13117.053843090451 34828.721855590069
decision_type=2 2 2 2 2 2 2 2 2 2 2 2 2 2 2 2 2 2 2 2 2 2 2 2 2 2 2 2 2 2 2 2 2 2 2 2 2 2 2 2 2 2 2
left_child=3 8 6 16 7 18 13 12 -2 14 28 15 30 -3 34 22 29 36 23 33 -15 26 27 -4 31 35 -16 -8 -6 -1 -5 -23 -24 -11 -10 -19 -14 -21 42 41 -7 -18 -29
right_child=1 2 5 4 10 40 11 -9 9 19 -12 -13 17 20 21 -17 39 25 -20 37 -22 24 32 -25 -26 -27 -28 38 -30 -31 -32 -33 -34 -35 -36 -37 -38 -39 -40 -41 -42 -43 -44
leaf_value=-0.014892295813304753 0.085476624717229818 0.066905316733920306 0.14399603417540735 -0.031833232765175051 0.019342014980865713 0.086808785936546382 0.078224269135858296 -0.070599053188454136 0.014754559604305746 0.044603888863966254 -0.023358417621817919 0.040986041212619569 -0.025085978525537466 0.10871020709460351 0.044653848107138003 0.047124357376627693 -0.010183393598890743 -0.019558329204570717 0.12114654746408582 0.059562789659284451 0.091934808142863284 0.033403847395341461 0.062204161131298771 0.13442957352397714 0.02568139083789173 -0.015367993247530139 0.038553619310127719 0.073653882192410453 0.014308683862872342 -0.016196685954065253 -0.028921997280522794 0.03018178069467143 0.065221527161388848 0.047123754254339491 0.017371225829641679 -0.020852438884156471 -0.024571760569837585 0.061253757137039025 0.074358396576060859 -0.010285600305965174 0.086447345423677283 -0.010156474771326798 0.073578905028625505
leaf_weight=479 31 32 44 469 47 45 46 38 66 36 44 64 471 50 40 39 457 477 47 36 65 70 36 31 47 50 47 46 46 487 36 39 38 81 31 40 454 40 34 463 45 464 33
leaf_count=479 31 32 44 469 47 45 46 38 66 36 44 64 471 50 40 39 457 477 47 36 65 70 36 31 47 50 47 46 46 487 36 39 38 81 31 40 454 40 34 463 45 464 33
internal_value=6.9618e-09 0.0644694 0.0844132 -0.0179494 -0.023949 0.113177 0.0717881 -0.0258264 0.0398933 0.0372421 0.00393798 0.0628613 -0.0249744 0.0921921 0.0289202 0.0680085 -0.0124042 -0.0227231 0.132763 0.0519025 0.0992285 0.034241 0.0715041 0.140042 0.0302717 -0.0192801 0.0413583 0.0751112 0.0168524 -0.0155499 -0.0316257 0.032251 0.0637536 0.0463484 0.0155908 -0.0196585 -0.0248336 0.0604528 0.073844 -0.0102086 0.0866281 -0.0101698 0.0736226
internal_weight=0 1259 695 4522 2172 212 483 2035 564 533 137 336 1997 147 340 272 2350 1492 122 193 115 243 233 75 156 567 87 159 93 966 505 109 74 117 97 517 925 76 113 1384 90 921 79
internal_count=5781 1259 695 4522 2172 212 483 2035 564 533 137 336 1997 147 340 272 2350 1492 122 193 115 243 233 75 156 567 87 159 93 966 505 109 74 117 97 517 925 76 113 1384 90 921 79
is_linear=0
shrinkage=1


Tree=1
num_leaves=44
num_cat=0
split_feature=18 53 2 43 22 41 2 2 2 25 2 25 52 2 41 25 25 18 41 2 15 15 15 34 22 15 2 2 15 2 2 22 2 2 2 2 2 2 2 2 2 2 2
split_gain=107.035 10.0784 3.69354 2.40706 1.81944 1.78433 2.27033 1.24198 1.11075 0.97422 0.772718 0.691635 0.478446 0.396484 0.31612 0.336723 0.259695 0.233049 0.181682 0.173463 0.165055 0.107577 0.0923344 0.0672211 0.0594284 0.0515773 0.0266303 0.0188105 0.0134278 0.00942331 0.00788155 0.00657389 0.00453374 0.00416523 0.00269295 0.00231073 0.0014343 0.000988891 0.000978042 0.000162805 6.60663e-05 2.67048e-06 7.56698e-07
threshold=7212.2764436691023 9603.9094351186741 31496.595050972883 5858.0824392601326 6475.0893554687509 8173.932700215023 18417.690325497289 21865.370585190871 30845.229707792212 10623.342285156252 21127.157337788918 8060.1623535156259 5879.8215834493794 35866.813529149986 10565.776747426955 9236.1582031250018 6020.9714355468759 10251.880320164079 11448.603288597342 13224.860040921163 10798.081972403003 8924.1292100928968 10614.709322664936 9351.8334624228028 11506.625976562502 8950.038449796315 31034.012996921785 20057.202651339579 7204.2361734299911 20571.335320914044 34828.721855590069 5978.3933105468759 21270.320330015249 18686.124101009453 32832.374792044306 19113.860946745564 36043.117559523816 21569.938549701928 12654.537653336456 35452.085957870695 13181.682081114393 13117.053843090451 18986.657360012414
decision_type=2 2 2 2 2 2 2 2 2 2 2 2 2 2 2 2 2 2 2 2 2 2 2 2 2 2 2 2 2 2 2 2 2 2 2 2 2 2 2 2 2 2 2
left_child=3 5 8 16 7 11 -7 12 -3 22 29 21 32 18 15 -8 31 -16 24 38 26 27 -4 -17 30 35 -10 -2 37 -6 -11 -1 -5 -23 -20 -13 -25 -21 -14 -32 41 -18 -35
right_child=1 2 9 4 10 6 14 -9 20 13 -12 25 19 -15 17 23 40 -19 34 28 -22 33 -24 36 -26 -27 -28 -29 -30 -31 39 -33 -34 42 -36 -37 -38 -39 -40 -41 -42 -43 -44
leaf_value=-0.011913840883335639 0.025370908873500648 0.069447023868560789 0.08628935166767665 -0.025466590218751362 0.015473603328412517 0.097777676065602614 0.049574066895561729 -0.056479247149668246 0.11519682190634989 0.062579409893521148 -0.018686737949875267 0.011803644127918012 -0.020068792619143322 0.041912419829463615 0.057432177541176646 0.025160443265404966 -0.0081467255656515747 0.037699476342934829 0.049763324515273176 -0.015646671128910293 0.096917231269973397 0.038027119235350543 0.073547838628292089 0.035039868843224319 0.069157869302564207 0.020545107823737127 0.10754365517247109 0.030842890003894237 -0.01229440274462104 0.011446938890477886 0.058863114614999205 -0.012957353383164999 -0.023137607673803965 0.03572306882590056 0.052177213367662935 0.013896975570148039 0.033332787560565132 -0.01668195690959692 -0.01965741452962029 0.059486712995396165 -0.0082284859991099361 -0.0081251859680974269 0.035683100422223411
leaf_weight=479 54 45 35 469 47 31 52 38 44 46 44 66 471 69 62 54 457 39 36 477 47 52 65 45 45 47 31 47 50 46 33 487 36 40 38 31 35 40 454 34 463 464 36
leaf_count=479 54 45 35 469 47 31 52 38 44 46 44 66 471 69 62 54 457 39 36 477 47 52 65 45 45 47 31 47 50 46 33 487 36 40 38 31 35 40 454 34 463 464 36
internal_value=0 0.0515755 0.0713124 -0.0143595 -0.0191592 0.0353519 0.0463589 -0.0206611 0.0963038 0.0609045 0.00315038 0.0259679 -0.0199795 0.0552225 0.040805 0.0359137 -0.00992336 0.0498126 0.059181 -0.0181785 0.10621 0.0327972 0.0780074 0.0306127 0.0630113 0.0151074 0.112034 0.0279173 -0.0154241 0.0134819 0.0605636 -0.0124399 -0.0253006 0.0366478 0.0510029 0.0124726 0.034293 -0.0157268 -0.0198669 0.0591796 -0.00816686 -0.00813587 0.0357041
internal_weight=0 1259 568 4522 2172 691 318 2035 167 401 137 373 1997 301 287 186 2350 101 232 1492 122 229 100 134 158 144 75 101 567 93 113 966 505 128 74 97 80 517 925 67 1384 921 76
internal_count=5781 1259 568 4522 2172 691 318 2035 167 401 137 373 1997 301 287 186 2350 101 232 1492 122 229 100 134 158 144 75 101 567 93 113 966 505 128 74 97 80 517 925 67 1384 921 76
is_linear=0
shrinkage=0.2


Tree=2
num_leaves=43
num_cat=0
split_feature=18 22 58 45 22 27 1 13 1 1 15 15 52 41 18 22 27 13 1 13 3 13 0 1 13 15 1 13 0 1 22 15 0 13 1 1 0 1 1 1 1 1
split_gain=68.5024 6.3292 3.00209 1.54052 1.16444 1.1288 0.921726 0.987568 0.794871 0.49454 0.467602 0.323705 0.306206 0.302597 0.254621 0.236828 0.166205 0.158513 0.111017 0.105635 0.0619882 0.059094 0.0476959 0.0475624 0.0437149 0.0350316 0.0170434 0.00859379 0.00823439 0.00603092 0.00420725 0.00362527 0.00290161 0.00193222 0.0017235 0.00147886 0.000632895 0.000625919 4.22866e-05 3.01e-05 1.13977e-05 1.70888e-06
threshold=7212.2764436691023 9163.3564453125018 10957.521756204558 5858.0824392601326 6475.0893554687509 11335.930175781252 18050.052091728041 10710.517168789596 21041.298537650295 20399.663928785598 8978.7960723177257 10799.986383608868 5879.8215834493794 10565.776747426955 10251.880320164079 8257.1474609375018 6020.9714355468759 10175.166447288084 12870.209739330887 10257.991764219247 19448.786866359453 10741.210034416277 31.000000000000004 18038.50850146919 8997.0893375701871 8784.6002041436604 29949.911016356426 7200.0722197771638 40.500000000000007 19902.016080549703 5978.3933105468759 10022.772453903481 40.500000000000007 8866.6824643555283 31637.465284800932 18392.092239574526 40.500000000000007 12296.779931659914 12796.146417148619 31162.97330630256 34138.078016283871 12742.544021445048
decision_type=2 2 2 2 2 2 2 2 2 2 2 2 2 2 2 2 2 2 2 2 2 2 2 2 2 2 2 2 2 2 2 2 2 2 2 2 2 2 2 2 2 2
left_child=3 10 6 16 8 19 -3 13 12 29 15 21 32 20 31 23 30 34 37 26 -8 -9 -13 -2 33 35 -4 36 -25 -6 -1 -15 -5 -12 -16 -17 -20 -14 41 -7 -33 -18
right_child=1 2 5 4 9 39 7 11 -10 -11 24 22 18 14 17 25 38 -19 27 -21 -22 -23 -24 28 -26 -27 -28 -29 -30 -31 -32 40 -34 -35 -36 -37 -38 -39 -40 -41 -42 -43
leaf_value=-0.0095310771328422379 0.019690680103022842 0.078222144707556701 0.092157455245879566 -0.02037327216346381 0.012378881681472699 0.05555762012799581 0.022032005494420834 0.069031482360192714 -0.045183400398022253 -0.014949395761571147 0.028546484559774401 0.050063527926154761 -0.016055029730318457 0.045317061946784358 0.039810657708181277 0.0094429154061909885 -0.0065173789043656066 0.027426013208049185 -0.012517335749791634 0.077533782035746471 0.032100475856157787 0.058838271037317237 0.040620512887835504 0.028578461313154547 0.037735412352614933 0.016729797025521596 0.086034920523243574 -0.0098355222065001739 0.024674312483043748 0.0091575495574785313 -0.010365882923576056 0.047436660657758305 -0.018510080418652958 0.030307476865242662 0.041741771878380525 0.011117577120181054 -0.01334556756541133 -0.015725934443100959 -0.0065827914600141884 0.055326295610931192 0.047589370148146855 -0.0065001483637325726
leaf_weight=479 79 31 44 469 47 45 47 35 38 44 36 46 471 49 36 66 457 68 477 47 51 65 40 40 36 45 31 50 47 46 487 46 36 81 38 31 40 454 463 45 34 464
leaf_count=479 79 31 44 469 47 45 47 35 38 44 36 46 471 49 36 66 457 68 477 47 51 65 40 40 36 45 31 50 47 46 487 46 36 81 38 31 40 454 463 45 34 464
internal_value=0 0.0412604 0.0520385 -0.0114876 -0.0153273 0.0724334 0.0446602 0.0427855 -0.0165289 0.0025203 0.0226034 0.0546685 -0.0159836 0.0367957 0.0402399 0.018114 -0.00793869 0.0343968 -0.0145428 0.084968 0.0272717 0.0624059 0.0456714 0.0232433 0.0316409 0.0121177 0.0896268 -0.0123393 0.0264693 0.0107855 -0.00995194 0.0466718 -0.0202405 0.0297656 0.0408023 0.00997812 -0.0125814 -0.0158935 -0.00653349 0.055442 0.0475016 -0.0065087
internal_weight=0 1259 798 4522 2172 212 586 555 2035 137 461 186 1997 369 271 308 2350 142 1492 122 98 100 86 166 153 142 75 567 87 93 966 129 505 117 74 97 517 925 1384 90 80 921
internal_count=5781 1259 798 4522 2172 212 586 555 2035 137 461 186 1997 369 271 308 2350 142 1492 122 98 100 86 166 153 142 75 567 87 93 966 129 505 117 74 97 517 925 1384 90 80 921
is_linear=0
shrinkage=0.2


Tree=3
num_leaves=44
num_cat=0
split_feature=19 53 56 42 21 26 2 12 2 2 16 16 2 36 52 67 26 19 2 13 52 2 12 0 12 2 2 13 0 0 2 21 0 12 2 2 0 2 2 2 2 2 2
split_gain=43.8415 4.14441 1.87436 0.985933 0.745243 0.722433 0.580439 0.608691 0.508717 0.316505 0.291698 0.207171 0.206297 0.247602 0.195972 0.156707 0.106371 0.0886146 0.0710506 0.0676066 0.0451726 0.040532 0.0378201 0.0305253 0.0279775 0.0126107 0.0109078 0.00550003 0.00534102 0.00527 0.0038598 0.00269268 0.00185702 0.00123661 0.00110304 0.000946475 0.000405053 0.000400602 2.70629e-05 1.92636e-05 6.85801e-06 1.09317e-06 8.25783e-07
threshold=7212.2764436691023 7832.9028021943022 10957.521756204558 5858.0824392601326 6475.0893554687509 11335.930175781252 18698.417609618107 10710.189781755291 21865.370585190871 21127.157337788918 8978.7960723177257 10799.986383608868 36043.117559523816 8918.4410037912694 5879.8215834493794 5845.7248328811338 6020.9714355468759 10251.880320164079 13224.860040921163 10257.991764219247 6592.9498973308737 32409.518129770997 10800.000142357609 31.000000000000004 9000.0000249046589 18644.10040431267 31034.012996921785 7200.0722197771638 31.000000000000004 40.500000000000007 20571.335320914044 5978.3933105468759 40.500000000000007 8967.7792560447069 32832.374792044306 19113.860946745564 40.500000000000007 12654.537653336456 13181.682081114393 32311.625000000004 34828.721855590069 13117.053843090451 35452.085957870695
decision_type=2 2 2 2 2 2 2 2 2 2 2 2 2 2 2 2 2 2 2 2 2 2 2 2 2 2 2 2 2 2 2 2 2 2 2 2 2 2 2 2 2 2 2
left_child=3 10 6 16 8 19 -3 12 14 30 15 22 13 -8 32 35 31 28 37 26 29 -19 -9 -13 33 -22 -4 36 -15 -17 -6 -1 -5 -12 -23 -2 -20 -16 41 -7 -30 -18 -42
right_child=1 2 5 4 9 39 7 11 -10 -11 24 23 -14 17 18 20 38 21 27 -21 25 34 -24 -25 -26 -27 -28 -29 40 -31 -32 -33 -34 -35 -36 -37 -38 -39 -40 -41 42 -43 -44
leaf_value=-0.0076248589910893451 0.0075543302026661961 0.062577714795066464 0.073725965483622119 -0.016298620808305644 0.0099031102070783056 0.044446091337336437 0.016798509076531781 0.05522518600736346 -0.036146718185198934 -0.011959514419802211 0.022837189750538934 0.040050823371047567 0.019348264927975835 0.035081867594271898 -0.012844024915663397 0.022862765807658433 -0.0052138994914567192 0.024674381430332477 -0.010013868194268685 0.062027029090739316 0.01716171033946531 0.031848526373505597 0.047070621343759389 0.032496414983179421 0.030188327769024505 0.013261331043516598 0.068827934491057549 -0.0078684172071516508 0.037949330392091168 0.019739449309541825 0.0073260426845239562 -0.0082927087490165755 -0.014808070618245336 0.024245979646105826 0.033393418671269166 0.0088940616096219709 -0.010676453523337841 -0.012580744143460554 -0.0052662306062909369 0.044261033270094133 0.038027081435376947 -0.0052001183089832297 0.038071493804454806
leaf_weight=479 66 31 44 469 47 45 38 35 38 44 36 46 64 32 471 40 457 39 477 47 70 36 65 40 36 63 31 50 46 47 46 487 36 81 38 31 40 454 463 45 33 464 34
leaf_count=479 66 31 44 469 47 45 38 35 38 44 36 46 64 32 471 40 457 39 477 47 70 36 65 40 36 63 31 50 46 47 46 487 36 81 38 31 40 454 463 45 33 464 34
internal_value=0 0.0330083 0.0418648 -0.00919007 -0.0122619 0.0579467 0.035956 0.0344445 -0.0132231 0.00201624 0.0181408 0.0437348 0.0296446 0.0318708 -0.0127869 0.0146793 -0.00635095 0.0340907 -0.0116342 0.0679744 0.017632 0.029892 0.0499247 0.0365371 0.0253127 0.0153142 0.0717014 -0.00987142 0.0373629 0.0211755 0.00862843 -0.00796155 -0.0161924 0.0238125 0.0326418 0.00798249 -0.0100651 -0.0127148 -0.00522679 0.0443536 0.0380088 -0.00520696 0.0380496
internal_weight=0 1259 789 4522 2172 212 577 546 2035 137 470 186 360 296 1997 317 2350 258 1492 122 220 113 100 86 153 133 75 567 145 87 93 966 505 117 74 97 517 925 1384 90 113 921 67
internal_count=5781 1259 789 4522 2172 212 577 546 2035 137 470 186 360 296 1997 317 2350 258 1492 122 220 113 100 86 153 133 75 567 145 87 93 966 505 117 74 97 517 925 1384 90 113 921 67
is_linear=0
shrinkage=0.2


Tree=4
num_leaves=44
num_cat=0
split_feature=18 21 55 45 21 25 2 13 2 2 15 15 2 55 35 65 25 18 71 13 2 2 13 13 13 2 2 2 0 0 2 2 0 21 13 2 2 2 2 2 2 2 2
split_gain=28.0586 2.60936 1.22542 0.630997 0.476955 0.462357 0.376464 0.401078 0.325579 0.202563 0.194114 0.137325 0.127608 0.162607 0.120945 0.104373 0.0680776 0.0567133 0.0464015 0.0432682 0.0341699 0.0259405 0.0179056 0.0144514 0.0110526 0.00894035 0.00698096 0.00663956 0.00341824 0.003333 0.00275306 0.00247026 0.00242933 0.00172332 0.000791441 0.000705941 0.000605756 0.000256379 1.73223e-05 1.23284e-05 4.38846e-06 6.99868e-07 5.28506e-07
threshold=7212.2764436691023 9163.3564453125018 10957.521756204558 5858.0824392601326 6475.0893554687509 11335.930175781252 18417.690325497289 10710.517168789596 21865.370585190871 21127.157337788918 8978.7960723177257 10773.582076522664 36043.117559523816 8905.1918702933926 5842.7551055826125 6599.613398737195 6020.9714355468759 10251.880320164079 5875.7325102389759 10257.991764219247 35866.813529149986 32409.518129770997 8997.0893375701871 8713.1691724157736 8904.1918122983752 35114.29934383458 31034.012996921785 20057.202651339579 31.000000000000004 40.500000000000007 21569.938549701928 20571.335320914044 40.500000000000007 5978.3933105468759 8866.6824643555283 32832.374792044306 19113.860946745564 12654.537653336456 13181.682081114393 32311.625000000004 34828.721855590069 13117.053843090451 35452.085957870695
decision_type=2 2 2 2 2 2 2 2 2 2 2 2 2 2 2 2 2 2 2 2 2 2 2 2 2 2 2 2 2 2 2 2 2 2 2 2 2 2 2 2 2 2 2
left_child=3 10 6 16 8 19 -3 12 14 31 15 25 13 -8 -5 23 33 28 29 26 -13 -19 34 27 36 -9 -4 -2 -15 -16 32 -6 37 -1 -12 -23 -17 -20 41 -7 -30 -18 -42
right_child=1 2 5 4 9 39 7 11 -10 -11 22 20 -14 17 18 24 38 21 30 -21 -22 35 -24 -25 -26 -27 -28 -29 40 -31 -32 -33 -34 -35 -36 -37 -38 -39 -40 -41 42 -43 -44
leaf_value=-0.0060998875360025991 0.012774966120139345 0.050062171578587548 0.058980772297152068 -0.01303889471600686 0.0079224881181057458 0.035556876419319046 0.014482005669715557 0.044180148414203098 -0.028917375069699793 -0.0095676090906966823 0.018269746543632615 0.033235488449533779 0.015478614208404906 0.028065494587644936 -0.0080110960895785257 0.0060434590686451305 -0.0041711212299393261 0.019739503432542851 -0.010275217481036603 0.049621626988370367 0.025997127674054356 0.025478821630693146 0.024150662869215012 0.018290212228894234 0.010122872397620629 0.039691132638189533 0.05506235240712657 0.015791554558784403 0.030359465308973321 -0.0062947351336479192 -0.0085411610081791885 0.0058608376785464914 -0.011846448481082917 -0.0066341672268613906 0.019396784243656807 0.026714732348428746 0.007115254875633025 -0.010064595555968682 -0.0042129879476920928 0.035408832153512371 0.030421660027720711 -0.004160094394896517 0.030457190073588315
leaf_weight=479 77 31 44 469 47 45 47 35 38 44 36 75 64 32 477 66 457 39 471 47 40 36 36 40 47 36 31 47 46 50 40 46 36 487 81 38 31 454 463 45 33 464 34
leaf_count=479 77 31 44 469 47 45 47 35 38 44 36 75 64 32 477 66 457 39 471 47 40 36 36 40 47 36 31 47 46 50 40 46 36 487 81 38 31 454 463 45 33 464 34
internal_value=0 0.0264067 0.0333271 -0.00735206 -0.0098095 0.0463574 0.0286131 0.027415 -0.0105785 0.001613 0.0144273 0.0349878 0.0235979 0.0253016 -0.0102295 0.0115347 -0.00508076 0.0272726 -0.00936721 0.0543795 0.0307178 0.0239136 0.0202502 0.0149847 0.00760567 0.041904 0.0573612 0.0139184 0.0298903 -0.00784825 -0.0101669 0.00690275 -0.0102346 -0.00636924 0.01905 0.0261135 0.00638599 -0.0101718 -0.00418143 0.0354829 0.030407 -0.00416557 0.0304397
internal_weight=0 1259 798 4522 2172 212 586 555 2035 137 461 186 369 305 1997 308 2350 258 1528 122 115 113 153 164 144 71 75 124 145 527 1001 93 961 966 117 74 97 925 1384 90 113 921 67
internal_count=5781 1259 798 4522 2172 212 586 555 2035 137 461 186 369 305 1997 308 2350 258 1528 122 115 113 153 164 144 71 75 124 145 527 1001 93 961 966 117 74 97 925 1384 90 113 921 67
is_linear=0
shrinkage=0.2


Tree=5
num_leaves=44
num_cat=0
split_feature=18 21 55 43 21 25 3 3 35 25 24 3 52 21 3 67 72 25 3 15 18 15 43 3 71 3 3 3 15 3 21 0 18 0 15 3 0 3 3 3 3 3 3
split_gain=17.9575 1.66999 0.784271 0.403838 0.305252 0.295909 0.240937 0.208371 0.173956 0.226655 0.136452 0.129641 0.0802701 0.0678223 0.0618789 0.0514873 0.0450405 0.0435697 0.0291023 0.0276917 0.0185295 0.0145035 0.0119159 0.0117626 0.00683452 0.00446782 0.00424933 0.0024605 0.00225281 0.00158096 0.0011029 0.000932106 0.000840157 0.000760642 0.00052461 0.000451804 0.00016591 0.00016409 1.10845e-05 7.89042e-06 2.8092e-06 4.47792e-07 3.38229e-07
threshold=7212.2764436691023 9163.3564453125018 10957.521756204558 5858.0824392601326 6475.0893554687509 11335.930175781252 18417.690325497289 21865.370585190871 10318.695061695938 10623.342285156252 8950.4681127639997 21127.157337788918 5879.8215834493794 9345.1347656250018 36043.117559523816 8722.9176466292865 7209.9013243467989 6020.9714355468759 13224.860040921163 10798.081972403003 8999.9898638481081 10614.709322664936 11571.891645425758 35866.813529149986 6375.3984298053865 31034.012996921785 20057.202651339579 19257.156593406598 7204.2361734299911 20571.335320914044 5978.3933105468759 31.000000000000004 8618.858935269358 40.500000000000007 8984.7550033870339 32832.374792044306 40.500000000000007 12654.537653336456 13181.682081114393 32311.625000000004 34828.721855590069 13117.053843090451 35452.085957870695
decision_type=2 2 2 2 2 2 2 2 2 2 2 2 2 2 2 2 2 2 2 2 2 2 2 2 2 2 2 2 2 2 2 2 2 2 2 2 2 2 2 2 2 2 2
left_child=3 10 6 17 7 19 -3 12 13 21 15 29 33 -8 16 32 -11 30 37 25 24 -10 23 31 -12 -4 -17 -15 36 -6 -1 -18 -2 -5 -26 -24 -20 -14 41 -7 -33 -19 -42
right_child=1 2 5 4 11 39 8 -9 9 14 20 -13 18 27 -16 26 22 38 28 -21 -22 -23 35 -25 34 -27 -28 -29 -30 -31 -32 40 -34 -35 -36 -37 -38 -39 -40 -41 42 -43 -44
leaf_value=-0.004879912251843789 0.0048347681647900381 0.040049737080886605 0.047184616784480493 -0.01043111781673089 0.0063379903898594233 0.028445499473147923 0.02245239586918615 -0.023133900849834868 0.035344117666993823 0.015791604075676355 0.012628437468751533 -0.0076540853553028268 -0.0082201767843335296 0.012847408988783438 0.013280763562236515 0.010219973765990951 0.02539356078385659 -0.0033368979862950241 -0.0064088767952826548 0.039697298090508648 0.019320532427324604 0.030294307447396793 0.020383056749900184 0.020797698833048345 0.014632171336561443 0.044049880269073673 0.012633248684095575 0.010531822447147635 -0.0050357893109321599 0.0046886740981236753 -0.0053073322090647305 0.02428757230670232 0.0059040044557373481 -0.0094771620714002199 0.015517426272969188 0.021371787217886826 -0.0068329313769936563 -0.0080516756040409278 -0.0033703890247934257 0.028327062113417519 0.02433733502120683 -0.0033280777353552529 0.02436575845760458
leaf_weight=479 66 31 44 469 47 45 32 38 35 39 61 44 471 31 35 77 46 457 477 47 36 65 36 40 40 31 47 45 50 46 487 46 53 36 81 38 40 454 463 45 33 464 34
leaf_count=479 66 31 44 469 47 45 32 38 35 39 61 44 471 31 35 77 46 457 477 47 36 65 36 40 40 31 47 45 50 46 487 46 53 36 81 38 40 454 463 45 33 464 34
internal_value=0 0.0211253 0.0266617 -0.00588165 -0.0078476 0.0370859 0.0228905 -0.00846278 0.021932 0.0236725 0.0115418 0.0012904 -0.00818361 0.0147285 0.0212548 0.00828275 0.0221494 -0.00406461 -0.00744591 0.0435036 0.0151746 0.0320617 0.0230576 0.0238634 0.0143546 0.0458889 0.0111347 0.0114763 -0.00631771 0.0055222 -0.00509539 0.0246346 0.00531098 -0.0103631 0.0152248 0.0208908 -0.00644169 -0.00813747 -0.00334514 0.0283863 0.0243256 -0.00333245 0.0243518
internal_weight=0 1259 798 4522 2172 212 586 2035 555 447 461 137 1997 108 347 243 312 2350 1492 122 218 100 273 199 182 75 124 76 567 93 966 159 119 505 121 74 517 925 1384 90 113 921 67
internal_count=5781 1259 798 4522 2172 212 586 2035 555 447 461 137 1997 108 347 243 312 2350 1492 122 218 100 273 199 182 75 124 76 567 93 966 159 119 505 121 74 517 925 1384 90 113 921 67
is_linear=0
shrinkage=0.2


Tree=6
num_leaves=43
num_cat=0
split_feature=21 21 55 42 21 25 3 12 3 15 3 14 52 3 41 25 25 21 3 13 3 3 15 12 3 3 3 55 13 3 3 21 3 3 3 3 3 3 15 3 3 3
split_gain=11.4928 1.06879 0.501934 0.258456 0.195361 0.189382 0.1542 0.164282 0.133357 0.08355 0.0829699 0.0600705 0.0513729 0.0508786 0.0681538 0.0420433 0.0278845 0.0232298 0.0186256 0.0177227 0.0131627 0.0106252 0.00719471 0.00679489 0.00526697 0.00295607 0.00285941 0.00162361 0.0014418 0.00138149 0.00101182 0.000705874 0.00048681 0.000289153 0.000218416 0.000107027 0.000106182 0.000105014 7.65122e-05 7.09469e-06 5.04962e-06 2.86636e-07
threshold=6710.1682128906259 9163.3564453125018 10957.521756204558 5858.0824392601326 6475.0893554687509 11335.930175781252 18417.690325497289 10710.189781755291 21865.370585190871 8978.7960723177257 21127.157337788918 10751.461677014302 5879.8215834493794 36043.117559523816 10054.347448868792 8060.1623535156259 6020.9714355468759 11005.035644531252 13224.860040921163 10257.991764219247 35866.813529149986 32409.518129770997 8784.6002041436604 9000.0000249046589 18686.124101009453 35114.29934383458 31034.012996921785 9116.2223027066048 7200.0722197771638 20057.202651339579 20571.335320914044 5978.3933105468759 21270.320330015249 32832.374792044306 19113.860946745564 18986.657360012414 21569.938549701928 12654.537653336456 10154.85125432347 13181.682081114393 32311.625000000004 13117.053843090451
decision_type=2 2 2 2 2 2 2 2 2 2 2 2 2 2 2 2 2 2 2 2 2 2 2 2 2 2 2 2 2 2 2 2 2 2 2 2 2 2 2 2 2 2
left_child=3 9 6 16 8 19 -3 13 12 15 30 25 32 14 -8 24 31 27 37 26 -13 -19 34 35 -2 -9 -4 38 36 -26 -6 -1 -5 -23 -17 -11 -20 -14 -16 41 -7 -18
right_child=1 2 5 4 10 40 7 11 -10 23 -12 20 18 -15 17 22 39 21 28 -21 -22 33 -24 -25 29 -27 -28 -29 -30 -31 -32 -33 -34 -35 -36 -37 -38 -39 -40 -41 -42 -43
leaf_value=-0.0039039261961872993 0.0083272655942925704 0.032039789122439204 0.037747695267369805 -0.0083448935293161611 0.0050703872867087106 0.022756395598666535 0.0091737775092429318 0.028275295495986941 -0.018507120621047521 0.012528168238126315 -0.0061232711868466471 0.02113068673759699 -0.0065761417530144865 0.0099758621829096235 0.019789207749524897 0.0038678146672971323 -0.0026695182053800225 0.012633285843409026 -0.0051270987530018302 0.031757837121791026 0.016638166420161724 0.016306447444690599 0.0067339752508061282 0.015456423328982461 0.011705734338611365 0.025694039401908716 0.035239902619392645 0.018207284752279521 -0.0040286272019147877 0.010106600678347528 0.0037509307265281679 -0.004245866316101023 -0.0075817299799786674 0.017097428892003864 0.0045113983173524176 0.012143211846168225 -0.0054663421586155893 -0.0064413431153882974 0.019430054270702862 -0.002696311993818111 0.022661648044983548 -0.0026624614043675109
leaf_weight=479 54 31 44 469 47 45 47 35 38 52 44 75 471 64 49 66 457 39 477 47 40 36 70 36 40 36 31 50 50 47 46 487 36 38 31 65 40 454 46 463 45 464
leaf_count=479 54 31 44 469 47 45 47 35 38 52 44 75 471 64 49 66 457 39 477 47 40 36 70 36 40 36 31 50 50 47 46 487 36 38 31 65 40 454 46 463 45 464
internal_value=0 0.0169003 0.0213294 -0.00470532 -0.00627808 0.0296687 0.0183124 0.0175456 -0.00677023 0.00923346 0.00103231 0.0223922 -0.00654689 0.0151026 0.0161784 0.00733578 -0.00325169 0.0174545 -0.00595673 0.0348029 0.0195681 0.0153047 0.00518867 0.0130536 0.00987881 0.0269665 0.0367111 0.0191298 -0.00505416 0.0108418 0.00441775 -0.00407631 -0.00829049 0.0167126 0.0040735 0.0123143 -0.00515335 -0.00650998 0.0196153 -0.00267612 0.022709 -0.00266596
internal_weight=0 1259 798 4522 2172 212 586 555 2035 461 137 186 1997 369 305 308 2350 258 1492 122 115 113 167 153 141 71 75 145 567 87 93 966 505 74 97 117 517 925 95 1384 90 921
internal_count=5781 1259 798 4522 2172 212 586 555 2035 461 137 186 1997 369 305 308 2350 258 1492 122 115 113 167 153 141 71 75 145 567 87 93 966 505 74 97 117 517 925 95 1384 90 921
is_linear=0
shrinkage=0.2


Tree=7
num_leaves=43
num_cat=0
split_feature=18 22 55 45 22 26 65 3 41 36 24 3 26 36 70 65 26 3 15 67 15 18 3 15 3 3 0 15 3 0 22 18 15 3 0 3 3 0 3 3 3 3
split_gain=7.35539 0.684028 0.321238 0.165412 0.125031 0.121204 0.11701 0.0853486 0.0721631 0.0617026 0.056451 0.0531008 0.0489621 0.031705 0.0282871 0.0222782 0.0178461 0.0175762 0.015504 0.0127686 0.0113425 0.00752329 0.00614933 0.00346652 0.00183002 0.00159726 0.00100627 0.000922752 0.000647569 0.000636841 0.000451746 0.000216001 0.000154004 6.84961e-05 6.79551e-05 6.72063e-05 6.1031e-05 3.33601e-05 4.54118e-06 3.23187e-06 4.92576e-07 1.83267e-07
threshold=7212.2764436691023 9163.3564453125018 10957.521756204558 5858.0824392601326 6475.0893554687509 11335.930175781252 9385.6894381175352 21865.370585190871 10054.347448868792 10318.695061695938 8950.4681127639997 21127.157337788918 10842.555664062502 5842.7551055826125 9972.2077086260797 6599.613398737195 6020.9714355468759 19070.802189541857 10614.709322664936 5962.420939493637 10798.081972403003 8999.9898638481081 32409.518129770997 8978.7960723177257 31034.012996921785 20057.202651339579 31.000000000000004 7204.2361734299911 20571.335320914044 40.500000000000007 5978.3933105468759 8618.858935269358 10265.009527713259 18986.657360012414 40.500000000000007 12654.537653336456 35452.085957870695 31.000000000000004 13181.682081114393 32311.625000000004 34828.721855590069 13117.053843090451
decision_type=2 2 2 2 2 2 2 2 2 2 2 2 2 2 2 2 2 2 2 2 2 2 2 2 2 2 2 2 2 2 2 2 2 2 2 2 2 2 2 2 2 2
left_child=3 10 6 16 7 20 8 13 -3 17 15 28 18 -5 26 25 30 -8 36 29 24 23 -16 -12 -4 -2 -14 34 -6 35 -1 -17 -24 -25 -21 -15 40 -34 41 -7 -11 -18
right_child=1 2 5 4 11 39 9 -9 -10 12 21 -13 14 19 22 31 38 -19 -20 27 -22 -23 32 33 -26 -27 -28 -29 -30 -31 -32 -33 37 -35 -36 -37 -38 -39 -40 -41 -42 -43
leaf_value=-0.0031231439837676499 0.0066057114704669295 0.0262784692586637 0.030198154841888359 -0.0066759144367058397 0.004056311699938267 0.018205121892193955 0.012655515776526544 -0.014805695414543152 0.01416226768924389 0.015544047182344874 0.008029802155036193 -0.004898621317591857 0.010106625465246348 -0.0052609106676055877 0.016088709172428304 0.0030942576062498676 -0.0021356127915712363 0.006790664227058491 0.019503830252931668 -0.0041016817303761001 0.025406270965616758 0.012365138613515431 0.013677945586019442 0.010022532767974414 0.028191924479699905 0.008085275536521953 0.008629432208836078 -0.0032229042984545232 0.0030007429582917175 -0.0060653862853844963 -0.0033966920242952739 0.0036364101804792883 0.0130451543463601 0.0097145705956679131 -0.0043730737641453745 -0.0051530737795001356 0.015851144054356746 0.013310534954071047 -0.0021570507698485198 0.018129322561952804 0.015512025491757828 -0.0021299701240234848
leaf_weight=479 77 51 44 469 47 45 31 38 32 46 65 44 39 471 46 66 457 60 65 477 47 36 38 52 31 47 35 50 46 36 487 53 36 65 40 454 34 40 463 45 33 464
leaf_count=479 77 51 44 469 47 45 31 38 32 46 65 44 39 471 46 66 457 60 65 477 47 36 38 52 31 47 35 50 46 36 487 53 36 65 40 454 34 40 463 45 33 464
internal_value=0 0.0135202 0.0170635 -0.00376425 -0.00502246 0.023735 0.0146499 -0.00541618 0.0216072 0.0135019 0.00738677 0.00082585 0.0145429 -0.00523751 0.0126414 0.00529053 -0.00260135 0.00878858 0.0170428 -0.00479601 0.0278423 0.0097234 0.0141368 0.00920086 0.0293689 0.00716651 0.00940795 -0.00404333 0.0035342 -0.0052401 -0.00326105 0.00333572 0.0133492 0.00985144 -0.00412268 -0.00520798 0.0156271 0.0131848 -0.00214089 0.0181672 0.0155307 -0.00213277
internal_weight=0 1259 798 4522 2172 212 586 2035 83 503 461 137 412 1997 234 243 2350 91 178 1528 122 218 160 182 75 124 74 567 93 961 966 119 114 117 517 925 113 76 1384 90 79 921
internal_count=5781 1259 798 4522 2172 212 586 2035 83 503 461 137 412 1997 234 243 2350 91 178 1528 122 218 160 182 75 124 74 567 93 961 966 119 114 117 517 925 113 76 1384 90 79 921
is_linear=0
shrinkage=0.2


Tree=8
num_leaves=43
num_cat=0
split_feature=22 22 55 42 1 22 25 12 1 16 1 16 41 1 52 25 25 54 1 16 1 12 1 0 16 55 0 1 1 16 1 22 1 0 1 16 1 0 1 1 1 1
split_gain=4.70745 0.437778 0.205592 0.105864 0.081413 0.0800198 0.0775707 0.0642334 0.0546231 0.0342221 0.0339845 0.0226876 0.0221255 0.0289177 0.0210424 0.0189561 0.0114216 0.0101256 0.00762902 0.00725921 0.00501953 0.00278319 0.00258633 0.00256757 0.00242842 0.00214641 0.00279161 0.00117121 0.000798702 0.00059056 0.000414443 0.000289124 0.000223697 0.000199395 8.71073e-05 8.65e-05 4.38379e-05 4.34925e-05 4.30094e-05 2.90569e-06 2.06814e-06 1.17559e-07
threshold=6710.1682128906259 9163.3564453125018 10957.521756204558 5858.0824392601326 18050.052091728041 6475.0893554687509 11335.930175781252 10710.189781755291 21041.298537650295 8978.7960723177257 20399.663928785598 10773.582076522664 10054.347448868792 34662.432439441851 5879.8215834493794 8060.1623535156259 6020.9714355468759 11418.268930842596 12870.209739330887 10798.081972403003 34519.840602979959 9000.0000249046589 31308.46222261569 40.500000000000007 8784.6002041436604 9116.2223027066048 31.000000000000004 29949.911016356426 19510.122719657418 7204.2361734299911 19902.016080549703 5978.3933105468759 33775.347716139389 40.500000000000007 18392.092239574526 10154.85125432347 18318.030897438923 40.500000000000007 12296.779931659914 12796.146417148619 31162.97330630256 12742.544021445048
decision_type=2 2 2 2 2 2 2 2 2 2 2 2 2 2 2 2 2 2 2 2 2 2 2 2 2 2 2 2 2 2 2 2 2 2 2 2 2 2 2 2 2 2
left_child=3 9 4 16 -3 8 19 12 14 15 30 32 -6 17 33 23 31 25 38 27 -13 36 -19 -2 34 35 -27 -4 -25 37 -7 -1 -9 -5 -17 -14 -11 -20 -16 41 -8 -18
right_child=1 2 6 5 7 10 40 11 -10 21 -12 20 13 -15 18 24 39 22 29 -21 -22 -23 -24 28 -26 26 -28 -29 -30 -31 -32 -33 -34 -35 -36 -37 -38 -39 -40 -41 -42 -43
leaf_value=-0.0024985150612952941 0.007758630504831672 0.021694486035454659 0.024158524518663235 -0.0053407331193878714 0.0055815823059132763 0.0032450497150421143 0.014564092821545072 0.017364543239985195 -0.011844559994183089 0.0080180264866122827 -0.0039188923441212282 0.013422703633705775 0.012817111003155614 0.0064214402053039523 -0.0042087272717172552 0.0024754020808772609 -0.0017084926122257434 0.0080853037345103729 -0.0032813422866087537 0.020325017106184302 0.010648426049738192 0.0098921128186500729 0.010436122036642499 0.0053406684711161589 0.0041509588382073808 0.010367457044345363 0.012680917383883807 0.022553541967945717 0.0064682225597665665 -0.0025783217307180171 0.0024005955166142923 -0.0027173560845151208 0.016654468244976468 -0.0048523114787207711 0.0028818363443978371 0.012435234597195751 0.0077716556879190296 -0.0034984590485692027 -0.0041224603364777455 -0.0017256381657964209 0.014503457066085605 -0.0017039733144037169
leaf_weight=479 40 31 44 469 47 47 45 35 38 52 44 75 49 64 471 66 457 39 477 47 40 36 36 54 70 54 34 31 47 50 46 487 36 36 31 46 65 40 454 463 45 464
leaf_count=479 40 31 44 469 47 47 45 35 38 52 44 75 49 64 471 66 457 39 477 47 40 36 36 54 70 54 34 31 47 50 46 487 36 36 31 46 65 40 454 463 45 464
internal_value=0 0.0108162 0.0136508 -0.0030114 0.0117199 -0.00401797 0.018988 0.0111628 -0.00433294 0.00590941 0.000660682 0.0141933 0.00963519 0.0102269 -0.00419001 0.0046949 -0.00208108 0.0111709 -0.00381231 0.0222739 0.0124577 0.00835432 0.0092137 0.00640247 0.00325318 0.011973 0.0112613 0.0234951 0.00586537 -0.00323466 0.00282736 -0.00260884 0.0170045 -0.00530591 0.00260529 0.0126322 0.00788115 -0.00329814 -0.00416639 -0.00171271 0.0145338 -0.00170622
internal_weight=0 1259 798 4522 586 2172 212 555 2035 461 137 186 369 322 1997 308 2350 258 1492 122 115 153 75 141 167 183 88 75 101 567 93 966 71 505 97 95 117 517 925 1384 90 921
internal_count=5781 1259 798 4522 586 2172 212 555 2035 461 137 186 369 322 1997 308 2350 258 1492 122 115 153 75 141 167 183 88 75 101 567 93 966 71 505 97 95 117 517 925 1384 90 921
is_linear=0
shrinkage=0.2


Tree=9
num_leaves=44
num_cat=0
split_feature=18 53 55 44 13 21 26 13 2 24 2 70 16 52 18 13 13 26 2 13 18 26 2 13 13 2 2 13 2 2 2 2 2 16 2 2 2 2 2 2 2 2 2
split_gain=3.01277 0.292202 0.12698 0.0677528 0.0600982 0.0512127 0.0496452 0.0400743 0.0349588 0.023513 0.0217501 0.0154366 0.0151113 0.0134671 0.0125342 0.0108882 0.0077803 0.00730986 0.00488254 0.00464589 0.00307008 0.00161432 0.00148761 0.00100771 0.000993162 0.000749577 0.000701871 0.000377966 0.000276028 0.000265244 0.000144131 0.000127612 0.000124952 5.9812e-05 4.00285e-05 2.83505e-05 2.78349e-05 2.75301e-05 1.888e-05 1.85951e-06 1.32381e-06 8.62894e-07 7.52115e-08
threshold=7212.2764436691023 7832.9028021943022 10957.521756204558 5858.0824392601326 7466.0301030055061 6475.0893554687509 11335.930175781252 10710.517168789596 21865.370585190871 8950.4681127639997 21127.157337788918 8709.4494441210409 10799.986383608868 5879.8215834493794 10251.880320164079 8338.5455143079107 10175.166447288084 6020.9714355468759 13224.860040921163 10257.991764219247 8999.9898638481081 8060.1623535156259 35866.813529149986 10741.210034416277 9000.0000367562698 31034.012996921785 18417.690325497289 7200.0722197771638 13278.568667948182 20571.335320914044 19113.860946745564 21270.320330015249 32832.374792044306 10022.772453903481 18686.124101009453 18893.078290179259 21569.938549701928 12654.537653336456 35452.085957870695 13181.682081114393 32311.625000000004 18986.657360012414 13117.053843090451
decision_type=2 2 2 2 2 2 2 2 2 2 2 2 2 2 2 2 2 2 2 2 2 2 2 2 2 2 2 2 2 2 2 2 2 2 2 2 2 2 2 2 2 2 2
left_child=3 9 4 17 -3 8 19 11 13 15 29 24 23 31 33 26 32 28 37 25 21 34 -14 -9 -6 -4 -2 36 -1 -7 35 -5 -16 -13 -11 -17 -20 -15 -35 42 -8 -36 -19
right_child=1 2 6 5 7 10 40 12 -10 20 -12 14 22 18 16 30 -18 39 27 -21 -22 -23 -24 -25 -26 -27 -28 -29 -30 -31 -32 -33 -34 38 41 -37 -38 -39 -40 -41 -42 -43 -44
leaf_value=-0.002194428419899544 0.004272534654214892 0.017890203651040795 0.019326818099414764 -0.0042725842573177594 0.0046793332421465926 0.0025960410846040606 0.01165127855208185 0.013891630699591978 -0.009475644521023098 0.0064144142258625763 -0.0031351150436834856 0.0097493224777281291 0.010186423847208852 -0.0033669844676588213 0.008348898672395284 0.0021448055478303059 0.0056524264790556011 -0.0013667929045350601 -0.0026250773255930009 0.016260011179095254 0.0079136896775000628 0.0049752575103883395 0.0085187366837635638 0.012560543165757108 0.0060300309430150432 0.018042828527189071 0.0052551522850990302 -0.0020626551574096084 -0.0019806066344338516 0.0019204769607471383 0.0024483867334214315 -0.0038818481895658702 0.0088688630022500693 0.0099481910183701824 0.0062069062911905351 0.0019156266972422599 -0.0027987698838114741 -0.003297965778530235 0.010144733834792585 -0.001380509124026829 0.011602766232358085 0.0061642253150542585 -0.001363178099312916
leaf_weight=481 54 32 44 469 38 47 45 35 38 52 44 48 46 471 36 38 68 457 477 47 36 54 40 65 51 31 63 50 485 46 47 36 38 46 40 50 40 454 34 463 45 36 464
leaf_count=481 54 32 44 469 38 47 45 35 38 52 44 48 46 471 36 38 68 457 477 47 36 54 40 65 51 31 63 50 485 46 47 36 38 46 40 50 40 454 34 463 45 36 464
internal_value=0 0.00865294 0.0110046 -0.00240912 0.00946663 -0.00321438 0.0151904 0.00897204 -0.00346636 0.0047052 0.000528546 0.00773759 0.0113547 -0.00335201 0.00849055 0.00338948 0.00719678 -0.00166486 -0.00304985 0.0178191 0.00622612 0.00589232 0.00941076 0.0130264 0.00545333 0.0187961 0.00480164 -0.00258773 -0.00208707 0.00226189 0.00216562 -0.00424473 0.00861591 0.00992582 0.0062792 0.00201459 -0.00263852 -0.00333311 0.0100317 -0.00137017 0.011627 0.00618669 -0.00136497
internal_weight=0 1259 789 4522 577 2172 212 545 2035 470 137 359 186 1997 270 252 142 2350 1492 122 218 182 86 100 89 75 117 567 966 93 135 505 74 128 128 88 517 925 80 1384 90 76 921
internal_count=5781 1259 789 4522 577 2172 212 545 2035 470 137 359 186 1997 270 252 142 2350 1492 122 218 182 86 100 89 75 117 567 966 93 135 505 74 128 128 88 517 925 80 1384 90 76 921
is_linear=0
shrinkage=0.2


Tree=10
num_leaves=45
num_cat=0
split_feature=18 57 57 43 13 21 27 13 1 16 1 29 14 68 35 27 27 13 67 13 1 13 1 0 0 1 0 1 21 13 57 1 0 1 1 1 1 1 0 1 1 1 1 1
split_gain=1.92817 0.182377 0.0822934 0.0433619 0.0388088 0.0327761 0.0317729 0.0265517 0.0223736 0.0168076 0.0139201 0.0106125 0.0101094 0.00933559 0.00831124 0.00683856 0.00467825 0.00412732 0.00334724 0.00297337 0.00249667 0.00219899 0.00188986 0.00134032 0.00106473 0.000479733 0.000394147 0.000312693 0.000286004 0.000241894 0.000240287 0.000169755 0.000166939 7.99686e-05 4.04205e-05 3.16477e-05 2.13044e-05 1.99505e-05 1.78141e-05 1.76192e-05 1.8591e-06 1.19031e-06 8.47228e-07 4.80085e-08
threshold=7212.2764436691023 8705.4830830781739 10957.521756204558 5858.0824392601326 7898.0718027628254 6475.0893554687509 11335.930175781252 10710.517168789596 21041.298537650295 8978.7960723177257 20399.663928785598 10639.812011718752 10751.461677014302 11210.864770321639 5842.7551055826125 8060.1623535156259 6020.9714355468759 8338.5455143079107 5962.420939493637 10257.991764219247 19029.40229237307 8997.0893375701871 34519.840602979959 31.000000000000004 40.500000000000007 29949.911016356426 31.000000000000004 19510.122719657418 5978.3933105468759 7200.0722197771638 8035.1112871307096 19902.016080549703 40.500000000000007 31637.465284800932 33775.347716139389 18392.092239574526 18318.030897438923 34138.078016283871 40.500000000000007 12296.779931659914 33558.284332441406 12796.146417148619 31162.97330630256 12742.544021445048
decision_type=2 2 2 2 2 2 2 2 2 2 2 2 2 2 2 2 2 2 2 2 2 2 2 2 2 2 2 2 2 2 2 2 2 2 2 2 2 2 2 2 2 2 2 2
left_child=3 9 4 16 -3 8 19 11 14 15 31 20 34 23 -5 24 28 -17 32 25 -6 36 -14 33 -2 -4 -15 -26 -1 38 35 -7 39 -13 -9 -19 -11 40 -20 -16 -25 43 -8 -18
right_child=1 2 6 5 7 10 42 12 -10 21 -12 13 22 26 18 17 41 30 29 -21 -22 -23 -24 37 27 -27 -28 -29 -30 -31 -32 -33 -34 -35 -36 -37 -38 -39 -40 -41 -42 -43 -44 -45
leaf_value=-0.0015599272745643938 0.0049655197258107369 0.014312161412090064 0.015461455793543298 -0.0034180676759178958 0.0054426384303304888 0.0020768316502266741 0.0093210218764013721 0.011113306422318732 -0.0075805161932581359 0.0051315310769356219 -0.0025080946358767425 0.0066791201631228141 0.0085172794635097176 0.0053377554966853218 -0.0026935901638662201 0.0043680146576896796 -0.0010934327616961572 0.0015708093926536317 -0.0021000610988594951 0.013008010435968321 0.0034079946577548984 0.0067001806024242858 0.0068149906489998113 0.0079585478357646778 0.0034180315142428434 0.014434260177996852 0.0044132522812911443 0.0041235429333879598 -0.0017775842650302014 -0.0016501268395222723 0.0021507501247383302 0.0015363829453354297 -0.0031054736425479255 0.0070950907213907502 0.010811467944747872 0.0018157913890336792 0.0049313821519414583 0.0081157897544257788 -0.0022390142455697057 -0.0026383754053144895 0.007896337951674607 -0.001104408828843361 0.009282212307055792 -0.0010905447319663805
leaf_weight=479 40 32 44 469 45 47 45 35 38 52 44 36 75 39 471 31 457 66 477 47 52 51 40 46 54 31 35 47 487 50 63 46 36 38 36 31 36 34 40 454 33 463 45 464
leaf_count=479 40 32 44 469 45 47 45 35 38 52 44 36 75 39 471 31 457 66 477 47 52 51 40 46 54 31 35 47 487 50 63 46 36 38 36 31 36 34 40 454 33 463 45 464
internal_value=0 0.00692235 0.00878337 -0.0019273 0.00754341 -0.0025715 0.0121523 0.00714525 -0.00277309 0.00380881 0.000422836 0.00613811 0.00908373 0.00680194 -0.00268161 0.00303575 -0.00133189 0.00225586 -0.00245556 0.0142553 0.0043519 0.00565524 0.00792518 0.00755439 0.00409221 0.0150369 0.00490049 0.00374634 -0.00166966 -0.00207019 0.00184663 0.00180951 -0.00268293 0.00689273 0.0109603 0.0016491 0.00504965 0.00798769 -0.00211081 -0.00266649 0.00793256 -0.00109614 0.00930162 -0.00109198
internal_weight=0 1259 788 4522 576 2172 212 544 2035 471 137 358 186 261 1997 332 2350 191 1528 122 97 139 115 187 141 75 74 101 966 567 160 93 961 74 71 97 88 113 517 925 79 1384 90 921
internal_count=5781 1259 788 4522 576 2172 212 544 2035 471 137 358 186 261 1997 332 2350 191 1528 122 97 139 115 187 141 75 74 101 966 567 160 93 961 74 71 97 88 113 517 925 79 1384 90 921
is_linear=0
shrinkage=0.2


Tree=11
num_leaves=44
num_cat=0
split_feature=19 21 56 3 43 21 25 3 72 3 25 54 3 25 54 25 68 16 16 54 34 0 21 16 16 3 3 3 34 0 3 3 0 3 21 0 3 0 3 0 3 3 3
split_gain=1.23403 0.117262 0.0520877 0.0334616 0.0277515 0.0209767 0.0203346 0.0143191 0.0122998 0.0165369 0.010072 0.00914675 0.00890883 0.00598367 0.00531927 0.00299409 0.00204076 0.00190296 0.001396 0.00102556 0.00101256 0.00068142 0.000408766 0.00039147 0.000363811 0.000307026 0.000277539 0.000200131 0.000167992 0.000146589 0.000121079 0.000108641 0.000106845 2.96508e-05 1.42116e-05 1.2637e-05 1.12774e-05 5.59678e-06 1.19028e-06 1.0774e-06 7.61142e-07 5.42414e-07 3.07668e-08
threshold=7212.2764436691023 9205.5483398437518 10957.521756204558 18417.690325497289 5858.0824392601326 6475.0893554687509 11335.930175781252 21865.370585190871 7209.9013243467989 36043.117559523816 10623.342285156252 6591.4856315030893 21127.157337788918 8060.1623535156259 5533.9375510007312 6020.9714355468759 6352.975663723314 10798.081972403003 8021.328666210572 11315.391744189646 8269.2200667655106 40.500000000000007 11638.817382812502 8984.7550033870339 10614.709322664936 31034.012996921785 13278.568667948182 20057.202651339579 8090.8656836477758 40.500000000000007 21569.938549701928 20571.335320914044 40.500000000000007 18893.078290179259 10759.863281250002 22.000000000000004 12654.537653336456 31.000000000000004 34828.721855590069 31.000000000000004 13181.682081114393 32311.625000000004 13117.053843090451
decision_type=2 2 2 2 2 2 2 2 2 2 2 2 2 2 2 2 2 2 2 2 2 2 2 2 2 2 2 2 2 2 2 2 2 2 2 2 2 2 2 2 2 2 2
left_child=4 11 3 -3 15 7 17 14 18 10 24 13 31 21 -6 26 29 25 -5 22 -13 -2 34 -22 -10 -4 -1 -23 -15 -16 32 -7 36 -30 38 -20 -18 -21 -12 -36 42 -8 -17
right_child=1 2 6 8 5 12 41 -9 9 -11 19 20 -14 28 16 40 30 -19 35 37 23 27 -24 -25 -26 -27 -28 -29 33 -31 -32 -33 -34 -35 39 -37 -38 -39 -40 -41 -42 -43 -44
leaf_value=-0.0014433742694463774 0.0039724148972891272 0.01243958904017364 0.012369162834842098 0.0025851217969771354 -0.0027344573491703728 0.001661463684224068 0.0074568226616570938 -0.0060644124683580901 0.0088906483565058033 0.003173820034135133 0.0063668418189753665 0.0048871441171146361 -0.0020064723339270462 0.0017116331844590606 -0.0016800484785993643 -0.00087474917980722051 -0.002154869724840179 0.010406406199995508 0.0041006245417520406 0.0053432969583405397 0.003461747667041876 0.0027344234874127089 0.0056760723089897321 0.0041390378074145613 0.0080908555938647344 0.011547410091565501 -0.0012289682372482783 0.0032988429703611011 0.0014016818769864348 -0.0013200987593736501 -0.0017912129871547223 0.0012291083112359047 -0.0024843825027346614 0.0011673061326146125 0.0064456837008828706 0.0042702044049898781 -0.0021106956845112473 0.0054519957210868598 0.0063170644595767524 0.006492634775007472 -0.00088352495824544014 0.0074257696161253578 -0.00087243720070169929
leaf_weight=481 40 31 44 31 469 47 45 38 35 64 46 52 44 56 477 457 471 47 32 36 59 54 38 81 65 31 485 47 38 50 40 46 36 50 46 39 454 40 33 34 463 45 464
leaf_count=481 40 31 44 31 469 47 45 38 35 64 46 52 44 56 477 457 471 47 32 36 59 54 38 81 65 31 485 47 38 50 40 46 36 50 46 39 454 40 33 34 463 45 464
internal_value=0 0.00553788 0.00704537 0.0060499 -0.00154184 -0.0020572 0.00972184 -0.00221847 0.00568241 0.00614398 0.00665361 0.0030665 0.00033827 0.00234766 -0.00214529 -0.00106551 -0.00196445 0.0114042 0.00370487 0.00602461 0.00413352 0.00327377 0.00626538 0.00385361 0.00837078 0.0120295 -0.00133573 0.00299707 0.00144084 -0.0016459 -0.00213215 0.00144761 -0.00214634 0.00126851 0.00640622 0.00419377 -0.00213319 0.00540051 0.00634605 0.00646564 -0.00087691 0.0074413 -0.000873584
internal_weight=0 1259 782 570 4522 2172 212 2035 539 437 373 477 137 285 1997 2350 1528 122 102 273 192 141 197 140 100 75 966 101 144 527 1001 93 961 88 159 71 925 76 79 80 1384 90 921
internal_count=5781 1259 782 570 4522 2172 212 2035 539 437 373 477 137 285 1997 2350 1528 122 102 273 192 141 197 140 100 75 966 101 144 527 1001 93 961 88 159 71 925 76 79 80 1384 90 921
is_linear=0
shrinkage=0.2


Tree=12
num_leaves=44
num_cat=0
split_feature=18 53 55 5 42 21 27 5 5 55 15 5 5 52 27 5 27 5 15 5 18 53 0 18 21 5 5 15 5 14 0 15 5 0 5 0 5 14 14 5 5 5 5
split_gain=0.789779 0.077707 0.0322934 0.0204114 0.017761 0.0134251 0.0130142 0.00916425 0.00761342 0.0096297 0.00700029 0.00570167 0.00488421 0.00353029 0.00335371 0.00255431 0.0019162 0.00127994 0.00121789 0.000839997 0.000731861 0.000715981 0.000436113 0.000369658 0.000283848 0.000196498 0.000128083 9.90787e-05 6.95294e-05 3.63558e-05 3.34538e-05 3.07804e-05 8.17219e-06 7.29686e-06 7.21634e-06 3.58178e-06 2.94745e-06 2.13066e-06 1.80483e-06 7.61689e-07 4.87556e-07 3.4709e-07 1.96919e-08
threshold=7212.2764436691023 7894.6491159918387 10957.521756204558 19070.802189541857 5858.0824392601326 6475.0893554687509 11335.930175781252 21865.370585190871 36043.117559523816 10371.293071175791 8978.7960723177257 21127.157337788918 32409.518129770997 5879.8215834493794 8060.1623535156259 34511.948811349699 6020.9714355468759 13224.860040921163 10798.081972403003 18776.401053864171 10306.606805158308 9370.5640802607068 40.500000000000007 8999.9887297776186 5978.3933105468759 31034.012996921785 20057.202651339579 7204.2361734299911 20571.335320914044 8956.8657306498953 40.500000000000007 10265.009527713259 35452.085957870695 40.500000000000007 12654.537653336456 31.000000000000004 35114.29934383458 8998.3742176181022 8398.6847949465991 34828.721855590069 13181.682081114393 32311.625000000004 13117.053843090451
decision_type=2 2 2 2 2 2 2 2 2 2 2 2 2 2 2 2 2 2 2 2 2 2 2 2 2 2 2 2 2 2 2 2 2 2 2 2 2 2 2 2 2 2 2
left_child=4 10 3 -3 16 7 18 13 9 12 14 28 21 30 22 -11 24 34 25 -16 32 -5 -2 37 -1 -4 -24 33 -7 38 -6 -22 39 -19 -15 -33 -17 -12 -21 -14 42 -8 -18
right_child=1 2 6 8 5 11 41 -9 -10 15 23 -13 20 17 19 36 40 27 -20 29 31 -23 26 -25 -26 -27 -28 -29 -30 -31 -32 35 -34 -35 -36 -37 -38 -39 -40 -41 -42 -43 -44
leaf_value=-0.00095926431560868722 0.003177931453101337 0.0097859035558940377 0.0098953310516662896 0.0023629360097019297 -0.0021875614550576281 0.0013291705796059142 0.0059654555883672505 -0.0048515326196425842 0.002539055363740772 0.0053974615037441255 0.0032527530565857887 -0.0016051815992051907 0.0050934713495814285 -0.0017238959118391678 0.0021028026938438417 0.0071125115560633796 -0.00069979794763631842 -0.0013440375479887119 0.0083251258794297574 0.0011103081727220168 0.0045408595571278685 0.0034918193925510752 0.0021875354426878469 0.003938455521768215 -0.0011760991518012798 0.009237926567514097 0.002639068869200159 -0.0010560815008357168 0.00098328864120918766 0.00093384599685668941 -0.0019875012752082612 0.004274637169308133 0.0051941074869211986 -0.0014329687133431436 -0.0016885596309021312 0.0043615942448377611 0.0070310040791001591 0.0033112301962611116 0.0011708534236445471 0.0050536517844055641 -0.00070682201317268112 0.0059406151332788999 -0.00069794831155189159
leaf_weight=479 40 32 44 38 469 47 45 38 64 75 36 44 46 471 41 35 457 477 47 31 38 55 54 51 487 31 47 50 46 50 36 36 34 40 454 40 36 81 54 33 463 45 464
leaf_count=479 40 32 44 38 469 47 45 38 64 75 36 44 46 471 41 35 457 477 47 31 38 55 54 51 487 31 47 50 46 50 36 36 34 40 454 40 36 81 54 33 463 45 464
internal_value=0 0.00443031 0.0056741 0.00488065 -0.00123347 -0.00164576 0.00777747 -0.00177477 0.00458449 0.0048654 0.00244537 0.000270615 0.0042513 -0.00171623 0.00189222 0.00621139 -0.000852409 -0.00156152 0.00912337 0.00130996 0.00475142 0.00303056 0.00261901 0.00348911 -0.00106858 0.0096236 0.00239765 -0.00132492 0.00115809 0.00106917 -0.0021733 0.00439389 0.00511212 -0.00135092 -0.00170655 0.0043204 0.00707118 0.00329324 0.00114877 0.00507684 -0.000701528 0.00595304 -0.000698866
internal_weight=0 1259 774 562 4522 2172 212 2035 530 466 485 137 320 1997 317 146 2350 1492 122 176 227 93 141 168 966 75 101 567 93 135 505 114 113 517 925 76 71 117 85 79 1384 90 921
internal_count=5781 1259 774 562 4522 2172 212 2035 530 466 485 137 320 1997 317 146 2350 1492 122 176 227 93 141 168 966 75 101 567 93 135 505 114 113 517 925 76 71 117 85 79 1384 90 921
is_linear=0
shrinkage=0.2


Tree=13
num_leaves=45
num_cat=0
split_feature=19 57 57 12 57 31 19 25 36 25 22 12 15 68 71 1 1 13 1 3 1 1 1 19 1 12 12 1 1 0 1 12 12 0 0 1 1 0 1 1 1 1 1 1
split_gain=0.505459 0.0493327 0.0211976 0.0172022 0.0125424 0.0132864 0.0107062 0.00832908 0.00810926 0.00633018 0.00547909 0.00442692 0.00384743 0.00240633 0.00215753 0.00115209 0.00100273 0.00077945 0.000702864 0.000682111 0.000417914 0.000369768 0.00032761 0.000282445 0.000258745 0.000236156 0.000129823 0.000125758 9.32241e-05 5.01486e-05 4.45024e-05 1.96996e-05 1.43242e-05 1.21969e-05 1.06432e-05 5.22944e-06 4.61922e-06 2.29197e-06 4.87399e-07 3.11709e-07 2.22038e-07 8.94986e-08 1.25939e-08 4.90404e-10
threshold=7212.2764436691023 8705.4830830781739 10957.521756204558 8169.0025521209609 6467.4361704182638 5951.6357421875009 7200.0093903702636 11335.930175781252 10318.695061695938 10623.342285156252 6475.0893554687509 6599.9999993006159 8978.7960723177257 11210.864770321639 6703.2500924534397 12873.960748261956 20515.510024213621 10257.991764219247 18143.849433858635 13239.588220626758 19029.40229237307 12907.644475638774 18805.335867272679 10306.606805158308 31308.46222261569 9000.0000249046589 10800.000142357609 29949.911016356426 20771.945833741109 31.000000000000004 19902.016080549703 10404.045763661437 8878.2386514443406 14.000000000000002 40.500000000000007 34138.078016283871 12296.779931659914 31.000000000000004 33558.284332441406 12796.146417148619 31162.97330630256 18318.030897438923 12742.544021445048 18392.092239574526
decision_type=2 2 2 2 2 2 2 2 2 2 2 2 2 2 2 2 2 2 2 2 2 2 2 2 2 2 2 2 2 2 2 2 2 2 2 2 2 2 2 2 2 2 2 2
left_child=4 12 3 -3 5 11 -6 17 20 26 16 19 14 23 18 36 21 27 -2 -1 -5 39 33 35 -25 41 -10 -4 -18 -15 -12 -26 43 -16 -23 38 -13 -33 -11 42 -9 -14 -7 -20
right_child=1 2 7 8 6 10 -8 40 9 13 30 15 25 29 22 -17 28 -19 32 -21 -22 34 -24 24 31 -27 -28 -29 -30 -31 -32 37 -34 -35 -36 -37 -38 -39 -40 -41 -42 -43 -44 -45
leaf_value=-0.0011051119028524375 0.0015980928759031659 0.008389286324381828 0.0079162648370997481 0.0024063689075410366 -0.0058353688663397088 -0.00055983958672120744 -0.0012841476212170993 0.004772362601425913 0.005690010466745922 0.0040747780838738317 0.0010633416632388501 -0.0013791187877930907 0.0026151765854312823 0.0027177963501367817 0.0023752105091848683 -0.0017500534709264982 -0.0015900066950254969 0.0066601016102953159 0.00088717459063780929 -0.00076741139564394855 0.0015739317266986923 -0.00074795371651188627 0.0018428136668508016 0.0040770573541522026 0.003632687441514511 0.0031507617045266958 0.0052122450963808945 0.0073903433858386941 -0.0011463780514895917 0.0023880281405789516 0.00078662488123644968 0.0034197119788991082 0.00074707420356571672 0.0025423479871824386 -0.00084486779663711794 0.0041552812299307657 -0.0013508474238889728 0.0034892719984054564 0.0040429250986287087 -0.00056545576865163277 0.0047524946928024295 0.0026022039974729224 -0.00055836039948566215 0.00088824650212641692
leaf_weight=478 79 32 44 45 39 457 44 45 35 46 47 471 52 39 31 469 36 47 38 479 52 485 63 46 38 51 65 31 40 35 46 36 50 40 50 34 454 40 33 463 45 36 464 31
leaf_count=478 79 32 44 45 39 457 44 45 35 46 47 471 52 39 31 469 36 47 38 479 52 485 63 46 38 51 65 31 40 35 46 36 50 40 50 34 454 40 33 463 45 36 464 31
internal_value=0 0.00354424 0.00451215 0.00388283 -0.000986777 -0.000941231 -0.00342267 0.00622198 0.00361775 0.00397746 -0.000574074 -0.00126732 0.00192491 0.00357342 0.00155504 -0.00149471 -0.000644024 0.0072987 0.00113561 -0.000936085 0.00196011 -0.000615807 0.0021748 0.00384763 0.00367667 0.00280833 0.00537946 0.00769888 -0.00135652 0.00256182 0.000926471 0.00351511 0.000828588 0.00246937 -0.000757011 0.0040897 -0.00136524 0.00345632 0.00406147 -0.000561222 0.00476243 0.00260987 -0.000559094 0.000887656
internal_weight=0 1259 788 576 4522 4439 83 212 544 447 2088 2351 471 347 332 1394 1995 122 198 957 97 1919 134 273 160 139 100 75 76 74 93 114 119 71 535 113 925 76 79 1384 90 88 921 69
internal_count=5781 1259 788 576 4522 4439 83 212 544 447 2088 2351 471 347 332 1394 1995 122 198 957 97 1919 134 273 160 139 100 75 76 74 93 114 119 71 535 113 925 76 79 1384 90 88 921 69
is_linear=0
shrinkage=0.2


Tree=14
num_leaves=45
num_cat=0
split_feature=18 21 55 3 31 35 28 3 21 28 16 21 28 3 3 21 3 72 13 3 12 3 0 18 3 3 12 3 3 13 0 12 12 0 3 3 3 3 3 0 3 3 3 3
split_gain=0.323494 0.0322848 0.0132753 0.0149126 0.00812819 0.00602927 0.00533061 0.00469651 0.00440262 0.00405131 0.00272278 0.00209872 0.00153184 0.00150948 0.00100972 0.00141368 0.000875163 0.000696979 0.000498847 0.000344953 0.000287678 0.000236648 0.000226445 0.000180768 0.00016581 0.000165597 0.000153937 0.000109293 8.0486e-05 5.56368e-05 4.58053e-05 3.25009e-05 1.26078e-05 6.81106e-06 6.36252e-06 6.22027e-06 3.34671e-06 2.95637e-06 2.18629e-06 1.46695e-06 3.12173e-07 1.99714e-07 1.42122e-07 8.05281e-09
threshold=7212.2764436691023 9205.5483398437518 10957.521756204558 18417.690325497289 5951.6357421875009 10318.695061695938 11320.714355468752 21865.370585190871 5869.7092285156259 10639.812011718752 8978.7960723177257 6582.5659179687509 8065.0585937500009 13224.860040921163 21127.157337788918 6475.0893554687509 36043.117559523816 7209.9013243467989 10257.991764219247 13239.588220626758 8363.2936726781973 13278.568667948182 14.000000000000002 10306.606805158308 18686.124101009453 32409.518129770997 9000.0000249046589 35114.29934383458 31034.012996921785 7200.002166032953 40.500000000000007 9000.0000205000706 10404.045763661437 40.500000000000007 21569.938549701928 18937.093902981756 35452.085957870695 12654.537653336456 18986.657360012414 31.000000000000004 34828.721855590069 13181.682081114393 32311.625000000004 13117.053843090451
decision_type=2 2 2 2 2 2 2 2 2 2 2 2 2 2 2 2 2 2 2 2 2 2 2 2 2 2 2 2 2 2 2 2 2 2 2 2 2 2 2 2 2 2 2 2
left_child=4 10 3 -3 8 20 18 11 13 27 12 14 24 37 15 21 17 -11 28 -15 -5 41 -14 36 -2 -25 38 -7 -4 34 -26 35 -27 -23 -16 -24 40 -1 -12 -34 -19 43 -8 -6
right_child=1 2 6 5 7 9 42 -9 -10 16 26 -13 22 19 29 -17 -18 23 -20 -21 -22 33 31 25 30 32 -28 -29 -30 -31 -32 -33 39 -35 -36 -37 -38 -39 -40 -41 -42 -43 -44 -45
leaf_value=-0.0011032947309457572 0.0014304120093584062 0.0073894689400349897 0.0063330132344906979 0.0019001674147382859 -0.00044787020730241905 0.004146755498368293 0.0038178912301858265 -0.0027141521880893332 -0.0015938065197682622 0.0021742406945962174 0.0020921382909783954 0.00085067282965842715 0.0012560500548436093 -0.00085420826102452704 -0.0010273121974684976 0.00062929861571477813 0.0019104253607136865 0.0032598299824673199 0.0053280824042381131 -0.00061393142172324017 0.001151943238849034 -0.00059836193765561607 0.00070973903087801057 0.0032616461019801058 0.0020338768512010576 0.0029061501502598589 0.0025956416192154091 0.0045823534174511829 0.0059122733531459691 -0.0012720045116212633 0.0017426920063952182 0.00084927089195302192 0.0027357685483164261 -0.00067588987387716772 -0.00091710042208433158 0.00060598554752640808 0.0033242269473917341 -0.0010806773912309289 0.0021471580060628747 0.0027914183400571347 0.0032343378798528155 -0.00045236623473867744 0.0038019959131876629 -0.00044668739308314077
leaf_weight=471 54 31 44 31 457 64 45 38 471 39 52 47 39 477 44 46 35 46 47 479 61 485 38 46 40 38 36 36 31 36 47 47 36 50 40 59 34 454 65 40 33 463 45 464
leaf_count=471 54 31 44 31 457 64 45 38 471 39 52 47 39 477 44 46 35 46 47 479 61 485 38 46 40 38 36 36 31 36 47 47 36 50 40 59 34 454 65 40 33 463 45 464
internal_value=0 0.0028354 0.00362639 0.00312384 -0.000789422 0.0028785 0.00497758 -0.000510263 -0.00104698 0.00318197 0.00153863 -0.000470982 0.00121027 -0.000910053 -0.000500775 -0.00046638 0.00285874 0.00296512 0.00583896 -0.000733819 0.00140406 -0.000492645 0.000828551 0.00307811 0.0017057 0.00294134 0.00223398 0.00430357 0.00615911 -0.00106398 0.00187657 0.000712771 0.00281209 -0.000605608 -0.00097483 0.000646631 0.00327176 -0.00109219 0.0021227 0.00276506 0.00324918 -0.000448978 0.00380994 -0.000447274
internal_weight=0 1259 782 570 4522 539 212 2170 2352 447 477 2132 324 1881 2085 1965 347 312 122 956 92 1919 183 273 141 160 153 100 75 120 87 144 114 535 84 97 113 925 117 76 79 1384 90 921
internal_count=5781 1259 782 570 4522 539 212 2170 2352 447 477 2132 324 1881 2085 1965 347 312 122 956 92 1919 183 273 141 160 153 100 75 120 87 144 114 535 84 97 113 925 117 76 79 1384 90 921
is_linear=0
shrinkage=0.2


Tree=15
num_leaves=46
num_cat=0
split_feature=18 56 56 3 52 43 25 21 35 25 39 3 3 35 25 14 18 0 3 17 3 3 18 3 3 3 3 17 54 0 3 24 17 0 3 3 17 0 3 3 3 3 3 3 3
split_gain=0.207036 0.021648 0.0083414 0.00967884 0.0074634 0.00478694 0.00341161 0.00339458 0.00330664 0.00278244 0.00202269 0.00158856 0.00149465 0.000716016 0.000627749 0.000643968 0.000576012 0.000368309 0.000349489 0.000319264 0.000224449 0.000158503 0.000125914 0.000105982 6.64951e-05 5.15111e-05 3.92078e-05 2.44763e-05 2.24531e-05 2.05411e-05 1.82291e-05 1.66384e-05 8.06866e-06 2.33585e-06 1.89192e-06 1.43051e-06 9.85412e-07 9.38875e-07 9.34355e-07 2.64903e-07 2.432e-07 1.99648e-07 1.2774e-07 9.08524e-08 5.12525e-09
threshold=7212.2764436691023 8705.4830830781739 10957.521756204558 19401.286866359453 5795.5474495168455 5858.0824392601326 11335.930175781252 6475.0893554687509 10318.695061695938 10506.991699218752 8046.8201507903705 21865.370585190871 21127.157337788918 5842.7551055826125 10842.555664062502 10050.718325602515 8150.5471105897414 40.500000000000007 13224.860040921163 10798.081972403003 13239.588220626758 19613.532608695656 8999.9898638481081 32409.518129770997 18776.401053864171 31034.012996921785 20057.202651339579 7204.2361734299911 6503.3723831458419 31.000000000000004 20571.335320914044 10037.650665152889 10265.009527713259 40.500000000000007 12654.537653336456 35114.29934383458 8978.7960723177257 31.000000000000004 13278.568667948182 19113.860946745564 18986.657360012414 34828.721855590069 13181.682081114393 32311.625000000004 13117.053843090451
decision_type=2 2 2 2 2 2 2 2 2 2 2 2 2 2 2 2 2 2 2 2 2 2 2 2 2 2 2 2 2 2 2 2 2 2 2 2 2 2 2 2 2 2 2 2 2
left_child=4 10 3 -3 -1 20 19 11 21 35 17 13 30 -7 31 29 -12 22 34 25 42 -5 36 -17 -18 -4 -19 33 39 -16 -9 41 -25 -20 -15 -10 -2 -34 -22 -26 -38 -11 44 -8 -6
right_child=1 2 6 8 5 7 43 12 9 14 16 -13 -14 18 15 23 24 26 27 -21 38 -23 -24 32 28 -27 -28 -29 -30 -31 -32 -33 37 -35 -36 -37 40 -39 -40 -41 -42 -43 -44 -45 -46
leaf_value=-0.0034226280882170331 0.0016271049436181785 0.005895016097929329 0.005066413364627145 0.0015322002437379626 -0.00035829329516746808 -0.0010812790711660549 0.0030543070369296603 0.00068053799740811622 0.003722661967788424 0.0026078584806426713 0.001520135494009141 -0.002171321580872724 -0.0008218544112010436 -0.00088263600194656673 0.0017393913024511092 0.0026093162434256598 0.00081126082688570038 0.0011443311693491761 -0.00068336531551129169 0.0042624668079487829 -0.00049114458025715049 0.001019544111421475 0.0020765152035488025 0.0023249191869246333 0.00056662685858706633 0.0047298211484186111 0.0013941534022067457 -0.0005407155118882656 0.00040036755698648368 0.0015283381938934327 0.00050343504661451216 0.0027371416962335983 0.0021886158320638871 -0.00073368154466152196 -0.00086454286194911087 0.0036658788927727277 0.0016737124667717861 0.0022331362590193751 -0.00047869124286568048 0.00058939551874514552 0.0016523279249668122 0.0025874720829905887 -0.00036189021546691337 0.0030415981682017446 -0.00035734966814774896
leaf_weight=38 40 32 44 45 457 469 45 47 35 46 31 38 44 471 39 46 40 54 477 47 479 52 36 38 60 31 47 50 44 35 46 63 36 40 454 36 52 40 485 31 36 33 463 45 464
leaf_count=38 40 32 44 45 457 469 45 47 35 46 31 38 44 471 39 46 40 54 477 47 479 52 36 38 60 31 47 50 44 35 46 63 36 40 454 36 52 40 485 31 36 33 463 45 464
internal_value=0 0.00226832 0.00290949 0.00251472 -0.000631537 -0.000607884 0.00398207 -0.000824542 0.00231588 0.00254557 0.00119561 -0.000890546 0.000138553 -0.000865728 0.00232874 0.00212743 0.000725532 0.00156104 -0.000797971 0.00467117 -0.000410787 0.00125737 0.00174607 0.00235307 0.000584774 0.00492729 0.00126059 -0.000674336 0.000517667 0.00163957 0.000592939 0.00266048 0.00224967 -0.000687258 -0.000873756 0.00369387 0.00165313 0.00221205 -0.000484879 0.000574383 0.00166496 0.00259934 -0.00035918 0.00304795 -0.000357818
internal_weight=0 1259 788 576 4522 4484 212 2136 544 447 471 1999 137 1961 376 234 206 265 1492 122 2348 97 164 160 175 75 101 567 135 74 93 142 114 517 925 71 128 76 964 91 88 79 1384 90 921
internal_count=5781 1259 788 576 4522 4484 212 2136 544 447 471 1999 137 1961 376 234 206 265 1492 122 2348 97 164 160 175 75 101 567 135 74 93 142 114 517 925 71 128 76 964 91 88 79 1384 90 921
is_linear=0
shrinkage=0.2


Tree=16
num_leaves=46
num_cat=0
split_feature=18 56 12 56 56 18 31 35 27 27 42 12 27 68 67 12 14 0 1 13 6 67 27 12 1 1 1 1 1 53 0 27 12 0 0 1 1 18 0 1 1 1 1 1 1
split_gain=0.132503 0.0138548 0.0064285 0.00701025 0.00525964 0.00475487 0.00356192 0.0026748 0.00218342 0.00178077 0.00129451 0.00104136 0.000828212 0.000700145 0.000588911 0.000368649 0.000312054 0.000235723 0.000214441 0.000204329 0.00019857 0.000130537 0.000113751 8.05835e-05 6.78292e-05 4.25573e-05 3.69771e-05 3.29656e-05 2.50935e-05 1.4371e-05 1.31469e-05 1.06487e-05 5.16442e-06 2.79011e-06 1.83409e-06 1.21087e-06 9.1535e-07 6.3077e-07 6.01055e-07 1.69573e-07 1.55552e-07 1.27906e-07 8.16553e-08 5.82563e-08 3.3123e-09
threshold=7212.2764436691023 8705.4830830781739 8169.0025521209609 10957.521756204558 6467.4361704182638 7200.0093903702636 5951.6357421875009 10318.695061695938 11335.930175781252 10506.991699218752 8033.4296787439325 6599.9999993006159 6648.2382812500009 11210.864770321639 5407.1506520504981 8293.1229807832115 8999.9413962994913 40.500000000000007 12873.960748261956 10257.991764219247 13239.588220626758 5962.420939493637 10842.555664062502 9000.0000249046589 31308.46222261569 18143.849433858635 20771.945833741109 29949.911016356426 19510.122719657418 6804.2836537933536 31.000000000000004 10718.039550781252 10404.045763661437 40.500000000000007 40.500000000000007 12296.779931659914 33775.347716139389 8999.988622445484 31.000000000000004 18392.092239574526 18318.030897438923 33558.284332441406 12796.146417148619 31162.97330630256 12742.544021445048
decision_type=2 2 2 2 2 2 2 2 2 2 2 2 2 2 2 2 2 2 2 2 2 2 2 2 2 2 2 2 2 2 2 2 2 2 2 2 2 2 2 2 2 2 2 2 2
left_child=4 10 -3 7 6 -6 11 16 19 36 17 20 14 22 -8 -12 -4 23 35 27 -1 34 31 37 -24 -17 33 -5 -19 39 -15 -11 -26 -23 42 -13 -9 -2 -34 -27 -39 -33 44 -10 -16
right_child=1 2 3 8 5 -7 12 9 43 13 15 18 -14 30 21 25 -18 28 -20 -21 -22 26 24 -25 32 29 -28 -29 -30 -31 -32 41 38 -35 -36 -37 -38 40 -40 -41 -42 -43 -44 -45 -46
leaf_value=-0.00057512115702718872 0.0013016837928444148 0.005104154217406176 0.00044039195307936428 0.0040531262924725356 -0.0036905278953222129 -0.00065747770396145907 0.00040275270281278576 0.0029781287908554077 0.0024434525933530599 0.0021897134326753164 0.0012161111098624045 -0.00070610955286367694 0.00054442568662318774 0.0013915159381352939 -0.00028663846609107256 0.00064901044592261317 0.0011720095086714319 0.00091546040580228532 -0.00086502427541053123 0.0034099710748550743 -0.00039291603486821649 -0.00038295028174353628 0.0020874541738758914 0.0016612109417716665 0.0018599370690552813 0.00045330303410689039 -0.00058694105595350269 0.0037838588318517131 0.0011153203375796055 0.00032029124188490891 0.0012226695248058865 0.0020862897048177925 0.0017508874750799604 -0.00043257083930075169 -0.00033307172771957188 -0.00069163477639072797 0.0029327066666964031 0.0013389702169941022 0.0017865090258419516 0.00047151987110414812 0.0013218678534030915 0.0020699722297263866 -0.00028951217945399606 0.0024332758163412415 -0.00028587987582231387
leaf_weight=478 40 32 39 44 39 44 46 35 45 63 31 471 47 39 457 40 58 54 469 47 479 485 46 36 38 60 40 31 47 44 35 46 36 50 36 454 36 52 40 31 36 33 463 45 464
leaf_count=478 40 32 39 44 39 44 46 35 45 63 31 471 47 39 457 40 58 54 469 47 479 485 46 36 38 60 40 31 47 44 35 46 36 50 36 454 36 52 40 31 36 33 463 45 464
internal_value=0 0.00181465 0.00232759 0.00221006 -0.00050523 -0.00208265 -0.000475736 0.00182987 0.00318565 0.00203646 0.000956492 -0.000644573 -0.000285632 0.00186299 -0.000304746 0.000580427 0.000877854 0.00124883 -0.000754861 0.00373693 -0.000483923 -0.00032106 0.00199809 0.00139686 0.00188246 0.00046782 -0.000401456 0.00394183 0.00100846 0.000414134 0.00131166 0.00212838 0.00179974 -0.000387588 -0.000288505 -0.000699005 0.0029551 0.00132251 0.00176964 0.000459509 0.00133197 0.00207947 -0.000287346 0.00243836 -0.000286256
internal_weight=0 1259 788 756 4522 83 4439 544 212 447 471 2351 2088 376 2041 206 97 265 1394 122 957 1995 302 164 160 175 575 75 101 135 74 142 114 535 1420 925 71 128 76 91 88 79 1384 90 921
internal_count=5781 1259 788 756 4522 83 4439 544 212 447 471 2351 2088 376 2041 206 97 265 1394 122 957 1995 302 164 160 175 575 75 101 135 74 142 114 535 1420 925 71 128 76 91 88 79 1384 90 921
is_linear=0
shrinkage=0.2


Tree=17
num_leaves=44
num_cat=0
split_feature=18 12 53 55 3 18 21 15 25 3 12 25 25 3 54 12 21 41 12 3 41 13 3 15 3 21 3 12 3 12 3 33 3 25 3 33 13 3 3 3 3 3 3
split_gain=0.0848019 0.009201 0.0103911 0.00336618 0.00304662 0.00304312 0.00208789 0.00163911 0.000968349 0.000880034 0.000756593 0.000597894 0.000540648 0.000465456 0.000385942 0.000321553 0.000300987 0.000281855 0.000142042 0.000137243 0.000132459 0.00013077 8.22601e-05 6.20623e-05 6.06113e-05 5.06984e-05 4.34658e-05 3.3318e-05 2.10988e-05 1.53603e-05 2.95404e-05 1.50566e-05 1.20077e-05 6.73126e-06 3.51699e-06 2.98512e-06 2.05538e-06 1.33413e-06 7.74836e-07 5.85821e-07 9.39573e-08 5.24292e-08 2.09644e-09
threshold=7212.2764436691023 7200.0000077277282 9603.9094351186741 6467.4361704182638 31496.595050972883 7200.0093903702636 5978.3933105468759 8978.7960723177257 10506.991699218752 30845.229707792212 6599.9999993006159 8060.1623535156259 6648.2382812500009 35866.813529149986 7627.3724155664613 9950.6847222535016 6426.1677246093759 10054.347448868792 8293.1229807832115 13250.768785264698 11448.603288597342 10257.991764219247 13239.588220626758 8999.9885985510373 13278.568667948182 11506.625976562502 18686.124101009453 8998.2023094816559 31034.012996921785 9870.1875370153066 15903.341060208628 8215.7717253075953 20057.202651339579 10762.632812500002 32832.374792044306 8090.8656836477758 7200.0722197771638 21270.320330015249 12654.537653336456 35114.29934383458 34828.721855590069 13181.682081114393 13117.053843090451
decision_type=2 2 2 2 2 2 2 2 2 2 2 2 2 2 2 2 2 2 2 2 2 2 2 2 2 2 2 2 2 2 2 2 2 2 2 2 2 2 2 2 2 2 2
left_child=3 -2 7 6 9 -5 10 11 39 -4 22 26 14 20 16 23 24 18 -13 38 25 28 -1 27 41 33 -3 -9 -11 30 -25 35 -28 -10 -22 -20 37 -26 -12 -6 -35 42 -8
right_child=1 2 4 5 8 -7 12 15 13 21 19 17 -14 -15 -16 -17 -18 -19 31 -21 34 -23 -24 29 36 -27 32 -29 -30 -31 -32 -33 -34 40 -36 -37 -38 -39 -40 -41 -42 -43 -44
leaf_value=-0.00043166798131395934 0.0048546520797836208 0.00073237008656616568 0.001954756759934955 -0.0029524257621512968 0.0023824998097760341 -0.00052598388865590098 -0.00022930846074738703 0.0010574925276968215 0.0017517687545882329 0.0032425021583383736 -0.00056488825415603166 0.00078151926207236766 0.00043554350416711039 0.0010879093862098197 0.00032220463389935703 0.0016690296080449354 -0.00080004090942987582 -0.00020023667893838138 0.00042684594767966448 -0.00069202086133663982 0.0014007119254933465 0.0027279767425770454 -0.00031433324572593285 0.0010711773656881772 -0.00030636241717129639 0.0019466184948881467 0.0010413435939699411 0.0012973329539482411 0.0030270838449078224 0.00111320931942035 0.00085587345808744433 0.00025623275009407242 0.00089225610519977339 0.0016699634573381882 0.0014879464024775907 0.00036264077993109823 -0.0003460562564432621 -0.00026645755602253807 -0.00055330935537421225 0.0023461622037252204 0.0016559781224438639 -0.00023161335395685282 -0.00022870495208892331
leaf_weight=477 31 54 45 39 35 44 457 36 63 44 471 39 47 69 46 46 41 32 56 469 36 47 479 52 485 45 40 65 31 39 50 44 47 46 38 60 50 36 454 36 33 463 464
leaf_count=477 31 54 45 39 35 44 457 36 63 44 471 39 47 69 46 46 41 32 56 469 36 47 479 52 485 45 40 65 31 39 50 44 47 46 38 60 50 36 454 36 33 463 464
internal_value=0 0.00145172 0.00136582 -0.000404185 0.00199295 -0.00166612 -0.000380589 0.000826102 0.00169403 0.00271071 -0.000509912 0.000548778 -0.000235108 0.00154987 -0.000250544 0.00118431 -0.000263744 0.000350683 0.000439273 -0.00060389 0.001672 0.00298955 -0.000372878 0.00109218 -0.000252497 0.00176163 0.000873317 0.00121185 0.00315346 0.00100645 0.000965636 0.00035585 0.000960802 0.00170301 0.00144551 0.000393636 -0.000307322 -0.000303605 -0.000559205 0.00236408 0.00166412 -0.000229877 -0.000229004
internal_weight=0 1259 1228 4522 568 83 4439 660 401 167 2350 372 2089 330 2042 288 1996 231 199 1394 261 122 956 242 1955 187 141 101 75 141 102 160 87 142 74 116 571 521 925 71 79 1384 921
internal_count=5781 1259 1228 4522 568 83 4439 660 401 167 2350 372 2089 330 2042 288 1996 231 199 1394 261 122 956 242 1955 187 141 101 75 141 102 160 87 142 74 116 571 521 925 71 79 1384 921
is_linear=0
shrinkage=0.2


Tree=18
num_leaves=45
num_cat=0
split_feature=20 71 4 72 57 23 36 40 25 25 14 23 68 54 53 31 0 36 4 16 4 4 31 20 23 4 4 14 34 14 0 4 0 4 4 16 4 4 4 4 4 4 4 4
split_gain=0.0542732 0.00684886 0.00522572 0.00372214 0.00292745 0.00134375 0.0010125 0.000923021 0.00089433 0.000709623 0.000484204 0.000346208 0.000283493 0.00024698 0.000163952 0.000103963 9.72723e-05 9.33327e-05 8.78324e-05 8.36913e-05 6.28052e-05 5.26469e-05 4.23167e-05 3.49629e-05 3.3022e-05 1.71283e-05 1.35027e-05 7.48566e-06 5.44754e-06 5.1853e-06 3.22351e-06 2.25082e-06 7.51237e-07 4.95906e-07 3.74893e-07 2.58306e-07 8.26827e-08 7.74321e-08 6.37313e-08 3.35144e-08 2.38221e-08 1.53156e-09 1.36642e-09 5.32515e-10
threshold=7212.2764436691023 8590.2968787866121 19401.286866359453 8855.4996934853843 10957.521756204558 5978.3933105468759 10318.695061695938 8046.8201507903705 11335.930175781252 10506.991699218752 6599.9999992106032 6582.5659179687509 11210.864770321639 7627.3724155664613 8588.656832898394 9368.2036132812518 40.500000000000007 6431.4309856615864 13250.768785264698 10798.081972403003 18776.401053864171 13239.588220626758 11612.206542968752 8999.9898638481081 6138.6779785156259 35866.813529149986 31034.012996921785 7200.7284946321824 8215.7717253075953 10787.938448267016 31.000000000000004 32832.374792044306 40.500000000000007 12654.537653336456 35114.29934383458 8978.7960723177257 34828.721855590069 21865.370585190871 18986.657360012414 13181.682081114393 32311.625000000004 19113.860946745564 13117.053843090451 35452.085957870695
decision_type=2 2 2 2 2 2 2 2 2 2 2 2 2 2 2 2 2 2 2 2 2 2 2 2 2 2 2 2 2 2 2 2 2 2 2 2 2 2 2 2 2 2 2 2
left_child=3 7 -3 5 6 10 15 16 19 34 21 13 22 17 20 -4 23 24 33 26 -9 -1 25 35 -7 29 -6 37 41 36 -14 -24 39 -12 -8 -2 -11 -19 -37 42 -10 -22 -26 -38
right_child=1 2 4 -5 8 11 9 14 40 12 18 -13 30 -15 -16 -17 -18 27 -20 -21 28 -23 31 -25 32 -27 -28 -29 -30 -31 -32 -33 -34 -35 -36 38 43 -39 -40 -41 -42 -43 -44 -45
leaf_value=-0.00034533533457065281 0.00083307703956961635 0.0040509086522844536 0.00082247821908248097 -0.0020056849560485439 0.0025940007106824356 -0.00024508922408843779 0.0019059977680444718 0.00054540072635906494 0.0015638072126441531 0.0013352239868887094 -0.00045190909897192778 0.00034843756163373908 0.00089056889216105142 0.00025776361479707386 -9.1862841013898248e-05 0.00045547804866845798 0.00058589528694196987 -0.00042079074138944798 -0.00055361323610647151 0.0021823854363979176 0.00029011269100010395 -0.00025146712980666711 0.0011205700950490105 0.0010695029619253345 -0.00018344941167914894 0.0012116279639303685 0.0024216697581352729 -0.00030954632908105853 0.00020498880820179531 0.0013965254624684652 0.00080696165561676034 0.0011903569322863693 -0.00021316640906863746 -0.00044264587848590861 0.0018769289400855389 0.00085693881488763373 0.0013247844621990666 -0.00040846595810236112 0.00084599182009696965 -0.00018528984541769421 0.0015572994885345302 0.00029184394666264136 -0.00018296218156043826 0.0013236566501505236
leaf_weight=477 40 31 76 52 44 485 35 41 45 46 471 47 39 46 47 52 54 44 469 47 60 479 36 36 457 40 31 40 44 75 35 38 36 454 36 52 33 38 36 463 45 31 464 34
leaf_count=477 40 31 76 52 44 485 35 41 45 46 471 47 39 46 47 52 54 44 469 47 60 479 36 36 457 40 31 40 44 75 35 38 36 454 36 52 33 38 36 463 45 31 464 34
internal_value=0 0.00116138 0.00150388 -0.000323347 0.00140356 -0.000303776 0.00116934 0.000526071 0.00203882 0.00131136 -0.000407929 -0.000188324 0.00120185 -0.000200494 0.000239988 0.000673384 0.000818716 -0.000210893 -0.00048311 0.00239164 0.000328607 -0.000298303 0.00128782 0.000895376 -0.000200033 0.00133047 0.00252277 -0.000380478 0.000262766 0.00135575 0.000851025 0.00115641 -0.000184644 -0.000447363 0.00189126 0.000846403 0.00132869 -0.000415079 0.00085246 -0.000183902 0.00156055 0.000290702 -0.000183204 0.00132421
internal_weight=0 1259 818 4522 787 4470 575 441 212 447 2350 2120 376 2073 223 128 218 2027 1394 122 176 956 302 164 1905 228 75 122 135 188 74 74 1420 925 71 128 113 82 88 1384 90 91 921 67
internal_count=5781 1259 818 4522 787 4470 575 441 212 447 2350 2120 376 2073 223 128 218 2027 1394 122 176 956 302 164 1905 228 75 122 135 188 74 74 1420 925 71 128 113 82 88 1384 90 91 921 67
is_linear=0
shrinkage=0.2


Tree=19
num_leaves=44
num_cat=0
split_feature=19 14 52 19 55 21 27 41 1 55 13 34 68 71 65 1 2 0 1 13 1 1 0 1 13 1 14 1 0 13 19 0 1 1 15 0 1 1 1 1 1 1 1
split_gain=0.0347348 0.00514784 0.00490254 0.00438601 0.00152334 0.000930842 0.000572369 0.000529911 0.000458442 0.000324029 0.000309896 0.000298906 0.000235189 0.000168464 0.000157979 0.000142836 7.21587e-05 5.9831e-05 5.62147e-05 5.35651e-05 4.49915e-05 3.36946e-05 3.24792e-05 2.15141e-05 1.69218e-05 1.44484e-05 1.199e-05 8.64185e-06 7.45708e-06 4.79054e-06 2.78584e-06 7.51124e-07 3.17459e-07 2.40081e-07 1.65217e-07 1.41041e-07 5.28424e-08 4.95334e-08 4.07839e-08 2.15285e-08 1.52758e-08 8.74447e-10 3.41619e-10
threshold=7212.2764436691023 7200.0000224901605 5795.5474495168455 8999.9898638481081 10957.521756204558 5978.3933105468759 11335.930175781252 9963.2944525437815 34662.432439441851 10371.293071175791 6531.2676274564374 6535.9442908009196 6175.2298869117267 6141.1242496806781 9225.3753203825981 33239.539936987981 32452.533906470027 40.500000000000007 12873.960748261956 10257.991764219247 19029.40229237307 12870.209739330887 40.500000000000007 12907.644475638774 10175.166447288084 20141.396371001323 10192.382744901535 29949.911016356426 14.000000000000002 7200.0000117606587 8618.858935269358 22.000000000000004 12296.779931659914 33775.347716139389 8978.7960723177257 31.000000000000004 33558.284332441406 21041.298537650295 18318.030897438923 12796.146417148619 31162.97330630256 12742.544021445048 34138.078016283871
decision_type=2 2 2 2 2 2 2 2 2 2 2 2 2 2 2 2 2 2 2 2 2 2 2 2 2 2 2 2 2 2 2 2 2 2 2 2 2 2 2 2 2 2 2
left_child=2 -2 -1 7 8 10 19 12 9 16 21 14 30 22 17 -11 24 23 32 27 28 -4 -14 39 31 -13 36 -6 -15 -19 -3 -5 -12 -17 -30 -28 -18 -31 -36 41 -8 -7 -38
right_child=1 3 5 4 6 11 40 -9 -10 15 18 25 13 20 -16 33 26 29 -20 -21 -22 -23 -24 -25 -26 -27 35 -29 34 37 -32 -33 -34 -35 38 -37 42 -39 -40 -41 -42 -43 -44
leaf_value=-0.0025207998329087309 0.0034744554409577005 0.00016398687042634596 -0.00020117160313935767 0.00085560108741952311 0.002075201611627232 -0.00014675778848337136 0.0012510476178593105 -0.00022765393269822952 0.00049282234394922855 0.0011172190209229787 -0.00036152686267268636 0.00027874549652667758 0.00025733667056238843 0.0007717733747429319 0.00020621437984316246 0.00152480457510267 0.0010681766895172388 -0.0002476380206644535 -0.00044289117486380952 0.0017459020969715527 0.00051171053733144493 -0.0002762667959716085 0.00046871408682178572 -0.00019607120683205498 0.00071245386050297664 0.00012429390102624896 0.00095228558945420537 0.0019373357295989992 0.00066646448336541656 -0.00033663002435456625 0.00023206850548960131 0.00089645650651719831 -0.00035411535684298318 0.0015015422547650006 0.00068554905458138545 0.00096930043771862977 0.001059831814332442 -0.00032677250350580402 0.00067679190801249618 -0.00014823322258809217 0.0012458363816969925 -0.00014636801748440183 0.0010589284931912142
leaf_weight=38 31 44 479 36 44 457 45 47 64 75 471 47 63 45 46 35 46 40 469 47 70 477 54 485 39 50 38 31 40 44 53 36 454 36 52 40 33 38 36 463 45 464 34
leaf_count=38 31 44 479 36 44 457 45 47 64 75 471 47 63 45 46 35 46 40 469 47 70 477 54 485 39 50 38 31 40 44 53 36 454 36 52 40 33 38 36 463 45 464 34
internal_value=0 0.000929102 -0.000258677 0.000864846 0.00118021 -0.000239506 0.00163105 0.000411824 0.000993532 0.00106506 -0.000326342 -0.000143881 0.000477591 0.000552067 -0.000160215 0.00130969 0.000946797 -0.000168681 -0.000386487 0.00191331 0.000647001 -0.000238641 0.000354895 -0.000159823 0.000818557 0.000199131 0.00102132 0.00201822 0.000701742 -0.000304382 0.000201186 0.000876029 -0.000357889 0.00151301 0.000677122 0.000961011 0.00106296 -0.000332062 0.000681967 -0.000147121 0.00124844 -0.000146561 0.00105937
internal_weight=0 1259 4522 1228 724 4484 212 504 512 448 2350 2134 457 360 2037 146 302 1991 1394 122 243 956 117 1869 111 97 191 75 173 122 97 72 925 71 128 78 113 82 88 1384 90 921 67
internal_count=5781 1259 4522 1228 724 4484 212 504 512 448 2350 2134 457 360 2037 146 302 1991 1394 122 243 956 117 1869 111 97 191 75 173 122 97 72 925 71 128 78 113 82 88 1384 90 921 67
is_linear=0
shrinkage=0.2


Tree=20
num_leaves=44
num_cat=0
split_feature=55 15 72 1 55 22 37 53 26 26 24 15 22 22 67 54 68 0 1 15 15 1 1 1 22 45 22 15 1 1 1 1 0 0 1 1 1 1 1 1 1 1 1
split_gain=0.0222751 0.00343939 0.00460572 0.00329324 0.00118281 0.000553758 0.000550514 0.000515489 0.000366318 0.000299154 0.000215237 0.000198331 0.000140442 0.00012373 0.000112804 0.000100188 8.91585e-05 3.72857e-05 3.59769e-05 3.42805e-05 2.88662e-05 2.57904e-05 2.15669e-05 1.37672e-05 1.23236e-05 1.12262e-05 8.10847e-06 7.25236e-06 5.53076e-06 5.45103e-06 3.91064e-06 9.22048e-07 2.43158e-07 2.40316e-07 2.0283e-07 3.38811e-08 3.17035e-08 2.61345e-08 1.36592e-08 1.20181e-08 9.77108e-09 5.54126e-10 2.17331e-10
threshold=8705.4830830781739 7200.0163604685476 8828.1677388553326 18650.435223571923 10957.521756204558 5978.3933105468759 10318.695061695938 7832.9028021943022 11335.930175781252 10623.342285156252 8950.4681127639997 6270.802861233431 6582.5659179687509 9163.3564453125018 8722.9176466292865 7627.3724155664613 11210.864770321639 40.500000000000007 12873.960748261956 10798.081972403003 8978.7960723177257 20515.510024213621 12870.209739330887 12907.644475638774 8170.5568847656259 11571.891645425758 8301.6552734375018 10614.709322664936 29949.911016356426 18083.883199938875 34519.840602979959 31637.465284800932 31.000000000000004 31.000000000000004 12296.779931659914 33558.284332441406 21041.298537650295 18318.030897438923 12796.146417148619 18392.092239574526 31162.97330630256 12742.544021445048 34138.078016283871
decision_type=2 2 2 2 2 2 2 2 2 2 2 2 2 2 2 2 2 2 2 2 2 2 2 2 2 2 2 2 2 2 2 2 2 2 2 2 2 2 2 2 2 2 2
left_child=1 2 5 -2 6 11 13 10 19 27 14 22 15 -5 21 17 25 23 34 28 -12 26 -1 38 37 30 -3 -8 -6 -16 33 -27 -18 -11 -13 -35 -19 -22 41 -28 -10 -7 -37
right_child=3 7 -4 4 8 12 9 -9 40 16 20 18 -14 -15 29 -17 32 36 -20 -21 24 -23 -24 -25 -26 31 39 -29 -30 -31 -32 -33 -34 35 -36 42 -38 -39 -40 -41 -42 -43 -44
leaf_value=-0.00016093670501371763 0.0029755319614196197 9.9563117449482277e-05 -0.0022992177733353208 0.00052616791083262516 0.0016601609235460111 -0.00011740753211129938 0.0012198420188256672 -0.00049392933646837871 0.0010008372863133748 0.00083321689263634062 0.00042135895444796639 -0.00028921932005768371 0.00022299812829240843 7.3222319285074872e-05 0.00037497720784611171 0.00016497032230962879 0.00056996804017287036 -0.0002693028019910509 -0.00035431277014807603 0.0013967250889920175 0.00054844598500774458 0.00033362362947728899 -0.00022101611508138524 -0.00015685447981369865 0.00068448290435804259 0.00071716457605361947 0.00018247742167053124 0.0011069199235106892 0.0015498684659119577 0.00046157267772489128 0.00077544314786791811 0.00076183082633896884 0.00054700530001095362 0.00085454398118283445 -0.00028329513031611882 0.00084786053859826297 -0.00026141651415903321 0.00054143586506446206 -0.00011858286468823066 0.00018674827953602406 0.00099666945636272446 -0.00011709725709053978 0.00084714004222084501
leaf_weight=479 32 78 42 52 44 457 35 30 45 46 65 471 47 45 54 46 39 44 469 47 52 36 477 485 36 36 60 65 31 63 40 38 35 46 454 33 38 36 463 47 45 464 34
leaf_count=479 32 78 42 52 44 457 35 30 45 46 65 471 47 45 54 46 39 44 469 47 52 36 477 485 36 36 60 65 31 63 40 38 35 46 454 33 38 36 463 47 45 464 34
internal_value=0 -0.000155962 -0.000214782 0.000988226 0.000904107 -0.000194858 0.000747938 0.000312483 0.00130484 0.000841661 0.000358388 -0.000261074 -0.000118728 0.000316039 0.000262811 -0.000126771 0.000753828 -0.000133649 -0.00030919 0.00153065 0.000529315 0.000178743 -0.000190914 -0.000127858 0.000585905 0.000806609 0.000148604 0.00114644 0.00161457 0.000421606 0.000831341 0.000740101 0.000559107 0.000845404 -0.000286312 0.000850364 -0.000265648 0.000545578 -0.000117697 0.000184353 0.000998753 -0.000117251 0.000847495
internal_weight=0 4993 4436 788 756 4394 544 557 212 447 527 2350 2044 97 338 1997 347 1951 1394 122 189 221 956 1869 124 273 185 100 75 117 199 74 74 159 925 113 82 88 1384 107 90 921 67
internal_count=5781 4993 4436 788 756 4394 544 557 212 447 527 2350 2044 97 338 1997 347 1951 1394 122 189 221 956 1869 124 273 185 100 75 117 199 74 74 159 925 113 82 88 1384 107 90 921 67
is_linear=0
shrinkage=0.2


Tree=21
num_leaves=43
num_cat=0
split_feature=55 12 32 29 55 17 42 54 25 25 70 24 12 70 32 2 12 42 13 2 2 2 2 12 2 12 21 2 2 17 2 2 2 2 2 2 2 2 2 2 2 2
split_gain=0.014256 0.00270724 0.00242166 0.00492667 0.000799966 0.000519633 0.000385445 0.000304616 0.000234446 0.000182359 0.000153672 0.000150919 9.79986e-05 9.34485e-05 5.99229e-05 4.57682e-05 3.39689e-05 2.38835e-05 2.19398e-05 2.14676e-05 1.54233e-05 1.35326e-05 9.95312e-06 7.05365e-06 5.52822e-06 4.93367e-06 4.79897e-06 3.54021e-06 3.41686e-06 2.30398e-06 1.05114e-06 1.0115e-06 1.29947e-07 6.42474e-08 5.81339e-08 5.7743e-08 1.71427e-08 1.26216e-08 8.76958e-09 7.14016e-09 6.25676e-09 3.51986e-10
threshold=8705.4830830781739 8169.0025521209609 5975.0134530797804 6461.8334960937509 10957.521756204558 8984.7550033870339 5858.0824392601326 7231.2508305362398 11335.930175781252 10803.465332031252 7169.144437089707 8950.4681127639997 10710.189781755291 9972.2077086260797 6686.3009223441431 13250.768785264698 8363.2936726781973 7985.4048559237535 10257.991764219247 13224.860040921163 13239.588220626758 18214.036274324582 36043.117559523816 9000.0000249046589 35114.29934383458 7242.1256700775602 8301.6552734375018 31034.012996921785 32409.518129770997 10022.772453903481 32832.374792044306 21270.320330015249 12654.537653336456 13278.568667948182 18686.124101009453 35866.813529149986 35452.085957870695 21569.938549701928 13181.682081114393 19113.860946745564 32311.625000000004 13117.053843090451
decision_type=2 2 2 2 2 2 2 2 2 2 2 2 2 2 2 2 2 2 2 2 2 2 2 2 2 2 2 2 2 2 2 2 2 2 2 2 2 2 2 2 2 2
left_child=2 -2 3 6 5 -3 20 11 18 12 -9 14 29 22 21 19 -12 23 27 32 38 -4 -11 34 -14 31 -16 -6 -15 -7 -30 -23 -8 -22 -13 -32 -31 -33 41 -28 -10 -1
right_child=1 4 7 -5 8 9 15 10 40 13 16 17 24 28 26 -17 -18 -19 -20 -21 33 25 -24 -25 -26 -27 39 -29 30 36 35 37 -34 -35 -36 -37 -38 -39 -40 -41 -42 -43
leaf_value=-9.3924307979692263e-05 0.0025924204150214792 -0.00011750459671020508 0.00017839923818060695 -0.0023917560116387907 0.0013281305405226623 0.00062974773107036478 -0.00023137522137658612 -0.00029384589169995264 0.00080066641171773272 0.00045597018339695077 0.00020427427164489227 0.00043875258415937424 0.00088188393856398768 0.00066657673729502646 7.9648522063134578e-05 -0.00028345115057854003 -5.2136242870361575e-05 0.00032046224738730762 0.0011173782196450741 -0.0001768124053563212 -0.00012875010059185964 0.0002999794290021614 0.00032779439352452759 0.0005475851241499186 0.00097985134408291852 0.00035466063529887099 0.00014598016976378859 0.0012398901004945079 0.00057373195886611938 0.00068363041981406834 0.00060946455127314529 0.00026689637452363967 -0.00022663338815522615 -0.00012548454182664145 0.00044889419339597228 0.00062035147100687033 0.00067770804333336214 0.00026173444464802745 -9.4866730095758301e-05 0.00014971824543130014 0.0007973312752114402 -9.3677018544283409e-05
leaf_weight=457 32 39 47 40 44 62 471 59 45 39 62 52 64 46 78 469 31 61 47 477 479 54 64 36 36 47 60 31 36 46 38 36 454 485 40 40 34 40 463 31 45 464
leaf_count=457 32 39 47 40 44 62 471 59 45 39 62 52 64 46 78 469 31 61 47 477 479 54 64 36 36 47 60 31 36 46 38 36 454 485 40 40 34 40 463 31 45 464
internal_value=0 0.00079058 -0.00012477 -0.000182593 0.000714311 0.000585879 -0.000161648 0.000210745 0.00104387 0.0006402 -4.13693e-05 0.00027659 0.00076549 0.000524914 0.000205962 -0.000229368 0.000118804 0.000423451 0.00122452 -0.000211276 -0.000107685 0.000273796 0.000376327 0.000472531 0.000917152 0.000299128 0.000116051 0.00129166 0.000620566 0.000658686 0.000602001 0.00027905 -0.000229048 -0.000127107 0.000443162 0.000615048 0.000681113 0.00026418 -9.41567e-05 0.000147254 0.000798999 -9.37997e-05
internal_weight=0 788 4993 4259 756 544 4219 734 212 505 152 582 242 263 393 1871 93 189 122 1402 2348 224 103 128 100 177 169 75 160 142 114 130 925 964 92 78 80 76 1384 91 90 921
internal_count=5781 788 4993 4259 756 544 4219 734 212 505 152 582 242 263 393 1871 93 189 122 1402 2348 224 103 128 100 177 169 75 160 142 114 130 925 964 92 78 80 76 1384 91 90 921
is_linear=0
shrinkage=0.2


Tree=22
num_leaves=45
num_cat=0
split_feature=52 1 72 0 55 35 43 14 0 25 25 72 39 25 0 1 1 1 16 1 0 1 1 25 18 33 1 1 21 1 1 14 1 1 1 1 1 1 0 1 1 1 1 1
split_gain=0.00953349 0.00308701 0.00300465 0.00199302 0.00042269 0.000300588 0.000258186 0.000173619 0.000189463 0.000150043 0.000135372 9.78256e-05 9.56077e-05 6.15621e-05 5.65415e-05 3.45196e-05 2.92894e-05 1.82433e-05 1.40416e-05 1.37379e-05 1.11968e-05 1.00062e-05 9.87031e-06 6.72721e-06 4.43435e-06 3.74675e-06 2.26514e-06 2.18685e-06 1.66097e-06 6.72718e-07 6.4744e-07 5.9149e-07 1.36493e-07 1.10622e-07 8.30851e-08 4.54535e-08 4.10529e-08 3.72677e-08 3.69633e-08 1.10009e-08 8.07468e-09 5.63846e-09 4.00279e-09 2.25751e-10
threshold=8994.9578446302057 18805.335867272679 8855.4996934853843 14.000000000000002 10957.521756204558 10842.913624695941 5858.0824392601326 8991.9496434651865 9.0000000000000018 11335.930175781252 6447.3120117187509 7209.9013243467989 8046.8201507903705 10506.991699218752 40.500000000000007 20399.663928785598 12873.960748261956 34662.432439441851 10798.081972403003 12870.209739330887 22.000000000000004 17729.402464995324 12845.673441488094 10842.555664062502 8999.9898638481081 6064.9079130317377 29949.911016356426 31308.46222261569 8301.6552734375018 31637.465284800932 20515.510024213621 10096.847794236208 18318.030897438923 21041.298537650295 12296.779931659914 18392.092239574526 12907.644475638774 18038.50850146919 31.000000000000004 34138.078016283871 20771.945833741109 12796.146417148619 31162.97330630256 12742.544021445048
decision_type=2 2 2 2 2 2 2 2 2 2 2 2 2 2 2 2 2 2 2 2 2 2 2 2 2 2 2 2 2 2 2 2 2 2 2 2 2 2 2 2 2 2 2 2
left_child=2 -2 3 6 11 10 22 8 -8 18 15 20 14 -13 24 -5 19 23 26 34 -3 -16 41 31 32 33 -6 -25 -14 -29 -27 39 37 -23 -10 -30 -24 -12 -31 -15 -32 43 -11 -1
right_child=1 4 -4 5 9 -7 7 -9 16 42 12 13 28 17 21 -17 -18 -19 -20 -21 -22 25 36 27 -26 30 -28 29 35 38 40 -33 -34 -35 -36 -37 -38 -39 -40 -41 -42 -43 -44 -45
leaf_value=-7.5141203546941418e-05 0.0026134014653507623 0.00021322583540891993 -0.0016074375052434896 9.1113745356383527e-05 0.0010625019161538646 0.00079949537558215002 -0.00059006026292100864 0.00020835870368914172 -0.00018509914881041601 0.00064053657982084491 0.00035100002558185507 0.00078388625859386401 7.8169878501937079e-05 0.00054691272342334628 0.00014271834429274214 -0.00015667348422787408 -0.00022675929400426493 0.00037204291139330187 0.00089390315908066762 -0.00014145190532727312 0.00036477702550398997 0.0002837273668735585 -0.00010300050363224583 0.00053326254305632219 0.00043806897010654214 0.00023998389089549028 0.00099191878351473036 0.00045898618797461199 0.0001167888663864384 0.00048757148661503669 0.00021351528250508839 0.00057092238097421579 0.00036905646945039434 0.00026921563211975525 -0.0001813075357498314 0.00012457376345992091 -0.00010039013378398935 0.00035912007093429565 0.00049628194421529775 0.00054216842879267302 0.00020938653498888015 -7.5897004769121345e-05 0.00063786898222234522 -7.4943161473192026e-05
leaf_weight=457 32 39 52 46 44 35 47 44 471 45 52 36 53 46 47 44 469 35 47 477 39 47 479 46 36 54 31 36 60 38 36 62 36 38 454 60 485 40 40 34 40 463 45 464
leaf_count=457 32 39 52 46 44 35 47 44 471 45 52 36 53 46 47 44 469 35 47 477 39 47 479 46 36 54 31 36 60 38 36 62 36 38 454 60 485 40 40 34 40 463 45 464
internal_value=0 0.000694784 -9.49425e-05 -7.93188e-05 0.000602181 0.000227724 -0.000130896 -0.000184446 -0.000193457 0.0008351 0.000198679 0.000492694 0.000233042 0.000535289 0.000283962 -3.00267e-05 -0.000183494 0.000508733 0.000979615 -0.000169021 0.000289001 0.000226314 -8.61499e-05 0.000524574 0.000376057 0.000244588 0.00103333 0.000496454 0.000107658 0.000481601 0.00022324 0.00055626 0.000358616 0.00027724 -0.000183238 0.000120681 -0.000101687 0.00035453 0.000492038 0.000544896 0.000211342 -7.53277e-05 0.000639203 -7.50414e-05
internal_weight=0 695 5086 5034 663 724 4310 1962 1918 212 689 451 599 373 426 90 1871 337 122 1402 78 262 2348 302 164 215 75 160 173 114 130 142 128 85 925 120 964 92 78 80 76 1384 90 921
internal_count=5781 695 5086 5034 663 724 4310 1962 1918 212 689 451 599 373 426 90 1871 337 122 1402 78 262 2348 302 164 215 75 160 173 114 130 142 128 85 925 120 964 92 78 80 76 1384 90 921
is_linear=0
shrinkage=0.2


Tree=23
num_leaves=45
num_cat=0
split_feature=15 56 12 18 21 56 31 0 27 21 2 21 56 68 2 12 15 2 27 2 15 0 2 2 2 2 21 18 53 2 15 2 2 2 0 2 2 2 0 2 2 2 2 2
split_gain=0.00624575 0.00313194 0.00228482 0.000908884 0.000425999 0.000252548 0.000196112 0.000102144 9.60272e-05 9.1677e-05 7.18674e-05 6.65513e-05 5.46556e-05 4.62251e-05 3.18268e-05 2.85118e-05 3.38044e-05 2.8042e-05 1.48995e-05 1.23108e-05 8.98695e-06 5.90651e-06 5.65219e-06 3.80383e-06 3.60993e-06 2.98176e-06 2.83908e-06 2.12706e-06 1.60041e-06 1.45004e-06 1.21504e-06 9.902e-07 3.27554e-07 2.42169e-07 1.26067e-07 7.0673e-08 6.92589e-08 5.33712e-08 2.36614e-08 9.76502e-09 3.61156e-09 2.55815e-09 1.89112e-10 1.37379e-10
threshold=7200.0035960485611 6467.4361704182638 7200.0000077277282 8999.9898638481081 9163.3564453125018 10957.521756204558 5951.6357421875009 40.500000000000007 11335.930175781252 9501.2363281250018 36043.117559523816 5869.7092285156259 10371.293071175791 6175.2298869117267 34511.948811349699 7200.0038775691737 8978.7960723177257 13224.860040921163 8060.1623535156259 32452.533906470027 10798.081972403003 40.500000000000007 13239.588220626758 21569.938549701928 13278.568667948182 18986.657360012414 11539.967773437502 10306.606805158308 7055.9851067683076 31034.012996921785 8784.6002041436604 20571.335320914044 19113.860946745564 21270.320330015249 22.000000000000004 21865.370585190871 35114.29934383458 12654.537653336456 31.000000000000004 35452.085957870695 13181.682081114393 32311.625000000004 34828.721855590069 13117.053843090451
decision_type=2 2 2 2 2 2 2 2 2 2 2 2 2 2 2 2 2 2 2 2 2 2 2 2 2 2 2 2 2 2 2 2 2 2 2 2 2 2 2 2 2 2 2 2
left_child=1 6 -2 4 13 10 11 24 20 -6 12 17 19 32 -14 -15 18 37 21 26 29 -17 -19 31 40 -18 34 39 33 -7 -20 -9 -4 -23 -5 -30 -16 -1 -29 42 43 -10 -21 -8
right_child=2 -3 3 5 9 8 7 23 41 -11 -12 -13 14 15 36 16 25 22 30 27 -22 28 -24 -25 -26 -27 -28 38 35 -31 -32 -33 -34 -35 -36 -37 -38 -39 -40 -41 -42 -43 -44 -45
