tree
version=v3
num_class=1
num_tree_per_iteration=1
label_index=0
max_feature_idx=0
objective=regression
feature_names=Column_0
feature_infos=[5:56]
tree_sizes=663 658 658 661 660 657 660 666 667 669 673 676 674 681 680 681 684 683 686 689 691 694 694 696 692 695 696 696 697 694 698 697 696 697 697 698 698 697 697 695 697 697 697 697 697 696 697 696 698 696 696 698 697 697 698 697 696 695 697 698 697 695 696 695 696 697 694 697 696 698 698 696 698 698 698 696 698 697 696 696 692 693 696 693 698 693 695 697 693 698 695 695

Tree=0
num_leaves=6
num_cat=0
split_feature=0 0 0 0 0
split_gain=101.514 38.2448 19.7456 12.359 0.330175
threshold=14.000000000000002 40.500000000000007 9.0000000000000018 22.000000000000004 31.000000000000004
decision_type=2 2 2 2 2
left_child=2 3 -1 -2 -5
right_child=1 -3 -4 4 -6
leaf_value=0.05476315373459284 0.03336119481181412 -0.0063699563103073271 -0.01793288900578931 0.084374074582187347 0.075789461516155773
leaf_weight=155 321 405 4177 398 326
leaf_count=155 321 405 4177 398 326
internal_value=-4.61731e-09 0.0458051 -0.0153318 0.066026 0.0805086
internal_weight=0 1450 4332 1045 724
internal_count=5782 1450 4332 1045 724
is_linear=0
shrinkage=1


Tree=1
num_leaves=6
num_cat=0
split_feature=0 0 0 0 0
split_gain=64.9688 24.4767 12.6372 7.90976 0.211312
threshold=14.000000000000002 40.500000000000007 9.0000000000000018 22.000000000000004 31.000000000000004
decision_type=2 2 2 2 2
left_child=2 3 -1 -2 -5
right_child=1 -3 -4 4 -6
leaf_value=0.043810526256359394 0.026688960160932435 -0.0050959606468677521 -0.014346306215501701 0.067499262806444651 0.06063157527820362
leaf_weight=155 321 405 4177 398 326
leaf_count=155 321 405 4177 398 326
internal_value=0 0.0366441 -0.0122654 0.0528208 0.0644069
internal_weight=0 1450 4332 1045 724
internal_count=5782 1450 4332 1045 724
is_linear=0
shrinkage=0.2


Tree=2
num_leaves=6
num_cat=0
split_feature=0 0 0 0 0
split_gain=41.58 15.6651 8.08778 5.06225 0.135239
threshold=14.000000000000002 40.500000000000007 9.0000000000000018 22.000000000000004 31.000000000000004
decision_type=2 2 2 2 2
left_child=2 3 -1 -2 -5
right_child=1 -3 -4 4 -6
leaf_value=0.035048421549220242 0.021351170941398153 -0.0040767688658318408 -0.011477042797142192 0.053999409858305848 0.048505257577221114
leaf_weight=155 321 405 4177 398 326
leaf_count=155 321 405 4177 398 326
internal_value=0 0.0293153 -0.00981235 0.0422567 0.0515255
internal_weight=0 1450 4332 1045 724
internal_count=5782 1450 4332 1045 724
is_linear=0
shrinkage=0.2


Tree=3
num_leaves=6
num_cat=0
split_feature=0 0 0 0 0
split_gain=26.6112 10.0256 5.17618 3.23984 0.0865531
threshold=14.000000000000002 40.500000000000007 9.0000000000000018 22.000000000000004 31.000000000000004
decision_type=2 2 2 2 2
left_child=2 3 -1 -2 -5
right_child=1 -3 -4 4 -6
leaf_value=0.02803873857303012 0.017080931198374134 -0.0032614188926455416 -0.0091816358393566992 0.043199526601419527 0.038804209895112032
leaf_weight=155 321 405 4177 398 326
leaf_count=155 321 405 4177 398 326
internal_value=0 0.0234522 -0.00784988 0.0338053 0.0412204
internal_weight=0 1450 4332 1045 724
internal_count=5782 1450 4332 1045 724
is_linear=0
shrinkage=0.2


Tree=4
num_leaves=6
num_cat=0
split_feature=0 0 0 0 0
split_gain=17.0312 6.41641 3.31275 2.0735 0.055394
threshold=14.000000000000002 40.500000000000007 9.0000000000000018 22.000000000000004 31.000000000000004
decision_type=2 2 2 2 2
left_child=2 3 -1 -2 -5
right_child=1 -3 -4 4 -6
leaf_value=0.022430990975229971 0.013664748141327379 -0.0026091325929227436 -0.0073453102461941968 0.034559622785514083 0.031043368239852778
leaf_weight=155 321 405 4177 398 326
leaf_count=155 321 405 4177 398 326
internal_value=0 0.0187618 -0.00627991 0.0270443 0.0329763
internal_weight=0 1450 4332 1045 724
internal_count=5782 1450 4332 1045 724
is_linear=0
shrinkage=0.2


Tree=5
num_leaves=6
num_cat=0
split_feature=0 0 0 0 0
split_gain=10.9 4.1065 2.12016 1.32704 0.0354522
threshold=14.000000000000002 40.500000000000007 9.0000000000000018 22.000000000000004 31.000000000000004
decision_type=2 2 2 2 2
left_child=2 3 -1 -2 -5
right_child=1 -3 -4 4 -6
leaf_value=0.017944794592838136 0.010931797532184845 -0.0020873047372349253 -0.005876247432222914 0.027647699152667023 0.024834692904702818
leaf_weight=155 321 405 4177 398 326
leaf_count=155 321 405 4177 398 326
internal_value=0 0.0150094 -0.00502392 0.0216354 0.0263811
internal_weight=0 1450 4332 1045 724
internal_count=5782 1450 4332 1045 724
is_linear=0
shrinkage=0.2


Tree=6
num_leaves=6
num_cat=0
split_feature=0 0 0 0 0
split_gain=6.97597 2.62816 1.3569 0.849304 0.0226894
threshold=14.000000000000002 40.500000000000007 9.0000000000000018 22.000000000000004 31.000000000000004
decision_type=2 2 2 2 2
left_child=2 3 -1 -2 -5
right_child=1 -3 -4 4 -6
leaf_value=0.014355833610940364 0.008745436333235922 -0.0016698425309696627 -0.0047009957118505233 0.0221181582303802 0.019867752001055183
leaf_weight=155 321 405 4177 398 326
leaf_count=155 321 405 4177 398 326
internal_value=0 0.0120075 -0.00401914 0.0173083 0.0211049
internal_weight=0 1450 4332 1045 724
internal_count=5782 1450 4332 1045 724
is_linear=0
shrinkage=0.2


Tree=7
num_leaves=6
num_cat=0
split_feature=0 0 0 0 0
split_gain=4.46462 1.68202 0.868418 0.543555 0.0145212
threshold=14.000000000000002 40.500000000000007 9.0000000000000018 22.000000000000004 31.000000000000004
decision_type=2 2 2 2 2
left_child=2 3 -1 -2 -5
right_child=1 -3 -4 4 -6
leaf_value=0.011484663308628145 0.0069963498754757594 -0.0013358798153399502 -0.0037608007108056885 0.017694526984258063 0.015894204374842711
leaf_weight=155 321 405 4177 398 326
leaf_count=155 321 405 4177 398 326
internal_value=0 0.00960602 -0.00321531 0.0138467 0.0168839
internal_weight=0 1450 4332 1045 724
internal_count=5782 1450 4332 1045 724
is_linear=0
shrinkage=0.2


Tree=8
num_leaves=6
num_cat=0
split_feature=0 0 0 0 0
split_gain=2.85736 1.07649 0.555788 0.347875 0.0092936
threshold=14.000000000000002 40.500000000000007 9.0000000000000018 22.000000000000004 31.000000000000004
decision_type=2 2 2 2 2
left_child=2 3 -1 -2 -5
right_child=1 -3 -4 4 -6
leaf_value=0.0091877320562038702 0.0055970778249238981 -0.0010686967226412193 -0.0030086417641220467 0.014155619613938596 0.012715359861202584
leaf_weight=155 321 405 4177 398 326
leaf_count=155 321 405 4177 398 326
internal_value=0 0.00768482 -0.00257225 0.0110773 0.0135071
internal_weight=0 1450 4332 1045 724
internal_count=5782 1450 4332 1045 724
is_linear=0
shrinkage=0.2


Tree=9
num_leaves=6
num_cat=0
split_feature=0 0 0 0 0
split_gain=1.82871 0.688956 0.355704 0.22264 0.00594794
threshold=14.000000000000002 40.500000000000007 9.0000000000000018 22.000000000000004 31.000000000000004
decision_type=2 2 2 2 2
left_child=2 3 -1 -2 -5
right_child=1 -3 -4 4 -6
leaf_value=0.0073501885033422911 0.0044776680998248842 -0.00085495528247621323 -0.0024069088274196052 0.011324499710345987 0.010172288151789298
leaf_weight=155 321 405 4177 398 326
leaf_count=155 321 405 4177 398 326
internal_value=0 0.00614786 -0.0020578 0.00886186 0.0108057
internal_weight=0 1450 4332 1045 724
internal_count=5782 1450 4332 1045 724
is_linear=0
shrinkage=0.2


Tree=10
num_leaves=6
num_cat=0
split_feature=0 0 0 0 0
split_gain=1.17037 0.440933 0.227651 0.14249 0.00380668
threshold=14.000000000000002 40.500000000000007 9.0000000000000018 22.000000000000004 31.000000000000004
decision_type=2 2 2 2 2
left_child=2 3 -1 -2 -5
right_child=1 -3 -4 4 -6
leaf_value=0.0058801497909570892 0.0035821309191322774 -0.00068397107442128068 -0.0019255297141439942 0.0090596014905215509 0.008137832198040618
leaf_weight=155 321 405 4177 398 326
leaf_count=155 321 405 4177 398 326
internal_value=0 0.00491828 -0.00164624 0.00708949 0.00864455
internal_weight=0 1450 4332 1045 724
internal_count=5782 1450 4332 1045 724
is_linear=0
shrinkage=0.2


Tree=11
num_leaves=6
num_cat=0
split_feature=0 0 0 0 0
split_gain=0.749039 0.282197 0.145696 0.0911933 0.00243624
threshold=14.000000000000002 40.500000000000007 9.0000000000000018 22.000000000000004 31.000000000000004
decision_type=2 2 2 2 2
left_child=2 3 -1 -2 -5
right_child=1 -3 -4 4 -6
leaf_value=0.004704119090569176 0.0028657052375817226 -0.00054717532336068014 -0.0015404217365905305 0.0072476771697589206 0.0065102665662262714
leaf_weight=155 321 405 4177 398 326
leaf_count=155 321 405 4177 398 326
internal_value=0 0.00393463 -0.00131699 0.00567159 0.00691564
internal_weight=0 1450 4332 1045 724
internal_count=5782 1450 4332 1045 724
is_linear=0
shrinkage=0.2


Tree=12
num_leaves=6
num_cat=0
split_feature=0 0 0 0 0
split_gain=0.479385 0.180606 0.0932456 0.0583637 0.00155919
threshold=14.000000000000002 40.500000000000007 9.0000000000000018 22.000000000000004 31.000000000000004
decision_type=2 2 2 2 2
left_child=2 3 -1 -2 -5
right_child=1 -3 -4 4 -6
leaf_value=0.0037632944416855618 0.0022925653608045849 -0.000437738717717613 -0.0012323372043055627 0.0057981417476358696 0.005208214765208905
leaf_weight=155 321 405 4177 398 326
leaf_count=155 321 405 4177 398 326
internal_value=0 0.0031477 -0.00105359 0.00453727 0.00553251
internal_weight=0 1450 4332 1045 724
internal_count=5782 1450 4332 1045 724
is_linear=0
shrinkage=0.2


Tree=13
num_leaves=6
num_cat=0
split_feature=0 0 0 0 0
split_gain=0.306807 0.115588 0.0596773 0.0373527 0.000997896
threshold=14.000000000000002 40.500000000000007 9.0000000000000018 22.000000000000004 31.000000000000004
decision_type=2 2 2 2 2
left_child=2 3 -1 -2 -5
right_child=1 -3 -4 4 -6
leaf_value=0.0030106375594773603 0.0018340540202653668 -0.00035019123811780674 -0.00098587046345030983 0.0046385141611380047 0.0041665688928422392
leaf_weight=155 321 405 4177 398 326
leaf_count=155 321 405 4177 398 326
internal_value=0 0.00251816 -0.000842874 0.00362982 0.00442601
internal_weight=0 1450 4332 1045 724
internal_count=5782 1450 4332 1045 724
is_linear=0
shrinkage=0.2


Tree=14
num_leaves=6
num_cat=0
split_feature=0 0 0 0 0
split_gain=0.196356 0.073976 0.0381935 0.0239058 0.000638657
threshold=14.000000000000002 40.500000000000007 9.0000000000000018 22.000000000000004 31.000000000000004
decision_type=2 2 2 2 2
left_child=2 3 -1 -2 -5
right_child=1 -3 -4 4 -6
leaf_value=0.0024085093806347543 0.0014672387147618233 -0.00028015131199801414 -0.0007886979804745068 0.0037108118945367672 0.0033332548109940227
leaf_weight=155 321 405 4177 398 326
leaf_count=155 321 405 4177 398 326
internal_value=0 0.00201453 -0.000674301 0.00290385 0.00354081
internal_weight=0 1450 4332 1045 724
internal_count=5782 1450 4332 1045 724
is_linear=0
shrinkage=0.2


Tree=15
num_leaves=6
num_cat=0
split_feature=0 0 0 0 0
split_gain=0.125668 0.0473447 0.0244439 0.0152997 0.000408741
threshold=14.000000000000002 40.500000000000007 9.0000000000000018 22.000000000000004 31.000000000000004
decision_type=2 2 2 2 2
left_child=2 3 -1 -2 -5
right_child=1 -3 -4 4 -6
leaf_value=0.0019268083884831399 0.0011737920346777202 -0.00022412240111418526 -0.00063095855954048994 0.0029686498970504685 0.002666603914387753
leaf_weight=155 321 405 4177 398 326
leaf_count=155 321 405 4177 398 326
internal_value=0 0.00161162 -0.000539441 0.00232308 0.00283265
internal_weight=0 1450 4332 1045 724
internal_count=5782 1450 4332 1045 724
is_linear=0
shrinkage=0.2


Tree=16
num_leaves=6
num_cat=0
split_feature=0 0 0 0 0
split_gain=0.0804276 0.0303006 0.0156441 0.00979179 0.000261587
threshold=14.000000000000002 40.500000000000007 9.0000000000000018 22.000000000000004 31.000000000000004
decision_type=2 2 2 2 2
left_child=2 3 -1 -2 -5
right_child=1 -3 -4 4 -6
leaf_value=0.0015414475829851242 0.00093903676127997523 -0.00017929710015901769 -0.00050476609814179864 0.0023749193410627805 0.0021332859284490164
leaf_weight=155 321 405 4177 398 326
leaf_count=155 321 405 4177 398 326
internal_value=0 0.0012893 -0.000431552 0.00185847 0.00226612
internal_weight=0 1450 4332 1045 724
internal_count=5782 1450 4332 1045 724
is_linear=0
shrinkage=0.2


Tree=17
num_leaves=6
num_cat=0
split_feature=0 0 0 0 0
split_gain=0.0514736 0.0193924 0.0100121 0.00626677 0.000167418
threshold=14.000000000000002 40.500000000000007 9.0000000000000018 22.000000000000004 31.000000000000004
decision_type=2 2 2 2 2
left_child=2 3 -1 -2 -5
right_child=1 -3 -4 4 -6
leaf_value=0.0012331548645611733 0.00075122848895851327 -0.00014343874954063745 -0.00040381109992589337 0.0018999369555251233 0.001706628876943941
leaf_weight=155 321 405 4177 398 326
leaf_count=155 321 405 4177 398 326
internal_value=0 0.00103144 -0.00034524 0.00148678 0.00181289
internal_weight=0 1450 4332 1045 724
internal_count=5782 1450 4332 1045 724
is_linear=0
shrinkage=0.2


Tree=18
num_leaves=6
num_cat=0
split_feature=0 0 0 0 0
split_gain=0.0329431 0.0124112 0.00640781 0.00401072 0.000107152
threshold=14.000000000000002 40.500000000000007 9.0000000000000018 22.000000000000004 31.000000000000004
decision_type=2 2 2 2 2
left_child=2 3 -1 -2 -5
right_child=1 -3 -4 4 -6
leaf_value=0.00098652684880841173 0.00060098303461627244 -0.0001147534765869402 -0.00032305033582732929 0.0015199495454894464 0.0013653000334614854
leaf_weight=155 321 405 4177 398 326
leaf_count=155 321 405 4177 398 326
internal_value=0 0.00082515 -0.000276193 0.00118942 0.00145031
internal_weight=0 1450 4332 1045 724
internal_count=5782 1450 4332 1045 724
is_linear=0
shrinkage=0.2


Tree=19
num_leaves=6
num_cat=0
split_feature=0 0 0 0 0
split_gain=0.0210835 0.00794312 0.00410097 0.0025669 6.85775e-05
threshold=14.000000000000002 40.500000000000007 9.0000000000000018 22.000000000000004 31.000000000000004
decision_type=2 2 2 2 2
left_child=2 3 -1 -2 -5
right_child=1 -3 -4 4 -6
leaf_value=0.00078921922512592807 0.00048078270367929871 -9.1800324929257229e-05 -0.00025843912916182616 0.0012159610438878981 0.0010922411296722348
leaf_weight=155 321 405 4177 398 326
leaf_count=155 321 405 4177 398 326
internal_value=0 0.000660121 -0.000220954 0.000951535 0.00116025
internal_weight=0 1450 4332 1045 724
internal_count=5782 1450 4332 1045 724
is_linear=0
shrinkage=0.2


Tree=20
num_leaves=6
num_cat=0
split_feature=0 0 0 0 0
split_gain=0.0134935 0.00508357 0.00262461 0.00164279 4.38883e-05
threshold=14.000000000000002 40.500000000000007 9.0000000000000018 22.000000000000004 31.000000000000004
decision_type=2 2 2 2 2
left_child=2 3 -1 -2 -5
right_child=1 -3 -4 4 -6
leaf_value=0.00063137277480094676 0.00038462718832669231 -7.3439250455847318e-05 -0.00020675156158474263 0.00097276605460933172 0.00087379153840746624
leaf_weight=155 321 405 4177 398 326
leaf_count=155 321 405 4177 398 326
internal_value=0 0.000528096 -0.000176763 0.000761227 0.0009282
internal_weight=0 1450 4332 1045 724
internal_count=5782 1450 4332 1045 724
is_linear=0
shrinkage=0.2


Tree=21
num_leaves=6
num_cat=0
split_feature=0 0 0 0 0
split_gain=0.00863598 0.00325351 0.00167978 0.00105138 2.80878e-05
threshold=14.000000000000002 40.500000000000007 9.0000000000000018 22.000000000000004 31.000000000000004
decision_type=2 2 2 2 2
left_child=2 3 -1 -2 -5
right_child=1 -3 -4 4 -6
leaf_value=0.00050509972918418142 0.00030770501153793106 -5.8751277306496546e-05 -0.00016540478922110984 0.00077821461123475178 0.00069903606274650872
leaf_weight=155 321 405 4177 398 326
leaf_count=155 321 405 4177 398 326
internal_value=0 0.000422479 -0.000141414 0.000608984 0.000742562
internal_weight=0 1450 4332 1045 724
internal_count=5782 1450 4332 1045 724
is_linear=0
shrinkage=0.2


Tree=22
num_leaves=6
num_cat=0
split_feature=0 0 0 0 0
split_gain=0.00552695 0.00208223 0.00107505 0.000672887 1.7976e-05
threshold=14.000000000000002 40.500000000000007 9.0000000000000018 22.000000000000004 31.000000000000004
decision_type=2 2 2 2 2
left_child=2 3 -1 -2 -5
right_child=1 -3 -4 4 -6
leaf_value=0.00040408185172465536 0.00024616258694700361 -4.7000534717499476e-05 -0.00013232135448247188 0.00062257065110133227 0.00055922818930099723
leaf_weight=155 321 405 4177 398 326
leaf_count=155 321 405 4177 398 326
internal_value=0 0.000337982 -0.000113129 0.000487186 0.000594049
internal_weight=0 1450 4332 1045 724
internal_count=5782 1450 4332 1045 724
is_linear=0
shrinkage=0.2


Tree=23
num_leaves=6
num_cat=0
split_feature=0 0 0 0 0
split_gain=0.00353723 0.00133264 0.000688032 0.000430645 1.15047e-05
threshold=14.000000000000002 40.500000000000007 9.0000000000000018 22.000000000000004 31.000000000000004
decision_type=2 2 2 2 2
left_child=2 3 -1 -2 -5
right_child=1 -3 -4 4 -6
leaf_value=0.00032326479352289635 0.00019693023944418656 -3.7602412221194418e-05 -0.00010585685407527475 0.00049805585903363607 0.00044738177175810735
leaf_weight=155 321 405 4177 398 326
leaf_count=155 321 405 4177 398 326
internal_value=0 0.000270385 -9.05028e-05 0.000389749 0.000475239
internal_weight=0 1450 4332 1045 724
internal_count=5782 1450 4332 1045 724
is_linear=0
shrinkage=0.2


Tree=24
num_leaves=6
num_cat=0
split_feature=0 0 0 0 0
split_gain=0.00226383 0.00085291 0.000440344 0.000275606 7.36251e-06
threshold=14.000000000000002 40.500000000000007 9.0000000000000018 22.000000000000004 31.000000000000004
decision_type=2 2 2 2 2
left_child=2 3 -1 -2 -5
right_child=1 -3 -4 4 -6
leaf_value=0.00025861334416174119 0.00015754772138395972 -3.0084527701277429e-05 -8.4685285365878327e-05 0.00039844471661739018 0.0003579067660529921
leaf_weight=155 321 405 4177 398 326
leaf_count=155 321 405 4177 398 326
internal_value=0 0.000216308 -7.2402e-05 0.0003118 0.000380191
internal_weight=0 1450 4332 1045 724
internal_count=5782 1450 4332 1045 724
is_linear=0
shrinkage=0.2


Tree=25
num_leaves=6
num_cat=0
split_feature=0 0 0 0 0
split_gain=0.00144887 0.000545829 0.000281816 0.000176396 4.712e-06
threshold=14.000000000000002 40.500000000000007 9.0000000000000018 22.000000000000004 31.000000000000004
decision_type=2 2 2 2 2
left_child=2 3 -1 -2 -5
right_child=1 -3 -4 4 -6
leaf_value=0.00020688637610404722 0.00012603229487668781 -2.4062230763382017e-05 -6.7750393482795141e-05 0.00031875397064652877 0.00028632362230332351
leaf_weight=155 321 405 4177 398 326
leaf_count=155 321 405 4177 398 326
internal_value=0 0.000173046 -5.79238e-05 0.000249437 0.000304151
internal_weight=0 1450 4332 1045 724
internal_count=5782 1450 4332 1045 724
is_linear=0
shrinkage=0.2


Tree=26
num_leaves=6
num_cat=0
split_feature=0 0 0 0 0
split_gain=0.00092729 0.000349333 0.000180371 0.00011289 3.01585e-06
threshold=14.000000000000002 40.500000000000007 9.0000000000000018 22.000000000000004 31.000000000000004
decision_type=2 2 2 2 2
left_child=2 3 -1 -2 -5
right_child=1 -3 -4 4 -6
leaf_value=0.00016551452298318187 0.00010082871447146126 -1.9248922579680328e-05 -5.4200583217616064e-05 0.00025500445228874988 0.00022905944658020523
leaf_weight=155 321 405 4177 398 326
leaf_count=155 321 405 4177 398 326
internal_value=0 0.000138438 -4.63391e-05 0.000199551 0.000243322
internal_weight=0 1450 4332 1045 724
internal_count=5782 1450 4332 1045 724
is_linear=0
shrinkage=0.2


Tree=27
num_leaves=6
num_cat=0
split_feature=0 0 0 0 0
split_gain=0.000593448 0.000223584 0.000115433 7.22523e-05 1.93037e-06
threshold=14.000000000000002 40.500000000000007 9.0000000000000018 22.000000000000004 31.000000000000004
decision_type=2 2 2 2 2
left_child=2 3 -1 -2 -5
right_child=1 -3 -4 4 -6
leaf_value=0.0001324087477499439 8.0661250806393278e-05 -1.540382274851939e-05 -4.3359642006904564e-05 0.00020400440348452661 0.00018324718004995329
leaf_weight=155 321 405 4177 398 326
leaf_count=155 321 405 4177 398 326
internal_value=0 0.000110749 -3.70706e-05 0.000159641 0.000194658
internal_weight=0 1450 4332 1045 724
internal_count=5782 1450 4332 1045 724
is_linear=0
shrinkage=0.2


Tree=28
num_leaves=6
num_cat=0
split_feature=0 0 0 0 0
split_gain=0.000379786 0.000143095 7.38772e-05 4.62433e-05 1.23576e-06
threshold=14.000000000000002 40.500000000000007 9.0000000000000018 22.000000000000004 31.000000000000004
decision_type=2 2 2 2 2
left_child=2 3 -1 -2 -5
right_child=1 -3 -4 4 -6
leaf_value=0.00010592935546751946 6.4527010762733289e-05 -1.232456252047861e-05 -3.4685511394411231e-05 0.00016320429405375342 0.00014659635196982718
leaf_weight=155 321 405 4177 398 326
leaf_count=155 321 405 4177 398 326
internal_value=0 8.85982e-05 -2.96543e-05 0.000127712 0.000155726
internal_weight=0 1450 4332 1045 724
internal_count=5782 1450 4332 1045 724
is_linear=0
shrinkage=0.2


Tree=29
num_leaves=6
num_cat=0
split_feature=0 0 0 0 0
split_gain=0.000243063 9.15731e-05 4.72776e-05 2.9594e-05 7.9102e-07
threshold=14.000000000000002 40.500000000000007 9.0000000000000018 22.000000000000004 31.000000000000004
decision_type=2 2 2 2 2
left_child=2 3 -1 -2 -5
right_child=1 -3 -4 4 -6
leaf_value=8.474026956865866e-05 5.1622709978917313e-05 -9.8551576669661356e-06 -2.7747167399661922e-05 0.00013056295273366884 0.00011727547135912569
leaf_weight=155 321 405 4177 398 326
leaf_count=155 321 405 4177 398 326
internal_value=0 7.08796e-05 -2.37223e-05 0.000102169 0.00012458
internal_weight=0 1450 4332 1045 724
internal_count=5782 1450 4332 1045 724
is_linear=0
shrinkage=0.2


Tree=30
num_leaves=6
num_cat=0
split_feature=0 0 0 0 0
split_gain=0.000155563 5.86156e-05 3.02581e-05 1.89419e-05 5.06059e-07
threshold=14.000000000000002 40.500000000000007 9.0000000000000018 22.000000000000004 31.000000000000004
decision_type=2 2 2 2 2
left_child=2 3 -1 -2 -5
right_child=1 -3 -4 4 -6
leaf_value=6.7792248822027643e-05 4.1298322398447643e-05 -7.8888230577663148e-06 -2.2198378224606318e-05 0.00010445230504750608 9.3824358119920723e-05
leaf_weight=155 321 405 4177 398 326
leaf_count=155 321 405 4177 398 326
internal_value=0 5.67038e-05 -1.89785e-05 8.17373e-05 9.96668e-05
internal_weight=0 1450 4332 1045 724
internal_count=5782 1450 4332 1045 724
is_linear=0
shrinkage=0.2


Tree=31
num_leaves=6
num_cat=0
split_feature=0 0 0 0 0
split_gain=9.95649e-05 3.75083e-05 1.93648e-05 1.21214e-05 3.23533e-07
threshold=14.000000000000002 40.500000000000007 9.0000000000000018 22.000000000000004 31.000000000000004
decision_type=2 2 2 2 2
left_child=2 3 -1 -2 -5
right_child=1 -3 -4 4 -6
leaf_value=5.4233759160964717e-05 3.3040981010078363e-05 -6.3051668823593191e-06 -1.775802166404295e-05 8.3559468837838687e-05 7.5061631851766741e-05
leaf_weight=155 321 405 4177 398 326
leaf_count=155 321 405 4177 398 326
internal_value=0 4.53651e-05 -1.51821e-05 6.53903e-05 7.97331e-05
internal_weight=0 1450 4332 1045 724
internal_count=5782 1450 4332 1045 724
is_linear=0
shrinkage=0.2


Tree=32
num_leaves=6
num_cat=0
split_feature=0 0 0 0 0
split_gain=6.37206e-05 2.40095e-05 1.2396e-05 7.75608e-06 2.07073e-07
threshold=14.000000000000002 40.500000000000007 9.0000000000000018 22.000000000000004 31.000000000000004
decision_type=2 2 2 2 2
left_child=2 3 -1 -2 -5
right_child=1 -3 -4 4 -6
leaf_value=4.3390583126775683e-05 2.6434434271733806e-05 -5.050227707136929e-06 -1.4208744687842272e-05 6.6845357212139738e-05 6.0046895012899413e-05
leaf_weight=155 321 405 4177 398 326
leaf_count=155 321 405 4177 398 326
internal_value=0 3.62896e-05 -1.21478e-05 5.23112e-05 6.37842e-05
internal_weight=0 1450 4332 1045 724
internal_count=5782 1450 4332 1045 724
is_linear=0
shrinkage=0.2


Tree=33
num_leaves=6
num_cat=0
split_feature=0 0 0 0 0
split_gain=4.07837e-05 1.5363e-05 7.93315e-06 4.96401e-06 1.32838e-07
threshold=14.000000000000002 40.500000000000007 9.0000000000000018 22.000000000000004 31.000000000000004
decision_type=2 2 2 2 2
left_child=2 3 -1 -2 -5
right_child=1 -3 -4 4 -6
leaf_value=3.4712187705501433e-05 2.1147799520025095e-05 -4.0350525846911802e-06 -1.1366375659338047e-05 5.3479773315353018e-05 4.8034611883704648e-05
leaf_weight=155 321 405 4177 398 326
leaf_count=155 321 405 4177 398 326
internal_value=0 2.90334e-05 -9.71767e-06 4.18495e-05 5.10279e-05
internal_weight=0 1450 4332 1045 724
internal_count=5782 1450 4332 1045 724
is_linear=0
shrinkage=0.2


Tree=34
num_leaves=6
num_cat=0
split_feature=0 0 0 0 0
split_gain=2.61031e-05 9.83165e-06 5.07692e-06 3.17812e-06 8.48663e-08
threshold=14.000000000000002 40.500000000000007 9.0000000000000018 22.000000000000004 31.000000000000004
decision_type=2 2 2 2 2
left_child=2 3 -1 -2 -5
right_child=1 -3 -4 4 -6
leaf_value=2.7767967793249315e-05 1.6915027633878021e-05 -3.2270151006494781e-06 -9.0938236725824092e-06 4.2783219517026118e-05 3.8430943193794033e-05
leaf_weight=155 321 405 4177 398 326
leaf_count=155 321 405 4177 398 326
internal_value=0 2.32269e-05 -7.7749e-06 3.34794e-05 4.08235e-05
internal_weight=0 1450 4332 1045 724
internal_count=5782 1450 4332 1045 724
is_linear=0
shrinkage=0.2


Tree=35
num_leaves=6
num_cat=0
split_feature=0 0 0 0 0
split_gain=1.67013e-05 6.29249e-06 3.24846e-06 2.03406e-06 5.42997e-08
threshold=14.000000000000002 40.500000000000007 9.0000000000000018 22.000000000000004 31.000000000000004
decision_type=2 2 2 2 2
left_child=2 3 -1 -2 -5
right_child=1 -3 -4 4 -6
leaf_value=2.2212593786178098e-05 1.3530114919492668e-05 -2.5838718715089339e-06 -7.2733220181198021e-06 3.4224721673295731e-05 3.0743372426625408e-05
leaf_weight=155 321 405 4177 398 326
leaf_count=155 321 405 4177 398 326
internal_value=0 1.85796e-05 -6.21831e-06 2.67818e-05 3.26572e-05
internal_weight=0 1450 4332 1045 724
internal_count=5782 1450 4332 1045 724
is_linear=0
shrinkage=0.2


Tree=36
num_leaves=6
num_cat=0
split_feature=0 0 0 0 0
split_gain=1.06882e-05 4.02909e-06 2.07915e-06 1.30143e-06 3.48654e-08
threshold=14.000000000000002 40.500000000000007 9.0000000000000018 22.000000000000004 31.000000000000004
decision_type=2 2 2 2 2
left_child=2 3 -1 -2 -5
right_child=1 -3 -4 4 -6
leaf_value=1.7771151277326769e-05 1.0826812246147069e-05 -2.0713922797621766e-06 -5.8183910292616752e-06 2.7382402825894667e-05 2.4592774731615569e-05
leaf_weight=155 321 405 4177 398 326
leaf_count=155 321 405 4177 398 326
internal_value=0 1.48634e-05 -4.97435e-06 2.14266e-05 2.61263e-05
internal_weight=0 1450 4332 1045 724
internal_count=5782 1450 4332 1045 724
is_linear=0
shrinkage=0.2


Tree=37
num_leaves=6
num_cat=0
split_feature=0 0 0 0 0
split_gain=6.84393e-06 2.57681e-06 1.33093e-06 8.33164e-07 2.22407e-08
threshold=14.000000000000002 40.500000000000007 9.0000000000000018 22.000000000000004 31.000000000000004
decision_type=2 2 2 2 2
left_child=2 3 -1 -2 -5
right_child=1 -3 -4 4 -6
leaf_value=1.4216053870416456e-05 8.6596755693866833e-06 -1.6510469068623622e-06 -4.6575107063892103e-06 2.1904322257892571e-05 1.9676283436136014e-05
leaf_weight=155 321 405 4177 398 326
leaf_count=155 321 405 4177 398 326
internal_value=0 1.1892e-05 -3.98221e-06 1.71408e-05 2.09011e-05
internal_weight=0 1450 4332 1045 724
internal_count=5782 1450 4332 1045 724
is_linear=0
shrinkage=0.2


Tree=38
num_leaves=6
num_cat=0
split_feature=0 0 0 0 0
split_gain=4.38216e-06 1.64955e-06 8.52013e-07 5.33022e-07 1.42081e-08
threshold=14.000000000000002 40.500000000000007 9.0000000000000018 22.000000000000004 31.000000000000004
decision_type=2 2 2 2 2
left_child=2 3 -1 -2 -5
right_child=1 -3 -4 4 -6
leaf_value=1.1373989043697235e-05 6.9317882996621166e-06 -1.3198458624106867e-06 -3.7267849184635127e-06 1.7524910763130715e-05 1.5744101256132128e-05
leaf_weight=155 321 405 4177 398 326
leaf_count=155 321 405 4177 398 326
internal_value=0 9.5159e-06 -3.18648e-06 1.37154e-05 1.67231e-05
internal_weight=0 1450 4332 1045 724
internal_count=5782 1450 4332 1045 724
is_linear=0
shrinkage=0.2


Tree=39
num_leaves=6
num_cat=0
split_feature=0 0 0 0 0
split_gain=2.80265e-06 1.05579e-06 5.45099e-07 3.4144e-07 9.07648e-09
threshold=14.000000000000002 40.500000000000007 9.0000000000000018 22.000000000000004 31.000000000000004
decision_type=2 2 2 2 2
left_child=2 3 -1 -2 -5
right_child=1 -3 -4 4 -6
leaf_value=9.0986994966383906e-06 5.54116125830748e-06 -1.0581720148983562e-06 -2.9798222963022851e-06 1.4018579549975131e-05 1.2595242495002923e-05
leaf_weight=155 321 405 4177 398 326
leaf_count=155 321 405 4177 398 326
internal_value=0 7.61076e-06 -2.54765e-06 1.09705e-05 1.33777e-05
internal_weight=0 1450 4332 1045 724
internal_count=5782 1450 4332 1045 724
is_linear=0
shrinkage=0.2


Tree=40
num_leaves=6
num_cat=0
split_feature=0 0 0 0 0
split_gain=1.79403e-06 6.75565e-07 3.48918e-07 2.18271e-07 5.84442e-09
threshold=14.000000000000002 40.500000000000007 9.0000000000000018 22.000000000000004 31.000000000000004
decision_type=2 2 2 2 2
left_child=2 3 -1 -2 -5
right_child=1 -3 -4 4 -6
leaf_value=7.2803804951329391e-06 4.4365698541296978e-06 -8.4438608430417974e-07 -2.3831993962178995e-06 1.121646813561569e-05 1.0074327122762891e-05
leaf_weight=155 321 405 4177 398 326
leaf_count=155 321 405 4177 398 326
internal_value=0 6.09003e-06 -2.03743e-06 8.77753e-06 1.07022e-05
internal_weight=0 1450 4332 1045 724
internal_count=5782 1450 4332 1045 724
is_linear=0
shrinkage=0.2


Tree=41
num_leaves=6
num_cat=0
split_feature=0 0 0 0 0
split_gain=1.1475e-06 4.32276e-07 2.23243e-07 1.39653e-07 3.73238e-09
threshold=14.000000000000002 40.500000000000007 9.0000000000000018 22.000000000000004 31.000000000000004
decision_type=2 2 2 2 2
left_child=2 3 -1 -2 -5
right_child=1 -3 -4 4 -6
leaf_value=5.8232872716842162e-06 3.5476832392384701e-06 -6.7681844495696789e-07 -1.9064559276834012e-06 8.9704367945242177e-06 8.0577080692250307e-06
leaf_weight=155 321 405 4177 398 326
leaf_count=155 321 405 4177 398 326
internal_value=0 4.87017e-06 -1.62988e-06 7.01996e-06 8.55946e-06
internal_weight=0 1450 4332 1045 724
internal_count=5782 1450 4332 1045 724
is_linear=0
shrinkage=0.2


Tree=42
num_leaves=6
num_cat=0
split_feature=0 0 0 0 0
split_gain=7.34353e-07 2.77335e-07 1.42846e-07 8.94785e-08 2.38677e-09
threshold=14.000000000000002 40.500000000000007 9.0000000000000018 22.000000000000004 31.000000000000004
decision_type=2 2 2 2 2
left_child=2 3 -1 -2 -5
right_child=1 -3 -4 4 -6
leaf_value=4.6581702847634595e-06 2.838678533251969e-06 -5.4690503963717712e-07 -1.5249937373198532e-06 7.1790027221543113e-06 6.4491185765324926e-06
leaf_weight=155 321 405 4177 398 326
leaf_count=155 321 405 4177 398 326
internal_value=0 3.89612e-06 -1.30376e-06 5.61806e-06 6.85035e-06
internal_weight=0 1450 4332 1045 724
internal_count=5782 1450 4332 1045 724
is_linear=0
shrinkage=0.2


Tree=43
num_leaves=6
num_cat=0
split_feature=0 0 0 0 0
split_gain=4.70778e-07 1.77138e-07 9.16587e-08 5.72747e-08 1.51787e-09
threshold=14.000000000000002 40.500000000000007 9.0000000000000018 22.000000000000004 31.000000000000004
decision_type=2 2 2 2 2
left_child=2 3 -1 -2 -5
right_child=1 -3 -4 4 -6
leaf_value=3.7290372194782384e-06 2.2692220703324423e-06 -4.3413187894556259e-07 -1.2239020764613684e-06 5.7408866945223599e-06 5.1588282857570184e-06
leaf_weight=155 321 405 4177 398 326
leaf_count=155 321 405 4177 398 326
internal_value=0 3.11672e-06 -1.04668e-06 4.49289e-06 5.4788e-06
internal_weight=0 1450 4332 1045 724
internal_count=5782 1450 4332 1045 724
is_linear=0
shrinkage=0.2


Tree=44
num_leaves=6
num_cat=0
split_feature=0 0 0 0 0
split_gain=3.00311e-07 1.13168e-07 5.84458e-08 3.66139e-08 9.98463e-10
threshold=14.000000000000002 40.500000000000007 9.0000000000000018 22.000000000000004 31.000000000000004
decision_type=2 2 2 2 2
left_child=2 3 -1 -2 -5
right_child=1 -3 -4 4 -6
leaf_value=2.9816142012996063e-06 1.8153792592432825e-06 -3.4483879758619967e-07 -9.7344350537986656e-07 4.5941393803711511e-06 4.1220599979710728e-06
leaf_weight=155 321 405 4177 398 326
leaf_count=155 321 405 4177 398 326
internal_value=0 2.49334e-06 -8.31931e-07 3.5933e-06 4.38157e-06
internal_weight=0 1450 4332 1045 724
internal_count=5782 1450 4332 1045 724
is_linear=0
shrinkage=0.2


Tree=45
num_leaves=6
num_cat=0
split_feature=0 0 0 0 0
split_gain=1.9249e-07 7.28132e-08 3.74291e-08 2.34283e-08 6.22041e-10
threshold=14.000000000000002 40.500000000000007 9.0000000000000018 22.000000000000004 31.000000000000004
decision_type=2 2 2 2 2
left_child=2 3 -1 -2 -5
right_child=1 -3 -4 4 -6
leaf_value=2.3843107684966055e-06 1.4548458672502888e-06 -2.8184149414300919e-07 -7.8073973208487484e-07 3.6753779604806379e-06 3.3027646731745248e-06
leaf_weight=155 321 405 4177 398 326
leaf_count=155 321 405 4177 398 326
internal_value=0 1.99473e-06 -6.67493e-07 2.87704e-06 3.5076e-06
internal_weight=0 1450 4332 1045 724
internal_count=5782 1450 4332 1045 724
is_linear=0
shrinkage=0.2


Tree=46
num_leaves=6
num_cat=0
split_feature=0 0 0 0 0
split_gain=1.23561e-07 4.63631e-08 2.40061e-08 1.49769e-08 4.05379e-10
threshold=14.000000000000002 40.500000000000007 9.0000000000000018 22.000000000000004 31.000000000000004
decision_type=2 2 2 2 2
left_child=2 3 -1 -2 -5
right_child=1 -3 -4 4 -6
leaf_value=1.9074736102934805e-06 1.1633029512225468e-06 -2.2025606422512619e-07 -6.272877828053719e-07 2.9400061235655496e-06 2.6392047664870518e-06
leaf_weight=155 321 405 4177 398 326
leaf_count=155 321 405 4177 398 326
internal_value=0 1.59636e-06 -5.36593e-07 2.30041e-06 2.80456e-06
internal_weight=0 1450 4332 1045 724
internal_count=5782 1450 4332 1045 724
is_linear=0
shrinkage=0.2


Tree=47
num_leaves=6
num_cat=0
split_feature=0 0 0 0 0
split_gain=7.9011e-08 2.96653e-08 1.53404e-08 9.60325e-09 2.57841e-10
threshold=14.000000000000002 40.500000000000007 9.0000000000000018 22.000000000000004 31.000000000000004
decision_type=2 2 2 2 2
left_child=2 3 -1 -2 -5
right_child=1 -3 -4 4 -6
leaf_value=1.5260038837309806e-06 9.3050995214938011e-07 -1.7524282965395186e-07 -5.0025293101869416e-07 2.352772140173457e-06 2.1128749554873976e-06
leaf_weight=155 321 405 4177 398 326
leaf_count=155 321 405 4177 398 326
internal_value=0 1.27788e-06 -4.27753e-07 1.84105e-06 2.24475e-06
internal_weight=0 1450 4332 1045 724
internal_count=5782 1450 4332 1045 724
is_linear=0
shrinkage=0.2


Tree=48
num_leaves=6
num_cat=0
split_feature=0 0 0 0 0
split_gain=5.03905e-08 1.90625e-08 9.82809e-09 6.16094e-09 1.69765e-10
threshold=14.000000000000002 40.500000000000007 9.0000000000000018 22.000000000000004 31.000000000000004
decision_type=2 2 2 2 2
left_child=2 3 -1 -2 -5
right_child=1 -3 -4 4 -6
leaf_value=1.2227292022397442e-06 7.4316433419087595e-07 -1.4381031908186865e-07 -3.9912102066617229e-07 1.8834782268234236e-06 1.6888197899961763e-06
leaf_weight=155 321 405 4177 398 326
leaf_count=155 321 405 4177 398 326
internal_value=0 1.02103e-06 -3.41091e-07 1.47247e-06 1.79583e-06
internal_weight=0 1450 4332 1045 724
internal_count=5782 1450 4332 1045 724
is_linear=0
shrinkage=0.2


Tree=49
num_leaves=6
num_cat=0
split_feature=0 0 0 0 0
split_gain=3.22474e-08 1.22411e-08 6.29845e-09 3.91422e-09 1.0665e-10
threshold=14.000000000000002 40.500000000000007 9.0000000000000018 22.000000000000004 31.000000000000004
decision_type=2 2 2 2 2
left_child=2 3 -1 -2 -5
right_child=1 -3 -4 4 -6
leaf_value=9.7833333476897211e-07 5.965388011523868e-07 -1.1735141599251901e-07 -3.2001996164490854e-07 1.5050622087028158e-06 1.3507754067701797e-06
leaf_weight=155 321 405 4177 398 326
leaf_count=155 321 405 4177 398 326
internal_value=0 8.16089e-07 -2.73565e-07 1.17785e-06 1.43559e-06
internal_weight=0 1450 4332 1045 724
internal_count=5782 1450 4332 1045 724
is_linear=0
shrinkage=0.2


Tree=50
num_leaves=6
num_cat=0
split_feature=0 0 0 0 0
split_gain=2.06879e-08 7.83181e-09 4.0125e-09 2.50682e-09 6.58362e-11
threshold=14.000000000000002 40.500000000000007 9.0000000000000018 22.000000000000004 31.000000000000004
decision_type=2 2 2 2 2
left_child=2 3 -1 -2 -5
right_child=1 -3 -4 4 -6
leaf_value=7.8028969226344943e-07 4.7799532745625378e-07 -9.2792094765621949e-08 -2.560056594390175e-07 1.2040512645663928e-06 1.0828293311449648e-06
leaf_weight=155 321 405 4177 398 326
leaf_count=155 321 405 4177 398 326
internal_value=0 6.53842e-07 -2.18927e-07 9.43207e-07 1.14947e-06
internal_weight=0 1450 4332 1045 724
internal_count=5782 1450 4332 1045 724
is_linear=0
shrinkage=0.2


Tree=51
num_leaves=6
num_cat=0
split_feature=0 0 0 0 0
split_gain=1.32991e-08 5.02492e-09 2.58215e-09 1.61013e-09 4.23894e-11
threshold=14.000000000000002 40.500000000000007 9.0000000000000018 22.000000000000004 31.000000000000004
decision_type=2 2 2 2 2
left_child=2 3 -1 -2 -5
right_child=1 -3 -4 4 -6
leaf_value=6.2548345135104273e-07 3.8262136785365717e-07 -7.4378180283087276e-08 -2.0583352639910879e-07 9.6456189850466933e-07 8.6729214783826492e-07
leaf_weight=155 321 405 4177 398 326
leaf_count=155 321 405 4177 398 326
internal_value=0 5.23677e-07 -1.76089e-07 7.55459e-07 9.20764e-07
internal_weight=0 1450 4332 1045 724
internal_count=5782 1450 4332 1045 724
is_linear=0
shrinkage=0.2


Tree=52
num_leaves=6
num_cat=0
split_feature=0 0 0 0 0
split_gain=8.39884e-09 3.1593e-09 1.64733e-09 1.02024e-09 2.86124e-11
threshold=14.000000000000002 40.500000000000007 9.0000000000000018 22.000000000000004 31.000000000000004
decision_type=2 2 2 2 2
left_child=2 3 -1 -2 -5
right_child=1 -3 -4 4 -6
leaf_value=5.0149617656584711e-07 3.0435498432485489e-07 -5.6857530625514046e-08 -1.6250114050498271e-07 7.6870756907079689e-07 6.8879303482412569e-07
leaf_weight=155 321 405 4177 398 326
leaf_count=155 321 405 4177 398 326
internal_value=0 4.17354e-07 -1.38743e-07 6.01139e-07 7.32724e-07
internal_weight=0 1450 4332 1045 724
internal_count=5782 1450 4332 1045 724
is_linear=0
shrinkage=0.2


Tree=53
num_leaves=6
num_cat=0
split_feature=0 0 0 0 0
split_gain=5.43183e-09 2.04209e-09 1.05731e-09 6.63146e-10 1.51182e-11
threshold=14.000000000000002 40.500000000000007 9.0000000000000018 22.000000000000004 31.000000000000004
decision_type=2 2 2 2 2
left_child=2 3 -1 -2 -5
right_child=1 -3 -4 4 -6
leaf_value=3.9881996570094941e-07 2.4159323580771962e-07 -4.814679010046853e-08 -1.3313890538034128e-07 6.1310883892241442e-07 5.5501911720615223e-07
leaf_weight=155 321 405 4177 398 326
leaf_count=155 321 405 4177 398 326
internal_value=0 3.33107e-07 -1.14105e-07 4.80866e-07 5.86952e-07
internal_weight=0 1450 4332 1045 724
internal_count=5782 1450 4332 1045 724
is_linear=0
shrinkage=0.2


Tree=54
num_leaves=6
num_cat=0
split_feature=0 0 0 0 0
split_gain=3.48478e-09 1.28547e-09 6.71035e-10 4.27806e-10 1.18804e-11
threshold=14.000000000000002 40.500000000000007 9.0000000000000018 22.000000000000004 31.000000000000004
decision_type=2 2 2 2 2
left_child=2 3 -1 -2 -5
right_child=1 -3 -4 4 -6
leaf_value=3.1909394648767287e-07 1.9372187734717895e-07 -3.3816265195240213e-08 -1.0469403525474171e-07 4.9429828647393082e-07 4.4280331741812774e-07
leaf_weight=155 321 405 4177 398 326
leaf_count=155 321 405 4177 398 326
internal_value=0 2.68672e-07 -8.95308e-08 3.85904e-07 4.71111e-07
internal_weight=0 1450 4332 1045 724
internal_count=5782 1450 4332 1045 724
is_linear=0
shrinkage=0.2


Tree=55
num_leaves=6
num_cat=0
split_feature=0 0 0 0 0
split_gain=2.24253e-09 8.23917e-10 4.34676e-10 2.75983e-10 7.62045e-12
threshold=14.000000000000002 40.500000000000007 9.0000000000000018 22.000000000000004 31.000000000000004
decision_type=2 2 2 2 2
left_child=2 3 -1 -2 -5
right_child=1 -3 -4 4 -6
leaf_value=2.5558135201854091e-07 1.5354908950557221e-07 -2.811659978311739e-08 -8.5500897275565324e-08 3.9491540373270239e-07 3.5367346157325562e-07
leaf_weight=155 321 405 4177 398 326
leaf_count=155 321 405 4177 398 326
internal_value=0 2.14052e-07 -7.32969e-08 3.07907e-07 3.76345e-07
internal_weight=0 1450 4332 1045 724
internal_count=5782 1450 4332 1045 724
is_linear=0
shrinkage=0.2


Tree=56
num_leaves=6
num_cat=0
split_feature=0 0 0 0 0
split_gain=1.39783e-09 5.4149e-10 2.76608e-10 1.77198e-10 4.78254e-12
threshold=14.000000000000002 40.500000000000007 9.0000000000000018 22.000000000000004 31.000000000000004
decision_type=2 2 2 2 2
left_child=2 3 -1 -2 -5
right_child=1 -3 -4 4 -6
leaf_value=2.065493214514948e-07 1.2346425143032803e-07 -2.5260745099297277e-08 -6.5538264331219442e-08 3.1669928350640301e-07 2.8402710253475636e-07
leaf_weight=155 321 405 4177 398 326
leaf_count=155 321 405 4177 398 326
internal_value=0 1.71062e-07 -5.58029e-08 2.47149e-07 3.01988e-07
internal_weight=0 1450 4332 1045 724
internal_count=5782 1450 4332 1045 724
is_linear=0
shrinkage=0.2


Tree=57
num_leaves=6
num_cat=0
split_feature=0 0 0 0 0
split_gain=9.08328e-10 3.494e-10 1.83562e-10 1.11385e-10 3.10128e-12
threshold=14.000000000000002 40.500000000000007 9.0000000000000018 22.000000000000004 31.000000000000004
decision_type=2 2 2 2 2
left_child=2 3 -1 -2 -5
right_child=1 -3 -4 4 -6
leaf_value=1.665589309507801e-07 9.8774846457525197e-08 -2.1984156819037453e-08 -5.5090773753466893e-08 2.5216190509460683e-07 2.2585200934322334e-07
leaf_weight=155 321 405 4177 398 326
leaf_count=155 321 405 4177 398 326
internal_value=0 1.35718e-07 -4.71601e-08 1.96837e-07 2.40315e-07
internal_weight=0 1450 4332 1045 724
internal_count=5782 1450 4332 1045 724
is_linear=0
shrinkage=0.2


Tree=58
num_leaves=6
num_cat=0
split_feature=0 0 0 0 0
split_gain=5.86097e-10 2.11898e-10 1.08215e-10 7.05679e-11 1.65153e-12
threshold=14.000000000000002 40.500000000000007 9.0000000000000018 22.000000000000004 31.000000000000004
decision_type=2 2 2 2 2
left_child=2 3 -1 -2 -5
right_child=1 -3 -4 4 -6
leaf_value=1.2907289689587009e-07 8.1422653142072716e-08 -1.0932605989553311e-08 -4.1111258476408929e-08 2.0272786443556972e-07 1.8352825491706287e-07
leaf_weight=155 321 405 4177 398 326
leaf_count=155 321 405 4177 398 326
internal_value=0 1.11879e-07 -3.5022e-08 1.59476e-07 1.94083e-07
internal_weight=0 1450 4332 1045 724
internal_count=5782 1450 4332 1045 724
is_linear=0
shrinkage=0.2


Tree=59
num_leaves=6
num_cat=0
split_feature=0 0 0 0 0
split_gain=3.73485e-10 1.34057e-10 7.26178e-11 4.22045e-11 1.50364e-12
threshold=14.000000000000002 40.500000000000007 9.0000000000000018 22.000000000000004 31.000000000000004
decision_type=2 2 2 2 2
left_child=2 3 -1 -2 -5
right_child=1 -3 -4 4 -6
leaf_value=1.0541129496789748e-07 6.5751228702031188e-08 -9.4281176082146028e-09 -3.3999940610999323e-08 1.6112582542788445e-07 1.4280603250111538e-07
leaf_weight=155 321 405 4177 398 326
leaf_count=155 321 405 4177 398 326
internal_value=0 8.82556e-08 -2.90118e-08 1.26114e-07 1.52877e-07
internal_weight=0 1450 4332 1045 724
internal_count=5782 1450 4332 1045 724
is_linear=0
shrinkage=0.2


Tree=60
num_leaves=6
num_cat=0
split_feature=0 0 0 0 0
split_gain=2.2692e-10 8.75852e-11 4.29588e-11 2.86976e-11 7.70948e-13
threshold=14.000000000000002 40.500000000000007 9.0000000000000018 22.000000000000004 31.000000000000004
decision_type=2 2 2 2 2
left_child=2 3 -1 -2 -5
right_child=1 -3 -4 4 -6
leaf_value=8.1821795432798327e-08 5.0664020591992832e-08 -9.1188840200135752e-09 -2.5404749631253849e-08 1.2841440699807363e-07 1.1529659201031083e-07
leaf_weight=155 321 405 4177 398 326
leaf_count=155 321 405 4177 398 326
internal_value=0 6.98384e-08 -2.15682e-08 1.00439e-07 1.22508e-07
internal_weight=0 1450 4332 1045 724
internal_count=5782 1450 4332 1045 724
is_linear=0
shrinkage=0.2


Tree=61
num_leaves=6
num_cat=0
split_feature=0 0 0 0 0
split_gain=1.4532e-10 5.6186e-11 3.07702e-11 1.7213e-11 2.63952e-13
threshold=14.000000000000002 40.500000000000007 9.0000000000000018 22.000000000000004 31.000000000000004
decision_type=2 2 2 2 2
left_child=2 3 -1 -2 -5
right_child=1 -3 -4 4 -6
leaf_value=7.0987209197013619e-08 4.2593501206499023e-08 -6.6061814626057946e-09 -1.9761652774664673e-08 1.0169059712084095e-07 9.4015014135033076e-08
leaf_weight=155 321 405 4177 398 326
leaf_count=155 321 405 4177 398 326
internal_value=0 5.66336e-08 -1.65146e-08 8.11428e-08 9.82345e-08
internal_weight=0 1450 4332 1045 724
internal_count=5782 1450 4332 1045 724
is_linear=0
shrinkage=0.2


Tree=62
num_leaves=6
num_cat=0
split_feature=0 0 0 0 0
split_gain=9.62157e-11 3.61419e-11 1.87979e-11 1.39454e-11 1.3579e-13
threshold=14.000000000000002 40.500000000000007 9.0000000000000018 22.000000000000004 31.000000000000004
decision_type=2 2 2 2 2
left_child=2 3 -1 -2 -5
right_child=1 -3 -4 4 -6
leaf_value=5.3278861507292726e-08 2.9365964396348995e-08 -6.3135909537474324e-09 -1.7651249510779003e-08 8.1926902484654178e-08 7.6421587927941169e-08
leaf_weight=155 321 405 4177 398 326
leaf_count=155 321 405 4177 398 326
internal_value=0 4.44068e-08 -1.51134e-08 6.40639e-08 7.9448e-08
internal_weight=0 1450 4332 1045 724
internal_count=5782 1450 4332 1045 724
is_linear=0
shrinkage=0.2


Tree=63
num_leaves=6
num_cat=0
split_feature=0 0 0 0 0
split_gain=6.59932e-11 2.3618e-11 1.14459e-11 7.93354e-12 1.17856e-13
threshold=14.000000000000002 40.500000000000007 9.0000000000000018 22.000000000000004 31.000000000000004
decision_type=2 2 2 2 2
left_child=2 3 -1 -2 -5
right_child=1 -3 -4 4 -6
leaf_value=4.013940211265318e-08 2.578483325809333e-08 -4.9359521564142206e-09 -1.5208495413826104e-08 6.5868842092590722e-08 6.0739944134753183e-08
leaf_weight=155 321 405 4177 398 326
leaf_count=155 321 405 4177 398 326
internal_value=0 3.60654e-08 -1.32281e-08 5.19559e-08 6.35594e-08
internal_weight=0 1450 4332 1045 724
internal_count=5782 1450 4332 1045 724
is_linear=0
shrinkage=0.2


Tree=64
num_leaves=6
num_cat=0
split_feature=0 0 0 0 0
split_gain=4.48444e-11 1.59466e-11 8.03662e-12 3.79399e-12 1.51026e-13
threshold=14.000000000000002 40.500000000000007 9.0000000000000018 22.000000000000004 31.000000000000004
decision_type=2 2 2 2 2
left_child=2 3 -1 -2 -5
right_child=1 -3 -4 4 -6
leaf_value=3.303250958842616e-08 2.3907282595693884e-08 -4.7424440214663382e-09 -1.334558270723591e-08 5.2644061533050924e-08 4.6838097777103356e-08
leaf_weight=155 321 405 4177 398 326
leaf_count=155 321 405 4177 398 326
internal_value=0 2.89483e-08 -1.16862e-08 4.20055e-08 5.00298e-08
internal_weight=0 1450 4332 1045 724
internal_count=5782 1450 4332 1045 724
is_linear=0
shrinkage=0.2


Tree=65
num_leaves=6
num_cat=0
split_feature=0 0 0 0 0
split_gain=2.41274e-11 9.74993e-12 5.71469e-12 2.27531e-12 1.03038e-13
threshold=14.000000000000002 40.500000000000007 9.0000000000000018 22.000000000000004 31.000000000000004
decision_type=2 2 2 2 2
left_child=2 3 -1 -2 -5
right_child=1 -3 -4 4 -6
leaf_value=2.9783095082929062e-08 1.8073533113314728e-08 -4.4644844752770886e-09 -9.3255333846797486e-09 4.0462455857339219e-08 3.5666797790059284e-08
leaf_weight=155 321 405 4177 398 326
leaf_count=155 321 405 4177 398 326
internal_value=0 2.18793e-08 -7.92622e-09 3.2089e-08 3.83031e-08
internal_weight=0 1450 4332 1045 724
internal_count=5782 1450 4332 1045 724
is_linear=0
shrinkage=0.2


Tree=66
num_leaves=6
num_cat=0
split_feature=0 0 0 0 0
split_gain=1.63835e-11 5.77365e-12 3.69777e-12 2.68675e-12 4.1022e-14
threshold=14.000000000000002 40.500000000000007 9.0000000000000018 22.000000000000004 31.000000000000004
decision_type=2 2 2 2 2
left_child=2 3 -1 -2 -5
right_child=1 -3 -4 4 -6
leaf_value=2.3822630605389994e-08 1.067666313683504e-08 -2.2222103987946924e-09 -7.6364437758080662e-09 3.4021822052385343e-08 3.0995900828414167e-08
leaf_weight=155 321 405 4177 398 326
leaf_count=155 321 405 4177 398 326
internal_value=0 1.805e-08 -6.51083e-09 2.59068e-08 3.26593e-08
internal_weight=0 1450 4332 1045 724
internal_count=5782 1450 4332 1045 724
is_linear=0
shrinkage=0.2


Tree=67
num_leaves=6
num_cat=0
split_feature=0 0 0 0 0
split_gain=1.18604e-11 3.87622e-12 2.19637e-12 1.44675e-12 3.04381e-13
threshold=14.000000000000002 40.500000000000007 9.0000000000000018 22.000000000000004 31.000000000000004
decision_type=2 2 2 2 2
left_child=2 3 -1 -2 -5
right_child=1 -3 -4 4 -6
leaf_value=1.6883976997867707e-08 9.6650103635134363e-09 -2.2069758011235132e-09 -7.3613948105110459e-09 2.9507481572616042e-08 2.1265008332539191e-08
leaf_weight=155 321 405 4177 398 326
leaf_count=155 321 405 4177 398 326
internal_value=0 1.44035e-08 -6.49389e-09 2.0841e-08 2.57961e-08
internal_weight=0 1450 4332 1045 724
internal_count=5782 1450 4332 1045 724
is_linear=0
shrinkage=0.2


Tree=68
num_leaves=6
num_cat=0
split_feature=0 0 0 0 0
split_gain=4.2348e-12 3.8021e-12 1.00422e-12 2.69753e-13 7.72991e-14
threshold=22.000000000000004 40.500000000000007 9.0000000000000018 14.000000000000002 31.000000000000004
decision_type=2 2 2 2 2
left_child=2 4 -1 -4 -2
right_child=1 -3 3 -5 -6
leaf_value=1.5651026079731606e-08 2.4028590426373123e-08 -2.0404300296012267e-09 -1.1515668741618442e-09 4.8648548599715549e-09 1.987488083312848e-08
leaf_weight=155 398 405 4177 321 326
leaf_count=155 398 405 4177 321 326
internal_value=0 1.34776e-08 -1.76782e-10 -7.22205e-10 2.21583e-08
internal_weight=0 1129 4653 4498 724
internal_count=5782 1129 4653 4498 724
is_linear=0
shrinkage=0.2


Tree=69
num_leaves=6
num_cat=0
split_feature=0 0 0 0 0
split_gain=2.46877e-12 1.64594e-12 8.00602e-13 4.86545e-13 1.76622e-14
threshold=14.000000000000002 40.500000000000007 22.000000000000004 9.0000000000000018 31.000000000000004
decision_type=2 2 2 2 2
left_child=3 2 -2 -1 -4
right_child=1 -3 4 -5 -6
leaf_value=1.0267380745180192e-08 4.6796058057995978e-09 -2.0254541326452184e-09 1.7573448581312172e-08 -1.1439860823167577e-09 1.5587940172183734e-08
leaf_weight=155 321 405 398 4177 326
leaf_count=155 321 405 398 4177 326
internal_value=0 8.79845e-09 1.29934e-08 -7.35685e-10 1.66794e-08
internal_weight=0 1450 1045 4332 724
internal_count=5782 1450 1045 4332 724
is_linear=0
shrinkage=0.2


Tree=70
num_leaves=6
num_cat=0
split_feature=0 0 0 0 0
split_gain=1.75891e-12 1.19246e-12 4.81827e-13 4.51841e-13 4.01974e-16
threshold=14.000000000000002 40.500000000000007 22.000000000000004 9.0000000000000018 31.000000000000004
decision_type=2 2 2 2 2
left_child=3 2 -2 -1 -4
right_child=1 -3 4 -5 -6
leaf_value=9.8539936927057093e-09 4.4190675902218092e-09 -1.9148164601237687e-09 1.3863134324251109e-08 -1.1428712599865981e-09 1.3563599140366164e-08
leaf_weight=155 321 405 398 4177 326
leaf_count=155 321 405 398 4177 326
internal_value=0 7.29812e-09 1.08687e-08 -7.49401e-10 1.37283e-08
internal_weight=0 1450 1045 4332 724
internal_count=5782 1450 1045 4332 724
is_linear=0
shrinkage=0.2


Tree=71
num_leaves=6
num_cat=0
split_feature=0 0 0 0 0
split_gain=1.4455e-12 9.70335e-13 3.57754e-13 1.8597e-13 1.41865e-15
threshold=14.000000000000002 40.500000000000007 22.000000000000004 9.0000000000000018 31.000000000000004
decision_type=2 2 2 2 2
left_child=3 2 -2 -1 -4
right_child=1 -3 4 -5 -6
leaf_value=6.0686180668492467e-09 4.2248244551111979e-09 -1.7492480024143503e-09 1.1993001154319726e-08 -9.8639479772537163e-10 1.2555713851027695e-08
leaf_weight=155 321 405 398 4177 326
leaf_count=155 321 405 398 4177 326
internal_value=0 6.56145e-09 9.78234e-09 -7.33965e-10 1.22464e-08
internal_weight=0 1450 1045 4332 724
internal_count=5782 1450 1045 4332 724
is_linear=0
shrinkage=0.2


Tree=72
num_leaves=6
num_cat=0
split_feature=0 0 0 0 0
split_gain=6.42046e-13 4.81299e-13 1.61476e-13 9.14579e-14 3.10093e-14
threshold=14.000000000000002 40.500000000000007 9.0000000000000018 22.000000000000004 31.000000000000004
decision_type=2 2 2 2 2
left_child=2 3 -1 -2 -5
right_child=1 -3 -4 4 -6
leaf_value=5.5951456869802168e-09 3.5769242294295185e-09 -1.7346170397452366e-09 -9.7885859877349157e-10 6.4481218256543036e-09 9.0789666936441434e-09
leaf_weight=155 321 405 4177 398 326
leaf_count=155 321 405 4177 398 326
internal_value=0 4.11846e-09 -7.43639e-10 6.38688e-09 7.63273e-09
internal_weight=0 1450 4332 1045 724
internal_count=5782 1450 4332 1045 724
is_linear=0
shrinkage=0.2


Tree=73
num_leaves=6
num_cat=0
split_feature=0 0 0 0 0
split_gain=5.69101e-13 4.31291e-13 1.28264e-13 7.81458e-14 2.81686e-14
threshold=14.000000000000002 40.500000000000007 9.0000000000000018 31.000000000000004 22.000000000000004
decision_type=2 2 2 2 2
left_child=2 3 -1 4 -2
right_child=1 -3 -4 -5 -6
leaf_value=4.8813319975329991e-09 3.3983119365953581e-09 -1.7311964414001982e-09 -9.7774377644333167e-10 8.5253154207592372e-09 5.9164723559240606e-09
leaf_weight=155 321 405 4177 326 398
leaf_count=155 321 405 4177 326 398
internal_value=0 3.80947e-09 -7.68105e-10 5.95681e-09 4.79223e-09
internal_weight=0 1450 4332 1045 719
internal_count=5782 1450 4332 1045 719
is_linear=0
shrinkage=0.2


Tree=74
num_leaves=6
num_cat=0
split_feature=0 0 0 0 0
split_gain=5.62252e-13 2.61894e-13 1.19361e-13 6.10541e-14 1.47478e-14
threshold=14.000000000000002 40.500000000000007 9.0000000000000018 22.000000000000004 31.000000000000004
decision_type=2 2 2 2 2
left_child=2 3 -1 -2 -5
right_child=1 -3 -4 4 -6
leaf_value=4.6818487105831025e-09 3.1594247948900559e-09 -5.3559671397562381e-10 -9.7020757749145162e-10 5.6562636365842587e-09 7.4705783209186391e-09
leaf_weight=155 321 405 4177 398 326
leaf_count=155 321 405 4177 398 326
internal_value=0 3.78197e-09 -7.67976e-10 5.45529e-09 6.47321e-09
internal_weight=0 1450 4332 1045 724
internal_count=5782 1450 4332 1045 724
is_linear=0
shrinkage=0.2


Tree=75
num_leaves=6
num_cat=0
split_feature=0 0 0 0 0
split_gain=4.49463e-13 2.1415e-13 1.04147e-13 4.25216e-14 1.32644e-14
threshold=14.000000000000002 40.500000000000007 9.0000000000000018 22.000000000000004 31.000000000000004
decision_type=2 2 2 2 2
left_child=2 3 -1 -2 -5
right_child=1 -3 -4 4 -6
leaf_value=4.4030527914724049e-09 2.9775847875254921e-09 -5.2378271464948307e-10 -8.7651790886482384e-10 4.9683017347326228e-09 6.688952994492889e-09
leaf_weight=155 321 405 4177 398 326
leaf_count=155 321 405 4177 398 326
internal_value=0 3.38045e-09 -6.87614e-10 4.89358e-09 5.74307e-09
internal_weight=0 1450 4332 1045 724
internal_count=5782 1450 4332 1045 724
is_linear=0
shrinkage=0.2


Tree=76
num_leaves=6
num_cat=0
split_feature=0 0 0 0 0
split_gain=1.42829e-13 1.28988e-13 8.32568e-15 5.36466e-15 3.20876e-16
threshold=14.000000000000002 31.000000000000004 22.000000000000004 9.0000000000000018 40.500000000000007
decision_type=2 2 2 2 2
left_child=3 2 -2 -1 -3
right_child=1 4 -4 -5 -6
leaf_value=3.2926759412211759e-10 2.6113298544631199e-09 -2.5597086713357939e-10 3.9803510035701729e-09 -8.6898170991294379e-10 -5.2254670012144397e-10
leaf_weight=155 321 326 398 4177 405
leaf_count=155 321 326 398 4177 405
internal_value=0 1.46713e-09 3.36915e-09 -8.26108e-10 -4.03663e-10
internal_weight=0 1450 719 4332 731
internal_count=5782 1450 719 4332 731
is_linear=0
shrinkage=0.2


Tree=77
num_leaves=6
num_cat=0
split_feature=0 0 0 0 0
split_gain=1.3428e-13 1.19575e-13 9.06435e-15 5.35468e-15 3.19278e-16
threshold=14.000000000000002 31.000000000000004 22.000000000000004 9.0000000000000018 40.500000000000007
decision_type=2 2 2 2 2
left_child=3 2 -2 -1 -3
right_child=1 4 -4 -5 -6
leaf_value=3.2926759412211759e-10 2.4391004577789725e-09 -2.5539950359087051e-10 3.8675626917700077e-09 -8.6786688758278409e-10 -5.2131068559340498e-10
leaf_weight=155 321 326 398 4177 405
leaf_count=155 321 326 398 4177 405
internal_value=0 1.39852e-09 3.22982e-09 -8.25033e-10 -4.02724e-10
internal_weight=0 1450 719 4332 731
internal_count=5782 1450 719 4332 731
is_linear=0
shrinkage=0.2


Tree=78
num_leaves=6
num_cat=0
split_feature=0 0 0 0 0
split_gain=6.96093e-14 4.41008e-14 5.07598e-15 4.05989e-15 5.02873e-17
threshold=14.000000000000002 31.000000000000004 9.0000000000000018 22.000000000000004 40.500000000000007
decision_type=2 2 2 2 2
left_child=2 3 -1 -2 -3
right_child=1 4 -4 -5 -6
leaf_value=3.0523346316429878e-10 2.42365094777951e-09 -2.5311404942003494e-10 -8.6033068863090394e-10 1.4676520572834879e-09 -3.5864542479868289e-10
leaf_weight=155 321 326 4177 398 405
leaf_count=155 321 326 4177 398 405
internal_value=0 7.82311e-10 -8.18627e-10 1.89446e-09 -3.11582e-10
internal_weight=0 1450 4332 719 731
internal_count=5782 1450 4332 719 731
is_linear=0
shrinkage=0.2


Tree=79
num_leaves=6
num_cat=0
split_feature=0 0 0 0 0
split_gain=1.83892e-14 1.95592e-14 2.89301e-15 3.53643e-16 5.03388e-17
threshold=31.000000000000004 14.000000000000002 22.000000000000004 9.0000000000000018 40.500000000000007
decision_type=2 2 2 2 2
left_child=1 3 -3 -1 -2
right_child=4 2 -4 -5 -6
leaf_value=3.0523346316429878e-10 -2.5254268587732607e-10 2.1749718631168025e-09 1.3679677817090672e-09 6.1288472422863951e-10 -3.5812802336834098e-10
leaf_weight=155 326 321 398 4177 405
leaf_count=155 326 321 398 4177 405
internal_value=0 7.62215e-10 1.72826e-09 6.01877e-10 -3.11041e-10
internal_weight=0 5051 719 4332 731
internal_count=5782 5051 719 4332 731
is_linear=0
shrinkage=0.2


Tree=80
num_leaves=6
num_cat=0
split_feature=0 0 0 0 0
split_gain=5.88815e-14 3.423e-14 5.07598e-15 1.88e-15 5.04143e-17
threshold=14.000000000000002 31.000000000000004 9.0000000000000018 22.000000000000004 40.500000000000007
decision_type=2 2 2 2 2
left_child=2 3 -1 -2 -3
right_child=1 4 -4 -5 -6
leaf_value=3.0523346316429878e-10 1.9937121190386028e-09 -2.5139995879190831e-10 -8.6033068863090394e-10 1.3431637131389063e-09 -3.5706447598374924e-10
leaf_weight=155 321 326 4177 398 405
leaf_count=155 321 326 4177 398 405
internal_value=0 6.53788e-10 -8.18627e-10 1.6336e-09 -3.09942e-10
internal_weight=0 1450 4332 719 731
internal_count=5782 1450 4332 719 731
is_linear=0
shrinkage=0.2


Tree=81
num_leaves=6
num_cat=0
split_feature=0 0 0 0 0
split_gain=1.77864e-14 1.59615e-14 1.93725e-15 3.93379e-16 5.04658e-17
threshold=31.000000000000004 14.000000000000002 22.000000000000004 9.0000000000000018 40.500000000000007
decision_type=2 2 2 2 2
left_child=1 3 -3 -1 -2
right_child=4 2 -4 -5 -6
leaf_value=2.8840957149382562e-10 -2.5082859524919943e-10 1.9843553735459705e-09 1.3239756600940648e-09 6.1288472422863951e-10 -3.5654707455340733e-10
leaf_weight=155 326 321 398 4177 405
leaf_count=155 326 321 398 4177 405
internal_value=0 7.46118e-10 1.6188e-09 6.01275e-10 -3.094e-10
internal_weight=0 5051 719 4332 731
internal_count=5782 5051 719 4332 731
is_linear=0
shrinkage=0.2


Tree=82
num_leaves=6
num_cat=0
split_feature=0 0 0 0 0
split_gain=4.05032e-14 1.85708e-14 4.93012e-15 7.16332e-16 5.17224e-17
threshold=14.000000000000002 31.000000000000004 9.0000000000000018 22.000000000000004 40.500000000000007
decision_type=2 2 2 2 2
left_child=2 3 -1 -2 -3
right_child=1 4 -4 -5 -6
leaf_value=2.8840957149382562e-10 1.3459932256339124e-09 -2.4854314107836391e-10 -8.6028609573769746e-10 9.4442661084122387e-10 -3.5556976074053919e-10
leaf_weight=155 321 326 4177 398 405
leaf_count=155 321 326 4177 398 405
internal_value=0 4.0201e-10 -8.19185e-10 1.12371e-09 -3.0784e-10
internal_weight=0 1450 4332 719 731
internal_count=5782 1450 4332 719 731
is_linear=0
shrinkage=0.2


Tree=83
num_leaves=6
num_cat=0
split_feature=0 0 0 0 0
split_gain=1.53343e-14 3.99507e-15 7.6009e-16 3.93487e-16 5.40083e-17
threshold=31.000000000000004 14.000000000000002 22.000000000000004 9.0000000000000018 40.500000000000007
decision_type=2 2 2 2 2
left_child=1 3 -3 -1 -2
right_child=4 2 -4 -5 -6
leaf_value=2.8840957149382562e-10 -2.4568632336481946e-10 1.3393564642961153e-09 9.25706559090159e-10 6.1292931712184599e-10 -3.5505235931019723e-10
leaf_weight=155 326 321 398 4177 405
leaf_count=155 326 321 398 4177 405
internal_value=0 6.73782e-10 1.11038e-09 6.01318e-10 -3.06279e-10
internal_weight=0 5051 719 4332 731
internal_count=5782 5051 719 4332 731
is_linear=0
shrinkage=0.2


Tree=84
num_leaves=6
num_cat=0
split_feature=0 0 0 0 0
split_gain=3.85578e-14 1.63521e-14 3.62704e-15 1.19171e-15 4.37046e-17
threshold=14.000000000000002 31.000000000000004 9.0000000000000018 22.000000000000004 40.500000000000007
decision_type=2 2 2 2 2
left_child=2 3 -1 -2 -3
right_child=1 4 -4 -5 -6
leaf_value=1.2497748098065778e-10 1.3303986498128589e-09 -2.4511495982211058e-10 -8.6028609573769746e-10 8.1245024599621639e-10 -3.4349706069922744e-10
leaf_weight=155 321 326 4177 398 405
leaf_count=155 321 326 4177 398 405
internal_value=0 3.66475e-10 -8.25033e-10 1.04369e-09 -2.99622e-10
internal_weight=0 1450 4332 719 731
internal_count=5782 1450 4332 719 731
is_linear=0
shrinkage=0.2


Tree=85
num_leaves=6
num_cat=0
split_feature=0 0 0 0 0
split_gain=1.42713e-14 2.05325e-15 8.89614e-16 6.19236e-16 4.48746e-17
threshold=31.000000000000004 14.000000000000002 9.0000000000000018 22.000000000000004 40.500000000000007
decision_type=2 2 2 2 2
left_child=1 2 -1 -3 -2
right_child=4 3 -4 -5 -6
leaf_value=1.2497748098065778e-10 -2.4282950565127507e-10 1.1670908011565699e-09 6.1292931712184599e-10 7.9373019424515152e-10 -3.425197468863593e-10
leaf_weight=155 326 321 4177 398 405
leaf_count=155 326 321 4177 398 405
internal_value=0 6.4742e-10 5.9547e-10 9.60418e-10 -2.98061e-10
internal_weight=0 5051 4332 719 731
internal_count=5782 5051 4332 719 731
is_linear=0
shrinkage=0.2


Tree=86
num_leaves=6
num_cat=0
split_feature=0 0 0 0 0
split_gain=1.40849e-14 1.63385e-15 8.89452e-16 8.32177e-16 4.49232e-17
threshold=31.000000000000004 14.000000000000002 9.0000000000000018 22.000000000000004 40.500000000000007
decision_type=2 2 2 2 2
left_child=1 2 -1 -3 -2
right_child=4 3 -4 -5 -6
leaf_value=1.2497748098065778e-10 -2.4225814210856619e-10 1.1605628391849661e-09 6.1288472422863951e-10 7.2774201182264778e-10 -3.4200234545601739e-10
leaf_weight=155 326 321 4177 398 405
leaf_count=155 326 321 4177 398 405
internal_value=0 6.41769e-10 5.95427e-10 9.20976e-10 -2.9752e-10
internal_weight=0 5051 4332 719 731
internal_count=5782 5051 4332 719 731
is_linear=0
shrinkage=0.2


Tree=87
num_leaves=6
num_cat=0
split_feature=0 0 0 0 0
split_gain=3.44089e-14 1.31455e-14 3.62737e-15 8.6322e-16 4.54882e-17
threshold=14.000000000000002 31.000000000000004 9.0000000000000018 22.000000000000004 40.500000000000007
decision_type=2 2 2 2 2
left_child=2 3 -1 -2 -3
right_child=1 4 -4 -5 -6
leaf_value=1.2497748098065778e-10 1.1517138240679032e-09 -2.4111541502314843e-10 -8.6033068863090394e-10 7.1089396524668945e-10 -3.4148494402567548e-10
leaf_weight=155 321 326 4177 398 405
leaf_count=155 321 326 4177 398 405
internal_value=0 3.00504e-10 -8.25076e-10 9.07699e-10 -2.96724e-10
internal_weight=0 1450 4332 719 731
internal_count=5782 1450 4332 719 731
is_linear=0
shrinkage=0.2


Tree=88
num_leaves=6
num_cat=0
split_feature=0 0 0 0 0
split_gain=1.3541e-14 9.99689e-16 5.57151e-16 2.25346e-16 4.5121e-17
threshold=31.000000000000004 9.0000000000000018 14.000000000000002 22.000000000000004 40.500000000000007
decision_type=2 2 2 2 2
left_child=1 -1 -3 -4 -2
right_child=4 2 3 -5 -6
leaf_value=1.2497748098065778e-10 -2.4054405148043955e-10 6.1288472422863951e-10 9.2816739299587009e-10 7.0293794325248687e-10 -3.405076302128074e-10
leaf_weight=155 326 4177 321 398 405
leaf_count=155 326 4177 321 398 405
internal_value=0 6.25045e-10 6.40876e-10 8.03492e-10 -2.95927e-10
internal_weight=0 5051 4896 719 731
internal_count=5782 5051 4896 719 731
is_linear=0
shrinkage=0.2


Tree=89
num_leaves=6
num_cat=0
split_feature=0 0 0 0 0
split_gain=3.28291e-14 9.81562e-15 3.62704e-15 2.18249e-16 1.71122e-19
threshold=14.000000000000002 31.000000000000004 9.0000000000000018 22.000000000000004 40.500000000000007
decision_type=2 2 2 2 2
left_child=2 3 -1 -2 -3
right_child=1 4 -4 -5 -6
leaf_value=1.2497748098065778e-10 9.2178449684585732e-10 -2.3825859730960403e-10 -8.6028609573769746e-10 7.0012993548982706e-10 -2.4441468678874734e-10
leaf_weight=155 321 326 4177 398 405
leaf_count=155 321 326 4177 398 405
internal_value=0 2.74403e-10 -8.25033e-10 7.99088e-10 -2.41669e-10
internal_weight=0 1450 4332 719 731
internal_count=5782 1450 4332 719 731
is_linear=0
shrinkage=0.2


Tree=90
num_leaves=6
num_cat=0
split_feature=0 0 0 0 0
split_gain=1.19177e-14 9.90862e-16 4.68358e-16 2.49526e-16 1.79005e-19
threshold=31.000000000000004 9.0000000000000018 14.000000000000002 22.000000000000004 40.500000000000007
decision_type=2 2 2 2 2
left_child=1 -1 -3 -4 -2
right_child=4 2 3 -5 -6
leaf_value=1.2497748098065778e-10 -2.3768723376689515e-10 6.1292931712184599e-10 9.1888318041403351e-10 6.8187788503253882e-10 -2.4398351893012908e-10
leaf_weight=155 326 4177 321 398 405
leaf_count=155 326 4177 321 398 405
internal_value=0 6.22832e-10 6.38594e-10 7.8769e-10 -2.41176e-10
internal_weight=0 5051 4896 719 731
internal_count=5782 5051 4896 719 731
is_linear=0
shrinkage=0.2


Tree=91
num_leaves=6
num_cat=0
split_feature=0 0 0 0 0
split_gain=8.48386e-14 2.1602e-13 9.71688e-15 9.71609e-16 6.69151e-16
threshold=31.000000000000004 40.500000000000007 22.000000000000004 9.0000000000000018 14.000000000000002
decision_type=2 2 2 2 2
left_child=2 -2 3 -1 -5
right_child=1 -3 -4 4 -6
leaf_value=1.2497748098065778e-10 6.6735261788397482e-09 -2.4317867226070829e-10 -4.1230913981720435e-10 6.1288472422863951e-10 9.125365507194187e-10
leaf_weight=155 326 405 398 4177 321
leaf_count=155 326 405 398 4177 321
internal_value=0 2.84143e-09 5.36174e-10 6.17304e-10 6.34269e-10
internal_weight=0 731 5051 4653 4498
internal_count=5782 731 5051 4653 4498
is_linear=0
shrinkage=0.2


end of trees

feature_importances:
Column_0=460

parameters:
[boosting: gbdt]
[objective: regression]
[metric: custom]
[tree_learner: serial]
[device_type: cpu]
[data: ]
[valid: ]
[num_iterations: 10000]
[learning_rate: 0.2]
[num_leaves: 63]
[num_threads: 0]
[deterministic: 0]
[force_col_wise: 0]
[force_row_wise: 0]
[histogram_pool_size: -1]
[max_depth: -1]
[min_data_in_leaf: 5]
[min_sum_hessian_in_leaf: 0.001]
[bagging_fraction: 0.8]
[pos_bagging_fraction: 1]
[neg_bagging_fraction: 1]
[bagging_freq: 0]
[bagging_seed: 20664]
[feature_fraction: 0.8]
[feature_fraction_bynode: 1]
[feature_fraction_seed: 4656]
[extra_trees: 0]
[extra_seed: 6363]
[early_stopping_round: 0]
[first_metric_only: 0]
[max_delta_step: 0]
[lambda_l1: 0]
[lambda_l2: 0]
[linear_lambda: 0]
[min_gain_to_split: 0]
[drop_rate: 0.1]
[max_drop: 50]
[skip_drop: 0.5]
[xgboost_dart_mode: 0]
[uniform_drop: 0]
[drop_seed: 24603]
[top_rate: 0.2]
[other_rate: 0.1]
[min_data_per_group: 100]
[max_cat_threshold: 32]
[cat_l2: 10]
[cat_smooth: 10]
[max_cat_to_onehot: 4]
[top_k: 20]
[monotone_constraints: ]
[monotone_constraints_method: basic]
[monotone_penalty: 0]
[feature_contri: ]
[forcedsplits_filename: ]
[refit_decay_rate: 0.9]
[cegb_tradeoff: 1]
[cegb_penalty_split: 0]
[cegb_penalty_feature_lazy: ]
[cegb_penalty_feature_coupled: ]
[path_smooth: 0]
[interaction_constraints: ]
[verbosity: -1]
[saved_feature_importance_type: 0]
[linear_tree: 0]
[max_bin: 255]
[max_bin_by_feature: ]
[min_data_in_bin: 3]
[bin_construct_sample_cnt: 200000]
[data_random_seed: 4094]
[is_enable_sparse: 1]
[enable_bundle: 1]
[use_missing: 1]
[zero_as_missing: 0]
[feature_pre_filter: 1]
[pre_partition: 0]
[two_round: 0]
[header: 0]
[label_column: ]
[weight_column: ]
[group_column: ]
[ignore_column: ]
[categorical_feature: ]
[forcedbins_filename: ]
[precise_float_parser: 0]
[objective_seed: 7268]
[num_class: 1]
[is_unbalance: 0]
[scale_pos_weight: 1]
[sigmoid: 1]
[boost_from_average: 1]
[reg_sqrt: 0]
[alpha: 0.9]
[fair_c: 1]
[poisson_max_delta_step: 0.7]
[tweedie_variance_power: 1.5]
[lambdarank_truncation_level: 30]
[lambdarank_norm: 1]
[label_gain: ]
[eval_at: ]
[multi_error_top_k: 1]
[auc_mu_weights: ]
[num_machines: 1]
[local_listen_port: 12400]
[time_out: 120]
[machine_list_filename: ]
[machines: ]
[gpu_platform_id: -1]
[gpu_device_id: -1]
[gpu_use_dp: 0]
[num_gpu: 1]

end of parameters

pandas_categorical:null
